{"value_net":{"layers":[{"function_descriptor":"TwoPlayerScore","weights":{"rows":100,"columns":43,"values":[-0.7828996852988683,0.01973721334962651,0.08186344062314344,-0.09457795402451827,-0.1320477788551598,0.1850622651531527,0.4945775535798821,-0.05681415601734205,-0.2766654812689111,0.10763477313554232,0.1063986310435145,0.15588324175114507,0.11405671333246992,-0.02794633351539898,-0.663268271505076,-0.12957765962137027,-0.38418032284096665,0.5758374012835328,-0.6365262105779592,-0.24109476765701937,0.042605909040074136,0.3680311274626794,-0.028349511507571,0.26322919171064496,-0.4281952555548683,-0.48343526442859935,-0.10031725678557331,-0.30662981271294804,0.7263758659698953,-0.08272805511927056,-0.4179907628763988,-0.0017978857354266247,-0.15226765761267946,0.25741068347487334,-0.021776198154355563,-0.2167012399577063,0.04566382849942343,-0.40767579167760165,0.35579292255647843,-0.6023265121220623,-0.45926190090392094,0.21480548383033216,-0.15711213591236234,0.4049071230003218,0.7682570261499408,0.4996607546930963,0.11465309313408921,0.39860046924775694,0.08674229543729395,0.09610237076915495,0.39590649953109636,-0.3129862496218741,-0.08054101711356232,-0.1359687771127043,-0.2031267009777246,-0.15894997127693863,-0.1638767831909155,-0.1326616837697927,-0.5265305357447259,-0.1394962457623332,0.6886715428882187,-0.0960405183629345,-0.40017062233938566,-0.30497463362251453,0.0019892180550126924,0.3081017466419993,-0.1190975986592676,-0.34406977136013966,0.22766178294620062,-0.03891374750004189,-0.5632600583673375,0.6055599499211364,0.3780171046420788,-0.6532952495279184,-0.16829705802968423,0.3576478494444083,0.19709904626923683,-0.22665504397039152,-0.17721610216808031,-0.2103306029080415,-0.25923181575537235,-0.7786596438355899,-0.011213994637113027,-0.026541512509161914,-0.05471125543120256,-0.1983512736148328,0.4931564612005682,0.35638819340084144,0.07658120149457584,-0.2892648585191867,-0.333783806703213,-0.3299638204562978,0.1883103162556271,-0.46816340016774877,-0.09162397302876328,-0.17599258300266038,-0.48664491996124565,-0.3446581631930123,0.23000736688043982,0.01053963786536428,-0.3491105742589992,0.2696496542404895,-0.022537255002541095,0.3401482612934671,-0.26162142443997116,0.3971910943384958,0.16889077729603386,-0.48603859183581877,0.6588984090854476,0.18189178194629013,0.0951096176496478,-0.34386208273711105,1.1472799955883546,0.06585313856521094,0.6870631249521718,0.2027162442828856,0.17648252949889146,-0.23570148917771358,-0.27853962603709576,-0.04677288038714974,0.4139057344785657,-0.772485167593929,0.27348470023989196,0.1185821425825788,-0.0713799080641758,0.10417652443000061,-0.175217691108774,-0.3243422257183142,0.11373087246573943,0.5121442579805252,-0.52312541616865,-0.4851926129226055,0.03928533024069451,0.05230883812937745,0.2685483952222223,-0.8061131819711504,-0.3983232900770421,-0.14247675745345065,-0.020009061072623364,-0.3232307927917809,-0.12283226862522964,0.08799098522997871,-0.49275644250509154,-0.010692824191948017,-0.4168508300573614,-0.4915381324293867,-0.06323555477255507,0.5019604120095901,0.5130537426489156,-0.08805787360690959,-0.8981372368229152,-0.6844475260745169,0.4879139591299702,-0.34760499761492963,0.024713907143552094,0.6780620482036093,0.057599223134264625,0.4063515183306704,-0.35530477127560656,-0.28410802648700756,0.043358535963733236,-0.21171382412001774,0.9414714890273574,0.2582019816795413,0.17014342426846044,-0.6519276700158602,0.7381792640285322,0.5800354686290597,0.16208266968965157,-0.12485444903378373,0.6752291038830747,0.3152095172350783,0.06007566562145847,0.21557591329046272,-0.4095122349219399,0.09464107706624088,0.046795084807001425,-0.3117167333891101,-0.418699556554404,0.010922432778075036,-0.0019661492129927176,0.1603449485409291,0.05395993960869296,-0.1926609580258839,-0.6176313909885659,-0.15123922706614806,0.08170886144483723,0.10705133641575856,-0.10901275352571672,0.23756696342878778,0.5646709000995722,-0.34810809848911306,-0.29776410138596626,0.01775729735061002,-0.42779434084049506,0.3017523889279677,-0.0010393816641001117,0.12463575897441252,-0.12383605653825248,-0.19142484038477323,-0.24184158036868703,-0.3220386756410972,0.7435689675526248,0.5792676300346294,0.09312785183001715,-0.05045308397036618,-0.046893313610075184,-0.00040867205020728625,0.05206105768729161,-0.7708683254570129,-0.43840639927872255,-0.12140572586942817,0.046299399072496264,-0.19927459991266222,0.7074743675336798,-1.159703632806834,-0.013029371524281588,0.15448486144521,0.3720945152341486,-0.3545024659745566,0.02277348704733031,-0.27967383452178673,-0.3437050527256871,-0.34462423096954986,-0.24912473507905644,-0.1626237721797127,-0.22870547190836854,0.5982637284140203,0.21789998320139656,-0.07218988806086987,0.2599472966977737,0.23332874025377642,0.5026747527007975,0.03698797281500545,0.12837070261159403,-0.004907094553079322,0.2033860745319537,-0.46116081799292513,-0.05468591227451136,0.32232796556918186,0.5239706200341676,-0.056038016731675584,0.06964673665738501,-0.21157678845461525,-0.0011082486720375975,0.4528357628888569,-0.21534319678977115,0.3024096754842284,-0.0956489879876871,-0.6625402273174898,-0.030248127639954735,-0.13181594883594186,0.02390521135570045,-0.3829793300074824,-0.2830903031710371,-0.8420151903447047,-0.3210181335791703,0.279212843214734,-0.3611512071798073,-0.04358854602116206,0.5253069727155729,0.9595047001558945,0.6061055080072973,0.22518730599310177,0.076473830840898,0.4972581427771529,-0.2911899235197184,-0.19922032208561744,0.24539821011095658,0.00882134146268035,-0.17849267192606494,0.27745190766212613,0.15283747499135067,0.331378171875741,-0.1820426051892268,-0.27006880525855276,0.5932142933006491,-0.184366233370007,0.6109101530474003,0.16604338900549315,0.2923238768105956,0.028809380367734873,0.022949413714797355,-0.7882542440188314,0.20266221987818622,0.4906341509517457,0.19531070802988304,0.08476788030107608,-0.005682222162315784,-0.4933296785380646,-0.8994487245102951,-0.4245669754429927,0.5761800126975571,-0.4432821818605585,-0.06866360688416662,-0.07793557129997282,-0.16171441557394986,-0.8959011967660586,-0.5082038708516097,0.2018046653607068,-0.09160070780760696,-0.7530787761331851,-0.45019596892500474,0.5903307977476909,0.07060453694736644,0.09845562608551983,0.15459570991191962,0.04341754969604301,-0.12497376382810664,-0.3598359834817765,0.17472571404230583,0.5379124680660562,-0.19068042568593482,0.1384958078571167,0.019901073033948148,0.29841956394433977,0.37668606966926377,0.5647252158597816,-0.6164752883320546,0.5708653538062922,0.6208053430786183,-0.10262064659164746,-0.7104733425650297,0.0014427238265822308,0.08813294427539857,-0.03948789787186376,0.21509295821183397,-0.4994786626826796,-0.22046707857710104,0.5700331648978232,0.035159515936637756,0.05346313383898249,0.05385303721223438,-0.0661883025243646,0.6667757441158721,-0.2337762239443385,-0.3214547244477402,0.2753894395239333,-0.5802649310175579,-0.020060738199532132,-0.43917278584915864,0.2375524797031659,-0.5726812191544638,-0.04330019165864102,-0.18355792265792326,0.18112419101041372,0.2123247962501598,0.08894242774133373,-0.22433859571565576,0.11940270614672237,-0.7500260834204056,-0.09544450377313286,0.17866666674982024,0.17457140734230495,-0.11362339882906335,0.07810359489423484,0.07756652727952469,-0.41000464356209887,-0.2595617237921673,0.09366712673791897,0.1975601982804588,-0.46988356686471544,0.1279299293004526,0.24488211074128488,0.22404289617482637,-0.41078587961638163,0.005233200428338524,0.0031642315101045987,-0.166033147240281,-0.014719276742610725,-0.17780678092582025,0.4649858002345415,0.0799617366513765,-0.5176937799082459,-0.03592104906283559,-0.28102904209437934,0.12613469195217622,0.28961985075192137,0.0853706436591413,0.11843679245203953,-0.7252939174294438,0.3327422143628414,0.3293307783253168,0.8009775806532301,-0.3375733006218564,-0.04494432426091651,0.1477879062717692,0.4154992638302845,0.03772647009543099,-0.08709019637634961,0.08456175556524041,-0.7210868512614287,-0.36192914171262286,-0.27748827789942715,-0.5277360758385716,-0.35431257147000655,-0.5959289081539251,-0.02557109997647633,-0.4739896282334771,-0.12257278401746362,-0.6537102045903048,0.1083381966808271,-0.13689667479318568,0.342081291163241,-0.2806160349346563,-0.43356150019616463,-0.004340156980369489,0.1049197715566351,-0.10186187960351674,-0.4110829697376763,0.09816731769021222,0.3273000079098311,0.5904525719016941,-0.24943700375340486,0.19671494489680794,0.1995917763924398,0.025889671426780222,0.5030748265315295,0.07104768967577843,0.9193344059299554,0.12285023534557389,0.07358105571487612,-0.05543436457124562,-0.2583842949458029,-0.09651592882908247,0.3167485664365526,0.7045720361924763,-0.20441828648152255,0.8482461961168043,0.12078891974507654,0.0887097520796562,-0.18954011720450215,-0.2648492036208884,-0.07237514049246853,-0.48226918424485793,0.42603758802783803,0.08039633124446989,-0.15071389355808265,0.41433964774836757,0.08297904692804492,-0.004790971431979427,0.16511964797004208,0.13561826223821147,-0.16179454208484687,0.2670694225383941,-0.09427523304330687,-0.12540787005450682,0.42360804380866746,0.4303572784182148,0.31772661095114596,-0.43925496692289173,0.05753621369129517,-0.2821185089340175,0.3127827578760369,0.5426198260783739,0.7961440702216421,0.18273441963050052,-0.26946481462920857,-0.26239717362897574,-0.137800206887566,-0.10490465269996231,-0.45783499425813007,-0.03109283011983149,-0.20407482732593532,-0.2749703457172016,-0.030392381948638116,0.002696874164891714,0.7580412203635142,0.10463529928779794,0.38259706347792166,0.5404846841633143,0.6333044369623205,-0.3458374331071409,0.4829650105946026,-0.2193304089218933,0.43715760325813713,0.03941861823109651,0.3287668495715414,0.02713628675571342,-0.1541997573633075,0.015804173269310922,0.3569561376561636,0.3005863385268142,0.03038606852968637,-0.21824323219292127,-0.2763411400612676,0.11260233993276493,-0.0286773127857329,-0.2599284416855656,0.2467967458377597,0.4166046087730127,-0.04221379357943542,-0.3060659244978089,-0.1256804701360794,0.06984343919609104,0.09588281346999376,-0.653564952426773,-0.3204563477217015,0.5062671372532773,0.3525543523611482,0.5871286015973055,-0.05262767656914763,0.002998266932299413,-0.15173282154768586,-0.3689381660408109,0.0007078693386331085,-0.21597561876503987,-0.5202560225461521,0.2113223120211758,-0.3539339121268878,0.7793517437339728,0.8982629401318329,-0.43203666518772005,-0.6525916116924048,-0.07839201148006376,-0.15143825476857606,0.9231652860780868,-0.08170226545740335,0.2061913421498458,0.3489127577643018,-0.03649322158357101,-0.0377689810819144,0.22753480288710018,0.20185340814131927,-0.17517986928369825,0.06779036739762365,0.34073253847070256,-0.0021251753277748632,-0.23965756645251324,0.07117427479750389,0.6032208603644701,0.15454952668184743,0.3141898380948454,0.2687185729892462,0.4874170418223543,0.5472215264909112,-0.2628759561544739,-0.19283467781705352,0.06754941089494966,0.5665744840115282,0.4226440599197707,0.14173848690764843,0.32906944331745447,-0.2062814401612948,0.001706629758388611,-0.23923090890963497,0.3262277211277382,0.2199121969967085,0.05188492992388019,-0.006566359444443919,0.48216121875466345,0.23734944259737892,-0.2818223952570947,-0.5326150435343209,-1.074301761723769,0.1909303129497989,0.039414356606051935,-0.085867415562612,0.20295563222323054,0.1195537549276875,-0.24627402695083464,-0.6606165233468348,0.19500906657476277,0.28316461982376373,-0.9968598153192545,-0.5584996913805096,-0.37968000191597717,0.4261732364723524,-0.19821711133362033,-0.10016189643329246,0.1575272199210784,-0.45490097988163436,0.14579791700906097,-0.246144541066356,0.3236027050499075,-0.3226899093936393,-0.14073197364052717,0.16412254960210138,-0.4977521196647867,0.12921120364325808,-0.10964673238213123,0.031517549987778046,-0.5287100689342031,-0.11700733812386874,0.5072226794529683,0.15989149938580288,0.31716353442458256,0.14120723577854263,0.1967155230400109,-0.34449506920549544,0.646697425383492,0.4662745136093015,0.3371860457838948,0.28496936756803926,-0.05479702065387569,-0.7403472163871834,-0.36234142851667195,-0.4410471279453442,0.21586192156993106,-0.311085759312561,0.4032071254572936,0.6347789928301752,-0.32789655112814103,0.1850177019608551,-0.1972109400999418,-0.5222970473025526,-0.14057137081984183,-0.43724555408815274,0.04409978983041675,-0.41420908937703776,-0.2338600032498665,-0.09547076628196412,-0.3897170865380675,-0.1431581855545297,-0.5841342979244436,0.38554157778938003,-0.18414066156186604,0.11367260927437885,-0.0905707579899118,-0.4358344390686446,-0.30036601217580133,-0.1908939882360548,0.031983853079010305,0.11129085573606923,-0.5739425279453381,0.5041475719569031,-0.30828340423976863,0.39076335871122675,0.06342645022617198,-0.8081647296319975,0.34214622045901755,0.5085466339711329,-0.4130370581907622,-0.17536105711284478,0.10667379358460638,0.03480760367040439,-0.2576654966542899,-0.4425462674546024,0.16946799505431162,-0.41516852196972487,0.4995872697756254,-0.8844117055353985,0.23764255723923614,-0.658837397713859,0.07633263811583542,-0.6574573027806864,0.04602453937555342,0.24923846962568058,-0.2783097749852457,0.20074458835581746,-0.5084306441191783,0.008112344342128784,0.058017603841696214,0.04044888981132605,0.1401174039961609,0.1318571503641291,-0.27417927086910593,-0.10946914114047707,0.5930308096425162,0.03633225436098155,0.2271141789796974,0.5758628897357224,0.4705094293355609,-0.07684497153047647,-0.7164156201532405,0.49032399899056134,-0.40725005909052575,-0.24736690654275895,-0.08533975417596412,0.4779037867575037,-0.3169286601711768,0.3692637145275183,0.2709916004223324,-0.029100677999370446,0.07403632367489334,0.12127830768163225,-0.17001528869015323,-0.23249811972407833,0.40247118742329974,-0.2760513458892235,0.14229544361206636,-0.5252248574992688,-0.5532026844859922,-0.08278365053797565,0.11249892403450822,0.11129146362984944,0.7583522804327021,0.5294736675629375,-0.02265956373516611,0.8095413021840631,-0.05601918040106587,0.11355346176170467,-0.7615068144043513,-0.5539415999116772,-0.4240873926829763,0.5292949951052864,0.7095806802075416,-0.12985706802221453,0.3361201709591797,-0.16668681024718918,0.018298962966547632,0.16652037622328805,0.3914719224188254,-0.0941131583492223,0.20493536546481983,0.25505062141258455,-0.8383087395809338,-0.3552932827180648,-0.38300888246018466,-0.07756122183467065,-0.17018085161065694,-0.16770887526936126,-0.22839944413266047,-0.16955829178701923,-0.6502121827339628,0.306913776100765,0.030195370034359167,-0.3694417612638422,-0.12227218083685447,-0.09411384040588217,-0.37938136326475275,0.10834410610990267,0.1851110217306901,0.20331244627756861,-0.436558078531683,-0.12667373818264624,-0.30858958558368077,-0.10361985501488016,-0.020675184958472564,-0.1222069085584152,0.10862662464350517,-0.8184355860457067,-0.2938083310545642,0.141165884203348,0.7483897707039838,-0.016726333006880995,0.13601117404726676,0.1056501574725829,0.6209398084110064,0.46284508454699447,-0.3337438707668278,0.09163045725694519,0.07072409195233449,-0.5344583415753079,-0.039582972936736786,-0.2982360947624751,0.026792331657639903,0.30767985024675687,0.2155910927557481,0.4367449765809981,0.06983640868890703,-0.7561556875063754,-0.36691876682957575,0.12206664067143072,0.626103696429802,-0.8263120918732828,0.043963093496278506,-0.05506490961910209,-0.7395333283747262,-0.3637194558424033,-0.03267141736790357,0.2535319010943282,0.31942045811994874,0.008611114381759623,0.5199958413313094,-0.48719380651806554,0.2908351516567939,-0.21391490644892297,-0.3804797660670578,-0.1693251965199556,0.15199422774195082,0.33490418642491127,-0.19087631690119533,-0.23005194787441174,0.27696772923050145,-0.3281169860730237,-0.05616492071709041,-0.029613510408092,-0.3512154804082321,0.3646644764719029,-0.006991792154619349,-0.5341451819816503,-0.024248619493050242,0.10561428486282723,0.2772712573930601,0.4871227263312217,0.332166793660341,0.26744869229513213,0.04981908793262413,0.27679773341302777,0.282807925570118,-0.16512683336891237,0.023870281807035685,-0.6361726957094835,0.4022300735061903,-0.14191756561825844,0.37687894810191536,0.48992684127803343,0.5603438995713305,-0.4044565778125155,-1.0147224443307632,0.11212330588996704,-0.3044834951265828,-0.1647955567091628,0.40956916016102946,-0.34958707503085296,0.3854367733296239,-0.4692487758310411,0.16651352672797212,-0.7774984063584216,0.15008205430929938,-0.5239292006474456,1.3134872577754144,0.5838928678720484,0.0620681683533622,0.40608971461338245,0.7152194393943732,-0.04532242913108568,0.05931199292389952,-0.09614406904186865,0.2737619833979768,-0.4758271449059452,-0.05364657326860774,-0.154891992862079,-0.2022603862195247,-0.049500820665132325,-0.09947007342107088,0.2854838603046061,-0.21653406857894986,-0.29436293735231234,-0.2334251749567941,-0.031010926374255534,0.2069159307620362,-0.27935546787824506,0.08225904826487941,0.5310684152232129,-0.13351934279733116,-0.38957110193559685,0.24566999160206088,-0.07424923988866879,-0.4785797261877368,-0.6737318562410032,0.5508495308236748,0.40316431650735296,0.15242002325209197,0.2681167846311497,0.4175629844749901,-0.05725748935364743,-0.45963829111119175,0.31565562039928496,0.1912409394894012,-0.09778542773081955,-0.06630549320596142,0.05250312358580228,-0.006240135788393903,-0.20802790506157604,-0.3361203452103003,0.2918420998028644,-0.544037304010219,-0.48348723205424665,0.9140659473485704,0.37262654520753935,0.6023887708559627,0.6821164855796076,-0.25732493355817093,0.07024747980333645,-0.281902540596701,0.30650508753879835,-0.29522835970875155,-0.477670508271184,0.07420339829975223,0.2464273377355649,-0.2684850427641824,-0.3311185373031301,0.7005968367716396,0.4079857870055285,-0.34442664865554073,0.19126564164796814,0.4506913072713504,0.7295589666975938,-0.2716821312433307,-0.014193401146839089,-0.2461167376158004,0.024903188339340535,0.211775788799513,0.6493467283487908,0.1062854679497757,-0.10637383589570068,0.38461222101423737,-0.07561573904244036,-0.5034567863459216,-0.4939394863797593,0.3653505401150033,0.5418590863470168,0.024923506287736878,-0.26230297401013647,0.005379873916922918,-0.04655115393160484,-0.1567140740254941,0.393660559872698,0.04417000923285529,-0.036030846805943526,0.09669429594202082,-0.8289255334193261,0.23207468736997625,0.5937915160719482,0.46624982546074145,-0.4980994027277595,-0.21190150743963854,-0.43322896529350724,-0.4418140382848011,0.698093724138944,-0.018891946901230975,0.4322789929675358,-0.39023373232804676,-0.17886304769986344,-0.15315292854342444,-0.02531310880689728,0.2846587843461314,0.25894973503552704,-0.16081454885658686,-0.5194732572503551,0.16304390829461252,-0.370818960557492,-0.2904074747540898,0.09284604606263497,-0.46897081367719534,0.0845339788524514,-0.19423776732626644,0.024078512007813812,-0.2593395759183817,0.12561552457672076,-0.3575820437537733,0.007753825121168768,-0.050615600526392086,-0.14521643039526325,0.3076446940354295,-0.24260229019875915,-0.6288721321540071,0.003946157707974129,0.2834066776465321,0.46712386177349985,0.11589638439496974,0.6482062093535712,0.2763990211333003,0.22358697892161875,0.8137385619997849,0.19543901095668903,0.021633277925657658,-0.4325679710114871,0.49283628546539504,-0.055144053316444515,-0.26549359057684685,0.06582932815770971,0.17474648971243134,0.1403235264406702,-0.33456862869118903,-0.1693118295202169,-0.4758952112893266,0.01728906538741647,-0.14611143874487093,-0.3123615452382437,-0.08373648185233454,0.5280786043678727,0.5813612707074031,-0.5165123988900772,-0.43993896479363687,0.3838366687113475,-0.826881168465083,-0.37407304491360593,0.036410598794822,0.8163776526400368,-0.2509641164151139,0.007730353908399751,0.3018809892121405,0.039139399316288355,0.13227204071483623,0.7664762793954228,-0.17707091819428591,-0.2649303614924539,0.16364725224285193,-0.28850635792801343,0.14690416877450846,-0.3071521434839639,0.3587144846129299,0.7995000620715319,-0.22225129450915895,-0.07132812581976045,0.13675788802599112,-0.9838938417495734,-0.0763211494142796,0.15212317591365968,0.3802404183658183,-0.10862932810835589,-0.9693548891484441,0.1612695593754605,0.3496037604181456,-0.44380803130244206,0.04142564015635781,0.02326371676750835,0.12079552705224302,0.33366186304977946,-0.12067782852519493,0.03663996584917975,0.3374373335701204,0.4547021157842979,0.43487818361943475,0.08935136987277911,0.055079653189758195,-0.16468761932820547,0.03443634284064013,-0.22184690136977273,0.17440275386730808,0.8022536450836366,0.2197373859812166,0.35360715914057717,-0.6608008704063462,-0.0001870807289480922,-0.5762476480876698,0.31540711652777453,0.41356109655085527,-0.4030826757318559,0.3831441381292431,-0.6068572538899301,-0.48743856969433186,-0.057389741685376056,-0.07791734194079125,0.3503934642956954,0.1394762659359532,0.5035038846653944,0.17052318758802304,0.2831991134998063,0.7854050274503366,-0.1303471723641814,0.36472074640151864,-0.489463646023572,-0.24538110507898434,-0.10937036987099703,0.5703741007658455,-0.0660024143682674,0.09974563356014068,-0.6212751217157888,0.09355955162236211,0.20983863413806803,-0.2778976985814411,0.19975760788298552,-0.7856722467957306,0.03235984147129897,0.5540692651975468,0.017136073053628135,-0.07401306016199344,0.5557855864365415,0.28279774724229967,-0.1391634751202675,-0.01032728852690411,-0.022733703113490475,-0.09523625841487889,-0.2233788121198386,0.43540342792536124,0.37137221166618195,0.4526489469715789,-0.07192381517274209,0.37723880982951796,0.05385396442625289,-0.388580570309131,-0.14527256102721234,0.6953617295002199,-0.38684566520496866,0.27017659685208156,-0.2930061289061019,-0.2982343523418524,-0.6314462055540825,-0.493764377023941,-0.43682571577638424,-0.8180825732537016,0.11943594260124449,-0.06691817833575106,0.17330655730869673,-0.372723615675638,-0.1787449157167817,0.08521435187920032,0.08073946188987423,-0.22018591183511005,0.17562585051709542,-0.06816194751537205,0.15165009375218905,-0.7100010476543364,-0.32314359203472776,1.1114327982005825,0.40633288860654204,0.40243440209345854,0.40895871351741175,0.16199251440165563,-0.46113385416702873,-0.5741227264799055,0.6309699824135824,0.33378268098084546,0.3104591172721874,0.3904739271041299,0.7129949375425783,-0.050665699009621847,0.12001883088331139,0.767743782800392,-0.43652416679979955,0.49375480737012994,0.14278964137459932,0.3536237784260932,-0.20041272808066843,0.6285826463268746,-0.09523236484570488,-0.6678311850092429,-0.3688314451540744,-0.15019957670361433,0.10742052938991839,-0.9194337103725216,-0.4270370225795093,0.26590050108061175,-0.2762608132122618,0.08484106642425192,-0.13759301803989013,0.002498926190364584,-0.06062227971185337,-0.09962924458138399,-0.4030433374951253,-0.881218094593564,-0.33717161301815973,-0.24108282687669993,-0.25995856700165093,0.539764287747224,-0.30038264621625654,-0.40402993116044433,0.5682677626410728,-0.30345672170034393,-0.5858164855583821,0.05450286013377358,0.7393669157426437,-0.12312530591792539,-0.05838506683376264,-0.6803884669822388,0.4370202757104346,-0.04806248125373802,-0.43510439662626044,-0.21503945688513143,0.12422637555008509,-0.23431499309185042,-0.018571913683192217,-0.26504316550604506,0.37578497577227404,0.41808644839057235,0.4359140427948327,-0.016073998671692562,0.5526350522043889,-0.22479057062701466,-0.18260643687907302,0.3994155443179679,-0.15107033767758513,0.2314032534557186,0.5874396894064446,0.5858095780120839,-0.007052536837623706,-0.20722627773884073,1.4143055132817102,0.10272598196861274,0.15585553283854162,0.13465021234226504,0.12386599845034232,-0.22319514317194236,0.21761419981431152,0.2719177481666425,0.07849784100483778,-0.1999989848510364,0.6884348898827611,0.2722158157436281,0.6007171454841624,0.03706090599522361,0.12102604221785654,-0.05969557851410512,-0.048507387692994904,-0.705184054603745,0.47620917350769526,-0.369112718508452,-0.3521457134550631,0.2055163834582916,0.1087392112064203,0.309905833122383,-0.6045493340222251,0.4462508769183526,-0.5747826080802697,-0.40391903497981146,0.07726426912276892,0.548223276381028,-0.3580451853728034,-0.24914690417478685,0.29956815076214227,-0.37397802971123606,-0.287482079635767,0.15540505386239198,-0.3818548559999967,0.15734803130703906,-0.17488514709248587,0.21568705352437884,-0.2580516835935144,-0.46722918884954034,-0.10961194465673019,-0.5594692810652175,0.34687185418489436,0.5537485110083868,0.010586746926604822,0.4391436596232774,0.26708826978595085,0.6707308413340843,-0.06097729904888631,-0.024712732505500684,-0.34600261808746324,0.2514260547962276,-0.05158662965428628,0.2926556908137662,0.6550097484515037,-0.3269051985590496,0.6450997337875323,0.10454606398348526,0.2649180623282318,-0.11164683834380229,-0.10262591670657192,-0.3500101457553743,0.011057298581251927,0.024716295073590282,-0.1606272441078152,-0.19831346916009238,-1.1174302582552618,0.21343275848571752,-0.3105985899892978,0.46808747062279016,-0.10435003461712596,0.007172721857866802,-0.16188383758920505,-0.9537729774382165,-0.6641985825047323,-0.3194782658683721,0.37093338781842666,0.41226865104303895,0.9737762099185581,0.154937504103713,0.7656056973757434,0.343488942908192,0.14700074453560105,0.042002448620781396,0.5875653829837272,0.10363234193220741,0.3709546598472713,0.5226748696073914,0.2942921999761986,0.7125010711719586,-0.020995299552904457,-0.11789689968121883,0.152349027354242,-0.05443484936240803,0.001885176463430623,0.17826425130530674,0.059175766716671935,-0.0635083736793023,0.6167174318641145,0.018860995020143843,0.39737655099390523,0.16352322687337326,0.07500372592728363,-0.20786155011135618,-0.07321475509503711,-0.4755472329961961,0.2772123050052969,0.039590896797303585,-0.013869360768533545,-0.5285083024454212,-0.14319866884216992,-0.0391324074763073,0.14999189330344348,0.38079503452885877,-0.042508716063290194,0.06614542095866141,-0.48837308583106676,-0.4396445751568575,0.1844391433294539,0.35198189770815924,0.21570307537207703,0.18365534167710237,0.2827016073384627,0.35406804359318444,0.003440318592557898,-0.12061688386132016,0.3079445683554783,0.7095886932091928,-0.2797293467638672,-0.5292160165964844,-0.2985901803681902,0.18696766669627135,0.06365657867846791,0.15897706215373697,0.4472525425706498,0.048736869951013395,-0.4883480408647962,-0.05270665956006042,0.1502309947495275,-0.4108410750927259,-0.1312673654051329,-0.3232271187606915,0.2914221459791646,-0.09418515236049926,-0.16168252212105078,-0.5317858230933203,0.00155718192816288,-0.12246657963625222,0.07687680283539759,-0.06901566422989007,-0.43265245245096196,-0.21175195746661188,0.2636571968444757,0.7663538776310753,-0.7981006707126206,-0.28223980331373544,0.19665637555535037,-0.42326338278308895,-0.3894521597999806,0.43456228608627673,-0.05765330089636985,-0.4345481542971395,0.2822239781418983,0.7133317240133241,0.13509696439606547,0.45273431432278166,0.03981216011775405,0.7389022909369214,0.16390441214655893,0.41857959182272375,-0.5599150674552705,0.1514752189100478,0.12343232241538925,0.615488569036677,0.6489867943078148,-0.20557974724704514,0.35138321820827145,-0.22113407034872232,-0.26159955527342876,-0.39132834966641117,-0.20831838615259657,0.2201436546149138,-0.35667040381039083,-0.28856345976131703,-0.19414954127265724,0.043162242678790326,-0.3682677539334356,-0.05694059895042288,-0.6736423103178322,0.4099936513811056,-0.6312767441730452,-0.7438433131971263,-0.04061373005569433,0.3883049593281524,0.08982986739055111,-0.5382742464143359,0.14376717299355563,-0.4101605747518254,0.012847437493653755,0.6441272026875411,0.3860797886227892,-0.05144136576121266,0.07099661833363204,0.2770535937006552,-0.8486938706114838,-0.3038976894578074,0.41309968514580026,0.04825126399937497,-0.350717720351563,-0.36488076300741756,0.32632524789863815,-0.10475086379226638,0.2818535102716282,0.015268265394398696,0.1378466644325759,0.26309546985945875,-0.13932680684323778,0.10824561544696973,0.14964079898965524,0.3088761096613355,-0.11050639698598705,0.23387931637890125,-0.16404743841566694,0.23473476160197,0.021472280847909336,-0.019338007150337275,0.09913376493105151,0.054383198830580175,-0.24569973646794674,0.2622675222837679,0.17732965696864153,-0.08038255474761942,-0.372953135714878,0.30848326243901986,0.3653852094446728,-0.2071478354633817,0.0000412927079286034,-0.1991037317355695,0.05997452009412137,-0.07714073878475913,0.15532339784864763,0.3696692926313099,-0.4871030958870671,0.021547278376102253,-0.10599669760815192,0.013767566369635553,-0.7169768269470228,-0.38082497197897314,-0.06463972796497815,-0.04879555537845256,-0.46769793356477796,-0.08861314986188792,-0.12018311805664199,-0.5772624785105197,-0.5515056380529914,0.22657039111335067,-0.1589633625228045,-0.0717245816156778,-0.4695243016938176,0.0608864360660435,0.3272215281881469,-0.8414538945856012,0.020619257414081014,0.2141178270419912,-0.005447460444809698,0.11018847710340295,0.0965190327694891,-0.28192365709253214,-0.40780398892208003,-0.18691468029447145,-0.3088248564019931,0.06112434089533647,0.17008544932493444,0.46421732668435567,0.24924869139992434,0.2928155906288687,0.34996720650469665,-0.5616731540357957,0.2112724135354714,0.07852414949730441,0.20066723120208738,0.08810103075206277,0.07572713126642,0.3300383269418409,-0.41096952461705494,0.35068864165437336,0.05575546086306428,0.3111572033907091,0.5453295847541543,0.030707023782919635,-0.5329474660237266,-0.3422432809116749,-0.7255313697477336,-0.05628865200313759,-0.3759044262163684,-0.18557876005804244,1.5250579688432633,0.9725661661520454,-0.3880006090428494,-0.7442936266578332,-0.23209109312028386,0.39041617653005195,-0.047322523028721246,0.13931013881180968,-0.7307174677618345,-0.0818795670581282,0.2292313980578031,0.7494284331765658,-0.14781366640343108,-0.04746960007382476,0.32964092371425835,-0.006713674434005649,-0.24630369970613356,0.14586623401272686,0.6376676916609353,0.5932706006887614,-0.7416578695662804,0.2973182011779461,-0.047995718103008504,-0.49540798341765857,0.5753837835537231,-0.13329103503701056,-0.4214260425785988,0.0662643615663743,-0.17075561372087728,-0.044886247122867574,-0.5327716788155995,0.30491862494478034,0.5919414022559855,-0.1831199582157333,0.282279966322102,0.31523525218752524,-0.24590686102627723,-0.2511424883896809,0.6353367021903009,-0.10267547906764123,-0.6400245803529688,0.17265987185846504,-0.2220351310410678,-0.5584686090743962,-0.18969421178095816,0.21575552021110267,0.6573190851101158,-0.04032885092835735,0.19618947687810925,0.0499142974632318,0.11530868572980732,-0.013622129027844272,-0.026668814568786458,0.1390142294504568,0.42377891805015455,0.2752823449309396,-0.07115904074064744,-0.08218629392280985,-0.49853687206177294,0.37136418091590506,-0.2669897829525646,-0.2417325829556518,-0.5075077719330475,-0.21976440571438666,-0.3120882314513093,-0.13302864690061705,0.19375350313552378,-0.25918765361999385,-0.052463408523114256,0.04502188509356043,-0.3910136437583,-0.03254109489367856,-0.17536540459619887,0.33850487061555246,0.6246613839700251,-0.010191886728125307,-0.17278889810700343,0.17098478895722743,-0.1654131763619971,0.0758314477977301,0.41349000378695805,0.5501397701503542,-0.2074408032075842,-0.07420035542111326,0.18195935613665234,-0.3104579397613872,0.7344046410001903,0.3346917907214753,0.6303375493536842,-1.6118704352531443,0.1678427202788637,-0.2229902113244144,-0.13803958342785747,-0.13697539718790727,0.5715675536994401,0.025837455930730318,0.16509034900789837,0.38589330825476953,0.07956333479981502,-0.03110416586050924,0.4421236941192784,-0.20343788980318786,0.23181080645664823,-0.15334690095928818,0.005427362027811249,-0.39641713105293186,0.3395904671616874,0.1228193644935079,-0.4112526640312852,-0.28205381721802386,-0.04076351184707356,0.12774067463024552,-0.0662914117878301,0.05409253623082104,0.3763777262425267,-0.35869054587555577,-0.7516241544355013,0.1266398335394946,0.1924608682016414,-0.16028872166346422,-0.43183776170380717,0.15293951043579906,-0.3790478286028741,-0.07486499596528585,0.12057975326704781,0.7717322695987302,1.2027326467597648,0.5815349800112428,0.7267509148178637,-0.32316922985856006,-0.5145279828686788,-0.12603619028064825,0.8390913432166552,0.008166991396896394,-0.402307753478442,-0.06896495044305465,0.07159009425564393,-0.16486444111948984,-0.21878557549964525,0.5964453435938049,-0.17420972893709466,-0.07172164380466606,-0.36997257085597207,-0.3982230352453663,0.152147045123969,0.1811865353535958,-0.24758223108218955,0.27979246812818637,0.4461474391739227,-0.021900435765910525,0.22810287315394198,-0.5718878352178174,0.6693998299933226,0.2297288394714238,0.40301547672971627,0.37981707986371627,-0.3216446269003307,-0.0911660356334286,0.092304774107166,0.11927250840496632,-0.1858474819011563,0.04723380793962019,-0.03167103812167082,-0.48344494371546104,0.3319480212128946,-0.06981347209843895,0.00957123463258825,0.5639965639807011,-0.3317545224994663,-0.5136245932365912,-0.4782301259626315,0.5378235547435024,-0.21153918442535385,-0.17783753746083097,0.30864974142933344,-0.16857177371253126,0.3658856046900975,0.02143499009566054,-0.1550213513765329,-0.03886326658760635,-0.7956264737542553,0.44353544439811676,0.4490550821152943,0.13373300274347572,0.13300313218153167,-0.17410397701037061,-0.38420438157854975,-0.5958791648673593,0.4150278565778604,0.5773902906776367,0.3247639006664135,0.23417662997067892,-0.022429923478310052,0.22097316894570532,0.12746127699962703,-0.029691063362079776,-0.3158595989260534,0.11047626775603656,0.1718942728793995,-0.12469380077095808,-0.4158606185269987,0.298772656905835,0.46520164953454207,0.24268077582350947,-0.0177256697474281,0.16815818230525825,-0.25480606667956607,-0.41923479444800227,0.4887386458826727,0.3978171928607786,-0.6855045450606548,0.038188967096907986,0.329650065959467,0.18144000087205392,0.9306858111710371,0.419721575123623,0.28862876168588686,0.23162336559765564,1.1826768948839115,-0.7383878119647814,0.11351604076283665,-0.21016574201430982,-0.034382872695849054,0.22486944626628827,-0.2698737265933071,0.2928388570498377,-0.26250568920859446,-0.20054879882641946,-0.21432589938933344,0.658261179924849,0.5564595498222461,-0.3110667550005687,-0.027159892014253596,0.048751839699755065,0.3237736828855895,-0.030068342075270746,0.3526780672302981,-0.2247224287879682,-0.25741494793938957,0.1865042765492526,-0.3338975563293582,-0.06918730061079496,-0.11820686997631212,0.11145046453267102,-0.020044907367702647,-0.06633296779280867,-0.04691261030020296,0.27513208415431023,0.1129772354640565,-0.46788684791312246,0.1396089663413343,0.017525183798388,-0.4790904735466197,0.0749900662285305,0.28326544047592317,0.10318076903602794,-0.2462297456829319,-0.41972469796888867,0.263023975123242,-0.37867683048412143,-0.4263886227422354,-0.9079096158942203,-0.3730538851792987,0.08806323530119665,-0.17694902977028013,-0.08471091166197145,-0.08187981419884645,-0.10314446462764511,-0.5154872027418567,0.14134144567076262,-0.13196845062523693,-0.12614528457857235,-0.1837327814376254,-0.07974047578481726,-0.13319958095624296,-0.01450560544876343,-0.2988171586283975,0.31504601627457435,0.34390135669124894,0.08183189602888045,0.22785867857631412,0.3279486490615376,0.04041351280898293,-0.02728917971774645,0.4762440916673864,-0.14938839633095777,0.42254170471278374,0.3632095374380902,0.2596580105430669,-0.1035061447165971,0.18704229709978312,-0.41286059352556137,0.6229008682390623,-0.11834291044907068,0.3685484924453906,-0.4200456586711761,-0.0729265804788138,-0.7049282088114251,0.02886137439608503,-0.5000347364756512,0.634204475180377,0.5387595316501971,0.07443893791178206,0.1241168277383636,-0.9025147432572447,-0.08636005526655244,-0.048130101892921474,0.5464250278743562,-0.21447964181597892,-0.2911539646912476,0.1744283906186855,0.7352622501209087,0.2490020401924774,-0.3233577903488718,0.2793931682871975,-0.16437416733825794,0.11676193608292174,-0.17674452654584433,0.06217331568965921,-0.09390508320076124,0.14569129751771442,-0.1933151252705061,-0.25949948661714084,0.29570888258008055,0.21567752540293214,0.42091196418327465,-0.062387579467862976,-0.05912968265010369,-0.3831141682386471,0.31551812644528626,-0.037209594935482156,0.045966130264072744,-0.15751436525771384,0.3992242497280902,0.0005055096839742756,-0.21708214937141254,-0.5910281902589197,-0.30318934295646105,0.14075319801143016,-0.1904075598265703,-0.04641069118067327,-0.32243268548723636,0.10670225934131577,-0.3682600172407209,-0.10912561239377631,0.2074673188823091,0.5542621348291904,-1.570572178167782,0.11304074279457449,-0.551541693984826,-0.3115492448411221,-0.14334139908899485,-0.15594399028688008,0.13800131468984012,-0.3970874608864448,-0.49794500115144374,-0.034319971816952406,0.04046160592447347,-0.1300769892715594,0.40402420208206874,0.4011309088579013,-0.45413707907946826,0.04072073893247428,-0.5429799987946402,0.09840763063334945,0.8172721179144393,0.12860883436836534,-0.2883056443350328,-0.4805380500043736,-0.0013979094765484354,-0.14325130573165973,0.18591504632468767,0.7848035395660325,0.0038940932469227305,-0.14769358888720838,0.4015775986122782,0.04963920497957427,-0.007490777525265581,0.1631443374682563,0.954544235034376,-0.021366928933765617,-0.3106398028393147,-0.23453707489648595,-0.1418636735792104,-0.10211828539280543,0.20050755893515998,0.044242950135887874,-0.07920350630652108,-0.6050816371107758,0.25878551962534896,-0.24602422208561414,0.057633095790384045,0.198569316604479,-0.19689152868541895,-0.1328137965572796,-0.01977905240271318,-0.2696063825078835,0.32245613525086364,-0.3165484012488402,-0.09853418556998808,-0.6369300605611052,0.1808379725923703,-0.5384138490343399,-0.6090225659724445,-0.4854302426175674,-0.2879942888786384,0.14409083031953765,-0.2598919991203731,0.48519714197462654,-0.45005720312907405,0.4066590149452341,0.3378504332183302,0.07135985026404605,-0.14238520363670362,0.2513866866770309,-0.09730413752268427,-0.42624435806278455,0.2704258568675937,-0.6438924542985042,-0.6641449389958611,-0.056718475560045556,0.5510879308763449,0.6895919889621093,-0.5907126095300024,0.39555845733711104,-0.42283341563801086,0.047232457838436034,0.2574946490172833,0.23820232734156307,-0.0011517879163334811,-0.5399126935092676,-0.40934453175300745,-0.48622909483372306,0.16767003835292954,0.39498834432537716,-0.2288893942533779,0.05581588414037847,-0.11256995954692411,-0.4269698303939091,-0.2170188814668764,-0.2017859090513022,-0.1962597115151345,-0.049395682752959844,0.03730325940791597,-0.46200425351111,-0.32630311500984494,0.1801743251358277,0.20978431533218445,-0.41115558961063464,0.8056635706694945,0.17611710554787974,0.25915837849132606,-0.42414333319033365,0.09610414326159651,-0.14018900553556746,0.28532492040679874,0.12498765547337196,0.10469786342965849,0.08657404759089513,-0.4250865214147487,-0.08014480857838635,0.091851078860631,-0.019575575069820873,0.1240999683872642,0.14347462475287268,-0.10426989121328924,0.4300680246322651,0.5509562490800239,-0.3765671562523088,0.12400276832275817,0.47553492236779554,-0.3492926153833427,1.0121713097219505,0.4488628885022473,0.7760806538661364,-0.9331533923130193,-0.45564007605326645,0.022847399127733085,0.09113085532939043,-0.23386212378043936,0.13786902759371478,0.34980858480504023,0.009703555234149105,-0.3804068049149073,0.038843964657678226,0.4003267832284151,-0.3120626508769905,-0.029378730649660418,-0.15117260172251618,-0.19814479134916457,-0.0682672475848362,-0.019715805324096926,0.398836577473002,-0.28901797234885335,0.22442293646991307,0.3422259974855539,0.859638702820232,0.41372819824562485,-0.3019714374787,-0.1400395827056253,-0.6743492908670239,-0.8812101571645631,0.24192170340182906,0.17042039861681574,-0.8891110662885754,0.4183058864114278,-0.16199420268837597,-0.43885791124467405,-0.4998998036226836,0.08060670139597095,-0.4103337250126536,-0.4274444468750536,-0.2030886686167044,0.141805897896544,0.5473027145795316,0.6306351725340879,0.4614501579985609,0.08604699610837903,0.38221334280151364,-0.9960217965130803,-0.41939856080333604,-0.28160234584188854,0.4101253135397734,0.2503019564930003,0.18633674222342816,0.2792732129380789,-0.2564844359765934,0.3769974346700923,0.27625976591834434,-0.19469821991667685,0.18368290642220295,0.18243099782880529,-0.07064166608900133,-0.39764376285807573,-0.14834575455913773,-0.38582937379741244,0.7325226913637913,0.747242087883462,-0.5685278164633778,0.10231865917167911,0.08249784382564171,0.05407872444786181,-0.2415430623604421,-0.394422750962344,0.2299674143133497,-0.4120586983343985,0.23537186100338867,0.4007168755142572,0.2713556876180975,-0.3789818497161172,-0.26443064234593805,0.21645048555318824,-0.21329040096675783,-0.049921891002486084,0.06599594380066558,-0.4655434803614047,-0.5329336089516123,-0.26320603896243483,0.21760965005628596,-0.7437283160367013,-0.3646204832620867,-0.15847856644098263,0.8495228612654314,0.20005088055352757,0.03788788391960006,0.062135827297710645,0.03128494954438608,0.3450389978013414,-0.09166732858798829,0.09348206055456769,0.3136636022425041,-0.09822691759037325,0.5098638180015702,0.13831984543093842,0.022055438676153047,0.08440020544912771,-0.5797486092428246,0.20150058443810703,0.3998498561459308,-0.6837391760982782,-0.5225512264511575,0.07190972538618945,-0.5696442365875907,0.014564735928325395,-0.32584824936777734,-0.21064986161942684,-0.22575432718857524,-0.10099691626638341,-0.3754516642264103,-0.4019253796088996,-0.4142033410686818,0.32811813115469524,0.1038914963081901,0.2681482350206075,0.624835776760247,0.42850151606259057,0.5457723526097721,0.1671690692756712,-0.36381318121678147,-0.26213561417703557,-0.5121509706887493,-0.6810599610273044,0.04080975639096245,0.6582092085234691,0.4597582559154611,0.9009597616383676,0.3586283023174967,0.1381766037143701,0.05542588920973978,-0.11095988967496304,0.46210624384914173,-0.07504415939796302,0.30877613445465796,-0.3060720837527302,-0.2325240775379902,0.11021880160768312,0.1812841453734995,0.32409137187983805,-0.37896847593365257,-0.3956614145672236,-0.36464720500071846,-0.3323111915835237,-0.3102623827995102,0.016843802775219557,0.5161766982084062,0.24058260247938312,0.0931041144065892,0.019198426821812845,-0.4504516278638291,0.3392430810112826,-0.04136026415284517,0.06166246770955229,0.14696648887582017,-0.7291198014935386,0.784571733214784,0.23496718614397144,0.05064819630307739,0.10648165295523586,-0.009611746432463323,0.39076490026306004,0.03985794899438691,0.021567223523829494,-0.4009120781615556,0.5856928841223784,0.15493377992515364,-0.454111471348335,0.36666238357956454,1.0277901248659995,0.7122944063618616,0.15068253173319876,-0.08661852583311751,0.1940107755738121,0.05419639934461398,-0.3635692034347269,0.04429104008738715,-0.06115163712705863,0.3718126866331116,-0.4040613012131408,-0.7573045984570161,0.28283918112795386,0.23113683974936114,-0.01716717951301092,-0.24395373919999688,0.4371280379911121,0.24885898003163423,-0.26619829077087037,0.016753059943256546,-0.31713624515522965,-0.02479994855283005,-0.6248099564825924,-0.055146737535810675,-0.10602404688302397,0.29378258779752203,-0.7148635774329688,0.5315309268354155,0.007199963077635409,0.02902453552529048,-0.29364285766580084,0.24333471142962051,0.6068181062118567,-0.5216074449720132,0.4553461388350453,0.18562213295013952,-0.03257578276770054,-0.3140496229222091,0.2944961888834004,-0.13967942406210868,-0.054938368768298856,0.173196691261814,-0.2542589728861835,-0.04671383251504788,0.7258452969794361,0.3499169643391435,-0.0003871098945307559,0.09167564246252609,0.41310660767604657,0.06845934163969863,-0.018019042546067995,-0.04716606767152827,-0.4045856818648652,-0.1167193944353,-0.20763813941926676,0.16964259699835496,0.22533511959928088,-0.12898226378597175,-0.2415152873575639,0.29285366836534504,0.05219439389584652,-0.38326087835957773,0.2632176443303148,-0.5008011043478298,0.03536121088016619,-0.19368792409948563,0.48567725145256446,-0.4680859830022457,0.2742031846281792,0.03584968723590956,0.02311438307541519,0.749539380807404,-0.39869665184060654,-0.4401075053845195,0.03272181039882042,-0.49343827943119023,-0.009063640849893943,-0.6089324621096865,0.001984326834472677,-0.6604781142281917,-0.8148323590670875,-0.5467190995725463,-0.4700626949433062,-0.47619290939491304,-0.1895652274899379,0.7548742902894329,0.18445334770476082,-0.7304137308396564,-0.24296701171752108,-0.06199546569340953,-0.23175329153252627,-0.4047072293261628,-0.07543010738669569,0.07310796941636963,0.10250387990511735,-0.17014936715031165,-0.052112809600381185,0.11244583957220784,-0.5436519276409457,-0.06840474288655689,-0.3935353556328339,-0.2383854669011236,0.05236561439275796,0.1095453755808945,0.2859661847924019,0.23264535779413273,0.5087716368779127,0.5866104798509046,-0.24849422022533826,0.0015801633097380485,0.039138459535092845,0.5406046208052468,-0.05733813316744967,0.2020528029625873,0.2812618242509219,-0.04095079054571247,0.4251384767873974,0.4867836051281876,0.05126691836326304,0.29741775749574134,-0.20849598252751095,-0.17045565167209553,-0.20460734551841162,0.21308422623964335,0.6879242819468728,0.13233127994319985,0.3139514007115641,-0.6145402881330356,0.17367463218701412,0.18446064593521572,-0.20278522659291387,0.4175287786458818,-0.03384700100090052,0.23848905280024943,0.1112499830071279,-0.01629971279860146,0.2879427249213099,0.17786519831635136,-0.000025469163685117252,-0.6194399408804735,-0.5996862404786364,-0.375361425556742,0.1886829822420468,-0.501542285698418,0.07834498042959187,0.28977878570490845,0.038325988798201066,-0.20991352272018374,-0.2942134901318138,-0.15572205165589137,-0.5558739494753384,-0.027428621595534643,0.009716838795612498,-0.6142158045482252,-0.3057772215708722,0.10889110712929809,-0.01526086768408123,-0.7410674515726694,0.05160730014206963,0.17214479270488042,-0.1605341958849693,0.5041480070803863,-0.4770575256404603,-0.5323786674957949,-0.22047528382515183,-0.6094292848477822,0.09336669009768386,0.018247235719080775,0.5160535059511614,0.2724465113301163,0.022029228804979237,0.17914498893183245,-0.015019511582754053,-1.123322788491934,-0.2261274591030155,0.6218540194598376,-0.3864667273758659,0.5321878642911346,-0.030823013693213813,-0.29293241092107564,0.40992962520536075,0.05003175402038528,-0.6684349290274999,-0.29682638060446037,-0.27405618884867333,-0.39325321810509295,0.05954277635779135,-0.18609230242337244,0.6220997601605619,0.267113412341715,0.6378102908610559,-0.23194335106299632,0.3485569563980224,0.1559618264123557,0.19277339526265896,0.147194570622317,0.3891775672221998,0.010590032684854783,-0.1999659509286418,0.5397046427022834,-0.09661779741840408,-0.14498318512114766,-0.17032603267077898,-0.2601984188864835,0.4797811126006268,-0.33778597350306616,0.4438732178698496,0.37237410024777046,0.10808532461652348,-0.5772855242748305,0.1405923829120671,0.29251608221095243,-0.6035920163032323,0.18297759405567618,-0.0453122016170915,-0.390824470506225,-0.036556514989640555,0.1801421219753962,-0.01722445104212633,-0.07712386730808525,0.0016039354342910859,-0.045338155411577305,0.4124287542004776,-0.09372323441277884,0.661998802851228,-0.1791206600282236,0.33870770603659367,0.24055794895387547,0.24261286894829137,0.10325120513809535,0.7385089258273335,-0.4751138353403891,-0.5022004304797645,-0.5241096360534815,-0.29849453541361126,-0.5364145201056724,0.33546642806973354,-0.5220225073277825,-0.3118643058514606,0.3146161458888683,0.5075485682191055,-0.35426907491053616,-0.24444400581879347,0.38040098117081517,-0.09611897803532633,0.4149501284385887,-0.1243094382685477,-0.2889610150980534,0.13699733366099645,-0.23652161989241682,0.5882463601120365,-0.12485667475906191,0.28446327055827825,0.1382303740372726,0.447923107541003,0.21416354395828724,0.4487216171761916,0.36059638776122527,0.23906768606640896,1.220429972805474,-0.3356413056487227,0.8206009604478399,-0.3447592354836639,0.39162903102190294,-0.7239330097362734,0.16810140703087798,0.17503274357935975,-0.27937756987105666,0.445988041947747,0.26330791614207044,-0.44714305719411573,-0.5788688981181653,0.14906225506712997,-0.0056981571364956175,-0.38097156548520233,-0.3176367290735963,-0.2973298820778763,-0.3551491907194016,-0.18003285639092606,0.5287328145291648,0.5364430177466554,0.1181099215958469,-0.03399023869268727,-0.040568866165858405,-0.5134389481904801,-0.1273710984187824,-0.18999397248782998,0.46292357550804686,0.28909526830464327,0.09779991000166094,0.039083347646012956,-0.6124188264432294,-0.2304762935598313,0.5161907554923024,0.007893858443653416,0.1698902568480353,-0.17573711963816555,0.46944491104661334,-0.5101498811200554,-0.2332859481728424,0.1490534592665472,0.8458390499633728,0.37673698998877575,0.5453650741049122,-0.4976004382749536,-0.5868047661838214,-0.34629258419504394,-0.16070045429895333,0.21914386713388362,-0.1350966302980838,0.8563753961360439,-0.2203444446315205,-0.10678935520179891,-0.2060617952774705,-0.007742717072572021,-0.0526151358448969,-0.05809095228917567,0.837418232200606,0.32970404090531374,0.08515179530593765,-0.6142701062965449,-0.015941575949455892,-0.19603990334361227,0.7242924461272066,-0.5123500230655627,0.1984215543302953,-0.05984943671151868,-0.3205317803828101,0.4679907162441772,-0.007056326870163722,0.5860165845099176,0.16797148607912205,-0.019294416653762764,0.34859375979148516,-0.21642602133450062,0.6818804642366787,-0.3035364727499002,-0.26667751371452825,0.6461766965532587,0.19120784557300852,0.5155490384121206,-0.1985726023673692,0.33675522912741923,-0.4365380600500095,0.29722192655488655,-0.6077164141277329,-0.17847763799259916,0.1928713101915571,0.21257935186310614,0.10744809618214168,-0.3517055024831481,0.2957786001271999,0.4303688126089227,-0.21064441447684495,0.03203332694071544,-0.23787352006398307,-0.23123659086590953,0.41312128789893554,-0.04142272425117467,-0.11664919987947006,-0.48075740135285355,-0.15845933429020223,-0.3247077583121097,-0.15010758045144518,-0.3435016885906082,-0.20764656870910891,-0.09643599117925938,0.5841375702986582,0.07624495345062865,0.0760880759904618,-0.20080432462408782,-0.4966063928164266,-0.5759208290675538,-0.07554302644735672,0.07488211762789093,-0.013369764699641592,0.01785900366863538,-0.01446441901864085,0.1553529752899819,0.1421644909397103,0.17418629356882656,0.3048050407579467,-0.14687092842818814,0.3127390524504916,0.47235748382281667,0.2245862689338056,-0.568012252549018,-0.21988519021840733,0.33992730075678107,-0.3194248417356584,0.2824695056902219,0.09073618100444172,0.13361768168931748,-0.009067855154371833,-0.5617210458638269,0.5249829004008154,0.027646683323342514,0.052516868687968836,-0.01588103919673132,0.05404881066214287,0.5043821647606642,-0.0652477037112606,0.12949181321948158,-0.020996101999920698,-0.16761702746223803,0.5731187909273278,0.07829865438155985,1.0715418336573035,0.017520971318887642,0.13498189085874557,0.0025126243631709054,0.512426445286305,0.4460112481170867,0.8170545941728053,0.6046768336529907,0.0802097584426109,-0.04613154457003854,-0.17116649749999033,0.4137776429124831,0.41481835728767036,0.7470241783205731,0.7042860509634653,-0.27906467079769554,-0.5488509130145272,0.2425976592793999,-0.1139416719404509,0.056086096672387155,-0.13340782777082746,-0.0650759965080014,-0.24653733094076744,-0.3947078197623068,-0.1218335190058406,0.24226730098236854,0.19782522789737017,-0.5607983831153257,-0.19093357888023207,0.025726682997281668,0.20021365803237012,-0.09396102861640074,0.19253824497975014,0.408970775819115,0.13162765276419627,0.3959367135183107,0.3786507550622248,0.019113694066788735,0.2563238194213575,-0.4184467630001607,0.18468600686850356,0.33141941253357277,-0.09422942968936134,-0.06085367602630301,0.3577753987105725,0.2514869861203508,-0.0271219324878102,0.33309819174629685,0.06575251243867888,0.2631923061834432,-0.5598867116299514,-0.18386672997513162,0.11092259863663426,0.10397763173676569,-0.030822888900542987,-0.2340623804690353,0.14442165067272042,0.11016624349076524,-0.1261967619895643,-0.4467005411081921,-0.18451936086804357,-0.2629175901928696,-0.3826987924867973,0.6627026657538271,-0.41489819115375876,0.20069973561854124,-0.0824205989787764,-0.7576096176600952,-0.8665262462708784,0.037281049761541174,0.2125133137715519,-0.5617101054580127,-0.09930638664471308,-0.6998947307950416,0.1584586560615174,0.04370271833764776,0.24831878916262703,-0.13390186617210936,0.25098709559129556,-0.36546089055380593,-0.06666809790896315,0.5262085782207365,0.5029772990086955,-0.3107727459744872,-0.08316828722325323,0.2666757724701442,-0.5194416059055108,-0.6591331403738239,0.19220294553241152,0.01581222977099646,-0.5243437820355049,-0.38793362152173216,-0.18805317703864372,-0.15306146062651668,-0.3244314453208013,0.15277688927214395,-0.296108990885334,-0.36380246692641993,-0.5124787365400708,-0.2193840323477391,-0.19970465818469615,-0.2417789500077047,-0.27059150755215305,0.44867808341580967,0.0027359312421559537,0.4325423478995325,0.5648051668978703,0.5182450904206849,0.1402087206195052,0.8152686890694109,0.5770633864075745,-0.5642708058502546,0.28415859101316787,-0.05420197219840451,-0.13656784364930907,-0.1401321107369654,-0.0014675548966924985,-0.3966867717923008,0.0036942476057164994,-0.2770574788318059,-0.3386053477536157,-0.06737604388985285,0.2630073235823702,0.19804954418846196,0.1985487714109472,0.1777622309205224,0.0609762277966285,0.3290061948265171,0.6652807383700067,0.19280542749948157,0.33812089253403455,-0.2813859372124435,-0.6726680653159726,-0.11630987545765605,-0.3055831863907355,0.6607261949977205,0.08607322361760818,0.2212766381296777,0.30617190714710674,-0.04003030705883175,-0.2834227905443645,-0.19867041834042756,-0.39142014295461974,-0.32331104012512124,-0.044279550037080104,-0.7347179061732553,0.06871696384483707,0.07977600458726031,-0.48497254378044313,-0.3407393256662782,-0.6420698229620737,-0.41252355245124384,-0.18757989509891831,0.4740814485553803,0.5161130481968659,-0.09104477655833326,0.5427888780701675,0.0029333208531614964,0.014649893570154893,0.2277847614213878,-0.33344647103812214,-0.03909344393335101,-0.3281942624564799,0.06077151817483096,0.08128672314120075,0.6243959228950697,0.26186519984582496,-0.04382447553014328,0.18825032453279192,0.06232177532745427,0.5978588026597703,0.11730163948024973,-0.479217649507782,0.7134882214398689,-0.06877180941310633,0.3897742875215369,0.04174044680647202,-0.44094218125438017,-0.06850138696966641,0.5485755664084199,0.2061953261757636,-0.06421378070761383,-0.23885078656310985,-0.5215502838580786,0.2052457658313703,-0.8526540487033026,0.5204183263545855,0.4059403993880708,-0.020305489841589388,-0.07960346162529915,0.41071894774101037,0.12914454832490288,-0.10583114077472627,-0.5663985229376425,-0.14767846414336994,-0.5915204813590408,0.40969103687982455,0.4823719158416071,0.6058165017286155,-0.0501360940315862,-0.3199246896890262,0.026722610633455747,-0.12031147006671918,-0.5244324950320146,0.258724158671742,-0.08237103893162388,-0.30983158469359806,-0.06162833772697597,0.38978066582448745,-0.13354773018184432,0.09205892769722543,0.00618179781150752,-1.0634531889538488,-0.43051525262898105,-0.26598992426137136,-0.04240765447508667,0.1379903535587061,-0.14128091827686007,0.23523336219487814,-0.3140762910493508,-0.7737314652206521,-0.4969443953630434,-0.12418276826539243,0.13618026243914835,0.19032144714240035,-0.404943823655145,-0.6065833313846395,0.16282084008903172,-0.44346364397161436,-0.07798333899432343,0.3675562909491595,-0.12190907681544548,0.5317378051587469,0.005922048264659705,0.391978656979034,0.6045780655436627,0.3725691468893734,0.23681712891873333,-0.0697703219017685,-0.6014568556029148,-0.34484889725165874,-0.23068533361697907,0.23128838357637166,0.40820355272969155,-0.017713658654618766,-0.8799428537643543,-0.10087806339200561,-0.20548436485313712,0.4801006195396335,0.6032616870530476,-0.04109146302580242,0.11173234187540514,-0.1718319950189005,0.784083920558647,0.5383569826551197,0.37372638676149117,0.15445497319515572,-0.48786162203218825,-0.27555489338599926,0.10731041575409755,-0.11738365178038503,-0.15137167130073537,-0.06426477045672531,-0.026310177948515735,0.03612740349907651,-0.06982895021580689,0.7001105191666424,-0.43073997712224754,-0.2618982187594048,-0.23657966172921732,-0.020761207047469515,-0.45119854414457405,-0.4653426782796237,-0.2794926424738433,-0.8371978150277075,0.6759922120366393,-0.3387537880233455,-0.2535492406670583,-0.4700328530828712,0.31473077457599635,-0.24908299674494702,0.38267724148575233,0.9455438854993079,0.3485633239496696,0.28029713333065664,0.6604097620311591,0.07638124650297896,0.09692943874654915,0.5420315378818142,0.3874132528948617,0.3250301397227751,-0.38196799604022097,0.20006420184699125,-0.0703646102502507,-0.16447529859483326,-0.21257121256037695,-0.45210638112906115,-0.09070889912008308,0.5502549061528343,0.43916004779816264,-0.2538991735359665,0.27417437672307626,0.40950071507730157,-0.17872104905896272,-0.17227398452729026,-0.678147660334065,0.3338053068561482,-0.3461800972245864,-0.3330886864887641,0.08679979124308045,0.090498845047733,-0.5357301836189904,0.11166137622311914,0.39320313124025336,-0.14122141922077808,0.5012748335379436,-0.086357860444723,-0.1467092978548785,-0.18083464312256542,0.10753852810404323,-0.6617147218304497,-0.6399424444461727,0.1871476293687024,0.4108966271124954,0.4529561752742316,0.12431297282391617,0.12059812920600413,-0.31322499655043234,-0.9717954586029358,0.5178228357212219,-0.13998061180688628,0.13933140871175917,-0.18123490918181098,0.3420607306634182,0.3504483704526567,-0.04321869172937212,-0.3188992010693151,-0.6142456450492961,-0.2894281547218536,-0.14463947804540794,0.23464352515002415,0.7665132830348551,-0.214828203978841,0.3122344891476814,-0.10444177011460234,0.13374038787944206,-0.667383077023898,0.03188860728473031,-0.6813271657197231,-0.3854637734893247,0.5796973432642619,-0.3162604624050902,-0.19219885413700175,0.4711797507454602,-0.06034710612946959,0.34196227623347814,0.047428288475238056,0.12160402370157841,-0.5587479624834573,0.44210882101014337,0.488340277404838,0.10551127044871804,0.26207945456862797,0.3101562690023613,-0.24368418182117954,-0.4085855629091516,0.18544926234129883,-0.05430082554004427,-0.6326342823581835,-0.010735006602288757,-0.09827903942330872,0.294444910475041,0.3445381567686663,0.4959677818008799,0.37852599277864574,-0.19873634167217222,0.1347996620596929,-0.2339004856218624,0.2283715319174092,0.26982318080011236,0.33902899878191883,0.04293277524899837,-0.027266740656051145,0.023032358401575085,0.10503681022406491,-0.1672931622631955,0.49428573755329686,0.4533910896190939,-0.1863872659026707,-0.0013700881772903439,-0.39878262222121846,-0.04572408024116638,0.017813570249589076,-0.3796897123695226,0.19466440607323787,-0.47487922725207143,0.06200237833208849,0.45438127015964264,-0.2909515022542669,-0.32333293272902525,-0.4878193250484044,-0.2917218475862453,-0.1495990962776591,0.6066339853520005,-0.523760847449472,-0.41450634853494,-0.0976902892627239,0.2770060753815243,0.7923251750289727,0.10711077039961944,0.772448335031158,-0.25383104301975923,-0.00947027249497311,-0.019589044143595153,-0.3650322695111332,0.40194980478538195,-0.18383556160459108,0.1276455181629514,0.08542080585412741,-0.8553867026242667,-0.40713293180737226,0.5074017109317374,0.42012594910702034,0.2563498436817834,-0.4822190223586496,-0.11925500536986204,-0.005064669069658436,-0.3850772188079809,-0.36943877988994406,0.4807440766775448,-0.06979665828700127,0.3451508211126824,-0.13180362062947235,-0.11236123298516612,0.270779020117045,0.07814258390506411,0.6733563961622306,-0.18642085762531338,0.3800033025857065,0.14315523040039552,0.08283058956808614,-0.03620155619847876,0.4883671267530663,-0.4061776901627134,0.24899682820111002,0.21049734773034234,-0.5581425531849628,0.3869097857441193,0.47851004360371735,0.00407117937855506,0.4100872532563548,0.09771124196563948,-0.2861052788028323,0.07374594731483632,-0.08120085283008087,0.4239092754295474,0.23283926218435008,0.09234274173017959,-0.06426712862478488,-0.20826887180216178,0.8152732839204794,0.1998607468153795,0.14225719227921246,0.20382411213059157,0.41776888363497805,0.35396562670424225,0.23468124703124726,0.6297050181161343,0.37681998195940486,0.09875743160706574,0.5022432283042872,-0.025721667254952688,-0.35072692976734643,0.23988663883643743,-0.05246028078500448,0.5178707261398378,-0.5821972631387053,-0.13525303708186606,-0.4352476167597817,-0.13678183802141858,0.3448971261786464,-0.6017728793632819,-0.41816789996084686,0.3435174193036599,-0.09399149693825781,0.06124401489889676,-0.241990818127898,0.5362529358016929,-0.7465894444371592,0.7371020618068868,-0.21220166391889872,0.28183075582070594,-0.22598480303864682,-0.4295025717139362,-0.47872974098124943,-0.026979584867297356,0.29889094167748415,-1.078448464389414,-0.4418569869947404,0.15062509199773755,-0.0881257991863153,-0.5309985617793719,-0.26828380767585164,-0.26587537785668564,0.19368838633721314,-0.448947957971902,-0.06827712412135514,-0.3137102671549514,0.0433555495198231,-0.16970178205297376,-0.32597364734080303,0.277213229462156,0.1827713824362738,-0.007960961119847178,0.4109631963889777,0.6175401637216922,0.16647931402412214,-1.006416212291456,0.47343826642698705,0.34558619413488667,-0.10076701392581355,0.7026449178841538,0.16457003080170166,0.7063016638476945,-0.3419975290840337,-0.4116788710777715,0.1550694903500506,0.7595411103970742,1.059255024058664,0.1355651290253598,0.6248793698398356,-0.38206795515251984,0.08172587966973013,-0.5296759790079583,0.29925141664765104,0.3025416100055883,-0.02733457913246304,-0.1334478905000559,-0.4495818380208067,0.1775872974306091,-0.9663247951132665,-0.8157624226049949,-0.4922994585693858,0.11054340719543165,0.19991716557302946,0.5375913971022461,0.0515499249352848,-0.7252997789969514,-0.040374578845182044,-0.04533865304723069,0.5811547006074642,-0.01253301467570873,0.5119931766102332,-0.325959071661378,-0.5835131848372949,0.2912593565716554,-0.3149811510299136,-0.6899759545599535,-0.5856249796903304,-0.25640662886891646,0.05252239908579573,-0.1687466780033078,-0.06439732745998038,-0.1827127497101718,-0.3178208268764659,-0.018650946478497143,0.01549873419817601,-0.2507511928828524,0.170124944971551,-0.3800111332673338,-0.21324541685274262,-0.2980190425942368,-0.3082486137165637,-0.33895599356986406,-0.18736099066434167,0.10026699361272864,0.020888265859966122,-0.36024625167053775,0.2864784952328869,0.3701047691023637,0.9337513823371623,0.39578392118034483,0.3065023730907437,-0.15454437132807258,-0.3246041583187769,-0.3089808294239916,-0.41145794208099096,-0.5023716373783584,0.03674871566777477,0.02251052585424603,0.09915659192351933,-0.6249743512617866,-0.3797409241704924,-0.5163527940150878,-0.006586503410239572,-0.12526408615325035,-0.9302138515654496,-0.11047822412972928,-0.18383302231981313,0.08825418286906303,0.31144755471997293,0.25251260799665604,0.021605186800297934,0.458821403361371,-0.011132317408397763,-0.5821433450824076,0.2772315596634008,0.046068825648766715,0.13757649693835336,0.2771558647717012,0.2876306985346505,-0.49138833791808273,-0.07715099730679051,0.2548165817907982,-0.3351368038178809,0.3929499031453649,0.42238155737335037,0.31595260352501453,-0.11237189467521477,-0.3171381684907718,-0.11831287050118892,-0.24771751773664769,0.09007212744632932,-0.11599978268584743,-0.7391031755042975,-0.8069941643378843,-0.6398480760685195,0.13999211532885655,-0.32491643030931,0.27721935095582184,0.3488032465760104,0.21208593370557569,0.08485730925103702,0.611526718890546,0.07273092705793048,0.49705421428829655,-0.102222526291227,0.09749495408083099,0.32743254811245365,0.13437435264242617,0.1106624152686762,0.1888725912849275,-0.5527228353487568,0.041832825433710946,0.09756127976539122,-0.20164979488325385,0.0908797090475839,0.10450473308098338,-0.05872149711206523,-0.4020988334265693,-0.41909078307851094,-0.2389354916105448,-0.3210677606145599,-0.09558618584331782,-0.21492296187381782,0.47085663713550263,0.4176931499203911,0.23101068576024483,0.29658364056256176,-0.022086046477494847,0.09487566461177135,0.04420681536277746,0.3099423390900817,0.7635040983512729,0.2763342770578459,0.21775992288814208,-0.8199742710660032,0.0025892698945364535,-0.21055074231578977,0.2996465569537228,0.43411512228824284,0.19582392156969686,-0.48409775517293896,0.3191084843572629,-0.5126208376822353,-0.14287791544540004,0.04370142135187552,-0.26972007806680975,-0.20696671629065905,-0.0987303985935382,0.3146430293350845,-0.20209158913913522,-0.09814975666072187,0.046873834601456825,-0.46919214236907775,0.05773985882941649,0.22314897803745065,0.5370232941226808,0.23161048269186243,0.2233367585704559,0.33861130659267635,-0.2682592473026908,-0.07945755572996702,-0.4124730894464574,0.20910189084710934,0.35723185635415244,-0.2919825666189317,-0.05984000926738725,0.06670366442186594,0.17008985155184358,0.2553970728516155,0.7182071421178491,0.2518921068863816,-0.049083314522019236,0.30739037340034153,-0.21513647855975157,0.10998476929228644,-0.49267823564341595,0.43377737708536745,0.3203174214001203,0.13579605605667502,0.14499261594204318,-0.429959043061742,-0.06977321423029731,-0.1602784797104764,0.008757898081296926,-0.10178443643459692,-0.31760367566784,0.24393614028347416,0.31573569812172947,-0.4265631521189686,-0.15386417657573181,-0.5196555198214717,0.17599035831525256,-0.07567309085329571,0.11723250867759609,0.005801863308029476,-0.3478488275523022,-0.5680590304200329,0.2846937675406079,0.33562096470160363,0.7127918587410459,0.8087472954678507,0.06087170606713354,0.28332025725038323,-0.6336770368091603,0.5404125748703689,0.4960852627620839,0.5257356751425774,0.08929862214588326,-0.020958037206345623,-0.24828690278830262,-0.47062576809298057,-0.34514425188315984,0.16771465344016684,-0.07007236679886537,0.36148842494073574,0.06605827285013949,0.08330683995643005,-0.6659605651268226,0.42296452842656723,-0.06899990961223469,0.01962808132111223,-0.133489177893273,0.06261398294899846,-1.2801983269715451,-0.07738271443714977,0.5997480129271912,-0.09002552768189863,0.12217288614885351,-0.17774214532474303,-0.12252433789328368,-0.4994565406945946,-0.19470295753150318,-0.5390869408883506,-0.23224860602271566,0.08776604372857233,0.377047726119416,-0.4426973529699199,0.3117609029682924,-0.004413884201745326,-0.004734792470535042,-0.30176292544187844,0.18630361524673938,0.030373554296695224,-0.3402821001876575,0.14575224253377306,0.24612573549994177,0.09053652261780219,0.06363243092132233,0.38511864931711076,-0.2041521313440595,-0.6873364557690878,0.03261136700446332,-0.15453222721724216,-0.40142864188199284,0.08585708906652406,0.3766967954066241,0.6130813886670009,-0.4036496297613773,-0.39518361932851537,-0.1485675058560951,-0.4053978606382319,-0.20424157175921104,0.1598669903870841,-0.3505595938676642,-0.4361176012652745,-0.01762186787230177,-0.7075225047984421,0.7927574850377459,-0.05524185917391238,-0.07231998995806038,0.21827611056555862,-0.04703255142009638,0.33774136795744514,0.3596708979462707,-0.42067235460903396,-0.3972345062409249,0.23094712527904912,0.22131685395119569,0.13087555473905346,0.49678621806277296,-0.21650189494505523,0.06140942690350329,0.21674846669490502,-0.578275176347731,0.3542736910485633,0.059743724486118005,0.09484872685677967,0.8982886073790479,0.012415336422640668,-0.21305036944337824,0.050721666511139615,0.5622373939495472,0.4079331863809905,0.19096322788940967,-0.02812372180506287,-0.13190734164820905,-0.27755919842297766,-0.035266201275914906,-0.17521524466521193,-0.19391918945888878,-0.013288368295358533,0.28140954455042866,0.22086531899117803,0.5843284054077101,0.12956880859895797,0.7519419135231529,0.19697399439521246,0.2918871614366858,0.4199722428715579,-0.2883410261481929,-0.23483138428847672,0.6225779707361616,-0.23607840043791375,0.4899102268548094,0.05967580731020424,-0.15453487173532737,0.024362535640367645,0.4518187622347944,0.004478526585995998,0.19268385861921172,0.18054889632383403,-0.16175818752537618,0.32905557834434257,-0.2303313362309675,0.07873429429868864,0.027687174107881903,-0.12954341463257768,-0.03487384379004341,-0.28445282818437956,0.3037668554200633,-0.2956119294460552,-0.4880872892164067,0.32078810586672846,0.17975494774877904,-0.3565896744912267,-0.024982095736189997,-0.34825591617487023,-0.08160276892007509,-0.16918766736223032,-0.19519302213512219,-0.20604333126816837,0.05556339379487444,-0.09831344531103388,0.0103178704378936,0.28133529332415375,0.144803681248472,-0.3134107148714587,-0.09185492812143943,0.12371442821533614,0.7211692850914321,-0.246985775206139,0.7324327274262092,0.8005754003509227,-0.036426416907830085,0.38480379315905594,0.26485563136515256,0.21782219143568796,0.2210137294223992,-0.12880726848598217,0.503264500102547,0.6774398804815137,0.4950443382033798,0.41070149857029353,0.2649587803716189,-0.016170046139305342,0.5816995785080692,0.1681449368069312,0.05793579890483968,-0.43496401976381766,0.15370899268479288,0.2677809874501727,-0.21411608029146062,0.020942031963706306,0.266913594934729,0.508789209142554,-0.2406894391937624,0.6447289329905289,0.08498433791989517,-0.016065072468434326,-0.15849512616251665,-0.19223183063077962,0.559782998841839,-0.013752751459394374,0.5596321598245144,-0.25788223415148837,-0.45078662786039164,0.11406171668635895,-0.2619503809191005,0.47294845392609897,0.23094675917810759,0.3609957703581939,-0.19146524727230593,-0.8683851059604935,-0.9073760342620121,0.08225297740868358,0.8071872165277614,-0.5060717115635645,-0.6805502880288073,0.20499526654831973,-0.12740375809701282,0.17623012693304124,-0.10929448817298394,-0.3976438647684349,-0.18004735046792525,-0.826627117370929,0.04220312701231498,-0.21561574506074913,0.06816175010682321,0.013589476136794319,0.15518142166989837,0.044245835937849545,0.5843215020656369,-0.20772865401771212,0.06809920075603897,0.05365140005101729,-0.22591018796709073,-0.49058206596857123,0.013439122284295116,-0.25364947006264404,0.18386282051777894,-0.2922550166227437,0.5156101127789692,0.08701064121605799,0.17546893391090176,0.03207921000455392,-0.06164048629667528,-0.03886125801830001,-0.14810099080078107,0.4471161933660837,0.03774120545745793,-0.4119066295631395,0.3289281985133363,0.18662445308201256,0.8561101176180851,-0.41673074020474377,0.3692451299275358,-0.152152960541546,-0.04633878867000488,1.2676705562498936,0.03642746826845181,0.13009541404681976,0.3934703356985609,0.030872262620165812,0.30603768566835704,0.2939372164364864,0.150432158135608,0.26635370674316416,-0.06085383208830508,0.14614127224331364,-0.043791616271177725,0.5468546809246568,0.4466782042644463,0.10947808383009962,-0.0019167190904772894,-0.2990539064048389,0.24339699280971136,-0.528704909492416,-0.06590949346086183,-0.07510656924203368,-0.3236698750787558,-0.020722101444734846,0.1469973602760372,0.21693561277835918,-0.7360367140283839,-0.30659511162524533,-0.4193833684906507,0.08865543221162264,0.25379767937260567,0.1843760365659513,0.09585257731512872,-0.5506911703396792,-0.1807741793255117,-0.1775371321987333,0.34678049900879826,0.13794570721227783,0.05077306272815664,0.41530182255648307,-0.4351905774246929,-0.07796175777184108,-0.030876073222304182,0.0032466623948189757,-0.5727144800213457,-0.3340908691651732,0.0208038398213191,-0.02560333714987866,0.21398918797068678,-0.11037183830726462,0.06135653380237906,0.11265247419070357,-0.5056052193444246,-0.24308501883854888,-0.011374227218391032,-0.4083724965861804,-0.39884482254395176,-0.21141185270820928,-0.6322284376594433,0.3505499989173625,0.008559428661754765,-0.2059188893820576,0.49193794801188756,0.5708336389852283,0.4367306509886559,0.31188476659068554,0.22887903037896606,-0.3245283531813297,-0.04920730125032601,0.09657408292199714,0.4029847968189678,-0.032346236032962,-0.2442572101390881,0.016260294563448848,-0.27987364550699373,0.10203564325937546,0.7366935845622595,-0.39709318519353975,0.2878647166758954,0.053875031802027594,-0.09244252453971714,-0.44834474447614087,-0.8258179023886522,0.43945036851037395,0.16306299214944364,0.17193280629345237,-0.32607777042603103,-0.302408842609901,0.08571159978539833,0.408450239704576,0.2653068169510713,-0.3065690398821102,0.05932703572497908,-0.20558552422932788,0.2563615716755035,0.3609927849506743,-0.753238182213968,0.13310194061485323,0.18381478123550749,-0.1507032393884432,0.16880103051295126,0.254706919261221,0.07383561788600354,-0.2707526992706821,0.3413165053076805,-0.12341128708269564,-0.04547927537232753,0.5790140120724321,0.547498667371746,0.5670368340757513,0.02989095351948536,-0.25239535478234193,-0.03041129904764006,-0.3875356558587077,-0.28820637787592,0.3174295029078404,0.0031838269333358186,0.6103979624215548,-0.13953400008895006,-0.10526390204320443,-0.13355455333027363,-0.006926113503959617,-0.3573401512129898,-0.5989238556024427,-0.9820138746533892,0.2080940631174728,-0.4463668960660632,0.09508396792995176,1.153379867099992,0.8249636408511402,-1.3873813725620243,0.44037494500207097,-0.16431642821390557,-0.07850831108537464,0.5766004651770005,-0.10813554530795287,-0.008842744754616513,0.34727812925939755,0.06422585805680242,0.55449550596279,0.41847602448016785,-0.011094939374611427,-0.07901521444350977,-0.18603382645331665,0.6188591108566786,-0.37142935941083144,0.12084945341486701,-0.1791793496919158,0.5643366694228508,0.0782476256131633,-0.3908656020691973,-0.302264502954969,0.22263440851696167,-0.0790505293956608,-0.009460749565629843,0.7009402931524397,0.18995479062745452,-0.7127002703057836,0.4742971111026096,0.03195955881996104,-0.04856409314239901,-0.694601895226396,0.42430160677355927,-0.055929403582635394,-0.24187685553276606,0.10437317409006251,0.21968805679695036,0.13676027405822466,-0.40817061003961935,0.5014816947742952,0.021552621118187395,-0.3843238831093709,-0.3759982193092714,0.038298348587576254,-0.12611315259952485,-0.16649803332736257,-0.3710167655716667,0.6556379390124825,0.07162185952371655,0.2927176775459947,-0.15030121397012527,-0.2854388271653389,0.34620469262630993,0.022298172192637897,-0.5322387200795414,-0.11688109802770522,-0.21811222846563139,-0.0003323693929880276,0.2141369044585878,0.46704827406210797,0.04948159994816385,-0.45507709476371916,0.19558222896443542,0.020951178587496646,0.06791905351506677,-0.08157401806096994,0.07459345273349402,0.762108360698425,-0.3504246810324416,0.19180811496527128,-0.07423816511705308,-0.7240275370770475,0.2181994884084112,-0.1431389869693853,0.36851413999692606,-0.021953884094634172,0.4343156813253146,0.03907294520005121,-0.32230815019616177,0.41018442322913307,0.21722293947598253,0.49729909912914905,0.3587039260765977,0.4226638786658462,-0.08733539475366137,-0.48068344291067594,0.6446426054466988,-0.1961588840549484,0.11415547028217793,-0.6008387304650344,0.3696196714107937,0.16610826860802716,-0.31383433202709343,0.08650961336534936,-0.1351745007936496,0.03834722562992922,0.027826367982347465,-0.03923237481500561,0.28445707523527153,0.06483977443684648,0.08512687320825468,0.049242162902310274,0.08631605798747802,0.2125970296951111,-0.3199127744875999,0.35288459082340234,-0.44658614614033154,-0.17666281210680698,-0.3106834142154202,-0.28575427316998386,0.12666253267690875,-0.26751280023954527,0.8204299508107992,0.27229955610159146,0.21289477626210448,0.03857125333483813,-0.6084907804547541,-0.2327341443766281,-0.3971832078253412,-0.023447291554566173,-0.10915143350843841,0.38263757659662023,-0.5357810599694284,-0.8073826437415796,-0.15226968021666282,-0.5746647305403204,0.33131408332971224,-0.05034886303289819,0.32305315658494177,-1.0731501989489638,0.4326122261649355,0.3255977517386651,-0.194364592559351,0.07866575745463539,-0.5494671437811466,-0.14934522257342198,-0.13466531129327772,0.22753172571319952,-0.36572656245304047,0.06680011568482935,-0.1932149432130614,-0.3967406849172854,-0.19566002747778746,-0.20030314523658438,-0.1788109536172879,-0.2758985164485908,-0.5617235121820661,0.6437154299922435,-0.09704856847418389,0.09244404197040154,-0.21960915193476555,-0.2925943157127545,-0.16061818656840676,-0.28985752450813496,0.47411372486265957,-0.520087917051056,0.48823762520554514,-0.24223283842767954,-0.35203061599396424,-0.29480553595501857,-0.32850179181165345,0.6030691273214642,-0.4487128292991571,-0.3955613060071011,-0.09045006032218823,0.1431367645147193,-0.06269063832625126,-0.0749863883697118,0.12755414318801225,-0.5666427007645274,-0.12089021089140636,-0.015395412811462466,-0.7451517274083443,0.3503526498190865,-0.31902647879036217,-0.08735677716523922,0.0033435356605205006,0.11837657026544642,-0.3037759792465087,0.0690175616721059,-0.10169167212221278,-0.2783810197048378,0.06232410146786684,-0.09500735173078499,-0.08769104937468758,0.08104376623958208,-0.07924939107824448,-0.3838905637789936,0.1892339562740935,-0.5541801644955785,0.776405174468617,0.2756324238417325,0.20382090902270542,0.20822035658668994,-0.0673066737353168,0.03699069648561923,0.5523942597021835,-0.05735703159001694,0.658715877915752,0.10401168497680638,-0.13699754135033276,-0.6915423052860611,-0.031056382637976623,0.5038353984684336,0.5787987048530666,-0.10951998032710208,0.060948998179839994,0.22360932105478357,0.29972434329944303,0.528978358482455,0.493581268854737,-0.10552447180366568,-0.3452816878006795,-0.48923529029613994,-0.3141152521729847,0.4797374847319533,-0.22114890941305163,0.26597108834587296,0.009420547099659825,0.5847178299944398,0.518119489841754,0.22491753075585064,0.4505886889826361,-0.058991678380987955,0.6382643717495925,0.2745145532554604,0.15877535974364532,-0.163703311158606,-0.18798045872742386,0.7173480523671171,0.048624411464401204,-0.20598801112274936,-0.6201317347904297,-0.11791095480121536,-0.16767670751136765,-0.26039953084610984,-0.2786092893954285,-0.12685206933470852,-0.36115600892230876,-0.8005015176639547,-0.3955193183696675,-0.5857400564568592,0.16736646226464455,0.06533282272733398,-0.1380881266973324,0.5288015744423699,0.883491033251673,0.8379745965178053,0.8522975305008245,0.053635823383207465,-0.03300105055723836,0.4563037728984483,0.25378055963209734,-0.3977666369080351,-0.07976095550564694,-0.8527527955475802,-0.30156475827560064,-0.22542868856615178,-0.831645329497475,0.05129198363932385,0.10983838293207952,0.46078565481084616,-0.8471812153464144,-0.04199999721753115,-0.39166798603014796,-0.448685968449058,-0.6785013385742169,-0.054567055333590686,0.42813535305090294,-0.12018475445348023,0.37994781067341193,-0.12724337912889025,0.29117295246329983,0.03351815431772748,0.3614202222930558,0.018825843127123296,-0.04855280844377566,-0.5549783526910474,-0.01394662432745582,0.07672770628560327,-0.3629825801616071,-0.22620491833393497,0.10946237305090219,-0.44815223443091085,-0.7074297581831661,-0.4285022468599848,-0.3392234554892741,-0.009801214430234963,0.2603090543958998,-0.1966225663427668,-0.5523584772208215,-0.47163532007852754,0.8841650565549951,-0.37975119664629625,0.10927451431029982,0.08248285230822201,0.42841828408241706,-0.36538792236810674,-0.2974616111700024,0.027063263161262296,-0.2954808735202415,1.075600483614633,0.2846065256931911,-0.0590956092648056,-0.5518548009388666,-0.17731871880324696,0.19857500015106533,-0.351344941830831,-0.22476356610857925,-0.07623592289678918,0.03641012779374938,0.05773017373431065,-0.546145391535796,0.033552259854749564,-0.044133838321184435,-0.2989587790211208,-0.21697392302714416,0.07489636228682182,0.08476638207164638,0.2218221954917785,0.33462178009503674,-0.6332269044476717,0.14730496790018935,-0.26317031291786214,-0.8841869214911775,0.053928319341084614,0.12456420007544335,0.4986424720885452,-0.24883784850938373,-0.18026538386410776,-0.1654679967861892,-0.41938715501123114,0.5161209529867279,0.18087572405719549,0.35064253322005334,0.03518052985151196,-0.1142898542791663,0.024136483923602958,-0.8581956944911954,-0.46420716106786414,-1.1146726357088395,-0.28584978098227565,-0.9998753243211265,0.16520959825581552,-0.5779045156212506,-0.36708543348048345,-0.21634933165512577,0.7064167307582644,0.23784606969113548,0.19390916815778142,-0.3416646839014992,0.7751087114830435,0.443643995664287,-0.36985800446752454,-0.35509316826192305,0.025415147435680126,-0.016160536490483032,0.7703744623455003,-0.3979623251765866,0.11845590573437842,0.30734218720599793,-0.08697185634059432,-0.0852137474275807,-0.09560181848937002,-0.28893270939130283,0.05379906807025645,-0.26253851910122217,0.01168813013477694,-0.058075495861552175,0.054584532826852564,0.3341287436486426,0.023429275157479577,0.0010513035568816894,-0.2603822668549546,-0.3830927012014764,-0.05161813366319385,-0.20372197414013818,-0.44884319502699915,0.00037549877025957714,0.16710691228960145,0.5770495917303792,-0.2455024510876288,-0.15735682106223253,-0.3334294907643874,0.6921394911105692,0.1724624412947795,0.5551853213854097,0.31681554263119,-0.03943431928616537,0.184460286657835,0.23472290104283286,0.11959214992715306,-0.01393865452332848,-0.2055455421450509,-0.5967596934528422,0.08991475009273643,0.22042065516878762,0.25778071383400214,-0.1846200772048519,-0.39049495404481493,-0.7451484622092311,-0.22903850985297763,-0.31086800810098447,-0.518491760067382,-0.1167658715036466,0.28406404359409565,-0.9522676034226851,0.4710311723602312,-0.2488300579786899,-0.33260725445194994,0.297565537711364,0.23137767668032386,0.07087881320416002,0.27069625747651554,0.45109599729521177,-0.49158463183879253,-0.35404472272437076,0.15557840778461085,0.2397105260242076,0.1541747683933616,0.1005464430890113,0.3542278436986119,-0.27166079346399596,-0.4703654843543302,-0.17260279761290123,-0.23340078720851526,-0.009341450782102256,-0.14073616319348212,0.39009028916335575,-0.2607448244720194,-0.9062642481453923,0.33108375206320306,0.40101868494415954,0.15370245890856232,0.20660055168594632,0.329190182805379,0.18591615292490993,-0.02041876363513227,0.1495310218693088,-0.5133474453508557,-0.004683889743839146,0.7242480132854179,0.048723266201366314,-0.516472670160712,-0.8107154697628436,-0.23451402858127182,0.26716816167519475,-0.09162748937924596,-0.27324006807657863,0.4722536082176439,-0.10795113622144635,0.23902923261203093,-0.2956675243597711,0.3277559057594811,0.017151926427832864,0.11118001610491059,-0.3170987710690631,-0.6381606932150982,0.19188714739803414,0.7321796257439116,0.20711114576675882,0.23081202900398617,-0.3602136915188559,0.33865588582786216,0.13263772992576758,0.08080332660456642,-0.2758707244594138,0.5662867999792459,-0.08434883062256177,-0.6505251601793264,-0.11434195644109256,0.13766711580143778,0.36898933631893605,0.39286372126598385,-0.5852244475127157,-0.4936168788036057,0.10500038165863841,-0.6089771948574019,-0.688458178880921,-0.450179256075322,-0.5173799143529254,0.32860761411047934,-0.006656646909633862,-0.344734594910767,-0.00913367981502823,-0.6388224579210915,-0.07904060018339662,-0.5355758597025536,0.2393439353625504,-0.3339064157295073,0.3960873175822075,0.8197776844755772,0.3603891153827858,0.28861855217326615,-0.012956835827274036,-0.2354401728016539,0.4408505687114823,-0.03091900319123391,0.9347359343189247,0.3708619896588071,0.14720713821077833,0.019106234368308283,0.2768622938540688,0.03380167329818327,-0.5465725798921603,0.17402942688842019,0.1783497609624105,0.19051932515560407,0.09420054404802627,0.4499742304771708,0.4545692076381349,0.1707252672400437,-0.9726671225094712,-0.18395585404233622,-0.5979844800892157,-0.12264832400279596,1.0542127562490562,-0.1978775736859475,-0.022525962473996818,0.16677488005144794,0.2615446620518306,-0.3603642124161709,-0.02644689738184406,-0.09888644930936703,0.39724661890761837,0.2929802815384512,0.19250063299761952,-0.3598449724972434,-0.09049933139392047,0.1369460712621942,0.33198964947239823,0.16062425003581846,0.14591992488063543,0.24127867406410036,-0.4827843833262208,0.05347254498903022,-0.1074882736165622,0.11460413975447854,0.46336124203674867,-0.16183771158430338,-0.07892915225822604,-0.2217687711472388,-0.3560947154315291,-0.26346328798109553,0.17622756294488326,0.05096001027909974,0.03077032526013274,0.02932579316103458,0.29714125151282644,0.18374836304724695,-0.24031288668453757,0.6213978806992941,0.03481426965859751,0.25660990796631955,0.6667854218863266,-0.8420543321991627,-0.304569491966632,-0.9864156549834927,0.11698913494523644,0.4339677136113484,-0.23928542009024464,-0.1447027523574373,-0.12886351869979484,-0.17881257874498008,-0.2626121566140613,0.2689309268962427,-0.4932862286229087,0.006773554381138922,0.22872371291698415,0.15209708800855873,-0.5065707146771092,0.567663339303574,-0.0020024086787517803,-0.2541903434380634,-0.37386302092000356,0.24124496599687384,-0.3564447530825931,0.05533971053162256,0.347394176880409,0.12765791585406921,0.07688399382546082,-0.9259051178651844,-0.026351446148807488,-0.38852790372369256,-0.221734382171487,-0.5044944974622676,0.03640600580992443,-0.38371836689746414,-0.2800791412317465,-0.09067430897196194,-0.23736649143930563,-0.2218433775710793,0.5511824395335327,-0.007965009795970139,0.12024767493710688,-0.013828439205879657,0.1845272864878099,0.5144901180081496,-0.32718070064723337,0.024947410777496702,-0.33413078528944085,-0.14370378136749637,1.528118160910978,-0.3319796015648964,-0.09962358678615894,0.1252538172456858,-0.22708403399421798,-0.06794778286785312,-0.28792538395057166,0.2657917897399152,-0.5078127307433825,-0.15314121333907338,0.47156096823003446,0.2661820891637899,0.1080447477767404,0.1958956407316553,0.30149391580208035,0.30894692044459304,0.28323396944258733,0.12265242704137407,0.5301921119041739,-0.27416932951052203,-0.027914519222871054,0.08547667164245487,0.01578346551842834,0.2590076173068131,0.08691707211338706,0.8265306146365765,-0.13820693641798393,-0.04992927489920032,0.167174802528201,-0.2733985456811464,0.2716882400879961,0.4455044253884429,0.5410335684488854,0.2643010144731177,0.050041914154851506,-0.3273326569514174,0.0977322979573013,0.10287901219273683,0.21886890747873333,0.005577250406494648,-0.4484740987228878,-0.15811453606018236,0.4866578956989358,-0.4770600521746064,-0.2058492660019813,0.11233000453904313,0.28609032927342715,0.05159339535485248,0.32564115911961006,-0.28812470828120007,0.07001434664536747,-0.15499788163888117,-0.18272409852406002,-0.4485473554866344,-0.47347965295210953,0.09634279186853001,0.9709023220913905,0.13384192282590102,-0.4748846030567561,0.24901809715349185,0.06099614975363208,0.4809398218529386,-1.026765868672074,-0.2644080615290494,0.3120440916094183,-0.38067674496427284,0.2532155817956615,-0.5760430383225752,0.060232761280638356,-0.29214510359676776,0.28786890302933105,-0.0005245813991984835,0.04176007927560297,0.37727664637491354,0.09898022855185003,0.5098136034771219,-0.33855975673946836,0.3263623342267776,-0.11359304582158157,-0.6788478525329784,-1.0449625411410906,0.12855537558175084,0.2017022923582089,-0.446652019866241,0.3209720632516656,-0.2192910526710039]}},{"function_descriptor":"TwoPlayerScore","weights":{"rows":160,"columns":101,"values":[0.5640508977517377,0.039728611167811054,0.2469523425927896,-0.09323860872561232,-0.2984434828902523,0.29039895016079803,0.8165320439656802,0.14360395937961146,0.41094283604876636,0.07497102699880198,0.697011988492406,0.19170792590614066,-0.2485312127765107,0.35613371116119996,0.1700543982027551,0.0872514119339332,0.2886065052184239,-0.34925704851657247,0.0035527520462106813,-0.3235952321956292,-0.09252972489574025,0.8152107900035644,-0.0040662365740017185,0.24518724739818967,0.4716246108235441,-0.07871507404474855,0.3290771652853713,-0.04436524836958172,-0.4332959163554609,0.06734424793006583,-0.48335381131250627,0.14574209552916875,0.07559839811254494,0.23626270210825667,-0.2680629365240046,0.40865456648726617,-0.512902005221669,0.40122842830869115,0.7465851912141839,-0.2594713242894981,-0.42902687548658563,-0.3590983411557555,0.21447732802263256,1.1199570809959438,-0.3616466776629861,0.176444148783456,0.8889411163441785,0.2996712187513894,0.17433240150507479,-0.047236211670060584,-0.40382925075348586,-0.0650477582789861,0.38845637298998326,0.24894227994081444,0.7743231260444638,-0.7393979615302539,-0.028853598537409004,0.39268149340066316,-0.13922527085867667,0.7270386030873593,-0.49109733570044123,0.5797903771481887,0.4159199573640748,0.4389290215108998,0.25780622042560986,-0.3627223232316781,0.023952699050433273,-0.09328603841541026,0.21821311025628878,-0.1110758663520172,-0.022255826354580458,0.2726167631502878,0.35506081498413744,0.2032272437258839,0.027868216695921218,-0.1488237722162574,0.2853334177568206,0.544424070012561,0.007470786559145139,0.01268002148239482,0.004057461766601708,-0.2603458278269287,0.322618962491359,0.3517072821945164,0.4299120208128723,-0.2754910524594077,0.3046342594171699,-0.4267306714359097,-0.03433733883490028,-0.07419905254078345,-0.24428268994628394,0.23190085928621765,-0.027143198105864238,-0.13400698222520518,0.01585198565977246,-0.3567986933753592,-0.005045626368728265,0.5031085526817021,0.3379607551060619,-0.03555601027012327,-0.2421908699831663,0.5052425738240547,0.30340307258874966,0.1608820116203409,-0.008560125436690888,0.34646476693688183,-0.33833921401915035,-0.12508891853380572,-0.14924230177966644,0.07989219272222339,0.48547698975936554,0.2976927047916953,-0.04726863736268771,-0.185472277908907,0.09638776650985387,-0.17574520642490865,-0.30368329329203997,0.44809138014914457,-0.1176328564669919,-0.1284656975806458,-0.09737270160410773,-0.05540656884782076,-0.5619972827491305,-0.29546988953106346,-0.07127837097923402,0.14888632653695555,-0.1839558942896479,0.24602552753678972,-0.599052156092653,0.03767078054340435,-0.4223391697082991,0.02807546407398953,-0.42935108573636144,-0.30190310937476417,-0.2778151500811482,-0.012817335619779833,0.2530640138264097,0.1611997979589061,0.7413914018664427,-0.12698620414315742,-0.48570646634191256,0.1060397761172049,-0.057442978935798056,-0.29001637555644266,0.06862986307771439,-0.6220309108472908,0.23041603897245427,-0.7888605357246828,0.3387436588687047,-0.38756409848974555,-0.06735782452756303,0.030421380532287337,0.5270665661935492,-0.14940972377610456,-0.4403367429732976,0.5872644952272704,-0.4112364517692867,-0.38300014187818554,0.11690033082171711,0.009763735587421897,-0.024025689654357085,0.04911824482185606,-0.19947267409924452,-0.1266453618324934,0.08145634387482975,0.2631963176803348,-0.20696650881082718,0.08003568019033093,0.14662096694763405,0.16721100295268843,0.05892333240216743,0.5576596442170588,-0.060051880921587544,0.2546004186023381,-0.4183560996025836,0.4906962796729005,0.29242026515204084,-0.4804821069076796,0.4901666349650601,-0.22320927596266804,-0.5834405326504635,0.02984467658843263,-0.3158751864447684,-0.2979088304417039,-0.0833061534884299,-0.16059907978607368,0.43862783984919396,-0.3098796911766348,-0.4754938681845214,0.251275531374908,0.09928733788016299,-0.46595274281802596,0.10469218737265422,-0.6806877752315689,-0.25146684998978824,0.0625929923418481,0.7229990603085459,0.34505832488979254,-0.5060086486428472,-0.16971184069692918,-0.07303927203736102,0.7522381396641701,0.1072519913395696,-0.2160987815806935,0.20588612904201642,-0.04172524925836227,0.27853922503363954,0.05839990679090651,-0.31872563452857483,0.4728011207519499,0.9951733550732202,0.2570760100439495,0.510343721318711,0.4333908756093791,0.29925383835543995,0.10917031676006508,-0.29675960752900976,-0.6240747559354718,0.12274939970126421,0.061958397309046793,-0.10973501947454324,0.15919049965851811,-0.13420056728642243,0.25107707696716625,-0.12756321431786843,0.09872822433078955,0.028041262950283065,-0.15927865703359886,-0.23916045200696542,-0.37703238322064164,0.11112351708490267,-0.6268313773599523,-0.04035324803036835,0.22318933337986718,-0.11916443162535699,0.17915464754875543,0.05696253833933278,-0.08402317456866853,0.237571642082907,-0.37295977923522133,0.35580754797367586,-0.04628506025458178,-0.09457018838579449,-0.15443262922206882,-0.17572836409772724,0.2632900369748189,-0.117337715735044,-0.13619302386128845,0.3625867846910603,-0.03955597118242539,0.09319310382203602,-0.217439568607604,0.2348687456854083,0.16588996644099965,0.17705324337538514,-0.13908390391869468,0.07056517753762769,0.36444479487320136,-0.3628153794171746,0.34142109979065705,0.13282916730801314,0.869432426778234,-0.6402280962104728,-0.0013579636954529548,-0.011124665842027455,0.3114007971854134,0.19471463592248467,-0.17590850424282167,-0.39129010111344326,-0.2979973218550747,0.06313093585817017,0.7538635566564907,-0.3896606868642051,-0.7367609803231799,-0.21565602404840042,-0.2124664754094457,-0.015664167133122478,0.8064560708238795,-0.33620254203230465,0.1456709437045738,0.13569651039047095,-0.03356009855823397,0.434072943490366,0.1933126389152927,0.046446761773602394,0.0842335418047658,-0.10345587986747362,0.30033408531931144,-0.1908316354713982,0.6124357695512799,-0.30519666520306554,-0.4390431149401197,-0.5197304175730254,0.20083545017824717,-0.06533925368290552,-0.2568421472436014,0.16578090059661008,0.2921575716461223,0.03186872263447029,-0.5104287619957288,-0.035272067011434864,-0.1297060649280775,-0.09361432722468185,-0.5657201538244855,0.08352394724394387,0.31493388615512874,0.051351259101741834,0.11601254960294655,-0.609899113806033,0.011741677968517685,-0.17261288364300376,0.13910104921211044,0.3339843617624954,0.0789278549784586,-0.4631624617548625,-0.040892374053764835,-0.017516881643744025,-0.36823172119728276,-0.23808385946917032,0.4410294116481982,0.3314052250693298,0.44532506015821566,0.4241383977509361,-0.010149766786937665,-0.3974077234945561,0.36226946824117096,0.22088004255562116,0.22755588500585705,0.7509614931087284,0.09326345159515614,0.5170012168653131,0.3073520354903586,-0.46518051499287966,-0.2243287923456301,-0.2050306424977749,-0.5257032797614827,-0.8800667675961896,0.04895726635514979,0.006640515638464457,-0.37001338366194086,-0.24885237659596018,-0.3254841269706377,-0.3367449019343087,-0.518474150041287,0.16235820041466878,-0.2106339795806133,0.31035813575969595,0.08174208767550399,0.34400779053335057,-0.3013926407097335,-0.7709169097179525,0.18441481559507428,0.1866582032477807,-0.30835653056903406,0.07385007420610908,0.6023231741827866,0.06339695091837896,0.028681301438181005,-0.042150571262230305,-0.1818173197113943,0.034339757999713325,0.2241962823174969,0.6336056430819942,0.08641721772224079,-0.0964041773510613,0.2177943779573161,-0.500758622828391,-0.24240608658826765,-0.10934673068688025,0.15723940378303555,-0.02139121211077884,-0.2592581462723743,-0.43762797623817334,-0.30414313224944495,0.22771707293826868,0.0979981680921131,-0.35585861707677835,-0.06104614700273378,-0.12873380946734814,0.1247722959319696,0.0722221687192932,-0.253685535403261,0.45810803703370856,-0.4049439845874836,-0.5334556519091176,0.7824198953238267,1.12167884501698,-0.48258182768825736,-0.5515204754305605,0.14203927131142696,-0.07996363502274927,0.127194548994821,0.3195188667964951,-0.24014791150841905,0.061024375315155734,0.060690585151268975,-0.22527221433700273,-0.26932087530978,0.3848742729570282,-0.4695818229857682,-0.2962824219438752,0.2650245135103154,-0.373253191360183,-0.008702741330822094,-0.06362303224260152,0.10878354301561843,0.010861924176196445,-0.46258006554028475,-0.2801983542053177,0.5830289325034523,-0.03737652663483404,0.16709524073750692,-0.27131992318087483,-0.4377960991722719,-0.11223804316047928,0.126907244933468,-0.5672970123029775,0.048563150510882884,-0.607897372518055,-0.6099897452176668,-1.1159542066853054,-0.19170012872326886,0.003050755449375309,0.23258890679679742,0.4647948898337777,-0.015066316488829166,-0.11785295066000934,-0.45342551731214625,-0.3907610156784541,-0.3459721517561089,0.09808171382015979,0.05818783836970789,0.34573830073528106,-0.22375781319914015,-0.5965424133930561,0.1330854572245004,0.39812765565136377,0.24164710310073698,0.18189880725150262,-0.11029003293116332,0.4005825658087309,-0.5506717995685289,0.3439171350280719,-0.11691373123794722,0.057067768288587485,-0.3035121229231369,0.25246503243734764,0.07334905867964064,-0.3127067921704779,-0.088815309046529,-0.4245765532071839,-0.16479119721794247,-0.022592454846364254,-0.3995683237755668,0.139082189974484,0.10355630024943978,-0.0686313963642004,-0.2629424219835027,0.0012579271709306438,0.23661450485108063,-0.10179929570883023,0.35646754612908,0.3313790550789919,-0.21738820634725664,-0.04173481667635205,-0.15417649151139676,-0.1943642559275867,0.47069135844848964,-0.689260609042377,-0.15215458393454268,0.2863719414340289,-0.26433703601256403,-0.2118273764814592,0.23627190359001218,0.22951420909353024,-0.5070993736229916,-0.6371972854254009,0.1392603147741377,0.0986840185253527,0.39451029320627146,0.45437879564475164,0.2317714185722007,-0.1360161377716379,-0.21109819647072592,0.4986249176353441,-0.20114762878284376,0.06560708016058975,-0.51357123411367,-0.3054035812589056,-0.2835654039520758,-0.3889642933448962,-0.5454299449586397,-0.21035840899306388,0.11573391736680261,0.15313336098151117,0.13667910301385192,0.15568098971183797,-0.22667224377177883,0.04417904522902377,0.39694438039004803,0.041951575800807606,-0.07327085892552816,0.018113008328443193,-0.06359015554109405,0.17566753140693592,0.25685515484926036,-0.1350753474358821,-0.1981512353384271,0.011963135198667735,-0.2919368872618262,0.43524933495680035,0.08649370857383183,-0.3701822679542284,0.21580133321297074,0.08130482625172691,0.2653945906177854,0.16636918320949431,0.17499112818087775,0.23909735292988973,-0.14980081181225458,-0.348177795853099,-0.11821656746273153,-0.012163629066854743,0.43411480286504317,0.044100653565990466,0.4802938608076266,0.23210637260624667,-0.363191199088908,0.13593883210599889,-0.15576604302240638,0.2318879716810322,0.030350406064941667,-0.0849209444747803,0.0617864070934904,0.109404285634991,0.43120955539858935,-0.09074063807108827,-0.3952991846061275,-0.37229668068024735,0.06744366465746299,0.2912249014003414,0.07406894695174537,0.060793032983800954,0.6075998533294917,-0.06258839630298604,0.21549695994007292,0.075860889395579,-0.16528111900857725,0.11878870638255036,-0.21577848242203793,0.5147406320249405,0.321888835850825,0.014419651860759532,-0.44958834523621927,0.0005340063546243843,0.8450450024503423,0.6148736499315497,0.10493404864971204,0.06232767316810944,-0.24390616241000232,-0.13940749987274745,-0.17909374003227418,0.29144940070437736,-0.26721234681692857,-0.06739147490356324,0.13787760310661393,0.01724589458933543,0.22207928049058812,0.4142796460287595,-0.06515825559325175,-0.3418251533779584,-0.3495985939638075,-0.48813738515789706,0.12199834369721435,0.053762113313483774,-0.4383401112653228,0.1986997264899994,0.2158121323739522,0.19995226686779732,0.06084147497629984,-0.2724573762906073,0.20853496105515149,0.3473329619008925,-0.2522958543202504,-0.2600786799420266,-0.13239871878864715,0.04730583305577934,0.04514948625668394,0.10844050008056601,-0.06977584398460143,-0.14863518448395122,0.07103169117885899,-0.02177530248217993,0.1656811221935999,-0.043708695313314144,-0.20743893403966418,0.34578337964842093,0.054456327852207234,0.15364895886530044,-0.02115477476277347,-0.47955979275196164,-0.07618264700395273,-0.2974448876583124,0.053364720886135926,-0.35280953310462787,-0.3201988843108026,-0.251933391425765,-0.12083014976576814,0.08134154423466068,-0.12966454810139946,0.09234299072484246,-0.28242934585222174,0.5696037519927307,0.04784929108219902,0.026933497899352038,0.48170198700374467,-0.15595123901157176,0.07156140951717671,-0.06731781365869713,-0.5072145240280411,-0.692247139482819,-0.10843230744368108,0.03759087631059063,0.5681470132878859,0.008273770304324028,-0.231326194213396,0.55978281547287,0.10354635730578703,0.7136278613166347,0.06319324490728903,-0.5639600476615441,0.22966385809412249,-0.4805623821415801,0.05786548329353789,-0.5068453264411004,0.052080312762111634,0.38275237164204856,-0.16414630682620143,0.04441184440211967,-0.11453410575325272,0.1874543700066848,0.10221743086321852,-0.27829961204244713,-0.09816914244158934,0.27668230158319623,-0.26615220227483477,0.647867232977077,0.13636746166750352,0.11380448527256537,0.3685124814330293,0.030648613864713684,-0.24423079342895435,0.16379691007561498,-0.26514343674970653,-0.4113064763961385,-0.17646432777018772,0.20956464346018128,-0.01699372183583856,0.46245137104294415,-0.1988143193775825,-0.28335682194546546,0.4318970413671712,-0.23946879648051542,-0.021071803212761114,0.4305456096128111,0.017817755712475764,0.05520758731207435,