{"value_net":{"layers":[{"function_descriptor":"TwoPlayerScore","weights":{"rows":100,"columns":43,"values":[-1.3063992928139136,-0.1720422127983523,0.12287660648107705,-0.5861309309172129,-0.648086488500418,0.37270186227172225,1.1386925864887902,-0.2559214527764731,-0.978950539836766,0.14325902839057253,0.2770377388228,0.4005858460729717,-0.015245421471837255,-0.29809996984139875,-1.8404198852541338,-0.2344617667233991,-0.545664686758121,1.2648379068795406,-1.0770092933894457,-0.22425646215596945,0.26597966994947864,0.7371632225922773,-0.01095086368064509,0.536005497602772,-1.0386569899820004,-0.3969135456428444,0.27107560289518856,-0.48800654371294333,2.118539315510851,0.08592439906710615,-1.1017600909086716,-0.12333060596401545,0.5897038294308263,0.6408721548069162,-0.008876249651430222,-0.8968333714876414,0.9508859766235419,-1.3618076551843414,0.06436212330542,-1.4842806023992008,-1.2546786001662287,0.28985300809327746,-0.45125147764928086,0.8420846731991083,2.0041332353980623,1.228674421483405,0.44621809735257084,1.1443717558689983,0.24509109290079636,0.21023785197822123,1.088025186743983,-0.8312858799945454,-0.19270964256210882,-0.3922677192923232,-0.6561485380042705,-0.5421885074631545,-0.4496033197588436,-0.30363945179224416,-1.3106757887306517,-0.44578540637874225,1.8309242435120563,-0.646877809883302,-1.0214110195322055,-0.321346203101182,-0.07036659398649148,0.6572813862146244,-0.49830885961197846,-0.7562869829067491,0.11310730600877325,-0.3407942072755652,-0.7633407300543209,1.4428916314590603,1.0687613231297202,-1.8122781130651349,-0.8982888381786649,0.7999810602458423,0.31491420702896744,-0.40181867628509643,-0.628236081227248,-0.08682728500482091,0.10497572961865692,-0.8558430019626228,0.012883840961874449,0.16564434166874997,0.0623152631992525,-1.0294273988771632,0.2246380673383451,1.0772739859170004,0.20092577655471025,-0.694948945579894,-0.6628793487879884,-0.5986226522470501,0.5997953393323713,-1.172060483682736,-0.22733309818378544,-0.34204754458541264,-1.1550654330612211,-0.9189258804463173,0.5371113847396605,0.1373100295098036,-0.929970746001665,0.8690878009437116,-0.30562067342132626,1.1112249143777584,-0.47404162522657095,0.33972623588897216,0.3242385479194284,-1.2461114507920414,1.8569196984556755,0.2584175912698475,0.16824362192350223,-0.4670877466594251,2.4873804402032205,-0.22519744749651457,1.9325008485232078,0.5140969549642069,0.35893064233806227,-0.36955722370718136,-1.024186691714603,-0.43789880830338995,1.307171590759961,-2.1829208343915902,0.711838667488527,-0.13085925200685772,-0.44260908063923654,-0.086775077723514,-0.7539109430612816,-0.6807003657802616,0.3471333232960757,0.7419852112852077,-1.247159808309505,-1.2150495929513603,0.4097092760386052,0.26806795785289794,0.8806196640410006,-1.9571403102423472,-1.0675854473783726,-0.1785113043051658,-0.040737646825570926,-0.3746405574941599,-0.12383062956176816,0.5399894529087093,-1.0826197061037877,-0.012822442065716531,-1.0075929368445269,-1.4964665458711195,-0.8368902032197975,1.6387394817376584,0.34073837046536776,-0.5241500110721868,-2.362243897232982,-1.7562678591381986,1.3625511673762616,-1.1532246492343878,-0.39444894071220615,1.1174162983197375,0.696153607690394,1.0778801936909932,-0.6400480722997667,-0.9968731296915073,-0.3311553301718598,-0.284571353976168,1.2089039185678303,0.6284650502985608,0.725660681788963,-1.9258811013454273,1.3358444345521263,0.7406660268636812,-0.3938980013221097,0.46727503459508984,0.5941923485665797,1.0558308338140907,0.714027808884916,0.6963065032751482,-0.9576431533869469,0.3532794211240432,0.258647307824164,-0.7611916707773816,-1.004597821408658,0.19049887444105326,-0.1058644448658179,0.35810047694350916,0.31288405936378094,-0.7649859039120683,-1.582297102905555,-0.5411662007970254,0.2527112438787722,0.368434611185653,-0.26999639657315133,0.6212261235717914,1.1331099347861946,-0.7862357916865951,-0.23696337753269672,0.12929655489157996,-1.2949175120872078,0.6646897812230079,-0.16126061192198135,-0.42272253178011326,0.11700075654226563,-0.42557782243408643,-0.644090176798328,-0.8196967268407929,1.6623590208098107,1.4608808014462742,-0.05548455604355341,-0.1635783302291038,-0.39636134516805716,0.13417677046509877,0.7490088843398527,-1.1881857814358516,-0.5528203239855674,-0.27528516943412307,-0.0853453979529757,-0.10417114525849998,1.048756433723562,-1.1630392442592037,-0.01632758541178492,0.4084241672093883,1.2584119549468615,-1.0898578827795549,0.0422618456029423,-0.6032145818234173,-0.856657728419794,-0.9226017475328885,-0.44574634364774546,-0.3943106970045887,-0.8007883901307825,1.6199274358070717,0.7610396986715401,-0.18252863128310526,0.7725467118766172,0.5959598973262807,1.5048367574583807,-1.1852684299108158,0.40488447640712355,0.25593127901666046,0.6481763726965922,-1.0854743798350925,0.3687379988107906,0.46603849228112953,1.2622482640698265,-0.1327036738119052,0.958613177146172,-0.600834412672362,-0.241526862253808,1.3568998074394778,-0.616459861617592,0.3028617489442512,-0.04646447757213464,-1.2008534125709005,-0.3196916797518601,-0.30043253633508477,0.10975692403198539,-0.5644273724101675,-1.168466049874027,-2.115593368731576,-0.18422269326549692,0.9953858158100599,-1.3253722835011623,-0.3956515615721332,1.2472254302759382,1.9546963286466765,0.9067709291076934,0.17123566361241577,-0.3591725529350033,1.0827404824916398,-1.0257703714539588,-0.804273331691135,0.25665036231503724,0.057555479365335595,-0.6592247171656318,0.32226727489114404,0.11453209510398694,0.5254178778382443,0.04046212864612754,0.19040642665476162,1.6430030556013933,-0.7528145811369802,0.9725730641005413,0.34023358632821177,0.767878723533763,0.2691550952175313,0.13408184281681415,-0.48894694267916805,-0.24648151432172286,0.5831852288170798,0.914599796518394,-0.041682311873559606,0.11986991059271572,-0.40622909026616566,-1.0902224656642472,-0.4864637508233764,0.8733447432276026,-1.7410934675773708,0.5828926401534313,-0.48067076043130114,-0.23972145576022777,-1.1439706107857752,-0.7239843315675982,0.7204470037667088,0.1053190981580238,-1.126800021562274,-1.1930101740340386,1.4804813988156738,0.10051092239039498,0.27277693496472166,0.3311112741610808,-0.004904708569421363,-0.3727923625200651,-0.9337848620141976,0.5540346558625939,1.5066918545044898,-0.5387384383440469,0.3666010302734064,-0.03715375925037641,0.854358366131637,1.0877194296508466,1.6579132290807572,-1.5062819686264874,0.9463791671947044,0.9360708601486565,0.2817071082572609,-1.7294240135741425,-0.05007050225893038,0.03831397127126815,-0.43957075115799094,0.5610600218710586,-1.4833973260455764,-0.37989263903597087,1.4326452250359056,0.5590730309087565,0.44694878760252954,-0.04536281243842932,-0.3817142157841485,1.933984168161419,-0.48449707917858065,-0.9638961856835179,0.8231870180790206,-1.0792574996688802,0.23786982837535112,-1.4435734096270822,0.7669818135986823,-0.5466744738473894,0.16884896017546397,0.06669554119134465,0.6456796377456804,0.7275872315190812,0.3883312526336716,-0.411917932555978,0.49228316974140446,-1.7855297016802014,-0.2401409404760101,0.560893251997267,0.5961176140691765,-0.2364660252117446,0.46479007767701935,0.4294060733595236,-1.1038997154787236,-0.6478024054756552,0.384819848365276,0.2818870121829312,-1.3415068893657531,-0.7585693618997932,0.14611096201373258,0.14978049954270564,-0.9532985917455429,0.10578230714177345,-0.02908413729228765,-0.6072926139859582,0.3948334432795379,-0.9190734665138495,1.1949523090345449,0.41361574144357666,-1.517898176593327,-0.004230173160752629,-0.37746802907806604,0.07855158700001783,0.4797153585303488,0.07578527334283779,0.44706774294872376,-1.7888949332212252,0.6789356893228512,1.107390635300565,0.8562339703631632,-0.07835037970387805,-0.2901957024036405,0.22441803413909922,0.6144182612501758,0.4997822024206301,-0.15238440199527228,0.8069245751235133,-1.701323547418292,-0.6031642931425214,-0.5137431344165014,-1.1820824913635368,-0.6372663259298847,-1.5616894289169223,0.5208062119960493,-0.6966853369381375,-0.30512168980296517,-1.4893017920035545,0.580183788431312,-0.1439692919959028,0.7930601578201484,-1.4747761576547176,-1.1316919801623873,0.5538694027014466,-0.31350731601293763,-0.3947427412355009,-0.9334431095987744,0.3067279166361032,0.9858673596783836,0.9216773371091818,-0.4039938357152956,0.14986933593265497,0.6191914989959095,0.042282556123283375,1.0401625721846846,-0.35317099094055887,1.3313711979442977,0.1592767261692645,-0.29586047915116703,0.41539430631405566,-0.11103067616995327,-0.09554307279851294,0.6980203132612106,0.7235065913905129,-0.6387419297493971,0.8466901118886327,0.21043836587523884,0.33207352941641877,-0.4255994730487462,-0.7334625914900953,0.21088750188822242,-1.2026515109272884,1.3764715859562608,0.40468318241319456,-0.3509203744635369,1.1316713839958328,0.22086215564771364,0.26317835646773974,0.6093615310388087,0.451828472065073,-0.45739030442129447,0.7818920071288933,0.07387630133739724,-0.5282655474819954,0.523458979983282,0.2654347492971935,0.8604665102799455,-0.8400060272453592,0.20759416461154753,-0.7953559794864896,0.9124179856527318,1.4486315443564928,0.9616852029602837,-0.511806254208089,0.30955871454528616,-0.8897874264468514,-0.16445989559269616,-0.7043428411580022,-1.2010327936845968,0.5421467021742806,-0.9420393991062065,-0.39286199300235275,0.2357875740133728,0.11287778989717051,1.5691373575668233,0.4746353748784801,0.6818232300297118,0.5611062467383415,0.848150448003795,-0.844148827916118,0.8457452313056367,-0.6337527725070837,1.0627754286055884,0.009664521131942055,0.7572731776975238,-0.09308301994209017,-0.49466743877699426,0.026658037791294803,0.9065962432286548,0.8246661302868354,0.03915185270794061,-0.7358008446792734,-0.7919906645172526,0.37895775326626413,-0.15079297710616224,-0.7643903405981614,0.7663824995585213,1.4162554224058475,-0.01972729435288118,-1.1177964102185838,-0.6047521083818415,0.04967547542445921,0.13830241033256607,-1.807845807921003,-0.5746023329646744,1.7011219681268,1.4133177427545451,1.1211100012366049,-0.07275761087543521,-0.43097854875436303,-0.5538247153594531,-0.7354413869342066,0.15118461827908594,-0.3230459996540909,-1.3900598012786958,0.5065323337751807,-1.3051266296299437,1.3595119451711788,2.0609935061318443,-0.7719708957530829,-1.337673429666213,-0.07038277397770754,-0.35784152354148496,0.9338020808406383,-0.2452497297189752,0.6237859292142055,0.7516301422435234,0.17495221270176603,-0.014645355896880957,0.5923947784197992,0.7742236296792427,-0.3290624974187515,0.33552658552909276,0.7249517616472776,-0.10995824226704347,-1.011614289411128,0.12694256663430412,1.493468486341807,0.3484813203935956,0.8505562741211826,0.9436168418690549,1.0737862777160618,0.6122371624412271,-0.528134036520067,-0.664579794810065,-0.17619124858865765,1.087936668135679,0.7783956990232642,-0.3644248017670299,0.37720273966229484,-0.39766219230664024,0.33975080859127577,-0.7581305742167604,0.9959561374686233,0.2181356834021036,-0.6828282071564118,0.2998906102793609,1.163105074572032,0.6198828206769655,-0.24612252355739728,0.1499823186737562,-1.5652054369860857,1.4756217973343506,0.5281585792454476,-0.5688598183055337,-0.11158181930980687,-0.27682105667063395,-0.5725900756584499,-1.6617777143613914,0.832012340991263,1.0008591340673487,-2.554444529850217,-1.294064991966237,-0.9155965816511276,1.1519784192447602,-0.3785652054374076,-0.00821254267536737,0.47295149708041906,-1.5133056829592055,0.6484775865667537,-0.590869093544185,1.0094176530891648,-1.0192396341420902,-0.82157548488182,-0.03948406171133469,-0.9938953282354868,0.00482651210817818,-0.30963141266540867,0.23449055076707398,-1.1602849415709207,-0.11640512236024005,1.1405670969951067,0.3464758388077502,0.11220696082330826,0.3207725927300321,0.24685133725272795,-0.7413503870211102,1.4553807593567967,1.1250329295608879,1.146709003541584,0.8507161549921111,-0.08467390611094044,-1.1954611134702378,0.585961266751259,-0.6273918908090127,0.8209945666568734,-0.6887794169851237,-0.5506033323555508,0.35894708011677046,0.1780477628810954,0.4933373814230165,-0.5443893280368243,-1.2973795066561442,-0.3275554961498889,-1.0682671872046225,0.15238075269207987,-1.1110779028554338,-0.5237511548495404,-0.0908487233420741,-1.1259550496839537,-0.5445797013687207,-1.4567946349358896,0.9107709170425258,-0.32942622921878467,0.43620111613805224,-0.41108728266369376,-1.5628005179142337,-0.7788116830521731,-0.3727444889418129,0.3961137585332505,0.3420490224868982,-1.5853016934994095,1.4873217648096644,-1.2793144434736266,0.9147987858281508,0.27025921108806156,-1.9027142048803134,0.8351387540435905,1.7508156090129074,-1.2281127836131769,-0.10818071613602118,0.2744907240465924,0.4404340795701927,0.25398578747715117,-1.1980605318074733,-0.552737309583811,-0.9813880434549663,0.802364282886921,-1.980939574361947,1.3312429929514042,-1.2029762065048633,0.09200491495048226,-0.5945331789215635,0.1939439822486855,0.7980257645128688,-0.19453623724977706,0.636860583740065,-1.123951853787435,0.07408913185036964,0.045623854970768235,0.2772652985947109,0.28597428583864,0.7165603725933984,-1.0445260020974216,-0.1641546379262787,2.0995512013284476,0.25479056897746394,0.5710397332167668,1.3295149550845187,0.7171859759607734,-0.4818833369511478,-1.574688174492836,1.0037751831066686,-1.0330415831729742,-0.6976793989369472,-0.19525434528957278,1.244327213443625,-0.18048511483924223,0.4722659717024687,0.794343302846971,-0.1328625869341836,0.2972415074328594,0.026297432779472874,-1.3802432476473674,-0.6647555117625101,0.9069522067859995,-0.43642531604237367,0.34252846837242157,-1.022482954749059,-1.0833550681325737,-0.21323815256694587,0.6171142132163866,0.2874768113749808,1.263774676820546,0.37502513251261566,0.6840387004321206,2.143934305489364,-0.2734375525882647,0.46016438051809255,-2.2373365335166167,-1.6106603693033241,-1.2539158025555273,1.3218992109538563,1.72537824509038,-0.3025776894334272,0.7955333334608228,-0.6757772485093483,-0.14957331353556036,0.5066860997506942,0.9048775730174591,-0.1389410946636669,0.7937506564333564,0.5510153996217073,-0.8258013077307067,0.06014535395387221,-1.0447488122855821,-0.22862756395847286,-0.41181867664796695,0.015298967140413261,0.13564294042615932,-0.13757534822697504,-0.7059337694302371,0.857545330197283,-0.04509925477445064,-1.075208461197009,-0.36213498428590524,-1.0475053097075142,-0.6124104557381252,0.11147657809128962,0.31675402539271535,0.5555785744559926,-0.7755104646916616,0.20273172336715947,-1.7597421286483752,-0.5283904800037537,-0.22287842466004185,-1.1322156522715974,0.4063644439546215,-0.49312746117770917,-0.8619717146206427,0.359345196194684,2.103434029772385,-0.284330358597944,0.29794761002611414,0.15919519941434582,1.626212887062882,1.1918325075026688,-1.0180244401723728,0.27804975908641305,0.14211525844517206,-1.4731264783001536,-0.18015736738584165,-0.9225454321260638,0.21060721288748388,0.8581236914122704,0.20065414834462064,0.9236107337025361,0.334092359787278,-1.6696939114068667,-0.9208731651430337,0.2362545006829075,1.6561714813089494,-2.3203184775866945,0.2582293589693748,-0.04832378517167236,-1.3851359316714602,-0.9195828794210245,0.17796081751695947,0.5563773265427258,0.5427578687978505,0.1084950138903619,1.027563814098155,-0.8395426813150029,1.027665288878439,-0.09672759758439116,-1.021317133066277,0.3228321546362297,-0.40609139970175157,-0.05900065463049338,-0.6926651663803641,-0.34382550748454677,0.8369662412746536,-0.7841085246846213,-0.10328331870493375,0.12413522699118539,-0.9080976602885218,1.016900340566418,-0.022722791794355685,-1.4990310584650535,0.004192811484093324,0.3298354923463468,1.2001633442905197,1.2859373001917294,0.8410121568937701,0.7915852509952838,0.2131187746679679,0.5913615079878035,0.7250614842384085,-0.39333157157473303,-0.16218670755230724,-1.1154194501456538,0.7910832724397138,-0.23646106457388508,1.1857223456991397,1.1151069453489828,1.1291650442667507,-0.9205887383729915,-2.074358326315583,0.1393474875326907,-0.8926565495000209,-0.32611003707064784,1.0792712384493452,-0.7535770406711354,1.414098930673421,-1.4567868462761724,0.3400403965307034,-1.978846765741646,0.7793186100750153,-0.6312806590912005,2.65649648004523,0.30424572834080416,-0.834087622443244,0.17790259555255397,0.875949573499286,-0.08702326181816529,0.21980107422784165,-0.3295746191021232,0.6280442163216425,-0.9153566433772128,-0.004060984288979133,-0.2611134206232201,-0.30199088288987497,-0.17599820960411455,0.010293405424073823,0.857170607678188,-0.43487971569236483,-0.7447369637017736,-0.5776217249000689,-0.10373098429208384,0.6989557485941046,-0.8304085739388302,0.05246662097187942,0.5289655791638805,-0.6781580458924256,-1.103856353580624,0.6052313927529208,-0.13160988754737563,-1.4070369668161768,-1.4945158190170689,0.57075590189664,0.7648579194156805,0.7310143512181424,0.8994208085195003,1.28987397353726,-0.0939393676099812,-0.9166369151369412,0.5170198069920428,0.44012992180539384,-0.4910627505379505,-0.4303614064940463,0.2002454942260565,0.03310989943039938,0.44106732035867185,-0.334886301824897,0.2679157576766134,-0.9169585798266158,-1.0790075188083648,1.4620700252427783,0.9941102054073323,1.755139941437916,2.0098435982042813,-0.47554481860601994,0.3971642518255259,-0.8415183034790477,0.807640193291389,-0.5715439690356953,-1.4068598484784436,0.39425284118860804,0.9131157102976455,-0.7300757014952793,-0.7939368253580447,2.036830085726731,0.9282860453225429,-1.0970895376382332,0.4639521905621748,0.7351361987475854,1.0087378476547673,-0.7382521796504732,0.09280354165802764,-0.8567591386727773,-0.16937009721542917,1.2376070410566256,1.3220639955074633,-0.23370316831623428,-0.11899328717744222,0.8573737393962619,-0.15695541426757217,-1.4980489139853148,-1.0841192059105573,1.4182606056169824,1.316233863032002,-0.2542481769245606,-0.7285015646550977,0.1278986416187268,0.044932549666234854,-0.005347334446596805,0.2992724465279569,0.07728311037174791,-0.3762582906338916,-0.32910102888187887,-0.453527841670662,0.6878128671720336,1.5564849932994689,1.5187327427501722,-1.4941431008857484,-0.5264669788022333,-1.1556982708071717,-1.196366018696221,1.8146870586957349,0.03633362474127528,1.3368282885971947,-1.1686001325350388,-0.41690158777348824,-0.33035945433405345,0.009108774482634946,0.8908902325522225,0.7055586597331085,-0.307175571347697,-1.2725389787114825,0.6347231409825899,-0.7449528509427941,-0.6048110482449293,0.3721759327033779,-1.1583015125762923,0.17533411255932418,0.1259673913150014,0.0007415867518550318,-0.09623798815865661,0.05937768520026612,-1.0529589142762923,0.11048854629691264,-0.36320892607142546,0.497340464018436,0.15441625008935345,-0.1361827354377147,-1.4384946011588866,-0.049198940743746665,0.4472139768871657,-0.37508129391155925,-0.19084692996899963,0.31635881828832263,1.8097096185598807,0.8629609069914767,1.4256160874555355,0.6641309875355529,0.27087681704687666,-0.7700988270922097,1.7801125010687626,0.13066108603692947,-0.4370881610331002,0.17088765983178072,0.6495297627018431,0.6407148520242978,-0.5040002353051367,-0.23110244155162996,-1.060261497958204,0.18265313108618764,-0.2048799320272698,-0.6325235153659137,-0.7142249937188554,1.0677302076960855,0.9658288062963868,-0.4855241881292576,-1.1926513094528672,1.0842676469014398,-2.033811226590863,-0.5477677111575004,0.2666471825660949,0.426803793484822,-0.46135050313332016,0.12407717094969112,0.7553374330409864,-0.181306715563204,-0.1700300617031476,2.1421683228593174,-1.0712158045097624,-1.146785134842939,0.6691050158016387,-0.5434577470380213,0.4498228125315012,-0.8219636813153044,-0.4604359889824844,1.1884363811136407,-0.40640875326187187,0.4851907678043458,-0.3424452478419872,-1.1713779967015008,-0.04203998265646199,0.497104029563073,1.4198305939857072,-0.0035574230480041468,-2.416365292096457,0.6184621494112384,0.9579406096952102,-1.0952407011187273,0.26169961720863705,0.5420010543726598,0.04431663306479336,1.0526899372465472,-0.14261953948274472,0.23755724524046656,1.1366324450595349,0.8692958022867693,0.8324749822461549,-0.0017126767623035978,0.2821589996681545,0.40055096309941696,0.048243533172450836,-0.4709026801915141,0.696400063144948,1.5555947229331113,0.5077286886814177,0.27299746769948047,-1.5957579712338685,0.15608973504980234,-1.6273341555150942,0.862420832205687,0.7832728428785917,-1.1478434359551068,0.8596870016813625,-0.7237767660015156,-0.9279489201885872,0.3615124577414994,0.12744205535205783,0.7131325942885951,0.26757320096211523,0.199555110358406,-0.28037126673020635,0.3531400513694024,0.8282496185161222,-0.3459605203120941,1.0219573943883082,-1.436606255981494,-0.5001053999720205,-0.25257408138305953,1.499701692056016,-0.019904570475137117,0.3081962062633622,-1.3191457941539775,0.30435910284100803,0.705692880727107,-0.7010821572806961,0.769227986369532,-2.0805389047532494,0.0544131279078153,1.395223983478587,0.4018782503875301,-0.34479691689724307,0.7932590456120927,0.12878775315812435,-0.36862275124479715,-0.07244104188980162,-0.30484989344775354,-0.32927534832182526,-0.5311168876572054,0.6461573778226221,-0.056635957509312045,1.458846367668814,-0.08050966832179526,0.9493898637491125,0.8629730757977049,-1.6481412942568352,-0.8728888984262009,1.4445713224227417,-1.2634718257407984,0.5939701105457342,-1.1229144709757544,-0.1550322930987555,-1.174646252576629,-0.9248403039977774,-0.7806454955720018,-1.791615220466118,-0.19214301189580116,-0.09620082082037884,0.5629502106614566,-1.0284162482370918,-0.33821684781585787,0.28448847956000184,0.24753330373267413,-0.5302625106367153,0.5000400447901103,0.03224322588955131,0.629802437970601,-2.0599176317621755,-0.7184900664938446,2.972487151013122,1.0945100792521645,1.0224389768143707,0.9289855629647604,0.4069102277733627,-0.34623746290392243,-1.7437125828808453,1.1264144079783802,0.9212863542260377,0.8271278896714801,0.9446607190682845,1.6589514422161842,0.11586202432077365,-0.48179621966136577,1.3129003527243646,-1.3110321152755333,1.4554313978372617,0.21144605180005968,0.46488184675412747,-0.46617037210330703,1.5339779760239332,-0.9876249626994192,-1.980087657187412,-0.4941552625983942,-0.1953692078719464,0.6171329923563577,-0.9364844181323174,-0.7357757940372357,1.1282256012329634,-0.5418846534765146,0.625525494487509,-0.12801828453219757,0.18374505260569554,0.2631718229246955,-0.04358903937664403,-0.7940638251077745,-2.147675302502294,-0.9278776828184783,-0.44714372203933506,-0.8088977622815927,1.683151104956969,-0.5308065110107478,-0.6575789468048132,1.5069969359678388,-0.8672509983604193,-1.5869730356016878,-0.10319892253541023,1.0458324052882826,-0.7510203339703979,-0.17078161717386678,-1.467480309712072,1.1825903568552871,0.2506495681363212,-1.0571742553447065,-0.5147839990456874,0.2361398927334549,-0.6012408372701403,0.5127357267095374,-0.6684151036143591,1.3630094296588167,0.7249847051762599,0.12691494662609948,-0.3983884886016349,0.24560117306206075,-0.040559259591923615,0.19118846689475255,0.1465709601801826,-0.3324236560448548,-0.014367897060243235,1.2006470834100496,0.033907190786993655,0.5091755881506179,-0.5721277122806487,2.1855385321262895,0.16001655205055207,0.23055407668152206,-0.015849215114638163,0.2586649297512317,-0.7338294148551555,0.37836042447123763,0.6567360989770461,0.09265111977216252,-0.4957466519753268,1.6996761017618773,0.688096001983929,1.35688275866692,-0.1695062151206789,0.10516607859873019,-0.25754666779503566,0.1049851406416295,-1.6956173951403566,0.5437323927910506,-0.29429460526431844,-0.8323672104592591,0.44208516220456157,0.15871566575790352,1.1725857061941432,-1.1348882894745742,-0.037624863280388415,-1.326333451787709,-1.267090099717087,0.0951250354249726,1.3438385816359333,-0.8407867582095044,0.07332660631373092,0.5575711511407856,-0.42571511672478085,-0.27519571442355484,0.29000903093765873,-1.2239960139237456,0.26802757752122297,-0.6164953964080064,-0.18964597699600325,0.7111349673456355,-1.0618790885384077,-0.7190468135134381,0.1344316740295167,0.6757968326344805,1.2514218398186348,-0.36244608390525523,0.7776076898307134,0.40494562628085573,1.410123932894627,-0.3192858933052551,-0.24841358348652506,-1.1967787486452526,0.24630639315583475,-0.21510660474920737,0.678429515458968,1.2654824713927455,-0.9546976805311078,1.450590016265649,0.6349341575643056,1.0129199114274479,0.625489477193274,0.5018046658016139,-0.9246787324788137,-0.09968429462308619,-0.006748431815899497,0.28050978384320846,-0.5488161366300246,-1.3424855321540994,1.0585983390728706,0.18423312831630917,1.3971154824093772,-0.5828879061377351,0.3153419173717274,0.5006170039530211,-0.9503381423844682,-0.9412603199553128,-0.5471589018779053,1.0830271708849852,0.34083358641893513,2.2460785004258623,-0.5149215329701822,0.14638595996953854,-0.6424112676359951,-0.25998288736643954,0.24035669426457093,1.4669896037538543,0.05443633692566927,0.7883447311107651,1.0830694183230807,0.49398274841639866,1.578902697319838,-0.3959011823931315,-0.5081197865686723,0.16313501488565546,-0.540929203342621,-0.39553770158738505,0.4346072829357583,-0.1435214616800695,-0.4942192259411422,1.631511354945625,-0.2413604713720352,1.5005785126264803,0.7286669843361483,0.44367064851510085,-0.28746119583372676,-0.11298124714884407,-1.3387694388103144,0.592190018984856,0.24670541809271931,0.3428718806756713,-0.06629703072895918,0.11030584997332216,-0.019681850286961396,0.37275937233448814,0.4588462556669417,0.23285074406083306,0.6314891277461308,-0.6727256374553693,-0.2887364436300498,0.4256356693526473,1.0449995089545674,0.47278218160139696,-0.3364906126806141,0.4877383512236671,0.5330599061642476,0.42009059967373213,-0.7038223863141703,0.8519806170061417,1.0859425196973953,-0.695514273202038,-1.3197564841756937,-0.7209449047250482,0.4874532496749794,0.1357689099078896,0.3146809742691084,1.216756775160232,0.13374848452000213,-1.4006541791771152,-0.09126757304086115,0.33018897916909623,-1.1594912026794473,-0.39770740094771184,-0.9984059996185238,0.7261289219269315,-0.2013062444548174,-0.44422315163347853,-1.4064641572122238,-0.07817418387107443,-0.2058481159271688,0.18045166759132422,-0.44917231642748134,-1.1874308810278162,-0.6442791320250802,1.0279138436212707,1.3276727784805793,-1.6126899352266157,-0.8315851361685659,0.6432533155898252,-1.0497071893007375,-1.0004436310445406,1.4850558482190277,-0.839716478825872,-1.0783821400168305,0.8343133214366452,1.6310491618290326,0.5984156424160214,1.130191895199824,-0.047474735608012096,1.2108130843825209,0.5263609074984308,0.8098369044812628,-0.9376612970552682,0.2613861963308432,0.18242324893886572,1.4298822556541926,1.5616477675818012,-0.8731256912947274,0.7242246540798513,-0.5599944902768763,-0.8137472845056921,-1.2282490597940696,-0.945625208100415,0.1198675604115278,-1.334684665501313,-1.2416908237015019,-0.660062555961364,0.045616378206898414,-0.7462759357508967,0.37898765102029197,-1.2189808069751031,0.9041722373870356,-1.1041591642680697,-2.075892926636369,-0.14405376511761606,0.9373933913958036,0.2656464749900449,-0.6681477406926773,0.5532672004613617,-0.9544331379879023,-0.10776083135821524,1.7642282996743521,1.647024369556078,0.10755194143139811,0.172915415521844,0.7901300160346357,-1.9798972542679512,-0.9554027539293803,1.012097852571369,0.05779391545615693,-0.4702353675630298,-0.43899140229040357,0.6071651871974827,-0.31693090869810636,0.7416411166140536,0.2639844100374032,0.3733475659316603,0.5550068464516824,-0.38954042951856244,0.10168650250695907,0.31406682520631846,0.8563222783257303,-0.29054343988171555,0.342366002654385,-0.4061914925060646,0.6271498638555564,0.08489733844496271,-0.048688027328144076,0.16512254296220671,0.211259461788281,-0.668738972013196,0.7737031806515628,0.5833588680182095,-0.31680991395076996,-0.5666574592911404,0.8128225958552734,0.9706769200766955,-0.4909081429347872,-0.22598364478694025,-0.06485363391728094,-0.39837557905460175,-0.0748774124233827,0.20285946355554046,0.7538708829956788,-1.344194480792805,0.6774038655202574,-0.42621746989388387,-0.4863176800284703,-1.7751309225857397,-1.0826211725428674,-0.40809129029994495,0.24734445648124984,-1.1635854189885457,-0.5703423282411166,-0.002345251558246714,-1.1377908110039026,-0.44788121066670356,0.6437107925114828,0.5595622792911077,-0.027931407787113255,-1.1948858993730926,0.5806889042903661,0.931217271477595,-2.248336385788661,0.31452141192392497,0.6004603822671107,0.12639742694594447,0.31820824675433934,0.4330468140175787,-0.7872073176007673,-1.0229926135439824,-0.44176968041089326,-0.6060341260553358,0.21847232334409497,0.34796383971833084,0.6224628855874165,0.5617291429675406,1.2426459400821845,1.3873977840760063,-1.5437319143757169,0.5916467965369843,0.2669557843646158,0.7670752555825994,-0.8285008739276428,0.0012216038975479146,1.0856908468219557,-0.9380380380883959,0.8861089912014148,0.3580417102579475,-0.15281679536231274,0.5898410658315274,-0.4571586491992187,-0.9821226349398458,-0.5966766401902163,-1.4982622252612767,0.4305556459846541,-0.004185719433649862,-0.6831792467392982,2.474325506127238,0.9642311156423449,-0.8479856324779013,-1.2360381178391273,-0.6960497799762355,1.0039804085502657,-0.1732928236249391,0.038643623376380304,-1.9427536600473123,-0.39705808794849884,0.5431933594160487,1.795455902684813,-0.48333972455579566,-0.13364949464885836,0.8653008117237936,-0.25808711762096664,-1.1605194759417132,0.4315476051812894,1.5507513926544498,1.7637943136647607,-1.9019946933672653,0.6149750836857805,-0.019892165596155205,-0.5005721517606535,1.5755275383803087,-0.3131765288209776,-1.3998494502500307,0.0439868861547611,-0.9091013764297683,0.16075881820328178,-0.9273831809628706,0.48036140981234055,1.7987375324502075,-0.7285180373180964,0.43952312899132717,0.13966312464519456,-0.5803149973036585,-0.12173691389784186,1.5640819162163873,0.8630340369418822,-1.157573724010746,0.045437866045932584,-0.04618268819221105,-0.5085911097335187,0.3070761111251972,0.47642707299531495,0.5714460911067911,-0.22849111687612067,0.4200371505767195,0.05378022247455017,0.35655854597274383,0.00021450907791384984,-0.17181106556496675,0.4130858072125266,1.133643987110739,0.6669446833099304,-0.33607032451485735,-0.03792268192652636,-1.5832419010662784,0.886281224735773,-0.6851296656292776,-0.6340040781336318,-1.294954053065364,-0.7738793983580722,0.06077755461236055,-0.23898358642355125,-0.12878245037078143,-0.8171849712511161,-0.3195131050422287,0.1927042799432931,-0.8248971302877903,0.3341129772919537,-0.2926994176224819,0.24190895574007895,1.6605536083212287,-0.09553588051609581,-0.31954234526687797,0.639062500353143,-0.24005017917781302,0.42647582485074687,0.5125906111653852,1.4356624478485909,-0.520321837886015,0.9762096541435149,0.10670281339339999,-0.31564975294079817,1.4099496955080726,0.08501101607268745,1.471092951271939,-1.8934478220957844,0.4283264650650394,-0.7251262422879983,-0.25648831613389306,-0.489226673392584,1.5420556114949144,0.07650688566572234,0.2884966164744058,1.064100228913198,0.1410785178948957,-0.5150496330422877,1.4046796455016994,-0.3309113121507221,0.49377248739039964,-0.2964564615992204,-0.09165300620965879,-0.8750639994409942,1.183434950231538,-0.6321550221381994,-0.6901548758224737,-0.23564989741665604,-0.1934946398719704,0.6324654904496003,-0.030393012753886246,0.22793216502225375,1.038574737244562,0.2675621419898052,-1.7596241079269928,0.4269141863891456,0.30864184671463946,-0.5470863331889252,-1.5825193267982,0.2585781413858816,-0.42841798889666655,0.9085186320773673,0.5381074233090949,2.2500278966455576,2.4361101826790015,1.0423838543661332,1.559244812664273,-0.444904163862836,-1.6052662902902088,-0.04757432017992126,1.3215995793705517,0.0793472566018253,-1.0195177673757747,0.010871262608742112,0.31963541120700106,-0.3231675017970282,-0.4286956781188019,1.640905855496048,-0.3767679607385393,-0.05207416901269111,-1.0329169189713179,-1.1135981053411608,0.3536366717361211,0.4207573514102249,-0.6470704391233559,0.8540013848865005,0.8938753820237713,-0.06732506476994995,0.4431488265070056,-1.8218950554422848,1.8670581817814547,0.689167543621135,0.9438077070027492,0.6949311166019804,-1.149035246304076,-0.7585978918585418,0.5171675279032941,0.2863376233615865,-0.5339552605914525,-0.0035588925079656506,-0.3745785545488992,-1.038155738742694,0.31652964069092415,-0.9597372252805736,-0.3858309001120351,1.8624979699867095,-0.9113069903891501,-1.0888664795648062,0.06651034436526417,2.122397480341485,-0.16333370324034246,-0.5961316542375523,0.4816260661417608,-0.3138618083865759,1.054652654796195,0.12676188853510134,-0.1418898437731977,-0.07071975262708735,-2.02059272771736,1.1906201173490847,1.1503998370128716,0.4535170727397959,0.2332581874744768,-0.29304982727839785,-1.1074595005072323,-1.4009743641328842,1.1299587023745752,1.4072426679878043,0.7290629280389082,0.4944823571289114,0.09374283433407475,1.0882031224621256,0.07943059935124928,-0.13300154650145943,-0.6945965725786168,0.6085736090235141,0.7513152581079312,-0.5290232403706286,-0.8251349869949826,0.9748333371366646,1.0758502829208876,0.6032752780100101,-0.12461620350732684,0.5240253946006563,-1.404303495032949,-0.3449507309114775,0.853915785456806,0.3625929325199882,-1.619986049038514,-0.744564727875099,1.635896360287041,0.06905209995584563,1.0410863066494127,0.7032328077100574,0.2437948973528193,0.5311364552194634,1.2953588996428174,-1.8910250974859217,0.27394385892671486,-0.7264184069732151,-0.07567797734500269,0.5037438268864329,-0.8022253083342183,0.8720841765605141,-0.7470068013106809,-0.5046450752106214,-0.6352673198575196,2.0641035428883163,1.4184673299761146,-0.9349445743942796,-0.18049942307981542,0.041841053855253135,0.9898413130241648,0.04900188380032726,1.0001641356549738,-0.8858620994070292,-0.81846535214899,0.4647660345910038,-1.055645348602118,-0.09685995327981158,0.4938194787053012,-0.06757366460649405,-0.3385004153794952,0.19257065824574068,0.12316304159624784,0.7406467481508233,0.16613894913907182,-1.3907350607013298,-0.3330307801315903,-0.19694927859645214,-1.0494853993189723,0.3495722735808062,0.4315912970564827,-0.8129859691644349,0.04270527187078217,-1.4458195075559372,0.5691515837535479,-0.3463487350400097,-0.9052162783290951,-1.3077281918299073,-0.8864807486569611,0.2525024522809224,-0.11834399487810834,-0.28734884762523194,-0.07972673650000192,-0.10845610208652606,-1.3975960667068028,0.5536397923737295,-0.27376422457101107,-0.04849152838742549,-0.5208033871042197,-0.2357791096712233,-0.313270671220886,0.09668848218176629,-0.570627230430984,0.6649142198557862,0.6154683484527267,-0.029615910309744125,0.7025040887473778,0.8442125400122215,0.23154385309292635,0.14369434077596932,1.5019320974830015,-0.5983081096822994,1.350489281761055,0.8691550455152164,0.6205033553899014,-0.35126098512931786,0.4139798133570818,-1.2691067477043962,1.8708933201304903,-0.7510813749320189,0.9028572601763287,-1.35019878696253,0.3409713021544191,-1.5668104919325907,0.952425727507554,-1.4394462212261356,0.5362551095000428,0.7703020702176854,-0.40428257132971573,0.4237437871900909,-2.0705703232497603,-0.24071427199867132,-0.27579905677838434,1.3535018039916134,-0.7769427303991391,-0.9197117064079875,0.42295775724664614,1.8788213168032004,0.5634805811852918,-0.8283738261842623,0.7552348399198319,-0.5012485298434346,0.15090526961945436,-0.41842528115346517,0.14830404810500056,-0.22795561519298374,0.6745835178595169,-0.6367960919371893,-0.7451864220235743,0.593602297445835,0.9369527958819837,1.1898070391217006,-0.21082271095144203,0.17158929212604518,-0.7308052966552959,0.8130524491886574,-0.1418862976208237,-0.03623331925057899,-0.6567175048300722,1.1810064700011864,-0.26568180456089047,0.22108218261103518,-1.4814326606630372,-0.6648401057881551,0.3646423401028762,-0.6804175078470446,0.0014590606678863923,-0.8887280993599925,0.5718234578879553,-1.1314240237856816,-0.07024045172368176,0.655430563193412,1.5781717880197748,-1.6474835943975437,0.46191932124194146,-1.4364322000212733,-0.5780367650893389,-0.42116767556981927,-0.26891196567790987,0.5918384500260219,-1.1222375149183879,-1.2398067021947325,0.280755543796956,0.3249483203580296,-0.4394006562637077,1.5817197579333246,1.2939039845215188,-1.0114901567643106,0.3927699532973418,-1.646296892709563,0.4284776977975596,0.9417804956668077,0.6744528157369691,-0.5763073544890103,-1.165229075605763,0.06356191242584851,-0.4983144703110026,1.0930343319639582,0.6586893083054091,-0.1568919647005578,0.05517692395934172,1.1666979355014566,0.3701178625522016,-0.3759195861065857,-0.27156905572867607,2.1321234901400787,-0.3170918971140485,-0.04548513079519499,-0.9521059971431939,0.5409538296574937,0.036423186987983185,0.6562940611284926,0.5323349064489685,-0.8545940140638031,-1.3591053425955157,0.7977845482777481,0.16952957516730582,0.4617835395161028,0.6981872478642982,-0.06709815855602043,-0.09897030262209061,0.24403446287017252,-0.32443193033320117,1.0257276110121152,-0.7582490608346129,-0.06210294309258557,-1.508578321239151,1.0178267142768112,-1.329813515952722,-1.2424768048791257,-1.0969665995732314,-0.6577942403325837,-0.14981117267124697,-0.5260851778159379,0.09096127751505557,-0.9827851858128249,0.6027033352400487,1.1109559132263107,0.5344093537761647,-0.34811097610289593,0.4873438605211947,-0.5599999006322993,-0.3697200307132211,0.13433610027085524,-1.7330397000243305,-1.8372496152095883,-0.4647086368382494,1.0050535638912663,1.313011738819265,-0.9143050975971283,0.8111764036524339,-0.9029078158047962,-0.3225815585637488,-0.0420433423585378,0.3412627279354063,-0.31010460325236244,-1.5710227263786143,-1.1330633004768753,-0.7532226383015982,0.49791124398534586,1.1828031945640873,-0.4807914327311975,0.511599714675716,0.0010295926066090275,-0.9337210977423233,-0.35688697035390393,-0.4624921319734366,-0.31165999073809625,0.018272911686140765,0.38853828065179663,-1.0560694082374045,-0.6994218594651159,0.8047159948811121,0.618278447947212,-0.8814431175730054,1.7345971918986032,0.4367168706502348,0.23748625215175787,-0.932389783502306,-0.2763373003380964,-0.12536777334838906,1.0774003693528547,0.8790970224563942,0.4523407504081484,-0.5793250902402407,-1.0749582097802717,-0.2795530805507105,0.2954045173501399,-0.1940984000206889,0.17816363926991627,-0.02616452328359765,-0.549478293309313,1.3190329931374327,1.1735709375256564,-0.7139170880126822,-0.18547487867781867,-0.09355592382268439,-0.7596573542795795,2.0589087238954673,0.3015218547819061,0.7617579371103717,-1.491702336380795,-0.3174853742722815,0.06328632366426622,0.185016284357564,-0.6209210278851262,0.2760051452658154,0.7772452049790959,-0.11498994258219396,-1.1250366993798113,0.15083214807657036,0.8903593323963148,-0.8645235834294442,0.1131586773586906,-0.3690269979519563,-0.6130061093302698,-0.21442596141926118,-0.009806492770983817,1.3119186878007394,-0.34931816450903164,1.1495268172518391,0.5247661950625665,2.1506324369887713,1.1474850138967512,-0.6468903212787787,0.0329926024335717,-1.474026336868029,-1.3784872229798675,-0.07827955967925905,0.31176982210456083,-2.5214794947496597,1.0184355914920693,-0.12446885353245875,-0.8603749558802154,-0.062127489242122275,0.09098259632455769,-1.070984710392575,-1.1608455551717307,-1.1526172392812981,0.6147085929462522,0.801544123639762,0.5098359561938776,-0.05541335427799046,0.22365442437517466,0.34670069067385556,-0.732911620976506,-1.0625215065975657,-0.7350006046120567,1.22017291735683,0.6060238775650973,0.3392435155911634,0.709389019269458,-0.8321107211792437,0.9963098484589848,0.7249854465132242,-0.7989902734003014,0.5019059065704592,0.3560428784545476,-0.07983802585821113,-0.9241999678724292,-0.3674910498569846,-1.0512443184977298,1.8946427753284811,1.4755935113540246,-0.8039810106658474,0.01375221215153774,0.21376836203145624,0.3763900817229859,-0.43107309586793036,-0.5243082649845061,0.49825363031984443,-0.48345245686810207,0.06872296206407041,1.0003169513963217,0.5435923465321981,-1.1592653646498707,-0.5708320901926498,-0.35104758176351075,0.588086542570526,0.33750052067086483,0.11787482962169839,-0.3323872817601846,-0.9606115936361924,-0.07051053475546354,0.5067899550429049,-1.6626133700998416,-1.2536069514281514,-0.8249520255075844,1.2123310111955519,0.34439515936032994,0.06822448525373127,0.003677790352672081,-0.14696900852201764,0.5924812497026619,-0.44806397881137133,0.27628744218611545,0.741820189479967,-0.34475916162319226,1.1636423686065926,0.22048325335017147,-0.28377145702171036,0.15777864234203576,-1.6455451812526922,0.5421766958735155,1.28684820296348,-1.6904751055832146,-0.47688499819201485,0.31363040222908156,-1.6200355223510208,-0.09017232716440747,-1.3070770547921797,-0.8456502252542782,-0.40564152051431623,0.1645530741379587,-0.7876581435159643,-0.9267694505874121,-1.1974748756193767,0.5402140335395726,0.30848561820602255,0.11610230089940582,1.9814418490592134,0.315437067360952,0.9247397782807848,0.6949289856107013,-0.3539221781796182,-0.34397390661296146,0.44326699783003104,-1.2548509407920818,0.19347007424540266,1.414977330740429,1.232846091377392,1.4418190408563405,0.961238643337574,0.5464086747912485,0.3211009812142191,-0.22719324355774398,1.4273706040301863,-0.16623763037109943,0.8326757993142377,-0.620595134271879,-0.685734923997207,0.4884359165324433,0.8304655663866144,0.6704308703030623,-0.8528415499326745,-1.0960273834460317,-0.8344708823200799,-0.8956103546237913,-0.9682457898635641,-0.7430201117425276,1.4251335568876364,0.12256900786028568,0.36212289593826397,0.27615999288111437,-1.393660557690834,1.3320282817028501,-0.44274761209347024,0.062309086993134075,0.02924997803060021,-1.892109311725829,2.2432986715498813,0.6901282180495419,0.2734427396167486,0.6521236614267093,-0.5748091213891158,0.40891065708498436,0.18235384763483986,1.2583233596348726,-0.4383865916018866,1.1282709907365271,0.10356650943630127,-0.8206211423602348,-0.006730327526357814,1.007352641530141,0.87494494426716,0.34024802719069414,-0.286487316678788,0.5138453236280114,0.15763947463168676,-0.8319733901895412,0.22611631173981966,0.01983310167217969,0.9560516514076439,-1.0116738293480303,-2.149313732223101,1.1269772143098713,0.5733010922037034,-0.07224234051186552,-0.7331880717502656,1.1723789457840446,0.6059755118212272,-0.6991515026847746,0.7005612287257892,-2.084013724696811,0.10686589423700028,-1.7540711354975667,-0.1419658350702206,-0.8751589774394691,0.0666347637018629,-1.190650031115039,1.1562043599489409,0.14249781749771712,0.06428083022413483,-0.5976152889237,0.6444894261556855,1.243528391819539,-0.9827209627809723,-0.0701434626887902,0.5153904038150319,0.0545408765284298,-1.3795438813502328,1.2025723988520005,-0.15435468740398742,0.7319928322521044,-0.3044323681184053,0.053072026020351264,0.09694010294553577,0.5048706320303522,0.8533193908373683,0.012205314046156495,0.19591551606949964,1.0373014273824388,0.10607251008652814,-0.017925129067567602,-0.04642473248261552,-0.9504792667238422,-0.39593583500570684,-0.6129797754294883,0.7383480599410269,0.18080034426621752,-0.4909485521116209,-0.5694447089526884,0.8175189413242773,0.14458456019829313,-0.8690514577152175,0.8583553148652445,-1.1689323204842577,-0.04441675089837831,-0.5673512981481694,1.251900405950833,-1.0014163310451367,1.4519104548859112,0.025180322749257467,-0.341347638864732,1.0616697502595223,-1.0951807874054529,-1.5569167520860974,0.3663561077465756,-0.6147307103984921,-0.2758785272584107,-1.5537482390740978,-0.43996118826270175,-1.7265386189629204,-1.6725912767491498,-0.9197165743745571,-0.741818531025865,-0.44525246256883483,-0.012637674417636245,1.2544512119456335,0.006441826543015578,-1.101243381423809,-0.5780021888157402,-0.11103869858867114,-0.41825596710435814,-0.9548392046400414,-0.10626870891566008,0.3969211254300549,0.2536787266052839,-0.359039497766749,0.11990639125237405,0.44303417908822396,-1.5170098863442674,0.12300994614625645,-0.9643588352670278,-0.44098565697982517,0.23379279917347576,-0.23529172418977892,0.7895484860289901,0.8175269574630805,1.1568741595192984,1.0477678093136682,-0.5953637857982631,-0.0766616703564123,0.13430733824740923,1.0175793830973396,-0.41821478825213726,0.7958567438160267,0.4733134509703387,0.12923472010029913,0.810527942273375,1.129001696748696,-0.46171336133810087,0.38533736685346326,0.049842163773941954,-0.39480763097002736,-0.7395578674973379,0.46217540821328806,1.9504768067296336,-0.5031548400941586,0.4385023990835858,-0.6504903322684071,1.1225177704610971,0.9892750332356429,-0.14554338232101513,1.1723798270061572,-0.19953500804803062,0.8841669013617596,0.43806601168675247,-0.019536103406177327,0.9216010335719009,0.4135833661954221,-0.013198396643397725,-1.5356256473946066,-1.5062876242954635,-0.7436206491362073,0.7958108437241745,-1.258022639085476,0.2416862700189738,0.7281471081343005,0.18658944258299331,-0.4251892136674403,-0.43959521252167705,0.37219057951703977,-0.9192636856204932,-0.04603805946168915,0.12367719658242254,-1.4960245480403567,-0.5178570622545097,0.2640680637326174,0.37606731012568967,-1.6720319367379977,-0.11692836172622303,0.5266465709316767,-0.08400903753527024,0.7433047149661814,-0.513321262389888,-1.9104997945210054,-0.4213544161058779,-1.3069327776697608,0.10433705197363376,-1.051468488508624,0.4036181864948665,0.7666642795690521,-0.7171946093487238,-0.697657792082532,-0.038677419825307695,-1.2942665470228547,-0.46760011903674104,1.7874489378846365,-0.7789311590255094,1.5534562511526777,0.056861157816160496,-0.6409311521489779,1.0709683738400195,0.06105044297577178,-1.7864624521598762,-0.6618713852609089,-0.834213949321512,-0.8336498409037698,0.26435567165592067,-0.28655542940291645,1.6464949360816072,0.9621635699943314,1.465376592780569,-0.030859750653066672,0.5713210851304257,0.45672033756420033,0.6174622900324888,0.510838722699941,0.9042690912570931,-0.46368656732934455,-0.5890957086889809,1.5299488755551365,-0.5400129008057007,-0.44183384060018155,-0.4855250672734488,-0.6460087750799555,0.9751016110410821,-0.6412613593218847,1.0757227451058367,1.013832382530359,0.227296324539771,-1.8204346927411332,-0.31280102083751227,0.4131744610625294,-0.9385928755605863,0.9412646043848588,-0.2279124590594622,-0.5210022963500021,0.2668643391723726,0.45981606340633374,0.01191735728000435,-0.22088491457758072,-0.00230856977105078,-0.16064923518515842,0.9209543621308652,-0.2647762135492732,1.549515945918771,-0.5241230213828098,0.9802681250657078,0.6600121833063299,0.5459643506393512,0.11984298967606315,1.8104613485184868,-1.2648546868498507,-1.2404438587324382,-1.3651410318392228,-0.43132626026883203,-0.9435228946522319,0.330753846589644,-1.4227785866613987,-0.8840936955784616,0.975243989130438,1.6029293497134933,-0.8711221856719998,0.30425174851433756,0.8477345541147289,-0.05394303374068125,0.7032585207254849,0.09128641493132011,-0.8401627154700355,0.2849284920131269,-0.2074852701917457,1.5873701034119299,-0.18790938927365308,0.1514927654535143,-0.2628438547978088,0.7964350936942133,1.0182697702965353,0.12715583257805563,0.21362433317042387,1.0406882867864815,1.0483748282375507,-0.9655005266546111,2.1480317951695804,-1.0591917624044758,1.0133001193462248,-1.834571114114462,0.33547636257119934,0.49300600172195125,-0.8249779403151596,1.0640229252858464,0.6860171270873612,-1.2104582193599382,-1.775650277860372,0.1626793653741569,-0.05407476160889809,-1.0900966207128981,-0.8366918135745416,-0.9248086676361493,-0.02237143178023135,-0.24644771466451934,1.237047183311735,1.3893646606797494,0.42437541963868675,-0.2189288439575953,0.007054460788029818,-0.49402146199759317,-0.46134444471878855,-0.9773786707781678,1.587109919100755,0.6132299298118719,0.6480501497053418,-0.46313360036504736,-0.5911563806268914,-1.2477549171156717,1.0302972028385107,-0.0801954998014265,1.5893577622831552,-0.8280278708968334,0.688151228157876,-0.6979125954771394,-1.192473573576552,-0.8390091427239638,1.1913867855222262,0.17125438541283233,1.4767518410094136,-1.1455048953933686,-1.5182735920583483,-0.7755031495228273,-0.2947457217350801,0.5744195184098824,-0.2817058956666569,2.3319047438883227,-0.5807447567569476,-0.20785846096433877,-0.24442089310334045,0.3714392147951182,-0.06662316807928416,-0.04526442901814633,2.076488856273801,0.5728368459003204,-0.17627712799047893,-1.3618249775518576,-0.26598190476142136,-0.5153325680848571,1.8719524807085033,-1.3571952232102176,0.2954395581786201,-1.311015155565396,-0.28501044712918105,0.5343662976742215,0.1855764933153102,1.576454444206628,1.0945004171110553,-0.16166713059162763,0.6729144568587496,0.3260422484741204,1.131275578334499,-1.0380313901396057,-0.4530961323814744,1.2614538786062823,-0.6303830677564207,0.052192054801272196,-0.43454768837913993,0.7557938566251046,-1.0639557404539903,0.9548396054215768,-1.167771829848097,-0.6333667808025223,0.3213420567484174,0.5405972789179238,0.057408366824503676,-1.118128703118842,0.6931602666231015,1.1171230494611892,-0.5358690037006348,-0.071368900188605,-0.9589307063022844,-0.6629223848873578,1.2055105840296942,-0.17565866862715626,-0.45525548483875844,-1.2828387068147356,-0.43259067720630157,-0.7562469423217155,0.32973171925720607,-0.28269789950423435,-0.43114263429054955,-0.24122136445629896,1.3773058330340846,0.43449178401200633,0.16191834491099266,-0.9490065971105782,-0.6918226507306512,-0.45473902565001684,-0.08947932475222278,0.01476798498055933,-0.061925324916640406,-0.5300450953232878,0.3539096393624138,0.5546196150248647,0.6112077843619268,0.5264069983298294,0.1500286130495523,-0.968405212305774,0.49230410151127724,1.503364844941136,0.9260724283817221,-1.5365528936579367,-0.29517058952693387,0.5618981096485489,-0.7128442710478882,1.004646483658305,0.45600884948204157,0.5806110472165852,0.2802504218320143,-1.3852880804171979,1.513692323269263,0.11144683025295338,0.31878210370973475,0.1232918029284613,0.2503578638146056,1.5655711213394432,0.3976590702670339,0.5402017228737368,0.1581716608165239,-1.1627252589965997,0.8651174967990494,-0.5015480782118669,1.8980684994068124,0.4473603612919909,0.6664465720273486,-0.3341816381515103,1.447727952140388,1.071527722448268,1.0466868602868256,1.4616998694211527,0.19059627232084192,-0.007407793522260351,-0.2066939129157427,0.3799782419951216,0.5472831323726343,0.7150009368744997,0.6726651429331945,-0.6848574909378629,-1.7974667973869194,0.888083262851559,0.3300563695676895,0.8754452478434253,-0.06073509833199738,0.12117034835951349,0.19811058596286832,-1.3458077113635174,-1.024115467121996,0.6737750770493973,0.5531364780787423,-1.4154341811983164,-0.3908612683830759,0.0891823373854017,0.643361093931219,-0.20099627191259614,0.4389479514061668,1.1259450417108061,0.504857536014816,0.820793837965079,0.7673811509256969,-0.22410383487734645,0.62068194647328,-1.0941767080065845,0.31916831692556413,1.1737107223161585,0.21632153085838457,0.09921841165503158,0.9806052885481545,0.7049132479130159,0.08211538791679775,1.0080325195341402,0.17105095098732492,0.40854440799299546,-1.720111269347059,0.04602247624608684,0.2017786876319774,0.3110512061635832,-0.5627007688888515,-0.6495380910661229,0.3449293366434833,0.3311241063037097,-0.9406420538826413,-1.1689173764186027,-0.2861792509893834,-0.7991886201550042,-0.8748677652258983,1.32669162986012,-0.6334680464754565,0.8087518539571145,-0.16730022170910855,-0.8117329093400701,-2.3164413712438123,0.0958664707080808,0.8207987549222088,-1.6600465782761102,-0.14103933127216997,-1.8861485420997766,0.3828106661468731,0.20375139321709243,0.4689047512209124,-0.34218828763217374,0.5804772389025856,-0.791222219799157,-0.11933463865445301,1.4297243346492179,1.3090153856964892,-0.8500697866063657,-0.3617516665639048,0.113154894272598,-0.987228886235766,-1.2049568379170819,0.5766669711063512,0.2711890530157033,-1.1145410236241575,-0.9740521885159158,-0.5591688165665921,0.07336718218003326,-0.6189761525926275,0.44422205068033205,-0.9186221338356981,-0.8784059628467566,-1.377429265693272,-0.3054450380896806,-0.05291717348225637,0.5336567076664105,-0.3875248922513035,1.0114986956307763,0.26336197134266964,0.3425616755732455,0.020272394625758545,-0.002774438797755918,-0.04707854218393767,1.7473248727403836,0.7808023454127784,-1.4033768814459069,0.9039763807138322,0.1008072584411468,-0.0593146160023986,-0.08994949543878733,0.1707612061157632,-1.072971436585583,0.18767845701158928,-0.5123465984590931,-0.5935552091644763,0.16278045033460142,0.8067554183276633,0.6820159400876901,0.7248077972485872,0.4666690601374671,-0.06896596988298027,0.7189891968061212,0.8992272420530356,0.09019661170551684,0.34535318048489533,-0.7307154628493154,-1.8895950731990239,-0.7577156904750022,-0.735139005258024,1.0037581558001363,-0.23882385306692,0.3126849108132771,0.7648526321552459,0.022194312981322274,-0.6063498261875022,-0.2894841600106214,-1.0168437036098656,-0.9185062925504718,-0.7296245122791472,-2.289406386229707,0.576329705437827,0.26284072875175485,-1.1664989108118005,-0.4840952969467387,-1.025447401264326,-1.3886378288289278,-0.5635209719395095,0.3770047911344225,1.4669752509105392,-0.04948751700480518,1.5137751099862375,0.07688016953019179,0.10228786494803842,0.6505417888466171,-0.8587692384343143,-0.09552790949904727,-0.7800372122448342,0.46288871823002337,0.45159508131535886,1.8995482964025765,0.7639191624774104,-0.1831610749686287,0.6074248722434613,0.10074019902430537,1.5896043061863503,0.7999957533184224,-1.6804239935589165,0.9349247136711307,-0.17047079115808494,0.8906843430082636,-0.40525422124245697,-0.9879351038937007,0.2647800215391149,1.3041455397007404,-0.12018372849145315,0.015341809801245294,-1.071135158340191,-1.7984062580151865,0.2973886855050682,-2.304203770581129,0.7725480742455574,0.6843233720830428,-0.06438671275498642,-0.5567392500048829,-0.10374926361370668,0.05525946470340945,0.027056924333221807,-1.2615717459513116,0.6673659875630353,-1.1454544243581555,1.4666684408832737,1.3019114104574154,1.5727651880580604,-0.24273281746460257,-0.8755725840174357,0.017844980973013888,-0.31298847370144806,-1.4540972605696083,0.6538789315099162,-0.4539242928451831,-0.6000029694432886,0.04195579992083176,1.0059157945417034,-0.2738289821874812,0.06390075710125108,-0.2426600210496006,-2.544893550097555,-0.8175682361728743,-0.27195819953213246,-0.06464041811839574,-0.18716752118707822,-0.3734281190000169,0.620892710592163,-0.8159103533372453,-1.3015280295601441,-0.6092645284569996,0.07453765172347566,-0.14980711940008684,0.5571279691927106,-1.3666737085225393,-1.4248609613424115,0.6366517529072168,-0.8130008942272461,0.18527688029315234,0.2960268300961465,-0.10931920138877589,1.047081686205689,-0.30918557010715475,0.9538148283256127,1.528471020539407,0.21832217028396078,0.02842295785402852,-0.3217749942085604,-1.01108398522365,-0.9860605256389267,-0.6462595870497224,0.36523956234944255,1.0037594826420446,-0.19316136780447668,-2.413823946811601,-0.3667616100049847,-0.6123494453591214,1.1936833601017425,1.4446335820951792,-0.3620926304490905,0.15766063614018597,-0.36401736791823086,1.9608410038321376,1.3477018556246256,1.3944690722592654,0.6078489494318018,-0.752409818267378,-0.7089881847112569,0.49877948730341254,-0.22379265940802887,-0.38697149864484687,-0.6081287945364706,-0.19949056130975096,0.3521342404677655,-0.19920650847139962,1.4716943750463922,-1.3936828138808635,-0.4888792488152103,-0.4718374501270365,0.192263097657603,-1.0405969248839633,-0.6815104683036535,-1.0853599791419144,-2.5978754421444594,1.6301723500507326,0.02632698868430732,-0.14976251148059647,-1.152793010356689,0.3957455304875741,-0.38583464581845206,1.1179287585787678,1.2978648832647957,0.9222821060198058,0.8171106567988796,1.6777556794960453,0.3024931488734221,0.18995334792945068,1.4084689672025315,0.9524672424984518,0.8844831537100526,-1.0425228459570615,0.6118453041254183,-0.2833018335251182,-0.44871924254689993,-0.5172141611178329,-1.1927042820410685,-0.32065299724580143,1.382041117404705,1.2315742321935779,-0.1287056962266914,0.5409253085215783,0.8941650469891459,-0.6883171040823599,-0.5787915578545708,-2.044339560234828,0.8491779497989176,0.22289251679371963,-1.6798388929627612,-0.00037611923697703886,-0.008359317104483602,-1.4297392833622522,0.4402956331197229,0.4887405430225853,0.27556870601133054,0.7665840769711579,-0.9340142874098325,-0.479664864802158,-0.5971523463489878,0.5725088652280401,-1.040752693680062,-1.5553554356070354,0.32765091788131995,0.397198807937842,1.471272124703131,0.05302369530708705,0.45695527983637585,-0.7439805772830477,-2.3080997000343624,1.4828102447553633,-0.17588921422097048,0.53069144640813,-0.4711459568772775,0.9465215716471687,0.9609341385062742,0.16882577442942648,-0.7061157814711293,-1.4882620719559692,-0.637757168736217,-0.2667694908867969,0.785133233575472,1.6447829978417496,-0.5491166557689656,0.3374222994599053,0.17202704190152954,-0.22767821988764028,-1.6188243936222737,0.3966088527798654,-1.7724059939910186,-1.5105753887548805,0.9029328933096424,-0.4383942962930523,-0.8248449407117866,1.078668070582297,0.07383568269968517,0.7347311667858779,-0.07702169075224999,0.4693167016212611,-1.7682051304829145,1.1546319501735531,1.3129819882511602,0.1693677252534064,0.7612170618404012,0.37709181462011193,-0.6945089771650987,-1.1646093183594366,0.25400014575542706,-0.5582485430761062,-0.5432000759244786,-0.13434688685534235,-0.4285825354587672,0.6931815058231402,0.8164285072688482,1.295176585944765,0.8378164838616328,-0.5638526021341311,0.18979060106495124,-0.7944576820575476,0.7449179836856773,0.879595808048969,0.9288842833264058,0.09573203690640604,-0.03511180952193715,0.1942114073522853,0.4837109799906232,-0.6676782259200725,1.5028423564586217,1.4851292304007386,-0.026447481413177456,-0.08998764830754155,-1.094401886917715,-0.07425116087721188,0.24400660500722943,-0.6427270796239858,0.7308477727103845,-1.1031987090905648,0.10408109263493479,0.869775761957978,-0.3366441526437798,-1.072980624807458,-0.3830346275028536,-0.6767711921412317,-0.19345757328899035,1.5457120974383636,-1.0715455848968907,-0.37129465261353584,-0.3292393542370561,0.12098564273385808,0.899588567502761,-0.5149852429145316,1.8789508258960559,-0.50015584083758,0.00863841069775209,-0.03849598451004896,-0.9105106077578337,1.0634583771734687,-0.5650763478063087,0.36254658809828055,0.22196794610251835,-2.266914958527783,-1.1034245487688283,1.2353507007871922,1.1764619774895386,1.0515619274471875,-1.0146595857053964,-0.29136120151745687,0.12716744862082993,-0.8266918919282774,-1.1631514578401774,0.6592536650417304,-0.06049631907696816,0.4911179055276417,-0.2824511259925065,-0.16209531118482348,0.714463103172077,0.7784564187833258,1.629093206330911,-0.04489747685066798,0.25803023523356006,0.39605689571808406,0.24418175009480986,0.08855338315662449,1.6350623412834222,-1.3365456270290692,0.8276483499623246,0.6543678353735681,-1.5469665163765314,0.3600937372873989,1.2269852221493724,-0.45515246648420216,1.031472637196729,0.4748512277316559,-0.9402081098081244,-0.19386944769806294,0.0048865968137575926,0.9773446641844247,0.5761047278954387,0.09756697993831928,-0.1695312905906206,-0.8131497337854877,2.2411716703907514,0.49681673667065535,0.31783776191808827,0.4917158505907746,0.7982004825241296,0.8648612582555358,0.5537680318075834,1.3553907877811164,0.9245463105654174,0.18181288999874382,1.4965468999098759,-0.0863685422568926,-0.12534441047352457,0.16671170756773723,0.09503874382747754,1.3749352113542106,-1.5687911043304326,-0.4330991916345769,-0.9354627526443734,-0.2571229196667648,0.04304432285099468,-1.3653979195301087,-1.4305484892039604,0.9865342677205526,-0.25411248429543787,0.8749249777969497,-0.7879185028121202,1.1222656884871576,-2.0498133222870805,1.834536106480774,-0.032972315562271134,0.5810018395699441,-0.4283633573804416,-0.48317730763379996,-0.5330871428859147,-0.15707959962370352,1.898177408053703,-1.0163400581534796,-1.0067549100495345,0.4716696844845396,0.10119255812418523,-1.3318983888538634,-0.5534926906325685,-0.6353395765483908,0.5012872710130587,-1.2840180949021316,0.08793876651888781,-0.6507273762391141,0.20458583124101717,-0.030244067749774107,-0.7844609911337996,0.9645673004417724,0.6726443214559947,-0.3521107181669093,0.6216158953682642,1.226715609090312,0.719796516224875,-2.538583954782293,1.4281544441590543,1.1284874426516678,-0.20468046348564686,1.073168287431891,-0.18505971603637167,1.6213273318594252,-0.6350603639407143,-1.1415718484738953,0.5015936193431477,1.9609728194026423,2.431263903591937,0.2220089678744053,1.0592933281338028,0.019472356512900656,0.1198859689792673,-1.5030802207387988,1.0546835422958916,0.9485699689711024,0.4257577713865034,0.17345294383100557,-1.5273603905686106,0.804433479561302,-0.8914487351222683,-2.1388837539664696,-1.4093345470304528,0.5298278390672678,0.8269750869707143,1.4864999359462905,0.1636483652539277,-1.9235259724228297,-0.060986027976921056,-0.2137358149716588,1.5960050076381092,0.035517511039540366,1.2601174137371853,-0.8770052703197272,-1.5577752959809927,0.7293035929707777,-0.7047435013159151,-1.9407668789226753,-1.5592653571732131,-0.22198508248272417,0.5621871276241879,-0.43267143686128023,-0.00433880017506448,0.03542682717374972,-0.7547654488605243,0.04392267306090237,0.06191801001543897,-0.678212264229504,0.49293537089528255,-1.2221105708854825,-0.1595225560403159,-0.42839099681746573,-0.14994571438853915,-1.1365978279833837,0.01968430404215204,0.6274391346728928,-0.1603817131337011,-1.2456078218945317,-0.3136605686107836,0.845600580347554,1.3811964865763389,0.4612628317283144,0.6143936553808866,-0.2758436951818388,-0.623714816286926,-0.4817823301544745,-0.7048623854828603,-0.9932430156731282,0.5193246907207005,0.3286857814424729,0.3332135695112115,-1.490754498465949,-0.6942422286292779,-1.0157733817308137,0.13307531242765314,-0.06797119232107444,-2.2211500227073078,-0.020130026548285815,-0.10860843507042423,-0.4273113930222602,0.8299490880488769,-0.4925404175941582,-0.12401264790485873,0.4883206927729939,0.29579993399520493,-1.4129958679232801,0.8460383267616891,0.047388006884292955,0.2029181630668732,0.43805592954978895,0.27184279169873804,-1.4978818874997355,0.007811192048031297,0.34980989296869236,-1.1610883034199717,0.4634399926263497,0.6173398783229229,0.07170901256210624,-0.00790561956769207,-1.818154591880439,-0.4403527800573415,-0.06358901664103479,0.2815532172108595,0.77951464499628,-1.3846914496306575,-2.4072049488203744,-0.2912410063500461,0.25851121689525747,-0.9033545877139549,0.4670661726711292,0.6158887688263539,0.34268481660920846,-0.0138668274123707,1.4812439809976239,0.017654721217140408,1.1124300009500312,-0.6580295189922116,0.4052326409735172,0.8281437973281219,0.2208915917231546,0.13207044574035884,0.42550865077946864,-1.049525934124349,0.07160178488264847,0.5603445905014074,-0.48820469923448256,0.5559206351578839,0.12734910500597416,-0.28326406209563143,-0.8869004892837463,-0.5039886193093004,-0.1620054477117249,-0.766492819228136,0.344637713657328,-0.5804711976863843,1.3182665229764838,1.196547483851693,1.3901249323951768,0.9447206649195252,-1.1137193313829103,0.24691487256149025,0.004285622247245893,0.8949056719111772,1.6653429545515954,0.34991735332091095,1.0540468831012166,-2.1829687365186103,-0.04537759456961822,-0.2361144199663683,0.19735302125183868,1.3025584419367084,0.6593404453683044,-1.2809679998452799,1.075029445406345,-1.2388037422517175,-0.23992248921336937,0.21321744045053753,-0.5676782912570029,-0.5170977200800824,-0.023360270285576357,0.9888705704591574,-0.24432092266555352,-0.2695966174634629,0.33356323028729634,-1.2341105881325336,-0.09811173413828762,0.6712348278550775,0.8549206216001823,-0.11194833581586579,0.5208222831834531,0.9482731437937008,-0.6323993645402866,-0.9037697350202926,-1.4536047471279863,0.27445090379763554,0.04473460424789238,-0.7146296528275788,-0.22990732625788843,0.482283809132076,0.33964379902665115,0.6968293202022724,1.5559191713609817,0.41460050154759437,0.22791553167360654,1.0338060971653433,-0.4609140079800955,1.2296893522228385,-0.28125252777763937,0.7582368200664114,0.3207295482132678,-0.5563423442722377,-0.012498209693200153,-0.6477338419082913,0.07145799215688321,-0.21333172536649742,0.433751635099961,0.01292385847230574,-0.5783294897885536,1.0808145800884432,0.9070325266847759,-0.9514304737300356,0.07833992104184341,-1.1468619467947925,0.6621147691059368,-0.02903493549842922,0.7678004087341578,0.19964734956213798,-0.6139658950686104,-1.7342791615099808,0.47943888683401864,-0.2346137405577371,1.236767193822171,0.7212337874976744,0.3858644895275016,0.9934523061208921,-1.3514641218343733,1.090465792089934,0.5364285021448798,1.501867259816972,-0.12151797005697057,-0.057822645975490715,-0.6190993327725388,-0.9636356741475979,-0.21793100899417006,0.5644124319195392,-0.19179303115305768,0.17381621733592975,0.1875521361712564,-0.2746486523448772,-0.6957587445146969,0.6980287862273973,-0.9439993069185079,0.2547994718864279,0.02793618607809376,-0.09013878671230628,-1.2589289169291962,-0.056503019424380914,1.5701664919433658,-0.10753692426181882,0.38925662217301277,-0.36926835925679996,-0.1393175465396621,-1.2180133254399643,-0.5372277174416362,-1.3656689303451415,-0.6886213731276122,0.40361443495810273,1.2078566537168722,-1.1877405086191888,1.0076034141987738,0.10746917763519445,-0.1397623415888358,-1.0014840541715389,-0.36373396119461077,-0.5656030711348284,-0.35902318978780356,0.3663998544081626,0.7850983154451003,0.18255238036063898,-0.05600521348527573,1.0386407404409093,-0.7823499782440109,-1.2666105161558157,-0.25187456973321665,-0.26302606234393844,-1.515671205544439,0.6603805278701153,0.2669384773417464,1.1390991398198964,-0.7384580516677457,-0.8845557848368315,0.057480456513339134,-1.1681796714571606,0.41083969579755286,0.0709145211697994,-0.6124237731748817,-0.8724179068638481,0.8701931587180871,-0.48568377298632603,2.078325319781606,-0.22973517241176136,-0.1759130733989939,0.41176879140159356,-0.2973962597330567,0.8810844148855168,0.8319242754083086,-1.086846442462477,-1.2295883436800732,0.6957291723031475,0.5872679640388454,0.19294489863647418,1.2221816663147036,-0.44252980532754393,-0.0013160266840619864,0.8116074540038039,-1.1457692872949712,0.611508353426501,-0.06885181114921297,0.3374241543557265,2.2909515141241044,0.05692406628678694,-0.23911166109260248,0.8429353403618677,1.188124249914921,1.2709991446783486,0.984392889191951,-0.20150377306408251,-0.4474467931262551,-0.9238465701391676,0.13142851693013977,-0.902728534083439,0.387486845926345,0.37043869557832054,0.8047039240661714,0.7231601884120493,1.7127546189933271,0.08585925441450969,0.5358090676982895,-0.2616539896747194,0.7449754339531633,1.202931011568571,-1.0264095796746917,-0.6226255648583235,1.6614178609710177,-0.6006932497612746,1.331382710829737,0.19753893433702596,-0.46548035156789214,-0.012350695892204881,1.1528372072483237,0.046823754836114666,0.5812845216848836,0.29319855557725133,-0.5474180491179418,0.8314809909989861,-0.6749811426520069,0.22735972008739688,0.19355948348482516,-0.3676761404305393,0.4996910755542867,-0.6372677740646798,0.7065473649917655,-0.6394941751545064,-1.2404092825271509,0.982695366121755,0.4162507646024919,-1.3752195792317332,-0.036614673526597974,-0.9218666163751199,-0.24521754056546194,-0.19768177342995932,-0.5695808482824747,-0.449020509937146,0.8243958111853081,0.08183117845768152,0.09293056835949887,0.6924285398860204,0.15486544928720997,0.0013498541530599778,-0.28018302993821653,0.1698818058474612,0.6138173169846474,-1.4674636521736297,1.7723044849222007,0.722039518507521,-0.18290923899433414,0.9369408449812958,0.44862878546059226,0.5166017633548321,0.3725660880446277,-0.5137321738470041,1.440163137214701,1.573616169148727,1.4627569067317874,0.8965155513793681,0.9106391488725419,-0.0028785747193807876,1.211400937768604,0.3027395053539586,-0.021875437821664886,-1.2371196827646245,0.500943987068332,0.7548476426832981,-0.7312713064242464,0.18566122838636243,0.6456330148279584,1.1671418326871499,-0.9731103181077775,1.2924669072653203,0.3301679197175535,0.020886234328793694,-0.3253838926145014,-0.4430329398560707,1.5971184339052806,0.4648441582916143,1.5604815050573022,-0.32056433265088113,-1.3893470036886058,0.09720102147347624,-0.7966442021477714,0.43829111151055633,0.19885736006724872,0.9518883560902441,0.19204367951882476,-0.48033200720552927,-1.7963453758153878,0.2381792691383276,0.8076809958336957,-1.2104127774622326,-1.684936949870411,0.7130970170217386,-0.0851953158617611,0.6222974635338718,-0.15878643527511727,-0.9709235185312673,-0.3328637214424968,-2.1172703581282435,0.19208478306522295,-0.4319261397193906,0.29833205927791706,0.14473135065506448,0.3983899457478583,0.23961124115387333,1.2038967658967676,-0.7261493051854115,0.12443410590235239,0.34295420451775244,-0.7403423995983254,-1.321212338798986,0.1760008790766546,-0.8796186062714572,0.53965398638404,-0.348329973500463,0.4120514547165402,0.18309096384216647,0.566690452861931,0.46175483223538594,-0.14236556280540752,-0.5222898092332119,-0.2282727657207162,0.693659561115772,0.1828629279617556,-1.3631407150297423,0.8511368196610442,0.21393963011992925,1.3528234737034166,-0.39227983110445436,0.46117453954056015,-0.5343003147285287,-0.8272643345588527,1.1380278807123445,-0.047895963461884405,0.10561845248504594,0.5342293649886407,-0.4451690646214777,0.37776544495213227,0.36266458503507704,0.29410160660169243,0.4899892537048764,-0.3820204745689176,-0.06278204975304369,-0.38021873245307486,1.4704706085401846,0.7947455146590879,0.025165151574466756,-0.19639285593955202,-0.5757494528530659,0.8721260182081132,-0.28088665186037276,-1.0025766153234876,0.2689667699485998,-0.8889143923294932,-0.5837620146399989,0.7154235168193301,0.5683595257069426,-0.9823671655340656,-0.24450393167704704,-1.511081236581867,0.14832293554613432,0.8511318233715893,0.4280137137888287,0.16535350072038868,-0.6034588458747466,-0.8625491263648188,-0.3738905877985527,0.9644745554643739,0.2599595854313873,0.4720523536090283,0.531647247664724,-0.7307486815617276,-0.23183527259315942,-0.05068515283218486,-0.06143707457489333,-0.6864311008534366,-0.7675703694841806,0.33816556612843457,0.5010921991991067,0.9462430676979225,0.04431847816705977,0.5239594830634599,0.4587675413910651,-1.1530249721589192,-0.18423205266441492,0.5152971234219604,-0.992466263521602,-1.0847539441042018,-0.030326274940804983,-1.4322402956365308,1.1527575244160617,-0.1307613803571679,-0.6202932156449245,0.3497069724327302,1.9534080926668627,-0.02014483600812889,0.9616288495998762,0.9216464677811808,-0.7041617289828329,-0.45521582492424756,0.12117744310496387,0.4339284910303552,-0.5926668968421713,-0.5452744401069746,0.002461861472581895,-0.8320713819689712,0.6605303106989389,0.870167485748352,-0.6709701072853972,0.5377787809068237,0.3337983725680039,-0.04776005201077366,-0.3585801067746097,-1.2446583441376289,1.0738669291504128,-0.9711488639866557,0.0019884499595097323,-1.2194944824517155,-0.6584488106127134,0.16104919480487515,1.0768512911376849,0.8834481211979204,-0.8690537065533267,0.061880622639985894,-0.4696141828765044,0.6789985951236829,1.0741658901361457,-2.1471853405597274,0.4719186334926392,0.5659005110921271,-0.7227512724161542,0.5533950230182382,0.7541532049040498,0.23475015009191033,-0.6442095605195931,0.8383238967506035,-0.438980286134724,-0.5389526120795323,1.303547534610423,1.4905925969166633,1.3764032628084648,0.2834641834735083,-0.4766925351520594,0.08432769851921673,-1.1134522365636637,-0.7264195245915137,0.6383197578311756,0.11364516817327563,1.2675765817167803,-0.44923393189627303,-0.41818562220152844,0.08282314722132736,-0.2560311603296888,-0.890617476801569,-1.0197334702016088,-2.2666000539255347,0.8879638197359468,-0.9006149617772001,1.0049976498534656,1.6994591378974193,1.7856527462211877,-1.1336502362373164,1.0378383265309485,-0.6606438891157983,-0.3555692451941672,1.4353844956504722,-0.45159501548591724,-0.024912222946917712,0.8355041052844397,-0.015978038535364,1.5179311171054877,0.8308027438278167,-0.6117006573193787,-0.025374342102582794,-0.7618803625643655,1.6556850056349828,-0.8322460804882845,0.45339098199249434,0.1495534783824968,0.9261453824350689,0.39467897737014346,-0.12472848472271593,-0.8470035169369371,0.7494122571793946,0.013734046919635203,0.10513363388842113,1.1495445391663623,0.5920751233523173,-0.7968263993570144,1.118813360495355,0.019647852791387265,-0.16162891869433257,-1.5220897517539094,0.16683380839750125,1.3580474023972158,0.5770087075410413,0.10232350624498493,0.9687919095669403,0.5905135728241984,-1.2116653874060834,0.3837949239979654,-0.6014869946022351,-0.40205758596138563,-0.5619586330119224,0.18909070343669826,-0.14193046303820142,-0.39273301011592787,-0.7917064297301092,1.975976039735743,0.3266065986730852,0.8808007213403274,-0.2930309022786205,-0.7409958283281763,1.0897143640606368,0.3777311489349592,-1.2636623269893699,-0.13125785925983646,-0.5121891885957783,0.08722554753613215,0.6053656253211422,0.8914822811273062,0.25464121030939646,-0.9368439179887592,-0.12179152943089215,0.061092103917874716,0.21520471716857623,-0.14053856997516123,0.3182005849433083,1.534676863616615,-0.6911359646063578,0.40203320415187843,0.041395484933629725,-2.0744709232356198,0.47562655922381797,-0.87708779610662,1.108719313984235,0.2137166398851857,1.247069143109126,0.44402504412316796,-0.5559942605065304,0.3019693027814734,-0.5497619768028021,0.6317939843136513,0.8759408470985418,1.2726724693303193,-0.2117962777433643,-1.395357757426029,0.7247519834485515,-0.6607609288615351,0.3014808283425538,-1.5200250937764717,1.2874314766585304,0.5489852303814436,-0.9199777353560745,0.325975008902883,-0.3823137504683711,0.023643380236253512,0.15483439719872252,-0.5212718061078117,0.588928781670106,0.04193980628478787,0.17263366279724324,0.20460555348774542,0.14022705324930637,0.44129516196687174,-0.48314239078647403,0.8881952686198488,-0.7135732641829606,-0.5576131346098826,-1.0684533742007194,-1.3543643160754983,-0.16660687973418575,-0.804400931417284,1.2977798042516202,1.0627952544411954,0.6053076024627277,0.16623874633286467,-1.5830349343490813,-1.313772756631962,-0.34983985887616975,0.1737541419272086,-0.4107794257579322,0.7209352879317552,-1.1135048561943819,-0.9715072641921852,-0.31736641999526344,-1.4596028182436878,1.1424059470442538,0.08364604936407463,0.25394455474056504,0.28798098818757095,1.2879911113266034,0.8272342601002531,-0.2864558409222323,0.1695313899885303,-1.3532347258582704,-0.14195942383391255,-0.4373493965286876,0.5509494652310164,-0.6908128305104241,0.4031078106135834,-0.07347415926555063,-0.6834374885071591,-0.1378937589916894,-0.41949781888682924,-0.18088808756192226,-0.6491383305110118,-1.4450040268774,0.24814744289717594,0.014323779680529353,-0.7683328658582579,-0.4421989795044152,-0.5666720095562894,-0.623358143545813,-0.21362552345717942,0.2787761276407571,-0.8659320237245772,1.062270570865619,-0.7728970067209773,-0.8032484152640171,-1.0543082194773186,-0.2947016189644541,1.0426775099846506,-0.30825057229623604,-1.1038352022093245,0.1295740301495922,-0.0851581129297235,-0.1159261676772967,0.6114503519162104,-0.005950359371855679,-1.43054338763404,-0.3513027005497942,0.23925106267609797,-0.8519650394961958,1.1201755942946519,-0.6695237597068381,0.13072555544220607,0.231391250179423,0.6397180860909469,-0.4325253751974188,0.23391271336600303,-0.18737402401058542,-0.7079695341123106,0.5255387262186073,-0.022695219589691788,0.16425532099444728,0.6303866909319079,0.03602570994704337,-0.7799407913293749,0.12415339860577612,-1.815224052205124,1.8151372310519927,0.1310706928791863,0.015415453814448083,0.546216212721065,0.25732734971186066,-0.005448460632657333,0.985936217912677,-0.29738104454208003,1.7461368043801861,-0.01288733433507483,-0.30036552148628975,-1.743561791477197,-0.24899880189199117,0.8755970724921954,0.13616123340177191,-0.06875279709392308,0.3430235567651508,0.6514629463974868,0.14616589442811329,0.7588181597640732,0.16617312288754896,-1.1124534862438125,-0.6264571424528858,-0.3287513553425785,0.24075908945933952,0.5766212197364934,-0.8291016632369262,0.6106660215832679,-0.45962467984599886,1.4267454226642942,1.1510495767206264,0.3370741289553088,1.2172714307982107,-0.17755220641446867,1.6502089487184555,0.19480244594720988,0.35430649022692623,-0.5922640540456419,-0.8560453023630924,1.704397413084997,0.014392304463047612,-0.407429401487672,-1.0246070598109858,0.02820884463329204,0.10321528600421616,-0.22483817039689824,-0.9271799779050941,-0.5638378840494277,-1.1464867199492232,-1.3024114606015122,-0.42838720342151304,-0.7476669505129436,0.9783794621171235,0.29917984263222774,-0.42776025700815745,0.9582588835098765,0.9858425145876382,1.2515300380376309,0.8686662949044996,0.01168756582519777,-0.2750630130304092,1.8555119095958097,0.1897802148033674,-0.9369974831202607,0.226194143194643,-1.2057718131165358,0.5656948065058042,0.17809454651299414,-0.7958307170003525,0.053831831654660836,0.3272483941865341,1.1527775345706335,-2.367398189615787,-0.3533701848604613,-1.1021045238962994,-1.2562262251914236,-1.9452168202546238,-0.13433611010249535,1.0016726289047613,-0.44962076393986616,0.9870944766578919,-0.37820319708987177,0.9040524206524645,0.10673469543726916,1.2746630258690645,-0.23786845191991282,0.0991633710418431,-0.5082336160933006,-0.15503337102157547,0.14338932426653161,-0.8343599215361888,-0.7271024770057597,0.3090909289767867,-0.5871381268991853,-0.9165587928285428,-1.8105136336257626,-0.9413937978978566,0.12175312869879866,1.035113691476693,-0.4996468921042843,-1.3176837171307219,-0.8871418259349042,2.5698585446631084,-1.183136304488253,0.584642962290375,-0.7733297393943372,0.3602158921440506,-0.5970214180611857,0.2759354004173152,-0.24112747593827377,-0.5576622021122257,1.2032247358372943,0.740765163287613,-0.09134615452367824,-1.644406051480814,-0.3956868854042424,0.6991868860972044,-0.9429238271624976,-0.4762108317509559,-0.22414848367388843,0.035490391159489786,0.1535343492239998,-1.599254250529829,-0.06325167389602845,-0.15468541924178253,-0.7704522632402682,-0.44625993981840617,0.16757391125879703,0.41667114441072933,0.30697091546623595,0.08201184077278566,-1.7598830262554752,0.4648460129499652,-0.7754689650210289,-3.0593932530232877,0.004527263960135028,-0.23165730630191267,0.30595553118757274,-0.43885511838913216,-0.20636629200919004,-0.199750938318139,-1.5108073356589888,1.2623778053187558,0.33350462491173777,-0.47334477986743545,-0.14681041922749563,-0.3835161819309423,0.19428191473132914,-1.5666803070459636,-0.34862524855665555,-2.1544501832739957,0.12375591776536096,-1.2122619196442976,0.5238486334192334,-0.9769451001181937,-0.9969934955952423,-0.7205404486829317,1.9229376648747458,0.46328027237799424,0.2970973406804773,-1.0889403873093868,2.0860643867041344,1.1071183369964652,-1.2105456531229917,-1.0905995749363557,0.13268911934474847,-0.29839487132528975,1.9418298981162918,-1.179991434368862,0.43562713518749224,1.129922137456367,-0.1359053424924017,-0.5502741407732429,-0.1900778004381328,-0.7148775182423237,0.1448695570301738,-0.7557272459192325,0.40311268943081197,0.11461777792693116,0.5927810057778048,1.310869292500918,-0.06814524852937422,-0.087103339939136,-0.8465120031263675,-0.9412572375614902,0.12740145454527319,-0.827201220928221,-1.037928302249074,0.27649639170410184,0.25478166246674055,1.3091104848615445,0.06383333548195516,0.17833767680484103,-1.3407937826127447,1.301607769062472,0.46183910321919547,0.8268833092920612,0.21548736719594364,0.04011459771945073,0.55235312361111,0.9159975512234662,0.6659776165664943,0.06356121903448,-0.25558666914753153,-1.5412571740469887,0.3849496601295928,0.7218994782653025,0.8928993739901981,-0.4204839012039384,-1.2813640831601545,-1.511506380064162,-0.38787441907527676,-0.7920720729761287,-1.618286461824592,-0.5790998109026242,0.5856432902912352,-1.763054681094329,0.29541874681316627,-0.7100441448965367,-0.6664306023200793,0.8627503206023331,0.6182698796140718,-0.15280933592484816,0.4691608186102455,0.18059073597446795,-1.2876595453141055,-1.229490628866126,0.4515947565773062,0.5766024601726101,0.6245197506017515,0.7964618850962298,-0.28996846895707423,-0.37222278949688703,-1.0540691356120586,0.4933474116220458,-0.7556312516731911,0.7396543708417617,-0.1527539897847966,-0.016369014121800897,-0.9284095638904309,-1.3351709444503237,0.7198542511797744,0.9680399215678758,0.31673433472579615,0.3628950620971186,0.655039446349948,0.4061217833910926,-0.1584976137157206,0.25119395926658333,-1.5118160338732407,-0.2127845975160306,1.5886399604954091,-0.018028774288293997,-1.59700586067431,-2.1587931841072874,-0.6690502895671973,1.081511177727347,-0.285396108954525,-0.26941657006466213,0.7803010790222794,-0.15806537426985795,0.4838392013091833,-0.8750661552159785,0.939434125160808,0.20384059760422057,0.9172241553308734,-1.1823442518662335,-1.2448091277251467,0.3512433810524307,2.2643826901059994,0.902067307429238,0.579312404797352,-0.8347442259739656,1.008727161798414,0.16321346346392834,-0.11526869300542789,-0.4296824333243176,1.5195457492485533,-0.03241664275167762,-0.4631458354575238,-0.10650855053826422,0.2273786839835506,1.0763564909754484,0.12795376716392223,-1.393924097273429,-1.1734643340846316,0.3079789848742863,-1.512868998378375,-1.6757763186822368,-1.0689038890041318,-1.2511963824526737,0.982485978351215,0.09117567702165404,-0.7098743150721523,0.2515602590086521,-1.6838165874235558,-0.00829357063257273,-1.2912320996424482,0.6641906841398026,-1.1774451249753524,0.6150104368666591,1.8583930253743062,-0.27852685693753454,0.08103452829875595,-0.05230709545961689,-0.5485537784789879,0.6367689820091237,0.423609988728053,1.7306066421004638,0.19474577943891908,-0.15822993804018018,0.316702900641505,1.057116029842977,0.11499755111021034,-1.5732806636083294,-0.39210104572377485,0.26337025458054475,0.29989173717634116,0.2682357392740277,0.43618625190049615,1.0863151228343826,0.21421907018592753,-1.8867252580050553,-0.5642981689220216,-0.9073097776881283,0.38975148461621223,1.4975300176491786,-0.616863761608303,0.09876323528896065,0.28264801002482015,0.5635808039582826,-0.8655025949235294,-0.21657121495756881,-0.35681825815950174,1.0934858043124502,0.859437454434801,0.18433140131234627,-1.1443326873032253,-0.10654900411665612,0.2938874261943158,0.9001587975797611,0.4086447690113469,0.5665157734772676,0.8887246531789099,-0.7654662819426412,0.09921354500669438,-0.6401969335669825,0.3695846025360536,1.1917100125221063,-0.897743601712131,-0.2710989569690284,-0.2860819160723445,-0.7654478531264417,-0.6529788854951948,0.31526747265184146,0.3600691489599543,0.21703923793776234,-0.21145032097239086,0.9666189385183845,-0.04340809409193637,-0.7734291857791659,1.543213462206375,-0.18439204863204647,0.40473485333775966,1.1950735493535456,-1.8742262993178036,-0.04803859849381189,-1.3089928791250358,0.033821484925478686,0.9144187576024146,-0.6022229517237482,-0.39101650606466,-0.45549734000103903,-0.7472010737015278,-0.7530843813712673,0.5989661763168445,-1.3314359447561792,-0.07833667702961744,0.5326319691140134,0.5347083738338909,-1.2806652735725057,1.593475187433936,-0.06577149994489144,-0.6116814333647742,-0.9441776568780182,0.6164606781485125,-0.9433176921540367,-0.014354767171277372,0.2501315989435065,0.2812295678358966,0.25610251719813487,-2.339039809679327,0.05315021362889879,-0.9136204507684774,-0.6111329585072206,-1.7591068901616844,0.4888759855564474,-0.851029458938085,-0.6494280963259383,-0.6935277234964096,-0.5462933841177745,-0.0657792762975407,0.844026528133136,0.07701614028857467,0.40258477885131566,-0.7975389108887742,0.381147911369898,0.8511768664975798,-0.7079012186772555,0.153370228037036,-0.6425395202816828,-0.1393133276469176,1.7497650969976577,-0.8260005391480582,-0.19999477691555373,0.5126632899568724,-0.3471259067828817,0.01405421217204423,-0.7244478007534926,0.8420139742766527,-1.2001372043640497,-0.32154822417035467,1.7068072243773622,1.0574165622162788,0.2903950800666473,0.784670544826846,0.8714042736674673,0.7252280775789582,0.48574346420825754,-0.1870953361545303,0.8192109419347594,-0.37945058802480247,0.07492969789769853,0.12941482034372664,-0.0875597145087721,0.5477470412414812,-0.07582476563664979,1.6263889155244788,-0.8455830273625978,0.3693709180101213,0.5686286196687499,-1.2195195846110158,0.8038112036060553,1.3723817028445755,-0.39183218979712303,0.8542099687229738,-0.07870553931900083,-0.9567039396477927,0.2608886188356323,0.6395761383696296,0.7058944891536467,1.0760882375340814,-0.3927921744958151,-0.7575242024004233,0.5680044556002097,-0.37633062236184506,-0.4508658550369161,0.31199447006734965,0.944625260157663,0.34491239614090397,1.1064010673923454,-0.6471179974263321,0.152667674581404,-0.4054466489828094,-0.4254034963726919,-1.0125623760378892,-1.3060482287530721,0.18943710086786916,2.747086350712799,0.4945933339397737,-1.1547894236660492,0.46657649194978706,-0.09105460474195783,1.137874827884289,-1.5609750180060187,-1.0570192457319927,0.7661727307517722,-0.9209967149369698,0.9222130980038518,-1.0856034761178386,-0.4724745313376536,-0.614782618996376,0.2786881064431296,0.11077947454292096,0.3464896561330015,1.164425850137943,0.0019260835400435458,0.8922151610105042,-0.10528400235871525,0.47128595797634043,-0.22854486836029503,-1.3575843443157236,-2.8964465714580543,0.4868418052578616,0.8835927400387278,-0.6299388358326455,0.17934556940451504,-0.727550940574373]}},{"function_descriptor":"TwoPlayerScore","weights":{"rows":160,"columns":101,"values":[1.669225120461009,0.06328872537130285,0.7541269337127716,-0.2938026647790019,-0.888884134799754,0.4855448003659093,1.8917830692575042,0.2458145420753668,0.807105254913578,0.1934758964511826,2.0058265210215467,0.7985200448250551,-0.7444699007645519,0.9071120744347448,0.3258955074421388,0.1144928770039946,0.7690040096355203,-1.0111613038212441,-0.4177698891473086,-0.6499750177019755,-0.3448227426325708,2.202455334972479,-0.009962848774168382,0.7099345004427979,0.9747987160988867,-0.2204066437468372,0.8665930564702881,-0.004481086589733944,-0.9973521821576322,0.09406696351468771,-1.2513433525527062,0.6007002765201966,-0.15811121583146462,0.5296921708489561,-0.4799234438680098,0.8653000875946323,-1.288466721985449,1.0063242712336482,2.067165714762865,-0.6659537538710827,-1.0175232740056566,-1.1515541290323261,0.485079951409347,2.7303443689182654,-0.873648490468388,0.7141133701171781,2.4112452039169745,0.6627154892565539,0.6352962104444521,-0.0783202917931663,-1.1498085730404726,0.05857472569397419,0.8249598153263771,0.6720229055291539,1.8527054803271552,-1.6508610056132238,-0.049921634079514485,0.829679547813806,-0.526850274728996,1.902553458425509,-1.1821457419778347,1.5122842483146408,0.9879428555438224,1.2267982337146324,1.082643702957583,-0.9635702376435465,0.007547163265334939,-0.22434002435556302,0.4570452966622605,-0.39239604398605316,-0.4366896869034236,0.21235856349615057,1.0622401810104123,0.5505713342970853,0.015000480772109921,-0.4158418910553573,0.782737062464842,1.1532062486730277,0.11771392884923192,-0.06228823734419084,-0.13798938517623355,-0.7088041540707052,0.8691606662720224,1.045788658025003,1.1493780481835323,-0.9168533578358878,0.9440228202010587,-1.0757540734788558,-0.17429743052847593,-0.34925167366968574,-0.7129305976663117,0.7692234346724381,-0.23134261165225367,-0.3465743153187059,0.14788078363209295,-1.208084567058766,-0.28277763021520735,1.1771895698727535,0.9346224126048871,-0.14485297835773797,-0.5430015756167181,1.3956044761372974,0.791881322941337,0.4595873825483116,0.011907112368796314,0.8512754956219952,-0.9442527995096002,-0.5211565306280868,-0.4954420018132891,0.47754228770607543,1.1666262699334646,0.5785785048313007,-0.2836685008396176,-0.5371040028718921,0.2208306754252379,-0.6325303533751027,-0.4357902019880221,1.1289664878569516,-0.37913792426086157,-0.2504153958158048,-0.0813715078421607,-0.09665607090761047,-1.3833797568972708,-0.8377685055261386,-0.17547081103745538,0.43634152555041283,-0.44476915620218815,0.6325680578193564,-1.34227841758265,0.1866499401839532,-1.2582164376513596,0.20071250639937918,-0.8376939959811408,-0.5510039657587678,-0.7580554913433067,-0.0717661598341983,0.696726726231215,0.7222046143240436,1.9426023023634063,-0.3760630742884437,-1.336636888666814,0.44486383904858195,-0.291691743914236,-0.6741207057596998,-0.019429938683052022,-1.8350223624611792,0.42066709892327864,-2.065344925564362,0.6094308474498126,-1.0935037046754978,0.04610168827965487,-0.07364828171465812,0.9967582512383493,-0.5786959002980776,-1.0814934179984472,1.4452250741245678,-1.1053451959706098,-0.7144223621039735,0.8680492593350603,0.34948095442819477,0.04757441598541397,-0.059004238695225066,-0.39843741700406665,-0.3825840351228767,0.1248758289748347,0.83670940881806,-0.3931425271652956,0.2658072473235196,0.20961969759070775,0.6123569048123639,0.20525149465322223,1.6348586206410103,-0.21810590812256386,0.6727574883679232,-1.139844985145886,1.059069439787717,0.6498836489371594,-1.1956186723033415,1.3402320492431687,-0.684449984630332,-1.258768108459689,0.31764909915350953,-0.4388682235718017,-0.7080433235400527,-0.48943634326912644,-0.4330462645908949,1.0366741003325484,-0.533206577861664,-0.9505154654492725,0.3196038717285812,0.21217504492867229,-1.1895823680563131,0.32749256003900545,-1.4167626116936682,-0.6192457085653343,-0.30008817902370827,1.9506914270897506,0.8648491048886907,-0.9727591601429506,-0.28927689847814103,0.07450166925124542,1.6762335253385976,0.06262512047640616,-0.6122319070798801,0.4984396379891413,-0.45424693595509175,0.6661204594629532,0.08130421547499816,-0.9274303537878155,1.294276154360339,2.555217732428333,0.7581154642582478,1.4339040885030054,1.1672479543379168,0.928170480313178,0.03766340232211608,-0.8620899952773826,-1.8335262171385378,0.33653854974378467,0.23455091009795806,-0.41567606882226876,0.536751932731297,-0.4135713643987181,0.43958767115766334,-0.27559242324108224,0.20934752545582436,0.052310026721355214,-0.6100350498415043,-0.5359608084566096,-0.794342290289591,0.15944953983779983,-1.4546803004290307,-0.05886218665945562,0.661558533484755,-0.280982311437235,0.4937404831359065,0.060715292921163226,-0.1597030194775781,0.5819643429323823,-0.8491296579546785,0.8399338298193523,-0.11153316870158235,-0.2705749992690203,-0.694213207921061,-0.4560890862094831,0.729889521473975,-0.3302430090264799,-0.20298515534381228,0.9932922179753918,-0.16915294619591445,0.4066740221513549,-0.4146073377456812,0.6848753355288832,0.3014725292203501,0.45651980592588953,-0.2712767945557215,0.12434783247410619,1.130648649927143,-0.92803187514026,0.8989343280720287,0.5115389432971139,2.0370291210110447,-1.6037368357680013,0.13237342188458215,-0.18164922829089003,0.7210265109848031,0.5215397361847574,-0.5488210565020284,-0.8698412363594793,-0.6331807700189372,0.02542260799222555,1.9556103455586793,-0.9228132175480431,-2.1251263872628234,-0.4574702448113921,-0.8666146098664266,0.12415978899887342,2.0696701515933555,-1.3281283861167346,0.37657748780172395,0.39658705788679616,-0.11519320690789855,1.1631483646106668,0.5513663768964217,0.2753114871482373,-0.012233812737465623,-0.17901653083984406,0.7832460224323873,-0.47815237853195613,1.3260618947063105,-0.6052944552523951,-1.2113872708260263,-1.0704403120039634,0.6100586234385863,-0.394717871649976,-0.7213738216133098,0.341057178015357,0.9094985589726974,-0.08760352355456402,-1.2346260119328902,0.0574888523325781,-0.3867561332939706,-0.29836916375282957,-1.600918129944013,0.2438194095205623,0.798535927259083,0.11916587452264282,0.21365401777099582,-1.6564703383394723,0.048278607508321296,-0.3359785099564785,0.3298839804396015,0.7828320176280229,0.09947481955614633,-1.134997784309136,-0.08509148354195237,-0.11167893425883232,-1.1419332350863858,-0.7309163693041478,1.0387976261946066,0.8180245527950322,1.0737253720030828,1.0455739632467227,0.0832162092038543,-1.1157545080772442,0.8954311350846448,0.5546796210669586,0.3558833906183721,1.9886346609816756,0.052455662711142895,1.3546866358463565,0.8500916414731212,-1.004502078494316,-0.5140072503743055,-0.40990678572567757,-1.2825937247133938,-2.26760203203265,0.04126054751105584,0.1624300254503273,-1.0303338818939656,-0.44448018675757683,-0.9161389391334216,-0.8772353437002379,-1.2846259290550692,0.3147894341853208,-0.49782689989857704,1.0120800523405915,0.12026333505202856,0.7852534159653131,-0.7800719899309844,-2.00453433882567,0.5522102783421315,0.702887443819923,-1.0398180014788823,0.11920114209277188,1.6804601638405623,0.18201546863435306,-0.12345312505426251,-0.030499914919598692,-0.3823168796652247,0.20787210094851954,0.5274192315759763,1.5959038531680867,0.21224240178598988,-0.007069779458033571,0.760609644798365,-1.492734319888345,-0.6295509517051352,-0.20136083546555403,0.2934385636674218,0.014194316074136775,-0.61636656368622,-1.2999109750835909,-0.7663724483101687,0.4530696256066672,0.36283430126898236,-1.0994204034912254,-0.04780260350676266,-0.3287914294279813,0.10674019321943179,0.05646655362912263,-0.7442700221361208,1.2644918161868948,-0.921086894406334,-1.4519150786376689,2.058094963525686,3.032314267931154,-1.3347894829139604,-1.4366435505104875,0.1320133229183324,-0.0808324185268835,0.5262765075980447,0.7948272788636015,-0.4142678714014884,0.15757845268918794,0.1854648315208174,-0.5655498292640404,-0.9389245212150749,0.9339829512606015,-1.1846505530191567,-0.7137184446290131,0.6824842947688605,-1.028948374562422,-0.064259566738606,-0.31427423886183065,0.26731828048186856,-0.14680054859930095,-1.0502668137528768,-0.5598414774228783,1.5340715304419645,-0.0863696684579794,0.3414904480187658,-0.9487842341410414,-0.9895831279445395,-0.26594432921874583,0.4220119216006029,-1.3247490156764812,0.021149958224868596,-1.7062405446859963,-1.8579177590352305,-2.8528855511011493,-0.8316420590206277,-0.06841453009229079,0.8038293268476655,1.168058646727827,-0.1878490419458467,-0.3196986910691195,-1.0362033369140178,-1.0507459422010361,-0.9482272870520729,-0.0040221399065833935,0.27045313632656093,0.851675620168728,-0.5324798228945709,-1.5183459376213295,0.6285061842943723,1.036290275758864,0.7039937557031107,0.524931664484512,-0.31791104909266155,0.9790148921362154,-1.3783738624021264,1.1770766077834087,-0.1160294605880113,0.17541327517669603,-0.7686331311163859,0.7367262492370474,0.25284705720138595,-0.8345310794464174,-0.30014369200993124,-0.6940796317657194,-0.4409638244949126,-0.3146520780080813,-0.8509790439050572,0.38354881064056656,0.3590768517326912,0.05522423790561404,-0.44169333371918723,-0.17855114267005257,0.6189855852667316,-0.21219458839940633,0.9976305825875935,0.7735152449821848,-0.6305174881974553,-0.02825408826438225,-0.2092090960287755,-0.40229448065948586,1.370954423409696,-1.604404689981639,-0.3958941935340933,0.5506965978814767,-0.6721511079284032,-0.40448615189440706,0.6656842905490563,0.682401856617005,-1.3581393464323814,-1.738428159055347,0.3203389568516376,0.3911000189555992,1.1640891244145881,1.2074692448711197,0.5396790317018707,-0.14119029280205952,-0.5702454463574985,1.2964501978520093,-0.4666821052186059,-0.037651114064777606,-1.4150151859596938,-0.7530846751702945,-0.8321201714014931,-1.0745289448754154,-1.4163181765132056,-0.4920830218807683,0.24554080182758575,0.2257915281686709,0.23273840663955647,0.37781562358633003,-0.6599711375762629,0.017710137604247087,0.930622153816473,0.04750988710075854,-0.42809098600365764,0.02210658156253709,-0.09903103775154577,0.3727109206111971,0.41402816751567567,-0.22750969054889686,-0.34140651725420423,-0.15298296942634929,-1.004642196097534,1.0113023497700462,0.316878275247676,-0.7469989600114625,0.7393410233516373,0.04105986231480821,0.34163581375290675,0.28941405215369315,0.3584649284961789,0.3682124995325477,-0.4176915362170132,-0.721522041304095,-0.6218397649413405,-0.11343884637959212,1.1635138770761106,-0.16483512419435126,1.3061506479033125,0.34914248561732136,-1.0591364707448172,0.23867214051759433,-0.4006112534750667,0.579500930706047,0.14590195961072408,-0.5076600186736842,0.15999140406415527,0.5067872658605638,1.0486185338025291,0.03066304963250072,-0.8999924990015591,-0.9747194784083489,-0.2497204918092199,0.8868969230868103,0.2971359165685522,0.5928169399721627,1.4388034633893347,-0.42607602813059386,0.4687465482355412,-0.005260184041531763,-0.2870480146716199,0.49867723140978726,-0.6781216939228288,1.2020642984938932,0.6257509471873959,0.23676630933026155,-1.049610133021881,0.03131549139305552,2.1423102645781666,1.500775433621302,-0.03733641947934469,0.33646267546562286,-0.5991988659618941,-0.3123153267734858,-0.5981268239106132,0.8480541984999811,-0.7404027156675491,-0.2900045134166165,0.3880496585445485,0.14779129973510494,0.4965203721030089,1.163774834288295,0.03816501384764181,-0.919001140053587,-0.9135214803092045,-1.050803414096241,0.03876903444324457,0.06818803431788666,-0.7769148623206311,0.29596108155506956,0.8893964096031383,0.18141661972918358,0.37816742024182515,-0.8007030561238779,0.33528878551274643,1.0093745458146206,-0.7264651042683399,-0.7383491096750131,-0.015300391081802745,-0.0806277564136847,0.26134048397606624,0.2850526820181696,-0.19258459326953092,-0.41646951374846936,0.04761052405388328,-0.2724095199587659,0.689129788745909,-0.10906679496980544,0.097946469641696,0.757762166444339,0.03863333061491154,0.5115527658421997,-0.18803028903611063,-1.0827240609113837,-0.5305703619837728,-0.6816896328053277,0.12859087118578633,-1.1011278309938448,-0.9866031394861202,-0.435813295842769,-0.3164516354635559,0.24385254709067605,-0.40971029714572166,0.2003775161492211,-0.6511406653508812,1.5041810215691231,0.10217915950246596,0.1217253216762293,1.1923561577671093,-0.458465822053178,0.35795999413737,-0.3367087060844874,-1.2486609746519635,-1.9201285877311527,-0.36851431181501126,0.2588264988758651,1.5178392489718313,-0.03389369929189332,-0.6523839670701329,1.371948022934387,0.29678367288025687,1.9159589539752835,0.26708420978406516,-1.364216100282325,0.7380896455949907,-1.2420199525510587,0.2711269798352157,-1.382680732628574,-0.07548299693347078,1.0206252967192384,-0.33761407583617437,0.16977747188282682,-0.296087237578701,0.5840170451844123,0.1435363539121065,-0.59248825575168,-0.4574439472727553,0.7056453977491347,-0.75559785004334,1.9085096015359229,0.3781304681127008,0.3199850216048957,0.8215681836857671,-0.027742169814298175,-0.5717828482126183,0.339270004433804,-0.8335949891435604,-0.9044802046037196,-0.42625047769665814,0.6034512796568601,0.14902711686882492,1.015158275785861,-0.5528753851119598,-0.8232057133524537,1.1583747061605187,-0.5782462353078751,0.010386397506371365,0.9943469588380665,0.20144779123288992,0.17258647848527045,1.6086883109281183,-0.8769259107444161,-1.5084634988986714,-0.3241525947044129,-1.6086897788704468,-0.4808763094661119,-0.5397608363021927,-0.08875326842098286,0.5948148249626479,-0.9628837232286308,-0.3140173147252616,1.4845613787028116,-0.08425489996264424,-0.8773358271069002,-1.0679679259521122,0.37602126466112695,-0.3958147341381893,-0.932618996348403,-0.5118364776709685,-0.056829199842723874,0.13104556164917594,-0.30818003521560833,0.670798642738413,-0.4794106306437544,-1.369209754191783,0.3252280588338972,1.008651445081364,-1.4605313916943992,0.8756999095804436,0.49894755207078256,-0.26140710593594935,-0.3053388307768502,-0.9197673067594733,-1.3303314653064593,-0.2799071977898801,1.0060775030552398,0.16908739268839915,-0.046813778421736486,-0.26574870555894115,-0.1329384960521999,-0.9233095446799753,-0.13684089496589918,0.534327712314598,-0.23417966278182986,-1.334818662373972,-0.464741265935174,-0.11428926723387522,-0.5333324632856644,-0.28661099671840595,0.5775109570698531,-0.6416486240518187,0.15356415308473137,0.01666554202764074,0.7937851557777437,0.22088711687175286,0.3731283056427814,-1.6164229438938595,0.15912624975019518,-0.36509734130352384,-1.5378472091827122,-0.5325423772230222,-0.20250250493170568,-0.1567196855498274,-0.6399976718766666,-0.9365284175066823,-0.36765878354594433,0.5148572899225613,1.0686423985761773,1.9734769945179278,-0.7716679338995389,0.4486824271384978,-0.16102922667411532,0.8257898587383344,-0.11410947563150454,0.7589188216641369,1.6555949659227582,-0.1869974745299743,-0.7148845186705058,0.05474586816252588,0.1251355370112468,-0.4354822135740549,-1.2655434447521507,-0.5660242658233984,-0.7489370492653666,0.897569655131511,0.7579984070788233,-0.38007058277913625,1.192075964618219,0.9978473804510445,0.24506807267860373,-0.34695561936285557,1.460859831690462,-2.533611607210675,-0.47558787217651793,-0.7959240782836846,-0.7211840444320976,1.194470642248863,1.098506309576214,-0.7448431738892497,0.10631410812124883,