{"value_net":{"layers":[{"function_descriptor":"TwoPlayerScore","weights":{"rows":80,"columns":43,"values":[3.1560303874389954,0.149443773745817,-1.1521412564201525,-0.6359588490873082,-0.3662764432371375,0.7806160639719647,0.10352762643167555,0.49034625791627934,-0.14922694374076978,0.9855128170737483,-0.4286724099793549,-0.7933030588814459,-0.011306754704116526,0.23329291894255866,0.5366515811397355,0.4588762901293454,-0.30778086199790233,-1.4604349719040788,0.3890700826331715,0.33253296934596427,0.5933365398928292,0.7230400284527422,-0.5119963314739767,-0.32553589887813006,-0.3727395708659756,-0.713291599349458,0.12431480398574234,-0.6232648760527763,0.23621755850461937,0.3277076531130024,0.3802997343552489,0.32085451537214355,0.13384483507549103,2.426482139695895,-0.7754588028168672,-0.3940645196634876,1.0877236536448573,2.106352163508158,-0.6990928255030797,-0.9072680424955093,0.22057428570340154,-0.14942061443840662,-0.06741454137434785,3.851213883140765,0.038558147779427746,-1.304987565963298,0.8194631288703422,-0.5080971498045029,0.3980817392466953,0.7417025750762589,-0.6566972137123424,0.13906130138958758,-0.509702875277164,-0.15100959247168325,1.004402913454888,0.14901727518455846,0.28196142955688425,0.015580049084060885,-0.13985656805149757,-0.7624542601361758,-0.9979937256132255,0.3110173623298048,0.6672874174994148,-0.49718975119063236,1.7395782776436695,0.42012914808385127,1.7642103856135902,1.272325048057949,0.013446228724945872,-0.9920256823601347,1.2045218937238962,0.24922161270840232,1.5541487121700828,-2.454136476931985,2.06996545783958,-1.3096339136714192,-0.04182263852920179,0.5278441710652887,3.1533507139073795,-0.8468213715045839,1.8136234823682456,-1.4389074861693265,0.7002923354036767,1.5908628840329868,-0.0016614659332885697,-2.005154331418126,0.7661638357853013,-0.11250768002659935,0.03163019027177686,-0.747535460119522,0.6484049180502355,-0.7174759538755723,-0.41523238742123325,-0.01864403810544815,0.6488961511780987,0.006865950225732644,-0.7481512118112922,1.222498380404167,1.1348533351471295,-0.11882657396014917,-0.08209511265073344,0.0804371298838673,0.01674441801626029,0.08339015939923931,-0.3654039862525643,-0.6757812111273019,-0.860297156100164,-0.09183456053497845,0.17164373202107672,0.22073456644164302,0.5826699240916327,-0.12646423166356885,0.034761184574756396,0.2858440375040488,-0.5686289604088415,1.9027404309088154,-0.8355523131774857,0.7941033768474555,-0.9755055018288905,0.28600118462088825,-2.5771986973353735,1.0500694159077795,0.5871988016522072,1.0214430689936402,-3.552123886967084,2.365656602253321,-1.5493815426142292,-0.34315662977137773,-0.21387653472763768,2.5772563286613863,-0.5491716720226533,0.30360795177777256,0.24588516815020947,0.35863824050898196,0.2151352770852917,0.46969159806728167,0.6855916664487945,-0.5911891531932143,0.07820745621813835,0.47045231310044117,-0.31115209390360693,-0.32134898056660754,-0.8051007122291983,0.3141705173184659,0.44337427056090734,-0.5893057270674313,-0.2866536362128284,-0.14639266050069108,0.3827788505900661,-0.39627363150154227,0.9294080904867891,0.9186311192278802,0.47688084059045827,0.005646806891097285,-0.08640838934870751,-1.0053332452811687,-1.1108819062315685,-0.5818905871575237,-1.8426961663750838,-0.6507879261396492,0.8656642386064924,1.1396136635013612,0.9783935186327032,-0.6317557219539813,0.21632570783443159,-2.491097395519419,1.4747178777668923,-1.7320007264776853,0.658330283657388,-0.9832143801869908,1.1659177183287748,-0.4183034592848313,-1.8055190446922118,-0.7526047542751426,-0.2053768562606994,0.08530620174245772,0.556686679033859,0.3156114478711333,0.008225794037242912,-0.451859518577605,0.9523690898756608,-0.18794228334430116,-0.2525675203848047,-0.16149433830418433,0.04540741386615425,-0.4359785459306066,0.37699718017877737,1.2159468089742276,0.6679478548373037,1.4917265927665226,0.028261550888991103,-0.2759076586546838,-0.30694606411284203,-1.34234290037418,-1.0911501806374444,0.49725447240959725,-0.6393050901060782,0.6337782802695211,0.10537352124852133,1.2568168179027195,0.4367740644962228,0.3405976312111672,-1.6414956879134441,-1.5272057236483676,0.8842498797746451,0.5678055410812533,0.8240011402527713,-1.0157080260715108,0.2425503627073527,0.3527650610883998,0.4204805976368175,-0.48896796380859575,-3.9405701084083895,-3.235700639348459,2.165461143158947,-0.39401259451727105,-0.7246941858367502,0.7656661261897064,-0.11132217461892732,-0.095089103147139,-0.6248039594032914,0.18310009763549848,0.0671099907865612,0.15113268451290274,-0.40270342905232187,1.3003868282931894,0.5812096988776916,-0.5807404307785535,0.375168398346542,-0.06276855149923981,0.10708512999855879,-0.27551876492660615,0.6712579585109165,-0.4487926657673829,-0.7311521422417485,0.19672827776417717,-0.7364812685450522,0.6034523224032725,-0.20350784051292561,-1.103971267211986,1.570683556161677,0.7640149619014791,-0.1117528993432364,-0.11105007953412477,-1.0698460707169828,-0.5807041144433818,-0.13075857027117083,1.6532790416378318,0.30256038461001633,0.12102890081354453,-1.3102753033461785,-1.7394634524783446,0.6374534077962513,-1.6319111016580736,2.3693206518231364,-0.018816321836773956,0.23484109273638076,1.6750553184060715,-1.115360418606128,-0.5205113907725794,0.0973582553732474,-0.45972040464668124,0.05891817427925532,1.3351031972151484,-0.5638283524492619,-0.32276260621572117,-1.2093463372315914,-0.07263188705829732,-0.5031234487494378,-0.5321840064889228,-0.09044813616147312,0.5813104443250997,-0.14239007485028968,-1.0907862968433757,1.5434493943998098,-2.029956749369678,0.7326260401435537,-0.6056151425979456,-0.1097678860249816,0.35948075342436275,0.30315365292230706,-0.5147410412268337,-0.09744655313306907,1.4152225237419849,-0.900924850593776,-0.4654536020461805,-0.5078837471315513,2.5434598728789997,0.7805918376858907,0.36108217066910164,-1.0381887208755436,-0.765302967762585,2.6717443316546734,-0.9366610096499631,1.120557369930141,0.5395348024962574,3.1947871018702436,-2.5611202865659624,-1.1832265645983866,-0.5581217338178245,-0.8861110715408876,-3.129982319550364,0.33820483259369183,-0.13585549116871504,0.45350262777999717,0.37759774819494296,-0.41489676119693386,0.5064498906291333,-0.511794027779293,0.5185996341397233,-0.2172848757735624,-0.6419023657395581,-0.06622448413065637,0.6262556495462491,-0.9846973686983319,-0.9188489085792699,-1.2488140879442846,-0.336701946552715,0.21220878052905365,0.15221223443566462,-0.7524429603929452,0.6454377682120993,0.4735917725747582,-0.009385312101876762,-0.49849456521675756,0.6330537593585778,0.8030604790139926,-0.6648181775218907,-1.3708687362550442,0.4158861732079375,0.440238368235963,-0.6285798962512029,1.6746025762273737,-0.07711359318836632,0.27012492434596436,0.880154764097597,0.7951846319888211,-0.7120774619761717,1.3564821140348906,0.1288908828774618,1.3451200939584367,-0.14792941822976777,-1.640786464854721,-1.1838922005431451,1.6991463260052992,-0.5590333260909675,-0.3968799097637999,-0.3970263778140198,0.6590607799821049,-0.2667809131929223,0.1939169430419947,0.020598415206575297,0.1964037707973541,0.7911959526544758,-0.9207085097030577,1.6381791903734935,-0.8787624576014682,-0.2672091539730026,-0.3664230985893516,0.22095841715126854,-0.11987325334080833,0.6526401392491152,-0.4673942410146941,-0.4434938981479667,-0.42779887267121397,-0.7803493680773683,0.00240715601409332,1.3946393110315969,-1.368435141073727,-1.2618091070069941,0.5707093337325211,0.8679822027496304,0.6593947314210898,1.206593704279565,0.4921478891459803,2.304490216312732,-1.576962359444057,-1.3149210589586275,1.1674743515961907,-0.7770122370267274,0.5525994869529788,-0.7442086379560254,0.42823313975390626,-0.06737148625883403,1.4034221540190999,-1.0262329901738851,0.7072664130730595,-1.024434177713565,-0.10694525276211084,-0.2324496415955842,-0.1047147372244193,-0.5270102337022264,-0.08199079800664184,-0.10446659514134062,-0.6324935624691135,0.8765028775482696,1.2265477505452362,0.2680020302302685,-1.9908908968208126,0.2140458085626571,0.46054811987056943,-0.3334578447385535,1.0975510203747836,-0.008639773806061159,-1.1137262943701272,2.5446162861191604,-0.19753447114789427,1.7482952844122088,0.8748426851871555,-0.517638115697678,-0.2848012874066579,0.2676139266795693,-3.032444737971129,1.4182301234688053,-2.060565697009228,-1.1132131200899318,1.665188049647907,1.1983196403363885,0.8120752885547354,0.7536743175897064,2.2339948709439796,-1.10910560942638,-0.7833823990671172,0.6123420530974586,0.13010268254941515,0.9525042355783511,-0.479799978049794,0.0452400435424312,-1.4048891589025274,2.532826623564232,-0.5073901717445494,-0.17896738089740016,-0.9399942208074944,-0.8604437291139757,-0.009680194050887561,0.5928702360093762,-1.081899415730035,-0.14932104466469037,-0.1976288913274413,0.31144855357144197,-1.578956773016748,-0.42921323469663536,0.5752853642875747,1.7392692181762182,0.08979370806667171,-0.14193656249853603,-0.8387772645784145,-1.7726652328385744,-0.3637921436136378,-0.5619367569171866,0.725328179597985,-0.5625464059154444,0.5845553119193899,-0.07516004407307277,1.5426625229261404,-0.22785728703925132,0.593667111893852,-0.4711227587552355,-1.5482274061343109,1.1314306218454675,1.2885822735251597,-1.080868033243461,-1.326100435873784,0.4229332444506224,0.13437801205901276,-1.0298614982317862,1.7091488203539662,-2.7139651046933704,1.939326131167796,-1.7969164515287095,-0.8908342632569062,-2.0123416881791147,2.432042927387869,3.6835757702197833,-0.5633947926671269,-0.07571419831467577,0.5749840923774866,0.450351935846453,-0.32131653377963565,-0.37305591232084134,0.010666213409000697,0.5076366895304081,-0.9010760469290277,0.5146792808171164,-0.01887983699406145,-0.2064832551010006,-0.03753645627502915,0.8024177127191273,1.3282512479815116,-0.04073077387084571,-0.6863800877313838,0.30969237494500074,-0.9397575527897658,0.23967854521322257,0.31091792181711864,0.07645275634754632,1.5850504404785652,0.5150136607437843,-0.31685320358291996,-0.6158465415695583,0.3277039664014956,-0.4056557533936689,1.3417677509557389,-1.114946461601216,-0.015123267405772243,-1.0680296998461047,-0.8456388459306131,0.00004801083209729753,1.3682116156539028,0.5468196951832168,2.3743617914757253,-1.6561513493145872,-0.10374763900746888,-0.24306796319616902,-0.3133561254856788,-1.4757505741332375,2.0085711778742334,-0.41915488261313766,0.43214718535521013,-0.25678805410524635,-0.9543853776662838,-0.2177228425530026,-0.801416157573799,-0.8304729180552445,0.09823573492880762,-0.8700267057319193,-0.09136091594942135,-1.1704652783599236,1.0265050400911309,0.35972242468949783,0.7076617730157552,1.7861040025204582,-1.4326749538534127,-0.8952752715390626,1.6557439669964833,-1.237036244955095,0.26221804040571683,0.09529762322707924,2.7605158486039807,1.1745512582422526,-0.5918701866074549,-0.7420894827073415,0.5485535114334513,-1.286563899962057,-0.12204662845739163,-2.4199713683116126,0.5549890512951287,0.26374634166257765,-2.3751365162575513,3.1774229473317215,-1.6851341609503254,-0.33874590989298753,0.04775507851390868,-0.3703820380260773,0.4468434593106645,0.1729169680253153,-0.04114023572044488,-0.09723278200644621,0.3760444795191182,2.5743470483355897,0.5603385672742632,0.5431223836856435,1.2034556388001356,-0.182287318715599,1.1084544824160898,0.38256029976113853,-0.3823244366370452,1.1265094427149454,-0.7818788455160353,0.20501099009782475,0.054757839396786995,0.5512802672643615,0.12595346175325595,0.9844308302262192,-0.1876186837027373,0.4985264065255068,-0.4063483537792453,0.5179657507902999,-1.4784561967956331,0.6435613149417148,-1.2356799330796795,0.025193565924295256,-0.1556092391275676,-0.14098180900796817,1.9711802704211587,-1.6057390103997298,0.3554870868798336,0.4856027430346883,-0.23507462599555942,-1.0323431238708125,-0.2693942475077078,-0.21374175813733085,-1.4194362964216833,-0.07923152456328185,0.5717249352204126,0.6493634603821595,0.444212592336862,0.7054385119003147,-0.9877920069583389,0.40957298685520666,-2.8262164270370356,1.388895100084119,-0.8382411510523365,0.46175292495777354,-0.05726175077833212,0.4152015360016089,0.12342526411919306,-0.2558992918657909,-0.2678600586866881,-0.720443070845583,0.0061158242636986,0.2935354071568684,-0.33515849310959883,1.857202719628119,-0.46903187644841987,0.2834140800419352,-0.6403021588176371,-0.41080963397733233,-0.527943095303605,0.3733134320911037,-0.30895075284134593,1.0247237917887206,0.4087241956284503,0.4426652539658308,-0.8561297160263943,0.29730398172428263,0.9839880686354263,-0.7683376249549418,-2.2639936143627644,1.3278133798959642,-0.22980513765997948,-0.05448554853809799,0.8221327124773513,-0.14921743963489398,-2.3477555049373975,0.10104950919091044,0.7657650625646809,-0.5699595726339357,0.8335202128237187,-3.0858432559387485,0.5820786763191057,0.17511717461778015,1.5947246411877667,-0.6263233053160217,0.5790946924520679,-0.38058231572987766,-0.5683986035355881,-0.07223706555980124,-0.24254158355893166,-0.0376873326621269,-0.17355330111202993,-0.26621539933492655,0.6400598578687918,0.07314905881098448,-0.020604743388980058,-0.598622037281061,1.6694493599689453,-0.17558230939739833,0.4208997623790136,0.4410153076794913,-0.756148273982221,-0.14707619169043615,0.11480194569290188,-0.9054996259916852,-0.41948043891070824,0.20940277946588368,0.4809249445032015,0.34438948147147347,0.4044742143222176,-0.24111832062941338,-0.6745835572967351,1.5474159322130403,0.40723354859766814,-1.4350780490520665,-0.9293645815037899,-1.0637118702575712,0.10294670684626767,0.10056670883578424,-0.8520576826247829,1.2655892656420578,-0.4518570828415552,0.1403285731890637,0.6934191855395985,2.5454256510879167,-0.942037677891076,0.7519979000122439,-0.5350113749109302,-2.147616281391016,-0.552815369479103,0.5610776994074984,-0.5049833092575321,-0.8173676966154507,0.3065867896991924,-0.5717030476046919,-0.8092335162803599,0.04745976389591425,-0.8182649509355434,0.38553252645454944,0.9385098535114631,0.04820218173668022,0.10540806469780076,-1.0854906288053,0.04811406004224437,-0.26960326784087935,-0.2194020181304519,0.26973005784095466,0.19372946777900982,-0.4144781300489154,0.47855517975492473,0.11364678327978006,0.30365491261392513,-0.5248960861743226,1.1839947151495653,-0.18859533123721892,1.1682586365388017,1.1923375385729649,0.0013440855603392848,0.12201191630911148,-1.0569437602216831,0.4771367885140825,1.268102433150999,0.17424248788878166,-0.1808826885584058,0.33653751375705837,0.42394443140596,1.1739274430124715,-1.6482279080079767,-1.8612367247953339,-1.370659628390681,0.5984890483478134,-2.4980589037483787,2.426498130536168,0.6588548749115802,-0.4211963520362152,-0.7455004364665281,0.04346483422970055,0.30074823182110466,-1.1609556021685825,0.7249827245016857,-0.24810242704836297,-0.5742787622432745,0.852067780184633,0.017763161153336905,-0.25746531657545607,-0.7733005970449225,0.03456217711952954,-0.8005190144494119,0.3804933783898383,-0.740090045236863,0.4835528563817283,0.03404324341619674,1.7552905469024278,1.388398795572631,-0.4349885153611778,-0.5710719807063921,0.5336260312994809,-1.3565798832466136,0.950239371246803,-0.681723983565645,0.035825713827670545,2.2469309857459843,-0.11993843641938425,-0.5100775886997438,1.3930789306791627,-0.8432593207507656,0.23202972812305625,0.015939927549945297,-0.20937875296726893,-0.5039822146806698,-1.0373447890337968,-1.7882436496239935,0.9388980280803658,-0.15764611013378177,1.6696900163907935,0.5582065876652321,0.08288671639746324,0.04528953468845455,1.3561543449449358,0.14575068876655206,0.11376085944913876,0.31920651543367945,-0.7470783330355618,0.5039723470561468,-0.6939227025199076,-0.8769338566625303,1.02509296328512,-0.14935890072683491,0.5940968500548135,-0.7871256454820128,0.33319679474544334,-1.0240887072584615,0.3581875096148741,-1.8764483976332693,-0.7771038161957524,-0.7508687172805604,0.38429271143060545,-0.20120129524005748,1.7704049114872842,-0.9603820021479641,0.8282723267907527,-0.522707672853582,-0.12343839702927582,1.3986272042702594,1.5510403343638652,-2.2312053610241707,-0.25414447730379947,-0.5296841567285724,-2.663102305211006,0.5958812322538974,1.2802986313449287,1.1237053405233037,-0.3218791338757004,1.145284317326892,1.0720638319038953,-0.3161762034288265,-2.603400445310031,1.5505326624240978,3.176701751680794,0.12668831726907695,-0.9397016741119385,-0.11417753975783128,0.16526711983457046,-1.014181654175107,-0.9068547151010614,-0.14590825014254044,-0.8324298930622226,-0.7995456514490855,-0.5762802722279009,-0.2480723613750689,1.3736698755857277,0.3118233471087899,-0.452493587002146,-1.4998441135405327,-2.1382936179940764,0.08155987488575371,-1.1965124748121405,0.18219586232498627,-0.5011518734541879,1.1240499514470126,-0.48397218118874513,1.9093940426579246,0.24690663772840976,-0.23846085426203228,1.3288417245091464,0.5774532439497088,-0.7503252595778525,0.9662315642352326,-2.6103880753754307,1.4194690992367265,-0.6230294894970888,-1.9511044192403466,0.1825843480254993,1.6704561384942476,-1.0795374224297107,3.1262903025717623,-1.202153067212515,3.616663802684503,1.432938325874521,-2.939270802235032,-0.5586705565175082,0.8365531678767222,0.9908009292826614,0.018650548971795685,0.5903972390549661,-0.004263211803904439,0.7902336662332311,0.07364000029775006,-0.47453122862148656,-1.444499438478998,-0.3117242349033668,0.25299353729697627,-0.3454881276297356,-0.5027203586176917,-0.4268812464850773,-0.36885329435653225,-0.17353037620812573,0.8227750573845275,-0.44243593134692155,-0.2353857386353586,0.07287058384640549,1.0065613566600768,1.1094160854929238,-0.9611465320583797,-0.946802090297452,0.955653629115083,1.2063858796751605,0.6174073857900004,-0.3302560424900539,-1.7594099969916033,0.4577904592923642,1.4509981721339977,2.0003322880542718,-1.5351054789264411,-0.012290076825048292,-1.0170334468350013,-0.3201470834691064,-2.0153888112062828,-1.2125403205594425,-0.7428414763789363,0.5666446121042409,0.11502896494372376,1.864498364741877,-1.559108906881952,-0.4125795155504308,-0.27182096899313946,-0.3316585900581786,-1.0061060096183887,1.1314062315848674,0.14280125432997437,0.24010762069380645,0.09876334516457239,0.19284681035101403,0.6693690101021287,0.9331304305805724,-0.29960095753203286,0.30208071109756995,-0.18275048015114514,0.6861045885725842,0.3384754637500488,-0.6710504891059015,-1.0845869626494353,0.4345688444733173,-0.3537668641321609,-1.7591445116404905,0.0787842290131596,0.6297887238517952,1.9616287738164342,0.7746281256091682,-0.4038899590543819,-1.8074254695058303,-0.7349219029361193,1.394652559662833,-0.10292006355759835,-1.5281261432923319,0.31233647967504824,-1.5141379182385448,1.918267038345201,-0.39199771578240045,-0.47229283417362133,-0.7329872349431577,-0.811249735336185,-0.3704655354298933,-1.74940666278632,0.05475436374028036,0.4341383607447495,-0.3695445590925,-0.32001283449430634,-1.2209159456525183,-1.3602035505840429,-0.14818317740937856,0.481290016584845,0.5715997705078842,-0.3214885955511883,-0.6353022563638403,0.20767063371132324,-0.2165981246655804,0.13346590906192304,-0.8485229935032594,-0.4030539629229344,-1.517130691658337,-0.2814098411741813,-0.8537079314564263,0.7884256442957711,-0.2317739781071355,-0.31184912670010545,1.0691928431574684,0.3660281555306549,-0.42100745158794156,-0.3453942374425638,-0.36682453710746205,1.1290019526250172,0.3138056894483584,-0.45005693916735157,1.3199412453457118,0.024378360452873397,-2.0260597864182497,-1.1980618222226584,1.1388302486719593,2.0479618206470254,0.41712058043894057,0.36397382231310366,-1.3754912971258066,0.9744484471082931,-0.07409535827444041,2.7163529578639207,0.13189739466069808,-1.1297215380505847,0.5045335618405837,0.7570865499092041,-1.5983487727670385,-0.2960246944660724,-0.1720617348827063,0.7080770166446327,-0.15571217407126328,-0.003100592761080425,-0.12075279626482359,-0.46068694188741155,-0.387414413750069,0.2624718630061156,-0.4165029979460045,0.5700293999819478,-0.6185127278090518,0.33117260756995076,-1.0425451813232385,-0.8059841103415535,0.6503888386840316,1.7282886248918525,-0.025292815764403433,0.3692912730486261,0.6648538972074066,-0.6782950418144231,-0.20725351458672184,-0.9654932577852625,-1.1115226080650131,-0.9714004375294317,0.1673575649231719,-0.20688294751764313,0.11641217819742898,-0.2172706338368276,0.7471523680271706,-0.8426780769939629,1.0519229916525763,0.9768779141880142,0.8876551779718386,-2.2576487862601637,-1.420448605714194,-4.248848279138043,1.561312457962077,1.552347843306742,1.1301679260772064,-0.10508313740359725,0.14003996271240565,3.0968223766315286,0.7996371938254028,1.7864750780548948,0.9433395792933318,0.47766129767313054,-0.2963443548746113,0.0850110882404696,-0.11179217120349248,0.15761770800234987,-0.6762558719552051,0.37547012758981424,1.4224548509892416,-0.4414240578441356,0.992274448977892,-0.008472034232372213,0.7671105969150106,-0.3679631485730777,-0.8237524325418711,-0.775862542983129,-0.31501584729094234,0.37877555376795646,0.9104067797986749,-0.45130207215669155,0.6763216588286052,-0.6782093143870144,-0.19690754466179067,-1.030757249232174,0.6328086625368499,-0.6628918262173948,0.3519940013808175,-0.8948621823499705,-1.1887282287409098,0.2952518851843041,-1.8587180251162057,-0.9758444630763775,2.925125189151523,1.7395828222869427,-1.8457312112988327,-2.1584765688363716,0.8005018558469975,0.37943788317207067,1.710710898632644,-0.02046409088639714,2.8027415997942278,-0.033482593653026735,-1.9957726089755474,0.56688955882669,-0.9866245880715651,-0.7405061094880476,0.85884494956358,0.13297375499573522,-0.08116185307061101,1.1222075189089287,0.08318471899456262,-2.2331155892036154,0.05799749627833884,0.4575517550925366,0.06262134065567139,-0.04570468256698688,-0.21279673000744734,-2.0250384386817135,-1.4135625037410102,-0.31634442166171556,-0.3955782680089262,0.5243304807425929,0.605981778977059,-0.7677934764046584,1.0298754620642678,-0.6693206697673613,0.28282908247596683,0.7222392397083514,0.9808808760953031,-0.9821504341957656,0.7050097909254737,-0.03267866623651141,1.0714963618246982,0.38213690204995604,1.0194630652304661,1.4232596775201936,-0.00010947494548412073,-1.2028213505049556,2.435835547153785,-4.8032433350597685,1.4139036707841652,0.8724556889570687,1.3116346805925863,-2.2869466567577184,-0.07087452143382629,0.6140710600033857,0.8914306478831956,0.24565716819330885,0.07163842495721907,0.0728042491334171,-0.056018247485292806,-0.4665253104306554,-0.031726279736502966,-0.6569822420714817,0.15413197463722994,-0.6059344454868171,-0.5490546690210425,0.06957969682692325,0.24918644791002567,-0.5038697535322951,-0.2179058078533541,-0.15699350084544939,-0.22361792299946076,0.648594637247747,0.8623200955277609,-0.9214452428788809,0.855774947874276,0.4855114568907737,-0.37020380148909976,-0.18720595294669704,0.6645383086430425,1.2499451622977882,-1.0912586731879368,0.1659262458565568,-1.2612385219034357,1.1100041960758793,0.9050501387199261,-0.8249962956202755,1.60016381303044,-0.3433008964693172,-0.006603890459720917,-0.2153726172839106,-0.43197639613636535,-1.0117698119811738,-0.3762368910039212,-0.37209385465102385,-2.388848503102088,-0.15159756729428533,-0.14971460697904354,-0.6323387722262386,-0.5238833279391745,-0.21034063031069353,-0.425627617597875,-0.20403361341668436,0.9526558769248227,1.4406146589569289,0.35494303829992147,0.08239453001707434,0.2888097566851327,-0.2767961150103208,0.1850459471201939,1.8239551884122809,0.6207010631781973,1.081087896683775,-0.3314986226734597,-0.5956713433192133,0.28236825113769237,-0.5440430452400209,1.338225390603635,-0.6838066495616558,-0.5189190265143626,-0.07896999433169563,1.6708045807122203,-0.6471703868821612,0.2136384272265255,-0.04413334703162215,-0.2044918701721516,-2.0850958441829106,-0.1351821701115595,1.0138709595709012,-1.7311439817658107,0.25542280065086453,-1.2532807603686076,-0.8158566683083024,-0.12350317372135268,2.61059790727706,1.633679083930723,-1.2273495520364077,-0.5611873391144917,-0.6341794856412302,-0.5378719761190718,0.04851315447988879,0.5922051031114705,1.3605699993811233,-1.5707226904169072,0.1738772718716059,0.4613688999039318,0.37926691763053244,0.889731297607432,0.2423506371142159,-0.2378945965799438,1.208243104906654,-0.5100999107343074,0.49509935895003554,0.0853948204448527,-1.1063679187581046,0.10279748849632736,-0.8163278090182173,0.017370972347828827,-0.6137962271589442,-1.1096459559927592,-0.44670917042756253,-0.6476024182787946,-0.16826114871313821,0.4520015742770607,0.7989546224797601,-0.5140518267421086,0.5632115684177323,-1.1602689534481574,1.3335618580096489,-2.754403902737916,-0.5328221857356398,0.876689158000621,0.5970453299010542,-0.26364328344268056,2.421944038783777,-2.074509062349633,2.228781913188168,-2.6514496377671315,-0.29169180469987166,-0.10276956973816996,0.9414984301044418,-1.2281527655046707,0.31372369317832666,0.22174045947716098,0.08822299597385283,-0.20282239727636342,0.43995419019124554,0.13717717403706897,0.6831358413260317,-0.49612746513151246,0.24170300774031922,-0.5750974160834488,-0.7965083763533857,-1.5334956241066695,0.34351551818743464,0.47565468618017903,-0.6557112168430247,1.4564704784776366,0.9317929454720173,0.2873168131694856,-0.05047657457127744,-0.4432498379108896,-0.43561209761260256,-0.6089272031789156,0.7095290249130055,-0.31251349977311,0.15749137210420913,0.15643021579199157,1.665675589279604,-1.0990960059009023,-0.724294440078039,-0.8474941659716213,-0.11268473795178448,-0.5327419961226989,0.8630874387775133,-0.17094963487407203,1.9973222235824966,-0.9300961071481494,-0.9102487125666129,0.644949040858907,0.7996700085662226,-0.02752328141901956,-0.7627014332569515,-2.2443406600194424,1.9956647253811333,-0.26975334988658645,-0.874351629866432,0.9151321823624607,-0.9696375797464707,0.5086699571278054,-0.013821648763703055,0.2775736409840464,0.7814489798232236,0.8252935757314296,-0.8229753338778093,-1.9122906648622335,0.5944267074442324,0.3796111373125887,-1.0112759614721862,-0.31483776792863094,-1.7434482089205827,0.343319221412409,-0.19231771799765537,-0.18047633642206518,0.5014639047253596,-0.4210990820727542,0.44680567863036613,0.7857722432098688,0.5583076987345265,-2.5469977358404425,-0.9614632133474885,-0.671676818306516,-0.5481833639328209,-0.15571194093721216,2.016438281659748,0.5413965058757659,0.3992046006839762,2.671514372017072,-0.8716257189335727,-0.35238883127209253,0.9388737849654036,-2.2426986789507044,0.902852056980664,-0.8383603090870365,1.2574886246035224,-2.882757986148157,1.2500096954904056,1.1996039206186424,-0.6445605854573986,0.1928184450753367,0.16255837547825347,-0.762099379651241,-0.14176356834644077,0.6665185290171648,-0.03223084069243138,-0.25372835967237584,-0.5378071129817307,-1.2322523514741248,0.5251615619296542,0.8920876592221808,-0.36248860265896227,0.47361577270056854,0.5014054457484283,0.45575572773435374,0.8174235742111586,-0.04217620008950206,-0.7321355704872866,0.7980642075223282,-0.006281581363390701,-0.7596291633092612,1.0304787070581438,0.7129876159423263,0.27506511152593827,-0.6931091065110165,-0.33804849426622774,0.13159315580076208,1.3301098386724917,-0.5126483808740665,0.29307838300940586,-0.9565058632581116,-0.7889385025621534,-1.4929315955532636,0.8717632824006372,-0.42895835865052157,0.3043781223484606,0.7899999943103228,2.8292597837702256,1.1915648751269958,-0.6337365065013892,-1.5548274853280784,-1.0705144731279161,0.7349494091947737,-0.6674527398997765,1.0299140865750938,0.34277678317151616,0.1060993819281757,0.5606626498538192,0.18205588205815895,-0.4537766553907693,0.7655525918165433,-0.25103387974630537,0.27134914936245597,-0.0813339726454662,-0.8197209142154354,0.42818020586815847,-0.45200380338508783,0.33070744064649155,0.6573924895871432,-1.267611605236435,-0.12149701563479232,0.07639851149112108,-0.4239408215168136,-0.8525907486477158,-0.44998263696492863,-1.7221118838052414,1.6577822453006632,0.4514885759168791,0.3447012499973852,-0.8452306397684736,0.14139263591632503,-1.907399285268034,1.6464441193220627,0.9749255196509814,0.23728106212338657,-1.6463177143675496,1.2195164049034932,-2.3833882969760793,0.703719703588182,0.48836224095980685,-1.0586969411407052,-0.8528801065924233,-0.04503481924223643,-0.5175212749261574,-1.77481404889717,0.8584810492709575,-0.14224575213025648,-0.17710156212725664,-0.4050306043444792,0.46342682515770495,-0.23901593303985716,0.03567261925896811,0.32767972735245415,0.189319821833255,-1.0622867389208441,0.9290638023075435,-0.13576643244598338,0.5571516080180918,0.2837433578675393,-0.7341405203594169,0.9849552557300634,-0.15526163510058447,-1.8335061630206035,-0.7276135868593389,0.009348157036334513,-0.18927462629063496,0.7333257204712281,0.1427708351816091,1.5696740374577771,-0.35790840722440137,0.4722054162957475,-0.6263487637812281,0.5847414399910538,-1.7746593394042072,1.3015467020763187,-0.43131315880804083,-1.264656810719727,-1.7475603214419173,1.8600316996575734,-0.6752651975200185,0.3671690829262766,-0.820269891617942,2.0038376811887737,-2.147157556320719,1.170975634057996,-1.6513980450897254,1.6721256627069099,-0.17270068864132282,0.2938316944434262,-0.3902092265886013,-0.44423318462018296,-0.24059334830706988,-0.3844713395651427,-0.08253949561170035,-0.6971089839675039,-0.7193541916676817,-0.42857596782647306,-0.24485122726043215,-0.2612816919777786,-0.2834937653309073,1.1525582772573855,1.0873649866612978,0.4635558059950548,-0.5926397957021521,0.33776992873026584,0.19721731346192034,-0.02433174483984263,0.0448101773022179,0.7739451462146894,0.37658351904419746,1.4100815993747229,-0.49683629927654377,-0.6479764870985502,1.370157008265699,-0.8090781409300446,-2.584386226259681,1.0352295988331772,-0.5309752414162602,-1.317388148218639,0.47951378809449413,1.2942755804547637,0.48179070283681397,-0.14194044300505557,-2.163141195258957,0.9046915702081026,-0.7324269402182205,2.6898546079690364,2.363496343000099,2.0013565007572858,-0.342119563664876,-3.563194814278391,0.03965232554725839,-0.12196950438413147,1.1200681046737735,0.2531150387569048,0.1578303655850667,0.49711174343830544,0.10363668896126013,-1.5687116262937852,-0.0037978512506253405,2.1635651019823037,0.8781971103025596,-0.056572041298929676,-0.9721779581530067,-0.5032670073382347,0.8559061492552561,0.6018130171071371,0.2960236549539028,-0.8304549545912622,-0.8414866019170587,-0.6311045466993918,0.3964036347474026,-1.0876498968332884,-2.3249706767077174,0.7828927560319289,0.20221334255428064,-0.5956151801373992,1.9536596270546445,-2.4374818721639686,1.1765575101007755,0.7392673424049995,-1.5063321776862755,0.18461231190615202,-0.7387081401768951,-0.1479901133492407,1.4404791525917466,0.661885234989826,0.9352347149492817,-2.0234614130608573,-0.997925081143398,-0.5548449760855124,0.7208177553095403,-1.6544368253185198,-1.5151657968290113,-0.5841401309274183,-0.8129848732687598,1.007374839490304,-0.8461649172635874,-0.8348365273821392,-0.9905667335252926,-0.40566429877634647,0.14473641406857907,0.9956586101227958,-1.5794612782780248,0.5161926352531544,1.0670008286337578,1.478257768876665,0.22883201636268363,-0.7962313085903135,-0.39186318863773006,1.153295023428143,-0.33327361224755353,-0.3941436870703643,-1.9848790694245293,-1.3252380008910094,-0.3752291738544517,-0.020005715702205204,-1.4696269087978093,-2.481342152895959,-0.23535691405403872,0.3217878313257917,-0.5799420823272833,-0.7418327218130261,1.8718420771784592,1.6414441663081365,-1.3330699024180404,3.032588022725179,-1.0678611463994199,-1.4214419841731307,-1.4971095760932434,-0.7738844831263382,2.2165571223867917,-1.2929280974065127,0.950311048503961,0.3830144151978979,-0.06250213966951194,-0.6294411021254767,-0.7530875463212178,0.7011506554126303,0.11569697793779754,-0.19575150956007942,-0.1105324096154948,0.29815528190381063,-0.5191141775999907,1.1688180343007464,-0.3734808222114934,-0.28832491105640035,-0.5600769653008298,0.8044673362989636,0.14989920275372876,-0.1539094494806446,0.4424070266964336,-0.0965229709259772,1.823667979736062,-1.1519138097359654,-0.20464820341506498,-0.5514777484044922,0.16578120356069204,0.5129594866340224,-0.27638335077801407,-1.1352580534176568,-0.43747516568122935,0.7099210606688138,-2.2899176891610153,-0.9249522972208342,1.5684585200074261,-0.21003835916213345,-0.24178021400302924,1.5675448250892259,1.0959084229328422,0.368388511447919,-1.8850278634090105,-1.8547963859303174,0.5116306131252051,3.473558089359503,-0.7882523530781669,2.143432973821345,-1.7672828881693499,0.285925814658837,0.6508136705772248,-1.2352675534444502,-0.11039029266264253,0.7885689496286821,0.6114850396046239,-0.03533608051905903,-0.5148189701220945,0.30475058902911184,1.0085414242328492,-0.6176660957002666,-0.31377943171131095,0.8014787908072961,-0.40123536767722207,0.659666892962443,0.3759615157366425,-0.1643826656565939,-0.21607382569114775,2.2607391893801227,0.2843638363083729,0.44842595360303017,0.4469087265367005,-1.156518276238858,1.8680381400458286,0.20658460518494437,-0.4470513241477654,-0.7094053500473934,0.7952236934841126,0.14872182667928174,0.05805333153001295,-1.7044509767660485,0.014298471585700336,0.06342994396056863,-1.2727251943614963,1.5829054262546864,0.6602222010578904,-0.06991558936704814,1.4428471526752749,0.6806732504454889,-0.7439965323348421,-0.0632871895704623,1.7541852024877442,0.25219428293146834,-2.119792053478965,-2.196016767805633,-0.24971313037934784,-0.5029317314890931,-0.348424679961441,0.05696562819493864,-0.46926624481672924,0.13587467211030865,-0.5041412791092129,-0.42293958271213383,0.515429258186874,-0.27113044770228995,0.6188696597205845,0.45045768947304227,0.28461695978318846,1.3865736378469915,0.40251215571273946,-0.3286506334898289,-0.7484191689672318,0.19339442116441327,1.002696013476282,1.0373796160777096,-0.5480642371685378,-0.38167461288355925,-1.2452901602253332,-0.09638334144004163,-0.21088133850304255,0.06882141404235301,-0.8028770538822992,-0.4045305637217144,0.49727947724570976,0.8916291236558844,0.14666121048802835,-0.6499913032496558,0.7287418421331441,-0.7629927536449214,-3.6271136249785467,-1.4251449195258326,0.04356670798855665,1.4793951684736621,-1.7999911130603914,2.4844706318028753,-1.1066291185689303,-1.6929692364951294,2.232204709295389,-0.7243774109420884,0.0609471514746814,-0.8986223888522152,-0.7126301515672802,0.9754902711479212,0.004889027071651768,-0.4029129764014058,-0.07529981258382386,0.4745916544669543,0.020121033998004537,-1.159175201731275,-1.0014799522946334,0.2988218873567233,1.3214569025094052,-0.12431307251862868,0.8259508617251595,0.7626560366646401,-0.6846097968469156,1.2650137780097719,-0.7778327851373714,-0.7530137949905255,0.6688737863547499,-0.8187539221112132,0.42778420754326935,-1.4159496309527193,-0.19660660638989758,-0.24188839880542423,-0.3170457988700356,-0.08183618108126119,-0.6929337366826541,-2.317629214232329,-0.07481723509329861,3.799365181624229,-0.36496446136801586,1.3892513107025481,0.08670074371941074,-0.7595490151499591,-0.5476505162137183,0.747980662391716,0.6583831540193616,-1.1774247952940098,1.7850612875795469,-1.631303215999128,0.7901695083831369,-0.5763833204845505,-0.3661931613233226,0.33705424339287243,-0.4312479133050498,-0.216956411679244,0.39715040876981733,0.23516541920839812,-0.12068414846005619,-0.6550252957171583,-0.2434078029536579,0.3215052503517877,0.736640167621536,-0.9703375951657364,-0.4060725211423442,0.05242318479952144,-0.17713272947225348,0.1309667280068801,-0.2921778662616784,-0.21550584583994126,-1.7153317227446812,0.7185964147858256,-0.09505575335989762,0.10943182987062898,-0.15870643873191873,-0.7561532671671869,0.2655581318086858,-0.13852906112989444,0.19392763377716288,-0.22579538306583027,0.26074714043328323,2.4099040143877106,-1.5905238865035538,0.8546663817360233,-1.0346263999675995,-0.3561693825432452,-0.13402612798059407,1.5872736734159065,-1.7684298331823136,0.5218395378493029,-0.5246335897267439,-1.1623684023409562,2.551022624073105,0.4471074610673353,-1.1601353912986088,-0.5849309775926914,0.3129377618346335,0.11482107455276015,-0.623279589820987,0.27693029209935394,-0.9819304466060732,0.9288888359171691,-0.40599652132596,-0.046573410278343906,-0.2075819720365736,0.8498143863561163,-0.3983149547902413,0.19352932412411375,-1.097643974551927,0.6475839917440476,2.194605631169217,1.6197896336660131,0.4927375975000543,1.5585020371079192,0.10087015108688717,-0.4990125814836837,-2.4839463323254303,0.18889030715320437,1.0900033191453466,-0.6193542356555886,-0.40288725813328885,-0.236087552064712,-0.12333681716426707,-0.5000120612313848,0.8359510069445862,0.754479348207461,0.9562076987919113,0.27282647257517745,-0.9772374364397063,1.3218286539630613,-2.4620356151086353,0.6659231620692587,1.0026861555602125,-0.005207326328068045,-2.507997859502549,0.7831141825739517,-0.20757720341350228,0.5709248743628816,0.05221641171901927,-0.5589523362484994,-0.39484202015779746,0.15310407480265523,-0.32430217575729225,-0.1514208638072931,-0.7128412207480844,1.4587200395244349,-0.8501221630089139,-0.28437443606306745,0.7451596630631226,0.27107956034826874,0.9735855980404373,-1.307093841628209,-0.22740188336190778,-0.19788004414822008,0.20277749964484382,-1.7200598769258613,-0.2562087844938393,-0.2096900601133273,-1.0911819589186322,-0.19251583211955228,1.5825074551197809,1.151689578277321,-0.5426911313943713,-0.11658825685175701,0.34346074667021675,-0.04006277838786529,1.9418700945723595,-0.5323007145754385,0.6636558009361726,1.1159957966058127,-0.6203508003970611,0.49656012324185694,0.2821944151915102,-2.4967009234174786,1.222010194016689,-1.3494767060369992,-1.456600284410906,-0.4955967395215869,1.6754716157983016,0.4265217140790271,0.758317294704885,1.8774383825302152,0.14335425683479716,0.4863508189378028,0.39589743684262957,0.8499018524737412,-0.6770220522170576,0.24072508059278722,-0.3673807306509197,-0.027092813406281165,-0.2113363817685027,-0.6706292285243356,-0.006571361186911481,0.31297254575103656,1.4079579892566518,0.08557308745663744,-0.7816685489443275,-0.3881950852704437,0.48042825332115735,-1.126593399399836,0.06455381378289317,-1.3115283270240938,-0.5154943687068894,3.283205377561731,-0.08221942209619588,1.056528276079428,-1.7568664488231405,-0.16666449230150998,-0.4353499909500709,-0.021077727995580445,-0.02905095913287055,-3.3137467553036917,-0.3970756790900154,-1.1158538574534096,2.301401412780359,0.113270413691121,-0.5702157285343556,0.9695390075732667,-0.17877922357454482,0.5184950815899902,0.749831791557675,-0.7194669435105602,-0.1104474844635601,0.23008566580523473,-0.6712947070818688,1.325621936597919,-0.8251460031895947,-1.149214366456675,0.0785654540760671,-1.0140498473403463,0.6191164950234044,-0.75152961461753,0.15627353276714498,0.7004205847132481,0.7118827842436902,0.5376958956700181,-0.9137880603147929,-1.0576251412436586,0.3914225642059212,-0.45211026019515016,1.193678159902424,-0.020388534356396277,-0.11880659062478255,0.8433843807440959,-0.8400712594268624,0.4422022974516389,-0.41536061302734917,0.22137133509279205,0.7814134851210696,0.20541706400782633,0.7706085168013689,-0.9064752315545231,0.007641898202998437,0.7509799746570422,-0.31165497244061163,1.1263596105578577,-0.14787749441220677,-2.216198559050507,-0.35732717433728006,1.3242899421540435,0.006437665504679483,0.8636225061989532,-1.1663843324583065,-2.381793372840118,1.7090279638938917,-0.14996664848656605,1.1021997679666022,-0.3982788029888282,-0.2779902712304418,-1.1113663059662553,0.4322935031961734,0.8977779478018713,-0.14812576178703632,-0.26072920961854656,1.0297831169261473,-1.2476769103728955,0.14445159230028184,-0.8565186474520219,-0.5140319948923526,0.9729272515192297,0.8444055849808302,-1.1188830333341682,-0.5827984096745065,-0.28063499259388486,0.11996539653458926,0.594665989991622,0.1619009568965555,-1.5225869651318278,-0.07126688301435069,0.4183688566927247,0.2522120774097297,-0.8213014587551515,2.1943921261652815,-1.5053809706188082,1.2447533806988929,0.523481927800516,-0.6178077730430593,-2.2809980154587164,1.0543375728550608,2.3975321800872536,1.66012123924363,2.510495733186625,-0.37684209749100545,-0.13104319188727429,-1.4599686534132872,-1.0548317943267356,1.045387331685534,1.361501406316931,-0.8795913767108018,-0.014706851790028015,0.7994236548447752,0.3067778457737068,-0.13766517509937906,0.07397697804370212,-0.9705328268137338,-0.16607417390830082,-0.11565675005680526,-0.08218106232815553,0.011447319922510267,0.8956222620981859,0.9868335204123018,0.12408336332826636,0.295496611331061,-2.7650291768038793,-0.5736702745622705,-0.87067488252221,-0.4690247730528529,-1.0544957856806532,0.4318015278823772,-0.6385227544931129,0.16477082192170345,1.4087584494495409,-0.7127806232298096,-1.1922901962435306,1.1684264763741448,0.8914207115817565,0.3997539943328104,-0.6812541564232109,0.949205052331273,1.2063914998231002,3.3669448706115976,0.013649355627566513,1.3736458837720602,-0.4672925018528985,3.554678166645251,-2.0802292407938925,0.8956333814173444,-0.577948497685851,-1.6620127717625603,-1.895292199535253,-0.23099227940532407,-0.9450554589410202,-0.3837709852041378,-0.047420373770850684,-0.6222612366360273,-0.10011920775189458,-0.8184899608520909,-0.08363975185953018,-0.5412107417674697,-0.8589549624689924,-0.6592865581461065,0.14599524165039254,0.5290897133170659,-0.6126819209387933,0.1285268272439811,0.9081616029757581,-0.17796136527106707,0.3676239048543238,0.011821366918296817,-1.747904993935396,-0.04733801589482013,-1.167024128886642,-0.03983092585200562,-0.31954223266653337,-0.17097231251088535,0.03658126032588964,0.23158358964116188,-0.05464658357103317,1.4594232207597893,0.9762165734944643,0.8347536206404781,1.3637482665857779,-2.9050360550013896,0.47844541725579104,0.8868410495486164,0.6441560252703212,0.8702659413619092,-0.06917119990867322,-0.6012499495752234,0.9392774390362261,-0.3983753770126255,0.026758573704186446,0.40660567505006745,-0.8325219705925021,0.0390835019886903,0.03759700852786249,-0.5403407553114478,-0.09234186337525202,0.6407098428912414,0.23426379535183134,-0.4789575402838361,0.5516799779631568,0.04343758778425054,0.4469787268572478,0.03573850543318701,0.30690086933407623,-1.1207446537158026,0.7149273680911602,1.5972716294621687,0.24364719464309997,0.11273069666158884,-0.12092663616686398,-0.1041715630791838,-0.8147715518945595,-1.6544195546573195,-0.25875340882052805,0.4891871754433251,-0.12695606748886723,2.4801395299740645,-1.1122886651441042,0.8131972257856744,1.7683793637834115,-1.8193029161372358,0.023237065924830082,1.231451814746426,-1.881759982212941,0.22477942792326588,-1.940462159640315,0.48623711923841895,-0.0248861931850129,0.27837018096188326,0.2597440901787246,0.4387988368733578,-1.7629378227654622,-1.1962550496471334,1.4034365491445993,-2.233033505304842,-0.6940696048146614,0.16082832824663326,-0.3623893386152357,-0.05510316543225972,0.24280496256726403,-0.3597657446048395,0.46044205547630523,-0.34027831883263454,0.295088343557746,-0.4944923800159728,0.4620259172420167,-0.6584417060720031,-0.708823700768992,0.1617236094301059,0.13622369447300742,-0.5928473721020693,1.226898009080244,0.5134710306912968,1.8184977254196257,-0.302676560142901,-1.0110501250244737,-0.36824354410864363,-1.4474863539753424,-2.557089952811021,-1.926096766798169,1.1432783387604057,-1.0754521833180355,0.6218495363304435,1.3399480049771808,1.0577365671625332,-0.034136524427398125,-0.15025562615120341,1.9579664754305193,-0.4956396311483658,-0.9205252734414294,-1.3985782669004245,1.9171818031617147,-2.385281839853356,1.7787733591546406,1.5159297571490318,0.01540102373426573,-1.71357973094329,-1.7210385658710181,-0.13152769551120863,0.8897031560449132,-0.26069691751542706,0.34149531670386263,-1.0281802409585288,0.6875948207218533,-0.2576742038409344,-0.49225959735123215,-0.833938048504265,0.6397109190601704,0.007541967241452958,-0.5688372855566216,-0.16760703651180012,0.42322099267396296,-0.6851324499885217,-0.165818509845347,0.046618094572357896,1.623371142077568,0.2901412765015874,0.4957916161744258,1.643815826527145,-0.5506543077417567,-0.20334032422177242,0.6266862353701849,0.5005620042255505,-0.26449632371943926,1.353302579400578,-1.1866840840816022,-0.7255019850788492,-0.23786068224057155,0.44120555311057114,0.3901180615438633,-2.554727711839144,0.261754696645855,-1.4111020811858925,-0.15093826395477936,1.054479682787089,-2.3455273024267824,-0.019922055761402446,-0.5457549422477009,4.194773187443924,-2.7473539463979013,-0.7443229756591561,-1.3473720220647316,-0.08845819829588272,0.5284587754937368,-0.34872274481796905,0.20519525347451945,0.09195436821075216,-0.5297119476948037,0.9672099174511153,-0.48219916416538533,0.5024996759010518,-0.5984579286667996,-0.2063934259639242,-0.18863928591684273,0.44867693575522927,0.8201814547968584,-0.5906819981453058,1.3635196219605152,-0.41289328161458333,-0.8677138627436881,-1.1117552559460582,0.3728914011662624,0.3603693322418342,2.572674471847965,-0.18848354759533364,-1.0805059446384435,1.0323447036923794,-0.6710430196563087,-0.7622149752922339,-2.1764443695531273,-2.3670483413413312,-0.48005268798008816,-0.04620624912485328,2.344020574192959,-2.396565217556381,-0.45888323819696064,0.9892428041363371,-1.3340237421751648,-0.09107302763688876,3.786606043606099,-1.0135789326784967,0.8357860553880513,-2.1860536878948853,0.9488139779856245,0.7217511011870681,0.2708589096487504,-0.6702620914804143,0.47230205077924126,-0.5570278615911582,0.8385389858290293,0.11359201700301624,-0.21556497283587456,0.4493125164647321,-0.5776337373700693,-0.029154189516073105,-0.14725712126012816,-0.11015485299919708,0.0497100714002847,-0.2827618117778027,0.12837788649671242,0.069057031322166,0.7392957104758285,-0.21447105884623532,-0.45834342618102447,-0.7977680267409171,-0.9383826507722961,-0.5677232984840593,0.004291399414163324,-0.9059519965422442,-1.542204587449341,0.9401092873995862,1.0656933646749636,-0.436095715242239,0.1943088686785752,0.23789425790016686,-1.125794116715705,-1.3969850008165585,0.25447398581687397,1.46778368802625,0.23524481155445362,-1.4487081750805155,-0.5538108843580418,0.16478269267646373,0.8696423778279562,0.8689251552727209,2.375245047772602,0.3891506506285549,0.7713925194430197,-1.129610712885571,0.4508782723553516,-0.19409246979090833,0.13375021416069438,0.07795795136525174,-0.3372644304487587,-0.3328789625545606,0.986581894398141,0.14704982407347322,-1.0679943008030641,-1.111189753942979,0.36220705133402337,0.15594183077227913,0.9638578067815693,-0.9009277691730886,-1.3483651109808028,-1.2881352262668004,-1.0765581325290643,1.6585949688902761,-0.13830014159631168,-0.3088521225238599,-0.7805512602776454,0.9953163316564877,-0.3983741489647852,-0.7758832737467464,1.0104059580293305,-0.16846014309751084,-0.007204248904385682,0.3717323157818885,-1.9250321408710753,0.31164617127369604,-0.02304513996760034,-0.928070399170806,2.192711416994272,0.5280837960147895,-1.3896778471521942,-0.000820403874947835,-1.1171028912947363,0.8458107704953816,0.872636312589061,4.240138597233894,-1.9352578701222074,-0.5115514774023391,-0.025871752229169615,0.10518921089110503,0.5802599128546007,0.5213735025568365,-0.0413789450024639,-0.9668471872855403,0.5277726305523674,-0.2787834457555084,-1.362146207209384,-0.896537334504661,0.14264071131588135,0.773120719527405,-0.34602080039436994,0.7291374928313312,-1.497767935860388,-0.6427076822445204,-0.05495858753610651,0.46047464854672093,-0.14163271870307276,0.36455839858468814,0.4112012806191224,-0.22271803039838883,-0.186697579018417,-2.1580486239619687,-0.2227813877158191,-0.25939998013702376,0.9167419406077422,0.20152091538587003,1.9616799110549101,1.4119321714656476,0.4273377942292639,3.152073070715408,-0.3364992791285944,-0.5735723403331905,0.35228519648226936,-2.340937279407558,2.0835426897224125,-1.6261707287562526,0.7875891670259852,-0.17756790745721893,0.5209807741928378,-1.0409293592116104,-1.1634469431523777,0.08746842614636106,0.12652863820034538,1.171891640404085,0.5694416619568285,0.3599107267334888,-2.1011450026005636,1.4154266799346682,-0.4301955212866421,0.29717398289565955,-0.10118073198358564,1.2645039774658244,0.5842000591386989,0.5360909149673234,1.1528793210330082,-1.3467602743522178,2.0849008223767473,-2.1975130582221545,-0.8130187321703949,-3.052106445738327,-1.1475140101626555,-0.15170497485742643,-1.783545527454812,0.535653179484388,1.9556013705349606,1.834103906542792,1.2845326757033044,-1.1180615835869274,2.6505740723929283,1.51768467474581,-2.6529930792240948,2.568155230219083,-0.9841414300314958,-1.9689153476652628,-3.718813008431614,0.04042933327322659,4.018055396912779,-1.4063597392684157,4.477975971517261,-1.0895028927806556,0.6019048636421301,-3.1697163412521205,1.6001191835375619,-0.6329167286202505,2.647833105523194,0.33395971644071276,0.13851424687789018,-0.24337687113458228,0.41337791186745587,0.1360429201469143,0.7572840124911292,-0.16415272556116017,-0.824255750286093,0.909185904833278,-0.3586996564591941,0.49907023870953365,-0.2915509528397125,1.511420548985434,1.318732210568693,-0.36222648819050146,2.6420768595118256,-0.1530019694402846,-0.35046766480772884,1.727624419434535,0.6045273732071084,0.039832992070583495,1.5963543482196916,-0.2128420580514102,-0.7667276810077551,-0.6571742528555011,-0.6910911235856383,-0.7407751227100443,-0.7556293492818715,1.8003940121855535,-1.5013036394242896,-1.0424812091622293,-1.9626275254041665,1.2890139974171282,-1.5867042227973112,4.564779727065791,-3.2681720713467595,2.033002123533613,-0.5261446801063133,-1.8390374780005467,-3.2830068861133532,-1.576868280114138,-0.005620423554099442,-0.9575550536760926,-0.18627634007266963,-0.1995698698553006,0.05031033516549364,-0.19981362155470828,1.210279580356957,-1.8444058297783041,0.3210638144623949,0.3686148826689746,0.5401917376235359,1.0201119505950411,-0.47963189564900316,-0.7005938370683749,-1.1377969276871818,0.4567715052701718,-0.7950806756675528,-0.10273857502062789,-0.8091483426066267,1.377364027228654,0.10053511845865597,-0.23169519696048524,-0.8979094730016843,0.36043850133904093,0.12773133802316936,0.5294539911421984,0.16728195874117383,-0.34103543964692834,1.7898349099362292,1.0996212455421486,0.6976535469940415,-1.461575771913819,-0.6720856573512903,-0.8297255483163084,0.3058150814058045,2.1000651237564605,-2.11990662284878,1.4499517244813922,-2.5976539372259753,-1.5694120958941793,1.1398271204071673,-0.43275864079568815,0.2507547470994359,0.7724021667511203,0.229683008799927,-0.4588497495291551,-0.37037291634963543,0.23883774406844374,-0.2554306672037216,0.5604271297652421,-1.321970444055607,-0.20584293209757368,1.0275632671122272,0.920405852242208,-0.9208252444046316,-0.9526343151123162,0.07162311074044596,1.7358511088468394,0.19238362121447117,0.8435416874184989,-0.5452832069853614,0.3902652489415295,-0.19939361261606428,0.3014925204228554,-0.03243171318896353,-0.6927100943775454,-0.6308437220436272,-0.08072049223580577,0.118984084078402,-1.2352295453638134,-1.3656405514124055,0.3528435101136348,0.10165057992184884,-1.3578755617785978,-0.5524005861124446,0.49098002846468747,0.9563393868766976,0.9750070796470683,-0.03121604287605478,1.3650069215475404,-1.6349782087092501,2.1247846742836165,0.4270871987116694,-2.056239305692585,-1.3441029821294002,-1.1983248547902783,-0.4573424669866423,0.6223713549199771,0.13039401343366477,-0.415551329214483,-1.0355838321516786,0.550003233973465,0.14770953935312525,0.0348776036256903,-0.05476386637948058,0.05875243545103535,-0.5264043102572494,-0.140752878166407,-0.6992079459651834,0.5302746834175116,-0.9784459050594041,0.006647321999036395,0.8288251294422679,-0.3271851016249394,1.384087203510777,0.0007652178734684623,-0.6102131675117972,-0.6184766438969335,-0.18795530107140646,-1.217364413224467,0.715911081430105,1.6442203577046886,-0.9037758907411412,0.07587063321894472,1.1078944855947082,-0.4770495515546476,0.8406257137714662,-0.7068518821743281,1.4394230628497007,-0.09934797993257624,-2.1619548192126308,-0.7185293366134565,-0.21433797882551797,-1.0310913441858198,2.0718972709949215,1.0800024821561087,0.3974789748195811,-3.6110537004902525,2.0242570846152192,-0.20871143114906976,-1.0986433689614166,-0.421123553582389,0.19603403763162675,0.5153375608834373,-1.5753078485916618,0.09168859161393178,-0.22015107672915527,0.3026547103057102,-1.0637143705021372,0.555508522981212,-0.3691981332217208,1.3733853080246101,-0.6154592511164885,-0.7501000406265806,0.40229529169571476,0.6973977714986269,-0.2645845877914932,0.46461728771977767,-0.5008867974106125,-0.24065696151199675,-0.4740032737550285,0.9156594567341909,0.2412900507086967,-0.45810667692064166,-1.345928138870728,1.3967616400896528,2.4659132409690696,-0.1914771415995866,-0.07468318273918477,1.0477383422573938,1.0142753829407931,1.7194104757639743,-2.7227140356685804,0.911788437635024,1.2685715312042383,-0.034419671130378415,1.2611266991114907,-2.184801500849137,0.829217046216007,0.04505175177420271,-0.2036585169917435,1.578862672619774,0.2928366949450963,-1.031620044752385,0.21054931335457405,-0.15073889386639955,0.2578556880391541,0.0865272538891339,0.024791370624334924,-0.10515450514698696,0.25412181601315936,0.9179017609839965,-0.8347464034096156,-0.6242503215002839,0.5205451949364812,-1.2310146412853942,-0.49960256829902827,1.204793222950495,-0.5570292425587192,0.05583014224750447,0.5097245657631195,-0.7034582798794866,1.9935145635103702,-0.05801752191326253,0.2002872660345138,0.894965224873457,0.1959907463215501,-0.33961733383262627,-0.3972849930543708,-0.9085734607277165,-0.4267741705923582,0.12312793571902925,1.8594601229127685,0.44483409997821816,-1.1517995642756584,1.359428827513038,1.6858728819671747,1.3623270691413862,0.9727245554831508,-2.639869855878141,-0.2820553726921212,-0.06495055275772499,2.7804485381769988,0.5749905254615006,-0.17032718862958182,-0.3577737901568912,0.4655759120773004,-0.7535203633774181,0.010718627484067303,0.05960250470724852,0.37301756395322,-0.7038180292437292,0.11011816731241764,-0.11496928473101313,-0.5224727296658005,-0.24785771121415937,0.12831723124231473,0.3700847855269515,-0.8314079900254998,0.3150345135369332,0.1439799029629566,-1.0067377615686275,-0.46365066224325974,1.231033876217433,0.799302855461655,0.7867587341030547,0.6036687941289595,0.09771203854311672,-0.644006364640662,0.2829481014414248,0.5876806014619732,0.391992636934705,1.9073885702583337,-2.1557086230572806,-2.030654636916586,-0.7114573934645626,1.5468824364329312,1.2129776454873986,-0.5116717464283367,0.19979879068010054,-0.5401636678296682,1.7086026682142457,-0.6901539736269365,-1.8055406550393773,1.5499323742805964,0.7575207496068274,-0.5550922581066762,-0.1315672739133239,-0.2512608393552444,1.0742803230454168,0.07667530666841228,0.2947929942299742,0.48741652866398644,-0.5867227807954293,-0.13466515304374876,0.9041282935112267,-0.5207873715375747,-0.32134830911334616,-0.2036827588144308,-0.8861905782086967,0.6011733461034195,1.474215210220229,-0.16576572186055621,-0.6668426514579915,0.48273499349981275,-0.548870029662098,0.1072211870154938,0.655780696649695,-0.9154356460480393,1.614113737939642,1.2306453147533545,0.4768140896217688,0.46837420944957997,-0.046650742615042075,-0.06441060695885548,1.5811379646889068,-0.6478281594303393,-0.3218625509956104,-0.16688229802848875,-1.4435084046342785,2.221312560986266,-0.2482274189102056,0.3518911510187896,-0.7703531458112675,0.9909950502560206,0.3096573641866745,-0.4520531086170218,-0.9431821969438656,-3.612181540387748,0.47110337740492175,-2.1025533208947005,-0.886953602276454,0.35101610174835,-0.29998434220218667,0.38625102621304164,-0.6678167156383948,0.44572406059294173,0.3668676082356958,-0.25942885860779424,0.34463573400707465,-0.6027632566280215,0.3301514555123451,1.0606691744508214,-0.23364553328888124,0.04247366954428276,-0.010884170531961612,1.038352812313042,0.30654728185622443,0.11493085982561986,-1.5114820447903505,1.0631855134126664,-0.8729787715635096,-1.0596253995128677,0.49742650259018795,0.9868495094418497,-0.44347179739097264,-0.640952458380704,0.6910897991270546,0.43278868778147944,1.0968864771701137,-0.9920986666695792,-0.20106879790497956,0.036973273480252186,0.8154305988483486,-0.25045859111151014,-0.06892247983212912,1.5298219363908103,0.9243324956291604,-0.9859730292327845,-0.38181634500325046,-1.3680735359548226,-1.761203928772329,0.05993497648299403,2.910811189653202,-0.7520899573156046,1.7028733534446274,0.4517940479197367,0.0360060383574971,0.6546316244234118,0.8312922307143954,-0.9680101898318707,1.1221660144665218,-1.662252042159036,0.15632128770583206,1.3328283362425668,0.4316824242354576,-0.012705599226353259,0.8904344893450281,0.6883487865418589,-0.006612999865337723,0.2233769433577318,0.25326341449099965,-1.8557086812569679,-0.5491897726606542,-0.0609675873574094,-0.4542028584991467,1.3437645375005454,-0.43615108341129455,-1.393426663620186,-0.8220072109745973,0.17670349309653344,-0.4363219737914603,0.2616288343041158,0.222232229894998,-0.8503356460712159,-1.3447102642060123,-0.9137246736196815,-0.7280938645621168,0.8591778092309615,2.0146290760277137,1.4496808787014885,-0.0557828082186689,1.0977192826382496,0.6421632191661062,-0.5648496887808608,1.9494563921902064,1.337425420418065,0.7364929830182275,0.47603161307396935,0.19304794397609984,-0.19568695438871114,0.4459155588266341,-1.1281762088566103,0.4187293606699499,0.21409014855901265,-0.7150263914950642,-0.3997905603569814,-0.12844109734191808,-0.7355778582913848,0.6827722071112988,0.6453143921293129,-1.1001266930279352,1.0794014524027156,-1.2684456137240203,-0.07351869876377413,-1.3852626551437017,0.4546966445135763,-0.4499259111109404,-1.4214620340072317,0.44218711369514846,-0.29789142238957256,0.30982893955271246,1.559817318437787,-0.6325086852822621,0.6521208672613472,0.39072359003626794,-0.6267369010680923,2.1349454687807543,1.2677127444521472,-2.9670745886907706,2.190884224236298,0.7844860057676937,1.4635467398284796,-0.24198211047824927,-0.10311792312775774,-3.2153339114642705,-0.5162586183723671,1.7129987454156468,1.7783055596583102,1.1741645730273051,0.4646118044938715,-2.2316334579007124,0.22554076417427846,-0.43583018441969795,1.4914206579530844,-0.6239980926625889,-0.66240657164692,-0.0804857225183833,-0.4411343171234818,-0.4052011192270198,-1.3646466648744378,-0.877853250713972,0.26494583462821547,-0.7251022230308598,0.1344739033321006,0.549525154086682,-0.052160941133187144,-1.3938502935548114,1.5348026576936065,0.007032867102648326,1.736483447671924,0.24383300643986422,-1.9632585072960467,-0.6470326172807516,-1.744192599772499,1.8974000724456666,0.8996265651063392,-1.6538512564986634,1.8121579671165193,-1.1074749258637162,0.501172087619138,1.2221222781305319,0.7213471083904307,1.681033220927111,-1.7041109357405657,0.24036060407356075,-1.2623120680795739,-2.992519291842488,1.3728760321812126,0.545617983063236,1.876491369492937,2.185876058269349,0.11280383312369147,-0.4735387394255172,-0.3264326247603212,0.4323189173646907,0.1692069003344092,-1.298014496209837,0.08396672413377293,1.2423780096254624,-0.4083394668210079,0.3269475170378751,-0.4089796440865075,0.373513141250083,-0.05258500654192822,-0.8213314109117428,0.5255511437856694,-0.9903419812429954,-0.6609772773044682,0.36580983077943163,-1.681188300898934,-0.5912148178957939,0.6478063779430544,0.16024120503284717,0.3105394495020652,-0.8752036619477868,-0.5315743623955729,0.2697565695631287,1.4347850516976,-1.492989359776359,0.6933069519246471,-0.45634342264926725,-1.9165049401070744,0.5111154492821521,0.9226594947133588,1.6700337025999883,3.024382702173034,-0.6858896324392896,-0.9859522787636902,-1.6835167558752493,1.2611380900743876,0.370068240016687,-0.030635448943792092,-1.8837701005588325,0.4504513599870218,-0.7064113785121042,0.9419677940402759,-1.5303839642770847,-0.07443193862837569,-0.2153538782268588,0.03423096272657707,-0.05090829663493539,-0.00979066592180731,0.054040870440362966,-0.6110689457304244,0.23268312758652518,-0.011321575931370835,-0.5116567438442451,0.2006635552313846,-0.6221440981796433,-0.7415250976051815,-0.5162440070766077,-1.0491440421914948,0.3551641063130376,0.16379322030634577,-0.2616347590955722,0.07318368404714613,0.31857942312116017,1.3144218596904007,0.3750465858263823,-0.16160395225565688,0.0424839947281438,-1.1984009388154424,0.39836941414426214,0.0887707558648083,-0.7262339158639189,2.005277211271422,0.6247259737192863,-2.134682779110227,2.0893535189560364,0.7713141903613073,0.7694138821176519,-1.0049224361104838,0.09361386032903428,1.768100735155823,-0.9726090873936256,1.1799748770683756,-0.9687345902989798,-0.7881031440251814,-0.8698100782396776,-0.021438509487489977,0.8282633966952435,0.8964266212060523,-0.06771616852887774,-0.19713108484420613,0.7663224052668407,0.282977801106058,0.4123417175068396,-0.03247291521158066,0.8099119772685806,-0.05663409834797271,1.5977163532851972,-0.6937246280507079,-0.279891350828244,1.0300942500855055,1.2808489237013825,-1.0365282472832542,-0.5626128840443193,-0.128437639183766,0.5980785648786786,-1.858392892427683,-0.6358559850895134,-0.4276982541100777,0.07128798105630885,0.5633518825812547,0.3412574769839647,-1.2040164015595556,2.1830024476515693,-0.46439501262636823,-0.48261710226036686,0.3857771014189827,-4.249141917091665,0.8787922819373996,0.8756684749266016,-0.9755753492199178,-0.5170565093144661,0.013842235367711302,0.5162270028612096,0.807102582895817,0.6323900386489513,1.8462711666054685,1.4804619186652062,0.4820942715113303,0.13760529325675347,-0.9154425577973394,-0.4776143407606546,0.00896400666856808,0.19393291430973938,-0.06428232877542601,-0.000532971219007832,-0.4621034053425892,0.40388043902200305,0.5906113451458183,0.6047083705126759,0.6502409838997606,-0.5519774668584413,-0.6902941375998518,-0.32222883963899684,-0.6889665619660427,0.20455297410391787,0.607436855976209,-0.1211846126462287,0.1837747568601354,0.3133599291885612,1.0589025435261055,0.8398844155828495,0.9833023409945895,-0.49618836090037644,-0.7049741423919514,-1.5923417779690892,-0.024939124721253737,1.7174763869414278,-2.3307661881988944,-0.8043380070087364,-2.221268808034589,0.8376884427398171,2.0478571520037416,3.076031072243061,-2.9597396613339106,-0.12532618335572798,-0.4621603188135634,-0.18487445184888032,1.8555832537443329,1.2540234819783176,0.4745565174702176,-1.3923185449938225,0.8307954969059997,-0.41136240979063715,0.7139294125685984,0.11580794211141172,-0.30184353214339,0.05170996111089615,0.03294938761535886,1.328268282469534,0.4105498459182906,0.545576400729018,0.6880670485375507,-0.4435077957658079,0.4262120181530814,0.4575197154840663,-0.9652684330819832,1.2801377343027736,-0.9188295290612603,0.41076198062619934,-0.16820629938461085,0.5818308609660943,0.17235104549419888,0.917758173820653,-1.6470558536913673,0.6162286790212249,0.18601491510032417,-1.5940202923631037,0.49728226699394196,-1.00505982695882,-2.326875379923412,-0.36727679912030475,0.03737607105118578,2.4654176863175357,-0.4874729082694007,1.177186718867695,-2.1388002871301186,0.19264249850892098,-1.0659963022894636,3.465533425716902,0.2100653774765745,1.3266028480309688,-1.9789172426379105,1.5001803922667627,-0.10216472216463945,-0.9156190422923822,0.6593920255432082,-0.5855487257998266,0.37403800090369255,-0.11750316712765921,-0.7829373230233797,0.36457024445062436,0.09273714273067965,0.05107333003618645,0.45506080711862507,0.36084513250282824,-0.9583012645551103,0.01898706425783278,0.5772287930969336,0.981799558855419,1.3224177380558495,-0.7975735044919551,-1.9857676996606792,0.3701609674684289,0.3390948882596957,-0.8258147674770095,-0.2798969782981384,-0.38276209640303005,1.2682610991532588,-0.17674264430342865,0.5983998921757234,-1.2186609411156126,0.7799310419232232,0.0635335997834835,0.08967452046131523,-2.385815316939691,-1.2127242887442908,-0.30995877957481005,0.24391798996503453,1.0560981242279714,-1.4788191960163657,0.2904321940892876,0.8609775376870964,0.22889331005892252,-0.19350998399244573,1.121635295157317,-1.8288466717156857,-0.5467026468587126,-0.3418707255190582,0.0012726160675169248,0.29491306760024316,-0.5716250067648022,0.854519541806917,-0.2473879904112065,0.6066600919617455,-0.327150705976817,0.35618943496930056,-0.19094323412814712,0.5362682412059672,-1.6700923119687774,0.1832649919751531,-0.2727247526888799,-1.5972140099107766,1.2120671215987036,-0.4663506388771418,0.10972984093522149,0.3614356987133673,1.2994199316494377,-0.8325770750533046,-0.8728354971520292,0.2834808680300281,-0.13454640750640165,1.5577313650178604,-0.052761294378924954,1.364757870904704,-0.26530060155736657,-0.3840518459538012,1.7528284252064628,1.3064937093756868,1.4262768381524396,0.9294973886983231,-1.273174426776475,-0.8074020047268402,1.2173065499619673,0.4947231062384076,-1.3938602675414713,0.16592281978565812,-0.34284930627920474,-1.072181596955829,-0.3863182130354944,0.10659695018167657,0.22501707443623659,0.966643035362069,-1.1800965423869736,0.11727197921195555,-0.3116774337538909,-0.02655514043931391,-0.28289407289473106,0.8481822315622959,-1.2000637553123064,1.2479188732364919,-0.9823827094080618,0.32976225279117344,-0.046024522165296074,0.14871767203894823,1.1319185472672388,0.6689371631307132,-0.19706576582858074,-0.08567666670729099,0.1710738278368405,0.2570419808324729,-0.5782950199259541,-0.4284858926759293,-1.1922401184009412,0.3225274031881332,1.2190662897716087,1.3646943510646279,-0.3495811511220379,1.5989408910034664,-1.2372194065787565,1.4698080468243284,0.47333029223138084,-2.0191052997067658,-0.21006725479329788,1.2520746137169765,-0.8508072557396977,-0.16378896708204094,1.3832606117312327,0.4351243733787896,-2.7727201337047864,-1.666083796324686,-0.9849765927386805,-0.28150567803808263,-0.7998912578774324,1.5883593162588312,-0.44097635282576836,0.4325923638100967,-0.6503717150966956,-0.522202651485311,0.4740623560306205,1.1092828135242936,-0.22597130212885996,0.4171835012146894,-0.20956309381544375,-0.25426782396756387,-0.32617354130911885,0.2646222910358596,-0.8460586318832319,-1.2897747877568329,1.2742343466175616,-0.6937646751997244,-0.15087013426230225,-0.2343810252816696,-0.24188120435542562,0.02564457644339286,0.9906425071108141,0.8816917932275096,0.42575038047764585,0.47547589664465667,-2.311679610722228,1.3062813729144507,-0.612860666588174,-1.1661004611888528,0.43496152345660843,-1.0916178059872055,-0.9502138420047723,0.013336446190735174,2.6416912273088338,-2.121247474406215,3.837741046017624,-1.1039385760769445,2.0122631267711037,1.510341450860241,-0.4904701160898022,-2.7850308721609243,-0.6037134601159162,-0.17737326681362398,0.3842524810214973,0.1528643953429337,0.15064218512233687,-0.34101803960267524,-0.004889044075605687,0.4164284632299219,0.08198047803135998,0.6035637274511917,0.701386555865484,-0.03151120675537281,-0.1658009556941992,-0.11012103151169196,-0.133228815647251,0.2009834878787657,-0.31815816646645945,0.328494902178991,1.1000989931552216,-0.08754741760828105,0.39776836299506485,-0.6357085086183183,-0.059768078854289676,-1.0999738660093608,1.274395739464671,-1.4508067203930823,-0.20355385946240145,-0.6624844784838992,-0.6521765995696492,1.1768932090210826,0.5347004906234577,-1.7830622923480495,-2.3732325156761833,0.8416524906160321,-0.01797140063212047,0.7797472569073838,1.736965398411405,-0.7399047321682769,-0.6138659123773239,0.5194549552614889,0.2935163436327097,-0.593497863155986,1.6082447115092868,0.6123691161884194,-0.5780433149182124,-0.03363704624971019,-0.7904177557340761,0.7033012088945364,-0.12860147952666798,-0.6820559114927631,-0.13214654152283828,0.7009737812108326,-0.1640025222474485,-0.8509793913059959,-1.3502776290309144,0.09593564796188556,-0.18619002003781013,-0.2603718020374406,0.42618443048424476,0.5007139430331259,0.4144158131749943,0.3101775929263214,0.8051255383782431,-0.08277428143627555,0.04288233954926982,-0.07372522386367601,0.37401227303958745,-1.3260073355600952,-1.0459089225367677,0.8640794297910519,1.2196772620118543,-0.515205359442914,-0.37781833577014023,0.48689513088952474,0.9214551233338776,-0.06847514648824632,1.7311084689935694,-2.0720826630065217,-0.1833165000954764,-0.10425717010750556,-2.536683499508808,0.35801298353041183,1.0942107166735098,0.2896442929395141,1.1533342260112818,-0.10875466920677143]}},{"function_descriptor":"TwoPlayerScore","weights":{"rows":80,"columns":81,"values":[0.05125676144619022,1.2168364100599773,-0.4568628759148557,1.1084924473639124,0.2181696942485774,0.1649299625574737,0.5643724114866339,-0.6300577533777688,-0.5989418874076586,0.054044617196827634,0.30264573769583863,-0.0652223379105466,-0.07273841083000691,0.7370616241265077,-0.16086156183442227,-1.6238103300649982,-0.05005678010195843,-0.31158856794189443,-0.460674367666733,0.10534998749372634,0.2668843318388875,1.955998568433494,0.1752117089314795,0.7741988695486519,-0.4285706025033925,-1.3117685438621465,-0.002747181281605988,0.021677939420908697,-0.5569426467578893,-0.9385695651841383,0.33008914463734024,0.5177417487027117,-0.12927378259415775,0.7862210093354735,-1.8436643929898187,-0.5809360889033681,-0.48317134857385674,0.9568868842051322,0.7151615971092656,-0.6123804059384762,-0.17696471228707997,0.09529280252677592,-0.26394434878046447,0.1786881124223372,0.6069907009269276,-0.10762394094628139,-0.04964607914663119,-0.4773097598925666,0.4164756071338488,0.4581361465435025,1.4773511736143219,-0.08108660078428827,0.0547563241919157,1.3355562390007,-0.5416941625026699,-1.708147600128073,0.10931836363860463,0.5795565730787827,0.08316118214443348,-0.5750595924463143,-0.7774113611676503,0.17814534475190866,0.5684891503244539,0.49784225396598975,-0.15312447304800383,-0.8522331790583432,0.2991767088755059,0.1939999938792748,-0.38301268979571934,0.3081268797322838,-0.20691737549300518,0.6606420593297785,-1.7825073292285523,-0.2545725148632142,0.15185116130019008,-0.07552405144306452,-0.28300156090102735,0.2503912581279562,-0.27925993791239045,-1.4363995914058063,1.0484048762569127,-0.12658861908990876,0.3346499590481304,1.503209622307591,0.01851906461887348,0.5456297793123231,-0.16559081729470335,-0.798811978609167,-0.2949824486709053,-0.25486393955395914,-0.7340271856200902,-0.07405810986333707,-0.8496890164953378,1.6511608478129112,-0.7213965186639542,-0.5917634962122322,0.6251080508100675,-0.6282390107832313,0.7681210153901986,0.6424002287755862,0.20040114334188705,0.2748161227477829,-0.07465434163827453,-1.0079052629732024,0.9339109980795894,0.3035070325433922,0.4578680134778319,0.7873382640599381,-0.2829338548465485,-0.19049977238206237,-0.6504032865323957,-1.1985016187393527,-0.7938561673364237,-0.20198078334331085,-0.4607911223941575,-0.29700482389794924,-0.9412498037976059,0.8841580426991777,-1.3246731458330137,-0.06442207493999152,-0.9304484540843255,-0.6990714855131085,-0.5687758400421686,0.5932108880177355,0.7232819083756292,0.6246804694767804,0.7545942669443354,-0.551887963794188,0.5715883201289218,0.06088926396902035,-0.4826013427875014,-0.01894458850019384,0.8831351428158865,1.184634585484742,-0.14083278190079276,-0.508181674009783,1.8110204273802741,-0.42247457725182797,-0.7114653085688254,-0.41871862096974577,0.7992350851693518,-0.7682158945851029,-0.18607894142137765,-1.0919216293108573,0.6458534211842634,-0.3756388831877594,-0.13547062713682936,-0.07936556835834162,-1.0861039616714139,0.4030800702951767,0.562312812732158,0.6062265773249371,0.5136607569515346,-0.7776081097132195,-0.06673005916420638,-1.2282272396257883,-0.32014735715206905,-0.0033239078521664365,-0.15123521308713223,-0.1846600791746348,0.3108175638229588,-0.8256545576042381,-0.7373123969389721,-0.5089079267753901,-0.6349274575582781,-0.36555388334873495,-0.9649112945470779,0.37367247482031357,1.753001356002609,-0.09628993562951346,0.6492811616047397,-0.37964155557769375,0.7733388384174689,0.05115318304039428,-1.245805718558426,0.38785139924287265,-0.8500411220478495,0.15331127256088822,-0.3754829530501428,-0.20042283603666475,-0.7284999437288011,-1.5222552578248456,-2.0161297758895893,-0.6507553622219752,0.18988377554925684,-0.12910466265580756,0.7729359848771132,-1.3405678031396218,0.2862933044040941,-0.7508506999743433,0.32741585957465297,-0.06256719190109382,0.7631380331753402,0.028739815665425744,-0.6479785618942141,0.44265429601866857,-1.4044322862241687,0.671207339391686,1.894535573218047,0.19529987637904844,1.1487508862625069,0.7581803944472796,0.14272540527668195,0.23256117422688033,0.5917533783505436,0.24576172396962548,0.2560459983282124,-1.1296617884638964,1.26556263101933,-0.7111881134549689,-0.1480127672866054,0.32457377878323096,-0.04764319738223249,1.0710523270362098,0.4063200915776303,0.05355508092053387,0.5259938138276838,0.5872160270460203,2.0461687890016584,0.7421355191963117,0.7887602747492694,-0.055451042884823554,-0.256435400687444,1.2806982955709811,-0.24090314879567976,-0.9415284993863308,-0.19357858772947925,0.1979798129182442,-0.24168986701459988,-0.4138983073423063,-1.102667260110907,0.2943995851317203,1.4214264899202191,-0.07814366486378806,-0.21646481153235592,-0.6317041491289385,0.48415064789757767,-0.8623551919347837,0.986043983602253,0.036089242800337595,-1.0984489565062245,1.2219255426283333,0.7886318718216865,0.43572003980239404,-0.45382072835717546,0.12322918257097752,0.22828229218003274,-1.321389076311968,0.8494972063395128,-1.7488759730514372,0.6665177041825765,-0.11632932133306474,1.2273117399193805,0.5457972652325354,1.7208768431123636,-0.6185589394431749,-0.9735770671723619,1.4078141825319892,0.5374485806545923,-1.3829416743538845,-1.0526682400844132,0.14818435057230328,-0.7547994481533106,-0.471692885184193,-0.4452942092914281,-0.3647373210661047,0.8135746625756795,1.3386875672609047,-2.291293356841914,0.169244573922794,0.7977684984803374,0.5574377915836187,0.7855244896685817,0.2747849926845611,0.09568609252890693,0.44783118752145556,0.760977001808067,1.6033115923763104,-0.47158276037975544,-1.5307928366917565,0.05926583168257606,-0.42168028407477504,-0.216005801950472,0.7936083836484388,-0.2200407356577931,0.5101279224408383,-0.801507230625988,-0.9947038145868222,0.04322224204664697,0.12682927054941417,-0.23387543198451796,-0.3733593318587364,0.31253374735162137,-0.25358415355573094,-0.15007286459454955,-1.4374543469513734,0.13779168729711802,-0.11631465653143855,-0.6785504483964092,-0.5918322206086327,0.010882484208496766,0.30503364338645345,0.007554809601289926,-1.2859540521857786,-0.17564373787919474,0.6305977912231427,-1.340323836341742,-0.847832130829412,-0.2106297299533616,0.4982446731240662,0.21039335210382756,-0.04507549354435364,-1.0657730367328118,0.07648697381205934,-0.9182426655151906,-1.2207301950153908,0.2586270492536157,-1.2781232051568017,-0.2505411294364709,-0.0541296066632548,-0.2747013012791233,-1.206808978000392,-0.07220907790989227,-0.39236311441674665,-0.2249151645964105,-0.9391837079778561,-0.38635518161907106,-0.2804669604272473,-0.02825868609581809,-0.025256556498381252,0.013185971008048875,1.1233619148267322,0.13701891390300827,-0.8432378322343662,-1.1845923459838037,0.39714906883983664,-1.3449664504407604,0.6906438888505256,0.32137211820449596,1.362255368495675,1.8981369347717618,0.04370366740607202,0.5821296863039248,-1.2733857642441764,-1.1187503809055273,0.4772091521531932,0.892224838287618,0.006759239403608689,-0.09087287654486617,0.33174982095519273,1.0170909708429474,-0.4897255729888402,0.9053613341297313,0.3117882180496448,-0.2609377386333353,0.19437493578807044,0.6177240439680494,-0.03675404140678074,1.1384810425982113,-0.4281746698597336,0.010981951688142488,0.7834477042719648,1.1810906361489495,-0.22417561822960425,1.0600186829018636,-1.093113202671122,0.8690288222957087,-0.23386022285895014,-0.5204305644769961,-0.7166410192782906,1.503228679284384,-0.24392390492909127,-0.16103123794168442,-0.1197973137558554,-0.00644079258644475,0.5236584377390224,0.5201324815885737,-0.5071174990250796,-0.04456162526306775,-0.5708314373438448,1.2876925106876769,-1.0983513616247413,-0.21650158014608634,0.4908520762285445,-1.050224414290966,-0.0015244212519888044,-0.22534789594458757,-0.9148011713190679,1.0064016522139374,0.9155085821165825,0.10209448396278922,-0.5713999758779948,-0.017262779139898477,-1.233494780722685,0.1439165152154908,-0.22316091175446465,0.14782637696580428,-0.9490017512969229,0.30945366005745234,-0.29215536849898366,1.1713999467510134,0.33289010467813307,-0.28206578963255285,0.2910755194259171,-0.028578218133586488,-0.20566430874430472,-0.8198344893398639,1.0392135952872619,-0.7486587757785778,0.3409680347856175,-0.27319065771137097,-0.4514273124659833,0.1669881743666044,-0.5608363116299773,-1.5178667217354596,-1.065284518737774,0.4658594712927879,-0.5741291122965615,-0.1683468089620832,-0.1954401499302653,0.6259881360164518,1.5146068449328658,-0.6610917358698197,-0.5663880013133101,0.9663324763825966,0.6111239884646724,-0.7671668671628873,-0.5438562587650798,1.1024709651227087,-1.120108072397412,-0.3624066915454505,-0.5715323866162647,-0.5213637305137145,-0.027432731520316632,-0.20712087795225392,0.44087991040278984,-0.7328372744798075,0.5797565431545294,1.3182283655057159,-0.7418884850166739,-0.3979434717364947,0.3255498629811714,1.2725781757887935,0.29583455016927174,-1.2858825165202195,-0.767917011491073,-0.9842748127156338,1.0272807106386168,-0.4478681793863143,-0.8071981378307523,1.5240141713822963,0.36066488668835306,-0.6932628548693487,-0.4746072110617277,-0.07119850209755772,-1.2216826577437732,0.732999951533653,1.2497307151548824,-0.0961575654651858,0.09367754786658965,-0.4280843510010748,-0.4888309333929339,-0.3081123424799504,-0.39254370354882484,0.68203791208661,-1.0330960023048847,0.3186012298218627,-1.1251140989403536,0.3948454723498741,1.2093318958656891,-1.1243572527440129,-0.8488837755994916,-0.6367961323731348,-0.1397393948589454,-0.7741619203157142,-0.2462855371772484,1.6552807705450618,0.48287697925424955,1.2994152076226027,-0.9949476299811923,-0.1566782102578904,-1.1011606543866053,0.6653840431973742,-0.4627335447433912,-1.1643465091111047,-0.3723226694175915,-0.5567521579733283,0.3606295488776862,-0.32051709711837817,-0.7186450573843745,0.05431118485598331,-0.8956570234444713,-0.927158228374167,1.1920945500804863,-0.01378292748618829,0.2888244831791695,0.5255122649488564,0.5369189911349658,-1.2048752855058718,-0.30190430069851804,-0.4292707904200563,1.0738579184543233,0.6896797305417873,0.36654367209713196,1.1908731547395561,-0.6091335572015679,-0.4183438629640559,1.7082530478170799,0.13003810095913396,0.5604511692997473,0.8303619623571546,-0.34845937484883294,0.7757143026201153,0.31542151858575623,-0.1366757883318041,0.09572434473886993,0.12335815076203856,2.005258191298142,1.0013569925152168,-0.575470644583537,-0.725162200499475,-0.698846407191211,-1.413311041378815,0.4146636058812393,0.7114923797234034,-0.04606660263567654,0.4101347245467866,-0.05709381846768647,1.0478248585949774,0.9608926971475161,-0.3762793650372535,-1.2009731953116922,-0.2730912133215244,-0.18258206541457767,-1.3481455697303422,-0.4352298703920261,0.21763891837240984,-0.11211385136997742,0.15886392733263827,-0.18413754852582004,-0.19963778874556265,1.3800523530145121,1.256548326813834,-1.5273147925240755,-0.7733710769702965,0.06144281589457239,-0.7675341815610318,0.270763700794043,0.30095777600104884,-0.6000150761618829,-0.3963266645486544,0.157664571656925,0.16127063040692402,-0.832424683766205,-0.07622079349180387,0.013006718367047573,0.41938438651417803,-0.9008103243155007,0.06331760776648789,0.5673482026139148,-0.42616261564170027,-0.06809429889945033,0.6081559298607169,1.2009664488330336,-0.7137236217447017,-0.33188236949569255,0.3492122499385925,0.3557175441763327,1.0582044531568842,0.7145769637362565,-0.5531874854639638,-0.28200407058614596,-0.12595549714616502,-1.895893664107289,0.9429356428661118,0.2531575549203688,-0.9980229995938761,1.1646068480310143,0.7916850641839974,0.49838860571143245,0.5510091561028706,-0.09429392207281109,0.5373252187569504,0.5284494669001292,0.9228064341930526,0.5105153384358914,-1.1460413241997456,-0.2501400622189929,1.1567592099996942,0.24505433758773898,0.12563601726671558,0.03476759380994835,-0.7586498546482664,2.0830258755780138,-0.6388433480106893,-0.3136970825019828,0.954671424602696,-0.4534321964378201,1.0862868110133541,-0.1608931093478083,0.21950878513370264,-0.2235224401251203,-0.7952384825390599,0.5040860206524328,0.2059351291253898,-0.4103172433664034,0.44495689348252493,1.309671864403523,1.2700472672671104,0.5114340352863873,0.35649229693148826,-0.4299641751728703,-0.46503244526718407,0.19284809557820454,0.021551872713576805,-0.28689306973519263,-0.5525795360351494,0.45515786049389706,-0.18359145682623298,0.9823192341628291,-0.02093583262763078,-0.24762333199341072,0.461601419131899,0.7880668984112732,-0.8646269830257611,-0.8208949570292344,1.4217869476971687,-0.9574579348919094,0.059155846546329285,1.1153697665986864,0.26437787877341834,-0.2520681617415422,0.53737492813527,0.6001237768447172,-1.0175441265320682,-0.8342837521846718,0.029849179447651003,0.11659010053968787,0.27143264540561046,-0.9673330447679847,-0.8117521524383382,-0.7092887854576944,-0.516411509752886,0.6608441418206212,-0.649692438077099,-0.5622851623760948,0.30128314505634185,0.2126030251440852,0.14269958818989412,-0.820643496530452,-0.5466721809872669,-0.44031786125042355,-1.0610620697041429,0.9744836274332694,-0.7481280653290391,-0.03631541304205855,0.28237755101220174,-0.21533748149620777,-0.24074554501182605,0.6486797914196306,-0.42569785357156564,-0.31898139087838306,0.21310994138826964,0.7649231276430922,0.8249974325128452,-0.932621483356763,0.03292254232769534,0.7602390942314736,0.4725522732422173,0.4052743892075274,-0.9968411903954454,-0.7143189017057634,0.9806551689044439,-0.2167129646835758,0.11924433907479307,-0.4540332777626063,0.6993271534231493,1.1094406645498085,-0.12848214060417146,1.61239647318005,-0.42908690042297887,-0.896972385372752,0.9293826908660516,0.13407062493125183,0.45039168643925376,0.7281036943472813,-0.16494327719010748,-0.09718979232946173,1.3365979606674074,-0.6404102675994368,0.6955878430639874,-1.3051620703882998,-0.5714097276253964,-0.494727016243461,0.5621043453403274,0.3291103361939069,-0.6943026445673806,-0.7884488626511161,-0.5684514755748347,-0.3656096141773225,-0.8826200267683929,-0.41774247918165935,-0.19244711560078753,1.072173114819068,-0.06034908403164874,-0.002407013918089276,-0.017386956715712443,-0.4606823697041161,0.18751828488577973,-0.3380802579665956,0.824326979801946,-0.7150369481396821,0.2801176844095619,0.18416091892634176,-0.13825672721543936,-0.32090165272192517,-0.1904935162271418,0.35990734265634416,0.7608185488744152,-1.5169168432547593,0.6854414789452482,1.3721127268419675,0.0007266517741790051,0.07870038448891326,0.19349102278976354,-0.15753284455402955,-0.4554119171443803,0.1386409859759641,-0.06182169292718991,0.7708189213727876,0.11993845048848809,0.6420430138054123,0.47703639509050527,0.9678905135904495,-0.5393902992112042,0.6300105869038909,-1.427231111861987,0.8449314028567526,0.3993983501324495,-0.07735773266077342,-1.1403885019382656,0.6530007772942273,0.7900852536536249,-0.04045327098520417,-1.3156720425859147,-0.4393657247573412,1.0547747472122282,0.9288082621675263,-1.2481774532864887,0.8452704603945217,0.5751227014751529,-1.0874383007646844,-0.13969031164115162,-0.5156139355593483,0.5614807668829188,-0.6361731102849275,1.1661492402169005,-0.5097866351695525,-1.1744298168563878,-0.35060548048545626,-1.2618710782307807,-0.0900163491118256,-0.41174340796261116,-1.8409192880692344,0.7315734446285587,0.8969672942681582,-1.7959707860234992,0.7670807117100755,-0.2692480079883645,-1.0228617183526632,-0.5207849756430246,-1.5381180367539118,0.29388434817510434,0.9859529765366545,1.1106031302215524,0.024192144498144906,0.025545779629176906,0.9523973112525963,-0.14284630486535874,-0.08536028340858015,0.74222140299034,-0.11219824212815124,0.0050311467774194745,-0.2287891267384458,0.5802432364738456,-0.7728213058178267,-0.8969194081593258,0.0013678296914863884,0.003387600244297147,0.6455403412304237,0.9501958156288801,0.2902993384998737,1.0192729748614477,0.13124750574340052,-1.229096916401824,-0.1870316195755638,0.5438868583456136,-0.9067040077652083,1.168895920703768,-0.5614958610429606,0.6022048599867633,-0.0483950400768285,-0.31718691831432283,0.34314532685923355,-0.15114318042428368,0.09432887253529486,0.6576525677829865,0.026781608512933378,-0.8196615902082204,-0.7704263981460571,0.982607018075763,0.2954288936215986,-0.5220160576076338,-0.054526301034920614,0.37861149810420724,-0.5438226626986185,-0.334465852840911,0.4205849994500992,-0.44187390574658175,-0.6016414836858035,0.18021955639674492,-0.012773466873262076,0.2013563780721186,0.10206352027694994,0.9006025304457234,-0.6414743364862525,-0.4023291971373194,0.8032741478895812,-0.28373093401649097,0.17427791053866293,0.7316947387927926,0.4876074599548122,-1.2159259160992901,-0.20938215083045036,-0.6422569048558883,1.0901697696750063,-0.10032177984112595,-0.459577876779604,0.00016502175387328962,0.29388500723552313,-1.3828248830952181,-0.9777668258257669,0.6156744097446661,-0.0852532147698626,0.30707630448798007,-0.29053786003471455,0.3461126835922636,-0.9711958048928286,-1.189887049106854,0.14490918732034008,-0.27151132071903544,-0.9197357342987846,0.08642677130706895,-0.5701361851488299,-0.770730048072286,1.520600216336317,-0.8437914799399068,0.36713133790115887,0.28456344493976615,2.210602928463588,-0.01694515391639646,-0.6713310402155014,0.01409440546406165,-0.11651337514152582,-0.15389273002749426,0.4673043416830271,-0.16940107903426987,-1.0051065062835143,0.1540691453190288,0.9336531436465383,-0.697266069794501,-0.6062889867712546,0.29548274948685044,1.1148236992984146,0.4236743526030105,0.29603070164047113,0.07367111868205264,-0.28236472323602013,0.3959890384284184,-0.14324664935729062,1.0163697151640474,-0.6536871240519109,0.28610886828195303,1.512258551363083,-0.40028148559775634,1.2319977889673759,0.0003278705271571984,-0.16980722149411476,-0.3694825354753441,-0.02433759223822175,-0.2193106058381342,0.47813016502306616,-0.7596949722981092,-0.18283101179180206,0.5724270531377162,1.3147986050903882,-0.16280439736176527,-0.2606577559765229,-0.789442126728222,-1.1361422836742914,0.20958827795156548,-1.7636511119371125,-1.0658992399544418,1.4139160784958364,0.3692688959045517,0.9134655501969483,0.9365459933484757,-0.7997200126513997,-0.21985945740669477,0.11664153371048966,0.5677382549572034,-0.23353400815764327,-0.7738992572190021,-0.34041089432025223,0.20490232173356088,-0.07251642407498059,0.4837739934248287,-0.7619800288105664,-1.0593102445009712,0.3795593530143507,-0.3163311076900011,-0.43099130003004915,0.5223467738923336,0.056411688106912536,-1.2606012026922855,1.2466043591876157,-1.606746427009604,0.3240058045114396,-0.7905112678042255,0.5907998874402844,0.5921774624961261,-1.5350417722751162,-0.022609342158700297,0.17129353101840633,-0.8573840829544421,0.9639835416612236,0.40930378610921087,-0.7040680277030106,0.6727722979798161,-0.20937357376458465,0.16358390948855167,-0.30007896754784336,0.03187911138041678,0.24453671283799408,-0.5166462545126694,0.38888257590327546,-0.279252218990126,-0.15116070702914394,-0.15123519173723607,0.9746028358894668,-1.6171340854112295,2.0289283479979288,0.22238402935048276,-0.7135516625197916,-0.46108790451564563,-0.39545495049393775,0.2348521646609508,1.0032839650100036,0.6686508505725092,0.6756482510066809,0.2437459359985601,-0.8324732329221889,-0.858652694811791,0.019442010217823213,0.10980056271930007,-0.402511970646298,0.7298606387685617,-0.07806088211802055,-0.8874070814349174,0.44467388807441427,-0.08207964821893189,-2.1887581454283485,0.16007480437437357,0.19726343474290173,0.0021465826665466622,-0.11640837615917692,-0.17647698899468475,-0.8168698106569813,-1.4837107717034672,1.2074235666553916,-0.2431141254889629,0.9192883378084152,0.5735709768056516,-0.42536969223619603,1.7724929581031705,0.14692353921520013,0.09903854682400441,0.9411400559590845,0.3768477903183579,-0.28220711504961227,1.0719637512459987,0.724165586876673,-0.5293683970311739,0.1409050741526455,0.2630251514865201,0.14695560204296262,-0.5609768007614292,0.06887808623682601,0.6479623926454591,-0.36705396865348755,-1.1094314230962907,0.2647051079207082,-0.36110893332862026,0.4332762444187323,-0.6876699267398186,-1.0844482545140113,0.8603921423064834,-0.6999587894218566,0.6403170828296739,-0.13164337494919345,-0.5940994939970459,-0.3902198235939607,0.027305734145574953,0.67345319316048,0.36218964443774687,-0.6080751553928646,-0.3550185300821379,0.3157777649925073,-0.08648172879019088,0.6033042545191857,-0.021543578189577372,-0.02875084090827706,-0.9557695391689132,-1.5819677001921386,0.04927581965215027,-0.852881027328167,0.16411884777551147,0.6102226014208806,0.07651720681993666,-0.9618831419068875,0.6458179455991299,0.6318481106514857,-1.2658429792595878,0.16729455216732766,0.6931353068454695,0.9552514469328062,0.28430795948768106,-0.06846854378604315,-0.2120790803130035,0.7132780554954399,0.30341283872826147,0.3505422413673525,-0.05684676013559345,0.6705796396926987,0.23392865980984387,0.4550539077450467,-1.3928359443734064,1.203167032760033,-0.8088124132051502,0.7589905616960161,-1.5816863069149516,1.0959617590886892,-0.13956737193731625,-1.5066407852643628,0.21722136531998223,-0.10580313629916913,0.3811521728554255,-0.6683926730492613,1.0345036679294475,-0.19719770783685106,1.07159149375502,0.13860310180789573,-1.0336335127679157,1.3580866501092166,-0.3615628038920053,0.26436990420159984,-0.035681716548896306,0.7402988349228661,-0.1989569255746313,-0.2372970967615828,-0.07133316099136747,-1.342749947987043,-0.536379153664194,-0.05330343785141043,-0.5811018328881488,-0.024686544769261347,0.035952534365396714,0.13135666232046728,0.0005822075972605615,-1.0794821258644207,0.7910953656263463,1.0444614461883746,-0.4057205730164626,0.5105659452768171,0.7292768695544698,0.4491577740836922,-0.18985071157937414,-1.339348693365847,0.4918614829279792,-0.6633933789043378,0.9416204713678848,0.3845211103554824,0.5859659013614833,0.5816932518434025,-0.5631010358786218,0.2464709646980022,-0.006864833411096977,0.3759875786907052,-0.35713791054995586,-0.04993305816191477,-0.7070699409942266,0.9059380722513365,-0.4494833841181456,-1.1180314329837786,1.0013049392737903,-0.5713038443394349,0.15774002060841916,0.09736888879152238,-0.7679975692170693,0.957448628662031,0.19912345679783608,1.6441266118572309,0.40518276770674133,0.29501328755171524,1.3579825808554562,-0.32213458170655446,-1.0571361744021535,0.3400934464065593,0.23421878708548563,1.5922121559711298,0.464472689058474,-0.6797046431706824,-0.9808077348827813,-0.8362960354301417,-0.8697426423754229,-1.1596281276298728,-0.6400145706297782,-0.22661579577478586,-0.24757200486073663,0.5899915848445682,0.5950172510326095,0.4292453657187213,0.6766786025011032,-0.632990943685645,0.770951799536641,-0.4786326138440683,0.16115423969417866,0.7442258444174978,-0.43753215384218985,-1.177724391548409,-0.37588573997759966,0.15734864689226918,-1.2854154079072106,0.8341239310958776,0.010963252410640133,0.8273827741056055,1.6924186239247585,-0.2687156105039131,0.1541796648100467,0.7643429856973891,-0.47518812216994627,0.6356549613824154,0.923969278225125,0.8285173863202017,-0.588277961435226,-0.7963002323950158,0.3023798151766302,-0.23111612443288898,-1.184124160420354,1.3607421853415451,-0.3111831855240642,-0.1727371937040743,-0.7778387586934875,0.11473495096672522,0.5541535466505678,-0.324198460806843,-0.1933728813321359,0.26001954057399707,-0.19364032794934752,-1.3709893788811671,0.03608188470566952,-0.8210442933515314,-0.8815665663959615,-0.619434984756061,-1.0370240716714274,-0.07569139108009881,-0.6186413337659465,-0.8503803512802793,0.23924724168543882,-0.6225506437558983,-1.2615549241669952,0.28185020122143584,0.23320215079850737,-0.3184963680691833,-0.6713467193678899,-0.5741129565919155,-0.6308494793323022,-0.07857165688493732,-0.24340750359584212,1.224821373043607,0.195437119968483,-1.318217231190619,0.5972349299522266,0.45156272751894555,0.4098960304989202,-0.4765573362666528,0.26500610875013375,0.44047300311794324,-0.7047488329225722,-0.03469257435616851,0.5705656965036775,0.21441196943390198,0.3852924429642689,-0.20799987816142707,-0.2871612281005623,-0.07456975653738976,0.22220360416186113,0.9374770369596599,-0.5762718965911243,0.10856094573682738,-0.44196973614993845,0.3311984101004298,-1.6278590603512466,1.916132797615116,0.6520217627585619,-0.34700890885415553,-0.33658580316863373,0.14418894308758104,-0.4496364089807307,-0.08590060961369829,-0.14254528037538783,0.4552805287503198,1.041169290228568,0.6239350370300326,0.49074391513240523,-1.0450584547104589,0.46476765563683003,-0.5666563205290993,-0.5078638297245089,0.5055420852731938,0.10799672565885443,0.017979570253524268,0.8191859150883115,-0.5239104515968345,-0.05962123244828909,0.029906899026178227,0.09963672928476094,-0.5199405471875477,-0.33989399693642464,-1.2603793627558408,-0.7854376776072021,0.5983440920033235,0.3831509117617829,-0.43541057396656985,0.02684744313826548,0.4089035352400373,0.12467054231256547,-0.2720831259648269,0.7748872482403397,0.5680429009761576,0.2533582693608262,1.2989453869720824,-0.28014490428867195,0.19311526358334422,-0.7185450721739491,0.5139620051999724,0.19604713108243582,-0.19252174406351016,-0.41437896293349835,0.20370586204195154,0.2554854887659268,0.9909240709165031,0.38166491443770534,-0.12261211480478934,-0.29032206834688556,-0.7543238853912195,-0.2749256029774996,-0.3243016451163414,-0.18494589619848698,-0.2328370365369294,0.7823852068274346,-0.7919807266751688,-0.6855072869602196,0.3053198353928619,1.0163798060841225,-0.20980642514684913,0.546418916017768,-0.7594849515735053,0.9594456636018193,-0.19566455192509496,0.10643929941255006,-0.08533823666914815,-1.8752053522054113,0.4838457910122107,0.2629012152284388,0.9983416822084472,-0.480289164594444,0.4602872292276489,-0.862213351988554,-0.9924808384598587,-0.7238324339181259,1.162365636757975,1.1490739000750965,0.21153388969062212,-0.7144892354136382,0.6341390707271493,1.4491389231842768,0.6407196974375343,1.326812640304281,0.9751676138900807,-0.6288815402429475,0.013746708809004545,-0.4739905685902822,-0.2868995472361023,-0.42496417223251287,0.6947679036121006,-0.8530047599492613,0.6254405149479042,0.1870699275243093,-1.0045828911723655,0.3348040837917213,0.6902416420982891,-0.45761511021591383,-1.1091072244021756,0.27383006261767967,0.98715623564117,0.7298416478887088,-0.2247601720839564,0.33328559325460433,-0.751501305821755,0.3107133789887627,0.4413739057702439,-0.8322237409206675,-0.25139779393532835,-0.5272607054764215,-0.5548963901065076,0.8500102870427482,0.15698226902585843,1.275907846259692,-0.9968219496752121,0.5662452755509532,-1.0330645579773574,0.0930018928357133,0.31355774885259063,-0.5717406274148366,0.153563204071965,-1.614222055645336,-0.10695137001019958,-0.35285745288350634,-0.4252418832563612,-0.9352236861160454,1.249897452684238,0.07494064988858763,0.2040789111191128,-0.08442407833635666,0.9183803374477046,0.16693877287949138,-0.6946219456858769,-1.0289305591932392,0.40381302209527753,1.4699499990032914,1.1346605350134558,-0.36549620992631005,0.8397256658793075,0.2656305808768036,0.2780788763589743,-1.0673647804842097,-0.5632464736717646,1.1410767660121786,0.8734545036925123,-0.035331899961348556,-1.0191186707321895,0.2336358488659756,0.6788642033025238,-0.14185339180361162,0.4280286810217684,-0.4755440938858994,0.06510260008288399,0.7014480378066199,1.7949048133307863,0.037410151729135296,0.39038697429133606,-0.7864365050866235,0.6565392298402137,-0.5074410270827444,0.2965928631836222,0.6518615246359305,-0.6188311701803016,-0.9373603607130019,-1.159377063668827,0.16448083017165435,-0.42663345161466026,0.535008853003972,0.6540316673019929,0.887637659935999,0.7268925632978462,1.7670259501369145,-0.09154516179043629,-0.6604408090761046,-0.4935069336855861,-0.9141569778345693,0.2565373356882478,0.3171279546110983,0.3320663601479346,-0.4479624251460273,-0.5546130748427904,-0.9672947598754308,-0.29293746131675646,-0.04838323698075001,-0.9543552699417742,-0.24697505501650585,-0.1175744291938286,-0.6391472087424399,-0.795593562948727,-0.1286134344127905,-0.619921156803535,-0.07661604541257415,-0.13738467953412295,-0.03280072023613882,0.20291671953590998,0.8787545010306834,-0.7386437487078034,-0.2789724419839053,-0.3743044169973542,0.1819989408932841,0.8542400290408315,0.06388162555688597,0.3553761667057916,-1.5944363449051389,0.9213930859102244,0.9918911801860983,-0.44316356139524526,0.35847645866838923,-0.07827069332495863,-0.2136857360841565,0.042968156140502964,-0.46868929670731785,0.059468441213540446,1.632698482391411,0.10303647742407487,-0.8455043246391609,-0.6188058328016945,-1.0492312660343486,0.320205372592136,0.5042837801397417,0.3081016131750357,-0.053487026052620144,0.18024614194935148,1.050740350272212,0.2165340361837021,0.16775689856360324,0.3863357980246251,-0.47964484087127784,-0.21546122710509202,-0.8527967121262042,0.23170427450226075,-0.17945952795082643,0.18845303060521856,-1.2761738893930097,0.9378401895148571,-0.5742721180060443,0.8900017226239605,-0.7170881724190113,1.9905990314905204,1.2394460661558706,0.13239268842122556,0.9782890241449008,-0.5597532950117124,-0.0616677917281213,-0.3029653720328332,-0.2630185235645709,-0.12968828513731553,0.20404730090457948,-0.12597439518141118,-1.6170904851653358,-0.9785380188637604,0.2743935348836033,-0.48746337714348714,0.04227970920353083,0.005589878153869505,-0.7996953167415605,0.610545456046063,0.5995097561465355,-0.21464110271759632,-0.36040707446487114,0.29422694762532337,-0.6277841652667427,-0.8808185010326209,0.12219157579843881,-0.8213710588403069,-0.04806351548908646,0.8275497339485888,-0.5457472089203479,0.03640361193889502,0.5282464558660919,1.371128884924522,1.2812842002396825,0.6144187097097945,1.3586784737120572,0.2402814385559717,0.3644436817165096,0.22000936891508022,-0.11174752150373779,-0.8149054092481884,1.0644508610434635,0.04664294610631119,0.024312921038869402,0.9784591161257785,0.3901375638140768,0.7118834169834296,-0.017477080194656363,0.2446568415695262,-0.29628502636720216,-0.8629763813532756,-0.3781373657516037,-0.2985319663876626,0.7279529460996038,0.3674749609853624,0.9638256073856857,-0.20840661358289891,-0.5068559733742625,1.4013538125825493,0.006853200413933375,-0.6072912291524504,0.6069491025115428,0.09919639770568045,-0.19718736891347544,0.5323115099155216,0.41287689680196527,-0.9400239563014613,0.9357494557369196,-0.7816294579590861,0.4294729699092375,0.4401780611526617,0.5950507116765321,0.08001646003511226,-0.6636582596250344,-1.4741790883652504,-0.4600721935870255,-0.9659040772087677,-1.0846095002168683,-0.31562941854247184,0.08213070109558014,-0.061274285582230525,0.8006490972121411,-0.3016809627307963,1.1235119771038988,-0.3528511648429669,0.505257869290908,0.31912769454405915,0.623985914573929,0.3552998299966006,0.5142500303078548,0.6904806058248316,-0.9585590118517375,-0.24896553949944322,-0.7666351728812931,-0.3456274224522239,-0.20806276409877864,0.3631261941628092,1.2595909595500752,-0.7989876046390324,0.8722158494177641,-0.7134901319902881,-0.6463494115315717,0.6597769561486598,-0.18139698582773414,0.5492191695353833,-0.1349487969091883,0.7672989015354723,0.6744603523944182,-1.2987181045796483,-0.6585239793943505,-0.03751065865427844,0.3298284828710653,0.26602400233938645,-0.33241114497039564,-0.8545276409828999,-0.43040060063206087,-0.07709458523186935,0.5901359338512043,0.2580451969899477,0.4824187112305119,-0.4818202489588402,0.4367941489301918,-0.13453982968240527,0.24641683701227127,0.6679226921122472,-0.01840703806098384,-0.8799665075526533,0.5932730534539697,-0.8948227633718856,-0.6447708883184318,-0.5436480806413315,-0.20571529927916013,-0.027015836217666015,-0.5878161647286925,0.10756460070800805,-0.6252738722937925,-0.9527509016083696,1.0614952519259326,-0.1555749867371216,0.6485881273744473,0.5636758406325431,-0.10281243963330078,0.4369693267895483,-0.3602387920651546,0.37192068580029736,0.7005051336724482,-0.5045630048460047,-0.14167906679607575,0.9158883518665257,-0.2743339454406186,-1.0280758483706076,-0.062406468101667806,0.025624794345976684,0.9019405443012105,-0.7058175454891082,0.03645560964790589,-0.1529139934585002,1.0407751029770416,0.5194691938668076,0.08613540043491975,0.2739901569080277,0.23604616169845502,-0.2997336121886112,-0.29856319930619296,-0.5567482866617147,0.21941886694107562,