{"value_net":{"layers":[{"function_descriptor":"TwoPlayerScore","weights":{"rows":1,"columns":43,"values":[0.43712919704346936,-1.1757745513088844,-1.2360246412596878,-1.2727150124728075,-1.258855656253871,-1.2536380468450197,-1.3442363436977036,-1.2790257119077404,-1.406241746419581,-1.1863510999237332,-0.9993932389183496,-0.9892624188310281,-1.2071134427769514,-1.20911020214811,-1.0437979935056392,-0.660913549301259,-0.9061255904429162,-0.7498042679588522,-0.8668202031827954,-0.47476000480319824,-0.8769597423125325,-0.9709354144494078,-1.0480880802357502,-0.9287952981931634,-0.675116969707387,-0.5823344843570664,-0.5902878385141191,-0.8590633886395403,-1.008392419773436,-1.297473235557184,-0.818634006282721,-0.8565977569116298,-0.7416896534809693,-0.46566317331078116,-0.8430741403289799,-0.9479387968538835,-1.0268843595898012,-0.8730862101504745,-0.8226818848605477,-0.7292282868706442,-0.4513588018300583,-0.8537163882689452,-1.0676613077160886]}}],"dropout":{"Weight":0.1},"regulizer":{"WeightPeanalizer":0.00003}},"momentums":[{"rows":1,"columns":43,"values":[-0.58598133776928,-0.0003013934914574571,-0.00034586989263351626,-0.0003793713236501035,-0.00035311929112846687,-0.0003427736153802486,-0.0003789421821204449,-0.0003458239554711461,-0.00035503742211391397,-0.0003193514046925376,-0.0002892548274491971,-0.0002715291459791459,0.0005377855370483198,0.0035356248425277024,-0.0003112800667354362,-0.001397651298790478,-0.0002463008465948298,-0.027145662608638366,0.026701077541671808,-0.4654061430181492,-0.014045118406476076,-0.0002729575971294457,-0.0020816271560882317,0.008038955540358578,-0.024975060937500283,0.0071985126480322015,-0.27903363144244897,0.22392775952488192,0.05129044276677164,-0.08143841206215427,0.143469338131204,0.02949794315123574,-0.019855809124504444,-0.2355883979983958,0.343908997715928,-0.07166742533617644,-0.005655023062446218,-0.12954138006586294,-0.09646879638526222,-0.6574257356335989,-0.23059666749367946,0.657462813626783,0.39968350769563227]}],"game_description":"FourInARow","exploration_rate":0.2,"verbose":false}