{"value_net":{"layers":[{"function_descriptor":"TwoPlayerScore","weights":{"rows":80,"columns":43,"values":[0.08497859929954822,-0.0007342249813618156,-0.5320403672021977,-0.5426952756801973,-0.24361959483034645,-0.39929061616669087,-0.6993990613666698,-0.12001426311250883,0.1782051174064122,0.0158366571384112,-0.17736716637382632,-0.46358512702015797,-0.36710747288919,-0.06625968015047125,-1.0549130643637743,0.41698278115219134,-0.40580691621694204,0.5020524188754011,0.46649483451015095,0.3148120169543922,-0.043682197195365396,-0.266635689862844,-0.4595601072146569,-0.02321608067934722,-0.756866985262209,1.266589222598122,0.5659711258612072,-0.020476487125356477,-0.567546560913606,-0.189460819098178,0.22346504610466747,0.134331061447661,-1.3349877487810333,-0.6207407891087768,-0.594448619158468,-0.5282023681267994,-0.005621508707929424,-0.9199697322191749,0.5767260153180421,0.737319987115035,-0.04104034571773924,-0.1896075903351032,0.2553684940852431,-0.12541016674463923,0.15756291308704612,-0.027631382442626612,0.08588918876488927,-0.4691144494705613,1.2401470271074222,0.1934186874110104,0.619262117354499,0.1982114680306724,-0.8841589486211948,-0.11844510404675135,-0.22637274079741151,-0.02703137898288586,0.49657349021162983,0.3428458555370843,-0.2644206573865593,-0.40808445280058153,-0.11524314670829806,-0.22143038983455118,-0.44381096201051495,-0.09009980484344153,-0.7676779024727232,0.37256496919490983,0.24538370120147135,-0.038426705347900915,0.15156169409993775,0.041913698677536554,-0.9583308391682116,0.40637704947557873,-0.9366967551320409,0.04914366602397133,0.0710003790246771,0.1515746337419648,0.4854594133893624,-0.5034600811382105,0.05061798961861092,-0.41644660302631054,-0.0324852216341464,0.30328777770767235,-0.5151596353338377,-0.9062509254507742,0.36063094075748775,0.48766953260656026,0.2655198413626921,0.7295394314134864,0.6382173787012572,-0.11966319146034443,0.0681574548932802,0.09830254094247655,0.5100449229374636,0.3152247266425463,-0.3214261872295109,0.13017086309868545,0.46954920902780484,0.20883338447045718,0.28298913233753714,0.3450076654662229,0.4958543453631478,0.6116224931663085,-0.39844690577780517,-0.16729288210838286,0.30426619932988264,-0.29606562543367404,0.4038097611220482,-0.27132975907524604,0.34834791677171995,0.11382047594279715,-0.21048585046589746,-0.2996595629020298,-0.030244848018766365,0.24087572053639822,-0.12670706898515718,0.23498437962373636,0.08681541988986433,-0.22778727926062858,-0.7856035254947222,0.12123237039083253,-0.09605055278043993,-0.21335651057850868,0.24242501389459983,-0.36206864550955153,-0.47057029019166524,-0.4049273345805456,0.0036312295703170077,-0.015351015543607223,0.30341113744185944,-0.10568284567882956,0.2606222842172309,-0.31350604563253703,0.0373228451296253,-0.4493881109889953,-0.15748776521385857,-0.20047139058648156,0.002427861490725709,-0.31916465108581343,0.4861391924382898,-0.10676853189923584,-0.075556349775658,-0.15838570245425454,-0.006194194248879491,-0.24338442203663657,-0.16023013846301912,0.2368866514370872,-0.1220234438505971,-0.5034900712284482,-0.7558671694573624,-0.7143725038941138,0.6293085908734957,0.009214316104377186,0.014240796614633459,-0.3403920434984382,0.31072502760396264,0.0912112904306685,-0.07810745648705995,0.2231479559430429,-0.2810620050292314,0.17835088930385365,0.028283198471944385,-0.08326560857783316,-0.5624629129595399,0.08334735402754313,0.7568091831083129,-0.08365224750153201,-0.07635236731487706,0.5014870596264529,-0.002042301071233,-0.19157289807405734,0.980027122029749,0.5117209759231435,-0.2831712096992492,-0.2937981780685332,-0.5000354832536323,-0.2733634614516508,-0.47112711426130405,0.31338119181553364,0.0010662502578829547,0.34587002796416355,0.21095889302331183,0.423378737303836,0.2033900882559521,0.45474260139999323,0.30299815966002797,-0.1659907029022084,0.502819640139089,0.589266754833458,-0.18577507748573538,-0.19244944069608735,0.28215661186215746,0.10942088102877097,0.21164808378990832,0.3093157657473075,-0.48161838297080717,-0.28677198209645516,0.31304025930991786,-0.29093970895995364,-0.5536590604368455,0.5099256026608434,0.22422993676003833,-0.1787941513821427,-0.3523355577287482,-0.4717475282532249,0.04382695922645402,0.09783448462719536,-0.5233484149067091,-0.10193648440306365,0.31782648639045874,0.25110756765873404,-0.05198210728330051,-0.48296910282005806,0.2853646377427332,-0.2319616253195618,-0.2983116577591539,-0.6648656882505637,0.005329604370316559,-0.572624431949809,0.03413196972700315,-0.5461663665554399,0.26500371704123415,-0.31515028161388076,-0.16157603766908987,-0.22508253028534145,-0.5519511811200374,0.5267127451580033,0.18878967014762815,0.4070354082100155,-0.4219337989130499,-0.026336925457180523,0.03123321747931849,-0.4312623411356859,0.033532174492248094,0.3896220014923535,-0.02391608917957788,-0.07583671762339281,0.7042924649957483,0.28729169040266683,-0.22692549260544886,-0.09417544077543359,0.16809201920549627,0.003188163557895221,0.026453681897016,0.026468191458379458,-0.1608679957401932,0.2283439265863539,0.2873031145086478,0.07238694319963958,0.12086458331201948,0.0605337046836833,-0.33410363297137263,0.1969081094296223,0.194464989146634,-0.4054734021363452,-0.8441470709655606,-1.357465140481715,-1.2162733666775318,-0.1521685921500736,0.3318048358964273,-0.19944542968908757,-0.07550522702777795,-0.7414877253684328,-0.2547772467128819,-0.1681891769026442,-0.21531889635440116,0.2971439946853692,0.222577708543144,0.30836308939259166,0.8013053987359752,0.19797717127762526,-0.17043724136784205,0.032964890528136975,-0.47348828950502103,-0.4221610171185832,0.20700641529824762,-0.4423497951271557,0.4057296269164216,-0.07387043207345839,-0.3865625000503128,0.0787405234929159,-0.19763225208910254,0.46142107275834743,0.13320197643451556,-0.1606510248610875,-0.8070839000124731,0.06404718631223433,-0.2275796629901276,-0.6085559627950694,-0.09828016795877546,0.3105596491902325,-0.3858583015535279,-0.1804151206789647,-0.18777965071881833,0.7755085824930599,0.7663265622737615,-0.22439096495922317,-0.3026442024758902,0.37027557201123523,0.12429400953971978,-0.33493577087762844,-0.24925140356602624,-0.35461896535344656,-0.18105809939381418,-0.4386432327165202,-0.07588542680428079,0.35705299622208697,-0.5758210436260864,-1.1434744584942067,-0.1046557473245191,0.1578497989121303,-0.7140027759210059,-0.2809522940300437,-0.017326241669006842,-0.2587578865830384,-0.3093795840889628,-1.0071479332329383,-0.30738016179575206,-0.25199531239466283,0.9380583045152483,0.0665323021323511,0.4699153226052485,0.06356867729772547,0.27090015163271824,-0.2755106822545396,0.30337622639914363,0.04472772296001557,1.1075414333075349,0.14600007994863293,0.3453330883137742,-0.12408655317043821,-0.607779076689251,-0.09271315903909755,-0.7883218669978078,-1.2187685183508843,-0.6277148498576401,-0.49310832894123885,-0.935700791474302,-0.3826932441709527,-0.2190692452419601,0.2863619463879454,0.7231418768302105,0.05607721685972815,-0.21492853762820158,-0.2614945338860979,-0.3058138499478359,0.21864578899846981,0.10496980691025494,-0.017798684311735497,0.3826905717109764,0.5407922958827529,0.36587103926386627,0.3202194274121875,0.1687842581362651,0.7603764389783053,0.13207521228209168,-0.40205927765505856,0.20919618457488356,-0.34670017324326907,0.045330443000761625,-0.3774889281491366,0.36891342828866525,0.11263109474083144,-0.1748152276280645,0.3853910334310813,-0.2711467811530106,0.028817314399470537,0.24224279340182245,0.6409715319240032,-0.013042463524594526,0.7455053602952522,0.5171877382236272,0.30722148430464896,0.249291486939215,-0.3902177406930246,0.05451547262563273,0.12277671910056316,-1.1649820366617127,0.23181024029110422,0.0759002485326304,-0.14278325092064065,0.18153751184414219,0.22671839028782667,-0.2685333846325496,-0.8834177625896673,-0.16455016876127002,0.19375222241845713,-0.17222241468943691,0.6540359927694679,0.24889437679814777,0.11437216880939571,0.3437873280586477,0.6355376714874167,-0.02506213465958565,-0.18498324436151128,0.5695559685581778,-0.04622963084147183,0.3660493642639399,-0.25509514873833444,0.21279921082749106,0.291033459194028,-0.3712539902267174,0.04052936394359383,0.31049849172982297,-0.3794005260876911,-0.22973661214090277,-0.5271496466659824,0.023242490690415608,0.45190192793674266,-0.3396773183027405,-0.27071476342047784,-0.36196775298891604,-0.4121971252154677,-0.8536998389065648,0.1106709584653668,0.022089459206758803,0.2383364797459655,-0.08133199821810982,-0.10625831282751586,-0.7555236617397146,-0.798164073451079,-0.7758973362151118,0.0567648922994549,-0.05194170734650518,-0.5983268792918707,0.03862521281138517,0.8781480669559046,1.5118099678012864,1.037308156544555,0.6847476781894191,0.310476280596702,0.09575370638481301,0.3581833900498085,0.4889541107801023,0.4222092588801668,0.3706720206607319,0.033091043380787576,-0.3997899315792544,-0.05025014745814304,-0.05538204563389793,0.28347922388070973,0.6769212887110634,-0.637769069625629,-0.05554571713663574,-0.18978752679813882,0.7647273532104579,-0.49076888647417366,0.6437958899841589,-0.5537554244814156,0.23428729506240722,-0.03174626209208997,-0.5130970664913311,-0.11884336217122965,-0.029715653520676094,0.2553435093205061,-0.7968664910155143,-0.9010477706129532,0.3934425783633365,0.14833902590741277,-0.21137315545650961,0.6184082647906346,-0.015922615078791974,0.6774985713291747,0.5392193138058113,0.938858689400238,-0.00958437485200885,0.14008845290342853,0.05351636386206906,-0.10866688289322404,-0.3823419135451082,-0.5215678481864863,0.2940789646204747,-0.2694433867259644,-0.16775780796913103,-0.5057577457255223,0.34841634076794104,-0.043615134102906405,-0.09702278852637768,0.20623886828779922,0.13885601445885334,-0.0450569053519557,-0.058470506027819356,-0.06878896730663249,-0.2564334417626921,0.13535272604256482,-0.6315105927020587,-0.3800191927984743,-0.7340910002062597,-0.22114388671796592,-0.11563960241660876,-0.028807440324048514,0.002302973320483986,0.25164015034410503,0.05206576820923673,-0.2549813379351936,0.3773867159021496,-0.7992940810377521,-0.7067068182093541,-0.189479135534961,0.35716163295904446,-0.04187784157798119,-0.32729888678908053,0.18632661548434382,-0.2593325080383685,-0.0029213299036313016,0.19536196476260756,0.07362542834571645,0.16251130834488772,-0.6477663313056562,-0.4647916745879429,0.3032538578362531,0.0464630083148359,-0.05105580753980347,0.3235756991557642,0.007628037435065363,-0.39113826631631504,-0.044849776870155324,-0.7196185636589173,-0.21784223469378194,-0.9014949918152758,-0.3453622486511763,-0.006997497305923122,-0.32866042684671753,0.46370633704773007,0.11278162421138675,0.7319296434398862,0.3125079760614227,0.042170170863226046,0.4064214698308911,0.48725725276142895,-0.40498256882544503,0.34062179948379234,-0.7177908519234406,0.31225275633974825,0.22152989549185823,-0.09569234609671605,-0.018491666513855302,0.07667161624795131,0.02114824435635973,-0.7024386223974067,-0.20404343120807608,-0.2965773570548967,-0.15784602909842385,0.7052326055500665,-0.14408011313327282,0.28928804531300234,0.10684294945840683,0.09561808605220616,0.35790120997264546,-0.7621231871760108,0.3542733177803974,-0.21784957732582788,-0.475661411599522,0.07719935816062941,0.2894542840726778,0.5118844623830595,0.29524254195402483,-0.14282748043727045,-0.10936830121272613,-0.11236174660917181,0.23439421832310603,0.14227140688397458,0.28256303554342116,0.208263729474242,-0.8339552013762123,-0.017342681026729867,-0.537632912124665,-0.833677554561404,-0.3718938780301056,-0.7360732524795466,0.28829230430831493,0.11327132988649513,0.27703493989477357,0.6762462662130766,0.09308868158736511,0.33883289317159726,0.7547259821098599,0.31393676280743843,-0.4360214652951615,-0.3380100566840941,0.301392411521176,-0.5882907765245863,0.18521807387672268,0.30626383084531683,0.07911331351556194,-0.22289693457139304,-0.7031682732668338,-0.3149643086702845,-0.7361091720731718,-0.09229062946245888,0.3163573757575059,0.06271742648724574,-0.09360492236340612,0.5037235719989783,0.06716197553399955,0.33034838439106007,0.266041258399132,0.3880815328599591,-0.6661663535787444,-0.03901261230797689,-0.38104233134445914,-0.21409554395106853,-0.15659584372247182,-0.07717332352945852,0.603413607541476,-0.6724924399878012,-0.31142746032142044,0.45577456206187206,0.5084245484655363,-0.5858989241057599,0.10384357171963114,-0.07032378277591442,-0.22093860691021278,-0.871708875156396,-0.3831334489032635,-0.16120487299637673,-0.5148126092187826,0.007694306629871989,0.947198211816234,-0.43401624965315183,-0.021537323195964925,0.06511822083564295,0.2958025342568668,-0.523511244388964,-0.5154406658931655,-0.12206798187237755,-0.45350253580021316,1.3767203381620583,-0.27528905026273476,-0.15685705436975683,0.1366703760814633,0.16514326780687036,-0.14298448862577312,-0.08721170016333941,1.5556631479686347,-0.2609308311741308,-0.16866921607186536,-0.29166361281081804,-0.21515729970187106,-0.10123445230484872,-0.24405029540199247,-2.059694909966146,-0.16176431685619597,-0.08249509375514352,-0.15579753069687707,0.03753786454747428,-0.279343224633315,-0.4051430324731553,0.27659899530498483,-0.24350716875220196,0.4133399508903643,-0.28000091508306957,0.29225959749835545,0.31117325187803235,0.26600040264934033,0.3653167322410558,0.4504809434130985,0.25729466029792863,-0.88884610502162,0.8484367979944643,-0.05562734555803907,0.7150246257008908,-0.4758833714057867,-0.1592351149151821,0.382379023564083,-0.4713693655446768,0.1957240373773715,0.0925759536677188,0.39367652168803186,-0.2832646056346161,0.4651453877771573,0.767374216205081,0.17049050790973255,0.48704646754400976,-0.10565110024895871,-0.05563674187210583,0.0258219425134533,0.11389296630445915,0.3295026971223558,0.31276959035572444,-0.40845423754964955,-0.25127035780174456,0.2298107498549501,-0.42544031621042494,0.0068641523603661225,-0.3814001048784203,0.0070406337343984675,-0.2383071725385501,0.2840492793510103,-0.21547511069695147,-0.5354766516457156,-0.034071215513794446,-0.24507132156210704,-0.8318924993254914,-0.7399101434461114,-0.1555002730497189,0.0654747281610351,-0.3071478836892364,-0.07514754242014562,-0.478359534130979,-0.27790972704513367,-1.0428727212740971,-0.4605660599126766,0.051346243609098986,-0.06015731685821105,-0.5841925926514107,-0.0697410621868972,-0.5982554053788294,-0.17909766401789842,-0.4239976261818833,0.42123085292957846,-0.3427301832537279,0.5861568271679044,-0.42720771604837704,-0.5877719718571357,-0.08749312115257173,-0.04969242946554225,-0.24194183223601354,-0.07223900777365516,-0.26477861786741375,0.2992570364266289,-0.39402456092834537,0.21406437767484013,-0.03916203041561505,0.4436527645142755,-0.4494242116721892,0.26332125363326714,0.24944902065158764,-0.27552417156802333,0.2106536443906152,0.245334692509003,-0.10437383057512112,-0.6608306100395203,-0.17844583424492402,0.3077566384122842,-0.4728928003072216,0.29263582252339865,0.1774002285202117,-0.3203330783588304,-0.5548863875612534,0.28936967891486964,0.1093489455936265,-0.21587105191871608,0.2485751964029797,0.10233896249872369,-0.04334538369946959,0.06608991642081594,-0.3845514480943368,0.13024411003372882,-0.29204180378830774,0.11360816598882326,-0.03821012320680945,0.38184786687613786,-0.035472650677280296,-0.6038982555872475,0.3607135469675071,-0.03783766843285286,0.3313877176848068,0.0010184044114396776,0.07204365604747724,0.20757953907159835,-0.9140030879293086,-0.20594281906242612,0.23878681760839124,0.741829111589055,0.059563250937735124,0.2595843886009348,0.010887134897664812,0.07169735047706005,-0.1037838024984741,-0.35223625264636893,-1.157627237604595,-1.2509648002029847,-0.8828035583805223,-0.9348301644986513,0.11364267643370092,-0.42320097942313206,0.10984235773811211,0.16780970256092262,0.21348272065610058,0.016775089166270952,-1.085478905571474,-0.27590349026117406,-0.43150783921953867,-0.2779710795740898,-0.11393695737099509,0.2128122418816048,-0.1470839702118039,-0.6700502579533582,-0.09964498082600066,0.07979114057885646,-0.4479384122027363,0.36716020760662615,-0.045516122823513895,-0.17370300987319132,0.363557641544723,0.06982934613432389,0.38033429802710794,-0.24741239806767543,1.2607845861534488,0.05064002547264636,-0.15147367991389352,-0.5486437840020356,-0.19249891180609524,-0.6716092900889129,-0.4928741789088508,-0.8808908290586702,-0.1725332243382623,-0.07677800314177745,0.5301057826643016,-0.1529111725876883,-0.2981024645589371,0.25916601150502044,0.689741398533412,-0.23279499580599922,0.46686099503915407,0.24519578019172877,-0.07204610399072824,0.2710072452116588,-0.02626915770490922,-0.11807895742349822,-0.3257056218530605,0.3382297190994066,-0.49498355381846854,-0.3551411844863995,0.5076996277989119,0.3697661833785959,-0.11482025944799,-0.2629063009101739,0.17351715597723352,-0.6342945842904327,-0.2745459038561783,-0.3371912198211252,-0.08190701003456168,-0.03258368333648095,-0.1321775463994509,0.17997623980312105,0.19349029515448019,0.34131210137467854,0.23004177749485644,-0.11799301775330281,-0.12139205797154363,0.1435318959475383,-0.5337625908273235,-0.3828663216905251,-0.3862151182741177,-0.00009016205616630398,0.01628877315982425,0.16070341765188761,0.3762528374498925,0.03912615034507909,0.7318826949630638,-0.019697887532368064,0.3081427462202649,-0.037984533094010973,0.16419942250069922,0.3134101376036342,-0.03193988281913563,0.3608294548509392,0.1639829354225847,0.2589294318902899,0.2077677257932711,-0.4348325383848045,-0.05528015878145335,0.20443142040936663,-0.35491441574162436,0.44511647506663377,0.12252061464928267,0.5281726761242049,0.10762238618201403,0.8642879471655058,0.07293239576980982,0.5042133155205067,0.6571782781677785,1.3122750198073758,0.3867752190795097,0.3750708745246483,-0.24308442615711923,-0.6166415592989541,-0.905432652000439,-0.4002070495951573,0.38713440270972466,0.44052545942355664,0.4506562956853958,0.5692931259627768,-0.9732831930798032,-1.5127816962424505,-0.14918398195438137,-0.09030770532040218,-0.0693691008005026,0.1830258012215785,0.6667610139843149,1.4704835250157895,1.8237670712913137,1.3896698871889532,0.980346773160032,0.739648518223467,0.11930146759595199,-0.10094418891776898,-0.1831318130451699,-0.046464909426556324,-0.4320956940725158,-0.3628695459360565,0.16689188592532717,0.40962571218560634,-0.7699037584870018,0.36902584026301577,-0.11997291975574961,-0.25804722232291494,-0.3231901877109916,0.5811958602309676,0.5740726047218592,-0.6165213467295774,-0.01245854744414853,-0.07672166717896585,-0.12932629447896163,-0.012332427901879965,0.0988655118862899,-0.05654464298375559,1.019056551401801,-0.025400684692820766,-0.13355279297725522,0.28411492236816216,-0.01630101903696638,0.055857296218394886,0.26211439576460516,0.19408321201074138,0.502419190918487,-0.012506959436589572,-0.2087557760847195,-0.11747241300783029,0.6705912477635054,0.04203095102184066,-0.5944709820846341,-0.025375367737465,0.13462234258303454,-0.03058622708566701,-0.192193020540101,-0.1524096666361405,0.11174199992045628,0.49446085057579287,-0.2298863609763083,-0.25492901192275796,-0.07537855584609354,-0.015112294402204117,0.13579487473396828,0.10983375824659815,0.24553436963445116,-0.5108418547466448,-0.023432555751689364,-0.15376995642317728,0.28221140375318926,-0.07225249496840187,0.10638897813677742,-0.2548249641396999,0.33444553770340013,-0.43994505940019435,0.05813997977739839,-0.5835765314293754,0.08326183339896662,0.3197147614014818,0.9437090649210363,-0.4297378843817924,-0.28670062857455975,-0.14656314927757982,0.18153486627765095,-0.18066126925065173,0.21789321576426143,0.1530288087029904,0.5011570113920392,0.2819047910073519,0.4033655474265521,-0.3358000293198614,0.20115973799539844,0.7542549819036305,-0.2552503286655255,0.010889994767467718,0.2634510729910642,0.23296721656974861,0.26838823630093034,-0.098363663726383,0.4200619976748744,-0.7172898139470305,-0.30714471586143266,-0.19148071920258158,-0.4165316700496602,1.4861805356094404,1.3346058943969397,-1.0510642441047835,-0.3682606575129017,-0.2754155655231174,-0.14428613705669324,0.0910277353065922,0.5496171590788821,0.7704472259453102,0.3631401886327387,0.5700767139725041,0.21392314437270002,0.3129603897773024,-0.135791030050422,0.3335800130863588,0.10398096520022998,0.1469717275311073,0.21200100377578085,-0.005497440807888666,-0.23430419013848022,-0.07660161089031531,0.3657144513396508,-0.39233575854125124,0.5149536930874388,0.07674629419697764,0.3879524935481635,-0.11382163555995505,0.22232379845512285,-0.08513041883042022,0.5874410605676108,-0.3628031255316905,-0.506980993116237,0.35775647573485964,0.2308865228754225,0.030659223141969016,0.1665287136960825,-0.6012659634024944,-0.15808486580911546,-0.28252633956084394,0.1211324387952126,-0.07229299917260965,0.5937365678143761,-0.09328912455343728,-0.5982743401358447,-0.4208526753671189,0.12670713202380632,0.31037419628704754,0.20269606462436382,0.7951593218830322,0.40923112397430716,0.25434389387096895,0.8463991602175238,0.3080640374377861,0.019046700194660725,-0.08325535481703449,-0.4707327078971928,0.8845598985580937,0.22682757331354028,-0.5003239929601834,-0.045950954164376584,-0.20206390958742387,0.37054949067305887,-0.13416793082708925,0.24830928367741936,-0.03857294963862494,-0.29918104482416136,-0.5849006654638159,0.0034800792868745264,-0.026793083959620937,-0.27889072872834275,0.03781953021842385,-0.12188541787444068,0.024526587687758287,-0.30022901553981163,-0.5123618690047327,-0.8803857368955303,-0.1817208808430728,0.37367650252612034,0.2872138366394095,0.353709944264246,-0.21133182613269633,0.5677842083595068,-0.23447726080642367,-0.18742691011247067,-0.40152312337520435,0.026073660016131216,0.2585180133811041,-0.018628596014215595,0.33716137588351036,0.4294004828961803,-0.3979932432901734,0.1580086946550029,-0.05931471869732642,0.3841851984518338,-0.272587047091489,-0.24399237134429635,0.17671724984880438,-0.13921623199151203,-0.08398516091070904,-0.13088049909941993,0.507840637804026,-0.34170996949810273,0.17483601957182504,0.6765273882141378,-0.3259219534110368,0.010377732694931925,0.20440547215323848,-0.1344173648060564,-0.3062112673627588,0.04661028337450544,0.4356844054733824,-0.08446496107039757,0.5334678803050463,-0.18102512920609712,0.05747796013013702,-0.3940498925564408,-0.28754766703070894,0.5594174091702417,0.0025971591590053154,0.16944130471008864,-0.2943628077096371,0.16301381194713702,-0.35043308988206373,0.000391477647116746,0.1574212374333417,-0.21607166740523495,0.7542180881261642,0.19713403928363418,-0.1416614275240075,0.34873633836142093,0.11696413479929038,-1.0003745506981332,-0.5294175444784657,-0.36948157910889784,-0.0134582506906259,0.02226505818166278,-0.06789844253324863,0.47276553117399656,-0.26749239233758904,0.38606040081156534,0.627912709760116,-0.07853335870742918,-0.09663487067141069,-0.0667116186624485,-0.0671928200962966,-0.6156433466625076,-0.2908559471306383,0.360980231155241,-0.5392489789645317,0.01826065487299623,0.2772640708100354,-0.003105551349597432,0.3869312374719543,0.20181899972659414,-0.14140976763560628,-0.5153442551125144,0.27080893656965593,0.19848262860769958,0.23238932907862705,-0.5582873778915559,-0.30260809587205767,-0.15539964598423134,0.16562744366050042,-0.014874013859166235,-0.1840030950905288,-0.40521028777264706,0.2746953751147697,-0.11779114464448234,-0.038698825218263795,0.096183804187661,0.13336108541216618,-0.1816187454034381,-0.7392516656494649,-0.23232652278007265,-0.028596772940252653,0.197972147184751,-0.41537539192112843,-0.054848203120822274,-0.6308356020729765,-0.5190432812330601,-0.3579245647283035,-0.3968080360976615,0.3849996888208783,0.2917825260959885,-0.9138759109370058,-0.12666464854344361,-0.9081095724414034,-0.5237005070948786,0.4832283805837892,-0.16968454880541498,-0.13416093039612936,-0.34426736828739024,0.11652609099860171,-0.45964292328596673,-0.5259442331264365,-0.40545268600203505,-0.7253448561387695,0.8353234357251093,-0.8327932411219202,-0.28825968349785325,0.3274718954486432,0.42379658880647203,-0.8260819677210502,-0.5367215340028367,-0.18812514807241143,-0.2196857589391857,0.32260861533706364,0.11409141909381534,0.7251808633122417,0.03039209258753271,-0.11274077071101342,-0.5233018862377217,-0.3521430162663972,-0.2436518991562391,-0.8121989980342719,-1.4069080727931758,-1.4244773442507401,-0.962510637587355,-0.3138604721588667,-0.12505280336043842,0.3044891548533508,0.20436642200936503,-0.7500003917773774,0.33181568433634623,0.2805009477088602,-0.7358955180449412,1.3212370863297949,0.43404263982913505,0.7240301199467367,0.07282421992796094,-0.043582517711089286,0.6914864735378028,-0.13636978449016798,0.02578832246243056,-0.5193240911075007,-0.16883335342277903,0.6274729691549649,0.6569075145360282,0.2088076296728354,-0.5570688778994322,0.19594068317244273,0.7243177721209463,-0.3415158587513304,0.3306956490842913,0.5325928883257375,0.2558790669529577,0.4632783604886052,-0.4673175818548294,0.340507249279676,0.24173796970715372,0.3805567012193059,0.2564271504350589,0.08335286992073956,-0.12838040792824776,-0.051166274819799934,0.57444887037301,-0.45124030136436266,0.043743853861200985,-0.06891800626347765,-0.18856992090268837,0.26188944114252377,0.026304162351761463,0.02461783091076893,0.22419301027911637,0.44968401798764485,0.15902735124028242,0.21344678367095873,0.11633919875108881,-0.6623879903225565,0.0951238186793204,0.409116624953356,0.2815267870767445,-0.23362856209357943,-0.1245552769079398,-0.5537082576428114,-0.31075150805183777,-0.12638245404294685,-0.27027302607970977,-0.2173045065581259,-0.35023589009012607,0.10199422163034155,-0.2566423818102993,-0.1363329233686448,-0.0542865802174673,-0.18987192327305313,-0.008707702484543691,-0.6221717960200227,0.36550241049751303,-0.6731227600366873,-0.84187816829142,-0.041226233350643966,-0.1592111838080595,-0.5109549256501601,0.8006947137358286,0.589185606714607,0.8391488124894756,0.4833759127322329,-0.0259862482808872,0.2306972379138401,0.2421961376194923,-0.32540240153825867,-0.2660936265810825,0.01964041952798729,0.09893252916952815,-0.29546003942005605,-0.28135436597971913,1.0190284538827359,-0.5465851984065989,0.5637378827258593,-0.32001415201589617,-0.20404007270539465,-0.0805382616375444,-0.3333459428132126,0.44128826539120536,0.17004313067870194,0.17437671148885767,-0.11470579698254058,-0.3713853484302146,0.05958818506933256,-0.33866071665496433,-0.19212089593511997,-0.27791573174279627,0.20701113053192452,0.22573889942189393,0.07253412546221581,-0.09912120747487745,0.4891719840868508,-0.5686199949340016,-0.06934453076042649,0.33153595419253856,-0.05645299007677295,-0.7221211991028692,0.20188576306324557,0.20698518280499428,-1.0408826684508186,-0.5166732128990473,0.2502468374105716,0.5255926511986007,0.13009859704454232,0.07124288742607462,0.20402087865117408,-0.08907728193911338,-0.35135186219874803,-0.32752133751566664,-0.021128225160195187,-0.24009110049669352,0.49354322047202437,0.2273219341475604,0.338380802964606,-0.16833418825834562,-0.4733533744042403,0.007430751679241155,-0.6645577169398265,0.09717931924993005,-0.3384607430520081,-0.5253654440813131,-0.6636205365249923,0.40552360834112233,0.5642425969006886,-0.21805495712906167,-0.0932170785528204,-0.15243407775193515,-0.3846889781362967,0.5638277934722539,0.15807455187933453,-0.3735520390106018,-0.3360891594638165,-0.1875356722704121,-0.48384363637316247,0.05989180789529309,0.23579063099750475,0.05572515077840726,-0.5772159593375685,0.3884049470542021,-0.4261646367239691,-0.2764099666592709,0.017383729419147682,0.30186653828118215,0.270332693722264,0.9257244454966418,0.5116513316843436,-0.5216367064553621,0.5418259200029059,0.07130356600497847,0.21651369495924372,-0.6208559180891223,0.4534009511149211,0.06526626731414031,0.37370550880481773,-0.029953674856661554,0.1724855949546378,-0.1359874552322243,0.3999251587218948,-0.21751959955364447,-0.6188440265194874,0.023612756071381313,-0.11841652001442646,-0.24265951573192576,-0.388538271713212,0.47924213431197127,0.10675296057672642,0.08731251517563657,-0.3874035293710285,-0.5075969869157767,-0.04738374329258286,-0.19618500204193492,-0.08446422197423877,-0.18311399451165572,0.5956117825539898,0.09506484577156635,0.5061068233195198,0.36062484827920943,-0.055456362284370106,0.4886690047627457,0.03647334377249955,0.12948873050952875,-0.2426709084582439,0.28373570222459604,0.08001668063690942,0.42787788480586586,-0.20144313497353253,-0.13378695074067723,0.21447786012905698,-0.12376542412349627,0.16059567878334693,-0.1703711045568838,0.040899517625377725,-0.2909839648520416,-0.10201519170508888,-0.2506869291199928,0.19730326818888788,-0.2821960644706351,-0.535613302387981,-0.16821584918803326,0.17215828424401075,-0.06829696012486236,0.521420425166663,0.6542252518377625,0.013767655418002338,0.5508284471433087,-0.35293849856230114,-0.37472880272675446,-0.5309585699477993,0.33030632366829943,0.8576249068212253,0.7479014779331185,0.49241425324583643,0.6135081142600647,-0.055824820335621916,0.27933062758176597,0.04994907745535941,0.10384548650038643,0.29163645303329216,0.4544896486891585,-0.22548490098000576,0.01570067864380158,0.9032346671667345,-0.06415753408695413,0.39197169816660493,0.2793192252328666,0.7370297484833632,-0.48501663291187624,0.1869361499404347,0.6343787941101285,0.17305628035963486,0.02015349550384148,-0.21555240801265277,0.43476586069062534,0.496761849712818,0.3915437217910668,0.5438967936709628,-0.17933635395131733,-0.07345419209885337,-1.1004995780381308,0.6503870766801303,-0.5314176469283937,0.34546796352999004,0.040403456608787365,0.43571988412228846,-0.07411584718334148,-0.2509767235363433,-0.3925828007794414,-0.8000357463103861,-0.44536706242360025,-0.21698156651348532,0.0476240302891638,-0.4333949710811095,-0.49575629969349133,-0.4335236720666078,-0.761105089302522,-0.8150381641730732,-0.13374220271511028,0.04158137888799736,0.08145913355187637,-0.37023988594823015,0.3064571724044572,-0.40995571961775246,-0.02943175093996501,0.14373693894695924,-0.5927171372910379,0.10305237628578949,0.4330552791104371,0.09122237643373725,-0.4918078999007127,-0.2920305004824829,0.11186875768980535,-0.1953634620080781,-0.4871776134518822,0.7199150385105972,0.3588571240029297,-0.23753378015602308,0.13009123273802353,-0.38322642244978344,-0.11053351432047427,-0.17903993938258472,-0.2667482064783212,-0.26355832050821887,-0.002510693835096065,0.10260123842980265,0.5071735319547133,-0.5434878578815255,0.11780890059663524,0.4630075605651557,-0.004838789025601435,-0.34308835219999767,0.3756355395531908,0.048777877645295606,-0.035571588371882665,0.6044290223512068,0.2307826630515661,0.07129068471200459,0.3165206306991664,0.11742720543948561,0.2233487108071629,-0.18398203036572644,-0.17008317638414353,0.15605378983910037,-0.40171769456764356,-0.296698540623895,0.34829285301784757,-0.053695372440760634,0.1299769483446244,-0.1809017340253896,-0.8691336021572225,-0.2881762040190661,-0.21444565950374553,0.11849870085571904,-0.3156819939551599,-0.1574988631179672,-0.11969987493730969,-0.14213355774000644,-0.5834474872181536,0.46499476783210586,-0.34233438886280765,-0.30770091019413226,0.042499331802409016,0.8807061377028272,-0.40080363913305367,0.38616004158065914,-0.8833278459587784,0.22457515299967112,-0.47300141875440316,0.2406539745948069,0.7764092674035177,0.07187966315329958,-0.48276882058465015,0.05889403279141985,-0.13398955912015073,-0.1736656332034362,0.9952826374439211,0.12062579399277415,0.4128919300251972,-0.19103973204756033,0.49373462335652685,-0.2265777117025756,0.03273100960959844,0.2594462465575594,0.13386421642010243,-0.4505315367397631,0.04482703569092833,-0.19638700185201477,0.09903998024195271,-0.24621052034627763,-0.1313362407222195,0.3491210849468264,0.20567023819462812,0.6638936668554384,-0.22946546611503316,0.2553340469174484,0.05421017926131004,-0.24340187036015526,0.19882596274414963,0.8852044552900337,-0.10340352159705904,-0.015766482915740117,-0.17277371435176436,0.16697376656162538,-0.6266352879759229,0.5223992616684614,-0.43134045158409046,0.21497586554951148,0.4789055474079282,-0.46219386029219145,0.45259294428250796,0.05121192661405808,0.27222532865067733,0.017832287259844645,-0.0072194174064378145,0.5642475438062029,-0.2777709897660944,0.46988348243009476,-0.3116218871970889,-0.7799585618089897,0.23915097580354483,-0.04678462610686831,0.12941361928443032,0.5465575820581783,0.4856657024075376,-0.3138103254799816,-0.9836445845224587,-0.17567989965464834,-0.7606544880372111,-0.10463460971779211,0.301617628989757,-0.781686622389695,0.10039565789800416,-0.07932316133418338,0.10554385698116052,-0.09495041830545456,0.4708298565647182,-0.37111994369797346,0.47829323585923467,0.7025643832869178,-0.04282513886398098,-0.1685283245919714,-0.3216614324629697,-0.8547383369277932,0.01914817554874826,-0.0834226776617819,-0.20849288459771254,0.3031216480125275,-0.44811259488703586,-1.0280169634496856,0.11547598417585374,0.44484769873385677,0.37929786812697774,0.041166322757785395,0.34926273855491724,0.055250314138966104,0.037801356445551215,-0.8978052352553703,-0.19943504001915366,-0.071149264382116,-0.3803460329880855,0.36632555894089047,-0.45898405990365837,-0.152915882880931,-0.4372519002801865,0.24144562552782126,0.13039236012717062,-0.09376430171156803,-0.1621290091614495,0.1466375167327103,-0.04119956508980988,0.03174960969358339,-0.33098479147063625,-0.03364739777461659,0.2692434858990884,-0.5491038516932676,-0.8822281277165561,0.6836986110347527,-0.033784420135495784,-0.14971219842055444,-0.11289453717754067,-0.5157092211297954,0.2024750056255049,0.17824380341738533,-0.07686484089309206,-0.18483685804037706,-0.06587768978959481,-0.1892245393353754,0.3766648678199698,0.4079713505709051,-0.46326561695860097,-0.46937689631306345,-0.3076634094436927,0.030288711934778913,-0.2818860985247822,0.33485813057328534,0.23105430779373243,0.3359328310430346,-0.2808162956600593,0.5548985086402886,-0.36719759872816315,-0.03479437577158828,-0.4352297467003131,-0.40388973692761365,-0.010052479632078642,-0.2245721151386253,-0.2715967918997532,-0.39989899394315437,-0.06974203854428573,-0.5009234676572965,-0.5688281196766775,-0.8605932533255116,-0.07154054058265642,-0.004154196458502128,-0.3623835315734785,0.18097122535778218,0.8414903700691663,-0.33432434679896345,-0.45869613294929923,-0.11821189287328432,-0.5591831627323373,-0.1461117618029283,-0.6384139280954512,-0.8973894295315621,0.20422153001219603,0.6141629767980298,-0.6241739200322884,-0.5471274880486232,-0.22121372241368575,-0.5143527419617435,0.5464748020257546,-0.25287355598390865,-0.17669267482607298,-0.16834368405717334,-0.5179163617788556,-0.2534230783652671,-0.460841820085702,0.18328509467973012,0.08964532794333756,-0.07245459208168903,-0.09132293876943687,-0.5393794262727051,0.08953740567703183,0.5328254002421008,-0.285386201443475,0.13771035247870703,0.5687292591986857,-0.11231647810936479,-0.27807082027508045,0.17691664427266235,0.28577889917902727,0.3593673603305621,-0.03536572967345193,-0.204755564594012,-0.20356247688267398,0.04171812548029908,0.21953302419687892,0.0772730986993339,-0.21206647619328753,-0.08377508471357614,0.8686093086289515,-0.504730463104967,0.12691802660153612,0.18640328157875585,-0.47408532477598675,0.04416097001686621,0.00030255665139426003,1.5807199388144935,0.4405421626995935,0.30745050022402787,-0.05880024894452643,-0.07598458535364783,0.17217048057036777,-0.6059638608272864,1.1438918154785291,-1.3664009398388008,0.0945861669936811,0.12946189889636628,-0.34050403638594756,-0.4795925887163077,-0.435684865544994,0.510391920881104,-0.4253560150413516,-0.5221608731919993,-0.11938999947677728,-0.014857901948759127,-0.052351524670486024,-0.17785414869667435,-0.10511512343646333,-0.1530778494518147,-0.23142925947429033,0.18033243040459554,0.7699215093944484,0.32258809201407096,-0.070779050333221,0.693045152757525,0.4559595396885601,0.25967691044164753,-0.09044359543103439,0.1072073487579881,-0.359759520323923,0.27376176821466963,-0.39976542738420107,0.4956974122735162,-0.2176550394345099,0.13376279838550434,-0.8473239947310556,0.16502012509612232,-0.1551313041186018,0.5259357373764018,0.7767514384296791,0.3207574597250382,-0.08878167330843781,-0.1495179161270951,-0.17462606099168448,0.2424777036821306,0.0619342920592469,0.0493188718142678,0.21637399611904704,0.1656846441774221,-0.1923598142174929,-0.14438113913976078,0.011050061048844442,-0.30318604276937156,-0.5407621769793234,0.001979276232903689,-0.4420807500901998,0.14111882557889485,0.06933380852598409,0.11994623171369836,-0.34855357040503354,-0.10218354415949304,0.44835553422459484,-0.1502533580182541,-0.7938264699263148,0.014550449235558576,-0.08285679364307005,0.13906059814127733,0.47929297224758033,0.2046847570621609,0.39514996591466184,-0.24913047372841185,-0.022602002935363227,0.20462300763805064,0.22974825146438121,-0.9437054992977201,0.24857522221094,-0.0933583211321901,-0.2081675270107863,-0.2085605441600869,-0.16203545557972485,-0.26579096914868283,1.141115810580077,0.060342191706166226,-0.7625114118918951,-0.015701496597815515,0.7571654637642625,0.3365623021755143,0.16947165339331483,0.10438963309905551,-0.6517087232005647,-0.244474113225234,-0.6526805208617863,0.007184484271821028,-0.21200474654767687,-0.07431900080661026,-0.6182397578182013,0.005471970323155968,0.08547540122501276,-0.05961919939695266,0.07467231997011264,0.036176269718482285,-0.016629338648729577,-0.04294288516479308,0.15787731768084365,0.22425162358640052,0.058905397424783075,0.6324283574812786,0.3928979211574717,0.5899384094701267,0.30390109384836617,0.40338574890739043,-0.06438739207711565,0.08957144886734779,-0.3408405529632331,-0.4423671954881114,0.08283595164332219,0.10975992205198999,1.460680455306074,-0.10592494069767179,-0.26963070645030207,-0.11653508618697636,0.24918171402182573,-0.22491208046513636,0.16827973678682243,1.8438697868677931,0.12165773393557797,0.004852138212175789,-0.14526823355206217,0.6606397088340727,-0.3821407171424879,-0.13375321756027023,1.1617114862608946,-0.12594386021094459,-0.4929589163960559,-0.3825113946389044,0.040489614749623606,-0.14882970412763202,-0.7863824966087573,1.2226113424861509,-0.5808987787302281,-0.9420720029721821,-0.5917426353374265,0.47299766919701586,0.2653287957275215,0.34875024469250243,-0.0904991182940147,0.267882869145638,0.09554041511300523,0.5205896012285846,0.4745265467452389,0.3639529749881241,0.2241576702725362,0.3974515776071829,0.14622645748722654,-0.22573695218022333,-0.16075861070763792,-0.31071816182290907,0.3592613398637864,-0.5791478606832167,0.16383488073038258,-0.392502845427154,-0.07718011366406058,0.13832228733291246,-0.33696501886887065,-0.20658763751314527,0.23898928871487188,0.37900872534368785,0.8803605597385432,-0.08996857945652707,0.3724996201111175,-0.37807989361962613,0.29724831221424897,0.528526207192609,-0.44040763129971894,0.20584432115703688,-0.06810238094623873,-0.5163471341487844,0.3280380871196489,-0.25891997964286156,0.3159528697572863,0.2521808100710688,-0.09797304624107855,0.03399587206811631,0.005853501157129537,-0.72868954950415,-0.09349188489244138,-0.17802452243608272,0.1537365886363476,0.01322367830583459,-0.06273564062982002,-0.04144157670915972,-0.6105952977489449,0.30637359216811566,-0.302223123481677,-0.6058436826603744,-0.20684666429147688,0.3573869038715335,0.3499268797303084,-0.010430906776058747,0.07921123578757588,0.021554673770254967,-0.6748303065810203,0.16893845475465258,0.3858966173358388,0.31965115891672197,-0.2520353787296284,-0.07360491711560636,0.16397487086264156,-0.060116989275915904,0.08835512485213094,-0.39899805713974845,0.4579295557209452,0.7347706926086889,0.1990198141713557,0.42269885893601666,-0.36246932054910924,-0.00010549742036444922,0.053375702561048656,0.2715313611018938,-0.5077119782699726,0.15410720271642106,-0.3155096097804578,0.2852857152940365,-0.36901202896768553,0.5208768784025888,-0.04341475103228892,-0.3108270899031148,0.06903346072481079,0.5165540906451084,-0.4292816072567065,-0.5410196360311259,-0.3880653484879583,0.5710430475146719,0.36732725512729675,-0.49835502124702513,0.09572539926208695,-0.664180593513231,-0.18663344482665334,0.09259667178694764,-0.2674005087917755,-0.04334494797082468,-0.36138395351318364,-0.09721915390773653,-0.2816019567057896,0.6677836165971772,0.5046559980897417,0.3990147141920342,0.38123534782445573,-0.2734929017339048,0.5700579844246892,-0.017642031847086962,-0.6942016793328994,0.39250200784032224,-0.17498395278300122,-0.26285351374544,0.28748553687559847,-0.17167410439136557,-0.4614684205642497,-0.14708892658306633,-0.12608468011914248,-0.1418788659112137,0.0469939532631013,-0.05909889755707968,0.5058528420753986,0.2978686856029459,0.3467013430007029,-0.480648419775724,0.11603789711963859,0.18665243396035813,-0.35572878044754414,0.3372400105488835,0.041003747616223385,0.3940950515838688,-0.800818166596365,-0.7609945920189922,-0.5384375361865782,0.19096962025216171,-0.31701653722941414,-0.3225306004739991,-0.4029179622908636,0.8738598816729873,0.06951119765146539,0.28737372218091956,-0.08631669660213474,-0.0042844090450105295,-0.12778843618329144,-0.5653103330066581,-0.09807884905628372,0.042814872295886944,0.20578014827275667,-0.6547029637005601,0.04444292504939587,-0.979562003272853,0.12845840835863206,-0.36690815004466615,0.5346295926262772,-0.23398924237768787,-0.2718048694504035,0.3663589038707023,0.11446275942014443,-0.12919767677355692,-0.5784209097716897,-0.03674624172255334,-0.2639252048962814,0.4776957893407551,-0.4176041089766046,-0.6791043911455342,-0.1258697463627405,-0.361014516972614,-0.6685917591698021,0.7448079102653739,0.8324317067902525,-1.0377334833480174,0.403855657439004,-0.30448944300729897,0.2547063721794319,-0.2647267863956033,-0.13271546719689178,0.16989700818913728,-0.2968987209709676,-0.6531917884633422,0.37561781817894707,0.0983753154557132,-0.25815355089885766,0.024279931011376713,-0.04386534119209616,0.155081257540996,0.5342396136135724,0.3575145636533717,-0.3948536152835339,-0.21012580151557467,0.3039498733473833,-0.06207546784370053,-0.09350483972464121,0.5111053102766354,-0.07061354343098698,0.16452756551017267,0.6663016820639183,-0.10351411608602033,-0.172816053230589,-0.1919278765393682,0.2167793128434383,0.12452136940720446,-0.4135154225216218,-0.10715541080398183,0.15500759945730638,-0.3076010544603333,-0.33855858950670276,0.7255352397091095,-0.011028866052595213,-0.05042544158453293,0.4028310313614592,0.13797277973466182,-0.34195122480673323,0.17922364753118564,-0.13176452232288433,-0.10635657810227755,0.25340099982543923,0.1862101179923271,0.14333055290404548,-0.0267667019625221,-0.5689852496678268,-0.3872112391868442,0.3985998418424702,0.3108577082737058,0.1095798297093183,0.41602425156338174,-0.22885126853638318,0.7818139190141352,-0.046490188955314926,0.3565778770184891,-0.17555023353458388,0.5951905908756102,-0.15228212095789007,0.5758123930502207,-0.061476646310020804,-0.6462658743029189,0.10896738598154923,-0.12056390599326877,-0.3492153838819334,0.07253100713069578,-0.28659019011600284,0.9519877300887906,0.6669084134042963,0.06714300008308974,-0.3286958835582668,-0.11044100773689373,-0.6859799396268847,-0.659580260388775,0.2953500033140647,-0.1974994187325286,0.2307443745805711,0.20123731042987608,-0.5483829776729545,0.4636827424219741,0.0331021577522076,0.2858305752647661,0.3886066339833532,0.4161570431540645,0.2855531421382817,-0.1985208739147815,0.201539598418694,0.20888908502888237,0.7957522518940402,0.2550579578063597,-1.3405925112404091,-0.38697498612219755,-0.5888575694603969,-0.2685299057647116,-0.7070079695174022,-0.8552806364886584,-0.22390201564990259,-0.18263926331799593,-0.6627687407176486,-0.8804714813573621,0.4711622768343754,-0.35289857117804296,0.6287587070267144,0.5661672905390378,-0.07357740202285469,-0.23795145487287708,-0.49191385568451335,-0.5386479943785426,0.5892779010713776,0.3622637613949605,0.013584371213869715,0.03100591115849411,0.938456197034611,0.006044265898840646,-0.4961880393986926,-0.061150486430634136,-0.04438924728968218,-0.5694684630281597,0.21078800080114837,-0.30154979258827197,-0.17159547789448268,0.38380673067690724,-0.2738524523876242,-0.47887199764312044,0.2868236606318946,-0.138991956059737,0.10994733527118199,-0.0683434329615164,-0.22754260419061115,0.762344821630694,0.36105912289905917,-0.4566931828240041,-0.10452276981443795,0.22343735014596108,-0.5507160140459215,0.031002964769929885,-0.01708229089351572,-0.3257574739476394,-0.11801511451610458,0.32052874592620206,-0.20010004924691033,-0.5930356492109783,-0.42384398516156535,-0.02686314043030651,0.35309680592361287,0.12247302303594317,-0.07308427873314209,0.36561382312653334,0.3446303021434944,-0.17528330570548983,0.6711799219736896,-0.12202408766356534,0.31087700909207144,-0.25392670570272124,-0.3562830579836072,-0.2649996314395893,-0.36339898414251837,-0.03602848636734266,-0.307007808694675,-0.40954324042551615,-0.7333559444531684,-0.2732163925601987,-0.6294373928556142,-0.5526675460394439,0.18848293280308465,0.3532237108682655,0.043760688407694356,-0.35872447926606704,-0.5522108107384274,-0.38171419946347906,-0.052179146428278665,0.1633064004011514,0.08202832177077662,0.5176814385078238,0.3701256435860651,-0.2476384253873893,0.04323662585875275,0.012243166955449341,0.3239078937345532,-0.9280799989927235,0.3363235332478507,0.4856637272497442,0.2646765947961893,-0.10931083700649051,-0.31849247645143935,-0.705506779004207,-0.13557296538486616,0.49967527307477816,-0.37470518213188525,-0.7326617865399634,-0.2643225660846984,-0.2763956405366142,0.5954376721888704,0.0034310887549221405,-0.8643695384270944,0.5245508333330098,-0.6655167320380196,-0.03566206840633105,0.6626331717541386,-0.02266270044350244,0.08335696714800467,0.4099428133667396,0.19387566785108215,-0.003922054707838767,0.6788414591641917,0.07247936738692645,-0.041012147108337324,0.23523829653771153,-0.40693158843679433,0.10015579768848473,0.19084001130164227,0.580573373010005,-0.3962452465683062,0.1489727092706841,0.2688214680633404,-0.48922435161547045,0.01836795321371746,0.41130133058926766,0.62811100847403,0.27478165117661446,-0.10277956169560475,0.24724142300988322,0.3538570951921344,0.5415360915234113,0.29869917557645426,0.3242298009303829,0.5159791250713086,-0.5518528722480928,0.19793604139749824,-0.09651132294976407,0.3060164742747645,0.30979564389016223,0.4496296699635627,-0.13863596920430396,-0.3605657779552571,0.018823161722068823,-0.1952538095182352,0.1807348632334009,0.6000572966729453,0.15391505276670522,-0.07228335977551927,-0.2549267599818935,-0.20187567519296587,-0.300867010757606,0.24359596886860185,0.22677967277059674,-0.48388667725393886,0.07162553292076528,-0.24449519050305096,0.34521561162097536,0.48513371640226083,-0.22270268879390345,-0.048193425944856795,-0.4978109332728978,0.24762391982559986,-0.6736377143308492,-0.04255639320167569,-0.5825833434181481,0.3137015786939513,0.5457378165340043,-0.5348026588584198,0.3007667195661516,0.20469895034997698,-0.2242624715437102,-0.9036853950570812,-0.1857023532661162,0.09630582585622188,0.19945940306762858,-0.09671491070157039,-0.9416986319026376,-0.1529263020565998,-0.3110816269867881,-0.36373866769140933,0.47092832375333954,0.033157145982727294,-0.44473384398234145,-0.30488082968966657,0.2707601901107836,-0.18263933433560967,-0.4414912334891495,-0.08404476371293243,0.4085018497395733,0.09184021970029542,0.8831417957596153,-0.6193283929709996,-0.09396073535159882,-0.6321662097041143,-0.1948792627418633,0.032238980345564994,-0.1847417885120402,-0.040513864912658654,-0.28337471593393954,-0.600103448870947,0.1812069531119341,-0.16635874873948878,0.37351315481491754,-0.20678225230854966,-0.047778341181258115,0.15246791522805184,0.7946532536998845,-0.8150372103104809,0.16520968397984834,-0.8897295260960499,-0.09897177021469901,-0.17135032085945298,-0.7328724573915085,-0.02837990642408203,-0.0757939576458495,-0.14178289006446937,0.08931444327890015,0.3272666931655847,0.05112732494769537,0.4885066029301946,0.3810607173688581,0.49232735166829433,0.08518708452682938,-0.4532604332790328,0.17656831964910258,-1.1192770822942675,0.14446315937609053,-0.408517836433854,0.16697519213434867,-0.21436413483426708,0.4581564313694412,0.0807318577300752,0.567965562312951,0.20094653211326735,-0.4408184355522934,-0.4672694239163491,-0.22147868959018008,-0.020386430847553573,0.7474864423975044,0.8427091875994681,0.11215954954018365,0.593790683570799,-0.03595362800394265,0.722346515709953,-0.29393872070060334,-0.2867717287615146,0.9804029222401492,0.22593154789388945,0.3076145651620288,-0.10757634069642437,-0.5260642680959736,0.13990769506810166,0.37430205320238974,-0.10625474288130171,0.332859963873628,-0.40944275960241694,-0.24912700104937743,-0.410797245647125,0.6230397143214297,-0.14847952147923058,-0.02283893522929098,0.1518483728650891,0.36353987191303994,-0.4771020596452787,-0.15648540317812612,0.35747974897476914,-0.5531161490481712,0.18154072019238798,-0.09197420756472614,-0.05767912365160169,0.04496060673681899,-0.39133095994795764,-0.019056755684756156,0.7055187239657826,-0.05754197383922467,-0.033067668919501164,0.07852168498899902,-0.3582820947122177,0.3077198167871847,0.7841406173398342,0.5242601382705878,0.45131601749947986,0.020825664348762443,-0.1648702190169299,0.3459595246672682,-0.8176894522094996,0.6670587622547237,0.2508177973743467,0.19114700894475298,-0.5202049160579011,0.07200005389546713,-0.5543466518639997,-0.22251861245584212,-0.23216199351754646,-0.24938613073025284,-0.01200735367356425,-0.3298496284338925,0.4794263556242805,-0.0415826869489366,-0.32314734375425785,0.42743487114126577,-0.18985122821940406,-0.3768963900414415,-0.1752948310106551,0.10500202705845374,0.10599407274738615,0.30377529740725523,-0.37206913848423445,-0.6048200987462787,1.237508367930101,0.0961915599673732,-1.122938075609663,-0.6817832845560033,0.5663611647674192,-0.4792675552773118,0.18296289521867215,-0.1369337663337765,0.07429637994936719,-0.898326358926675,0.04818274606510142,-0.4094148587247041,-0.1600145174987989,-1.0396489963853082,0.6463190449699857,-0.055178326342453066,1.0173351039669771,0.040594425031254246,-0.036594493973736965,0.37246044968632597,-0.6257987538717662,-0.23155073645199617,0.5088249056720057,-0.3063474348073457,0.03360466657100662,0.02606431949037427,-0.5491117207282936,-0.12901909534551947,-0.02419608463126484,-0.17255032814552992,0.8349315460210732,0.2382631313457811,-0.2771364502999825,-0.21518819112364337,0.665549377250936,0.0860518441834785,0.6850980556649857,0.7405951534051324,0.09179620128016086,0.1988625934224299,0.02326615497949921,-0.26271956643626077,0.503983930085559,-0.8514770879062603,-0.03231703194539913,0.2600125185559878,0.6133100234889822,0.28443012155107106,-1.0783876253912823,0.5147191918985193,0.16374241429073688,0.8574287537603549,0.12837199815652497,-0.08956498065801682,0.025270352717645016,-0.36205491948509816,0.09433218923114184,-0.8190180177316232,-0.6685022891546663,0.24409516081250116,0.42748028165223956,-0.18348497555743126,0.37680747073896054,0.570356707735613,0.4936285301505931,-0.3711206012500137,0.07658126769303551,-0.7842798378166782,0.3138590771792001,0.0400908601948584,-0.18014812174639694,0.11951044753840162,-0.725207177176092,0.041725663101665776,0.5714751121715999,-0.34158165065750157,-0.1871343478299008,0.7782893533865952,-0.1486243493013851,1.0343196710592626,0.29175277260024013,-0.34803197801033453,-0.021547115437126032,-0.10306344885997432,0.23077768401602775,-0.10494106708923165,-0.5519070829369759,0.20848561227641504,-0.20203165354662567,-0.04797625464584244,0.3643518641437892,-0.273085320524391,0.0617982934313404,0.15155581462899437,0.09845614869205446,0.04867821056774579,-0.6871890805095124,0.032144689932451294,0.2883198500259084,-0.16597634170856565,0.021006769859023167,-0.24454110538281035,-0.5084567280819011,-0.3681626471713962,-0.3070162317742252,0.35945757477938817,0.11886317725918877,0.032709612186788146,-0.7289471258472598,0.4607980712171433,0.38498293488783863,0.38475216069219936,0.612955163365822,-0.5423425871082654,0.10428936901606703,-0.1256721857341164,0.21932308641280301,-0.2879465898290334,0.7802641637718244,0.6762467187805934,-0.5841165411954083,0.18438516201753125,0.1879480242233415,0.13654740610464836,0.3065698513495181,0.42360374470353007,0.18187876177225373,0.5541619209127763,0.30115158494494754,0.6951771315719085,-0.5605184443022408,0.3048752277684983,0.14520493129472883,0.37927954344769593,-0.22742988043130855,-0.035399525209276535,0.21839641069868954,-0.009325123822739739,-0.44487846834330796,-0.5961599348176134,0.11740576867190468,0.1746904825431516,0.11071788558560754,0.2899100411586472,0.07524980556392606,-0.7795581561785274,-0.45082800050529226,-0.34177257508349146,-0.01819449351563446,0.12953446862558732,0.20883931274697626,0.35950655174618434,0.3382889499492033,0.15244361783178018,-0.23052383209745222,-0.3583929530518603,0.2982969758250137,-0.33133523935611997,0.24052480331547194,-0.313501871854785,0.3253848196012959,0.20092218723378596,-0.5241383564613098,0.06857425663305444,-0.07795435132107931,0.43452081082984134,0.53962055474591,0.29036819358466215,-0.2619820786105463,0.2440232856319432,0.20023601499993998,-0.09917049303450574,0.11487784174755683,-0.6393473830976695,0.4143458988903469,0.1803458361538442,-0.09183655152792537,-0.12551531449955777,0.8100753959206997,0.4975283550184522,-0.1477040981876415,-0.7319741263715628,0.3715812447254098,0.24190911758370762,0.5964830402922819,0.6473977203165847,0.16440139637428383,-0.6462094295672813,-0.6809225870288037,-0.5793815977950425,0.7113259256277089,0.1893491219658184,0.18377500782468276,0.671945072992161,-0.08500141662115776,-0.2990337126829872,-1.1829215287462338,0.1919690622395076,0.05211550718366411,-0.3604652220481834,-0.335454718657032,0.17820623229947358,-0.38638637382712837,-0.1777328795332011,0.4951479474812772,0.3404227674538617,-0.38483157466419105,0.050882578379991175,-0.05278500641296841,0.3457901655153957,-0.06257711594860277,-0.4224373179224058,-0.28317376160855634,-0.013619157075581432,-0.49122977353029273,0.04297727830235863,0.5069482172703924,0.27463776182186467,-0.1023972069554281,0.05240790470134877,0.12722583933461562,-0.018609542176724933,0.03208902549299231,-0.03596566292259268,0.4885348996732293,-0.13794122014480248,0.28753123547246096,-0.5606625595186249,-0.9249011047861982,-0.2658873658642174,-0.1693990192134112,0.2848594295588142,0.2676003160992292,0.558957136912517,-0.24887826014375317,0.3178552226656746,-0.12423467697133635,0.4048600141454055,-0.5161805757627841,-0.9120136050106494,-1.0027382700918075,-1.331492545978322,-0.1953267841032194,-0.8004499486456401,-0.17704109373344576,-0.03164327371369818,-0.605080612519403,-0.3637772314444151,-0.07330622218761422,0.0644479373502284,0.43980530026965803,0.40262519359718524,0.1805536540217841,-0.10322170065225375,-0.5117514569809136,-0.6020375296483671,0.1811919631204765,0.45082637931726827,-0.16427911093213446,-0.07508495170521462,0.06305940839825691,0.15177043364499856,-0.05191634314177056,0.2760463449385976,-0.7863417204526105,0.16712997151651182,-0.5755814525260041,0.11016277136828102,1.0962338097111664,0.1501382416255246,-0.3462553449653407,0.017701622900629616,0.31492108464421803,-0.18612716088035708,0.5961929305481765,1.3721319971928008,0.5304741001242156,0.24047534617612792,-0.465440285561565,0.3272929668457286,-0.13209774845860514,-0.6421985280764704,-1.7729963149244619,-1.1786913657780662,-0.8102765222696641,-0.4053507782175725,-0.20173188237591252,0.33706093449519725,-0.20157186650478912,0.14734003710147198,0.1745081026916677,0.5028211998823724,-0.5680671064401023,0.16933847871263472,0.1640845558162302,0.5295323666231935,0.5931820307264282,0.2395710140830192,0.3466725929832886,-0.38161139686648543,0.412559477770297,-0.27571836463141725,0.42501664732256456,0.4908455359234177,-0.31051385672645343,-0.9382302696342196,0.2787804144333835,0.1657479448648524,-0.09259317102495122,0.03808526970443511,1.1789330376024754,0.6846722454077833,-0.20019288271559352,-0.24485043132039377,0.5785709949591605,0.3382827452266541,-0.24229502253796284,0.4575039291819557,-0.07009687029453199,0.5000902549013396,-0.2700153458515481,-0.3891519944823293,0.1063524960011762,0.0029023284557140793,0.35886600725501894,-0.19787997519300504,-0.1459978184276476,-0.23743303887363126,0.3635857033744764,-0.5287203468082337,0.32319469823627406,0.7406600917218972,0.3384048104552053,0.2876684463774263,0.5571094204040179,-0.4600052402438141,0.398456166869102,-0.3188226898967493,-0.13595506579233377,0.5064898322103988,-0.29248669098703545,0.46964010386618255,0.25881881468061063,0.0662402840633129,0.20674903066214825,-0.08135862413015761,-0.3968758385346614,-1.0131548265770718,1.1898369587587534,-0.2314814599240549,0.42423308020047357,0.20462471663027268,-0.6621395139558671,-0.611608485368984,1.4511536303481354,0.2374919628712185,0.5659264986703056,-0.30363788033198547,0.5729699674965516,0.022899637930254162,1.320449317968167,-0.3883788721349355,-0.04302969072616678,0.12796664972545554,-0.4425010826052382,0.3252485714775751,1.1171291058957835,-0.4080729142839594,-0.6239402039009623,0.6265271665203822,-0.13547585046453609,0.20739100093902832,-0.5655923326589688,0.1912972688736707,-0.008674222508869704,0.19762337557562637,0.41348496807616875,0.31264339982179395,0.20085857162485748,-0.2709256569064975,-0.8216736228307602,-0.29800194094492977,0.6958071626357442,-0.5781062019032882,0.029389124780337093,0.06900160960980997,-0.3544244400213515,-0.1334030652361057,-0.6028056879563559,0.17036577600052577,-0.12600533364777192,-0.20805492246923493,-0.22740293120852717,0.42718154640898154,0.08803198773095666,-0.10793766050658493,0.06835879936397694,-0.027386180815096552,-0.24211806194863963,-0.007443183034906577,0.40848565322145486,-0.19395315028574253,0.43859963864799284,0.462628477668778,0.4266704413457933,0.042100787438242734,-0.09192611831502691,-0.002823286389071827,-0.33714127577996683,0.1250647945048416,0.2788643140497653,-0.4649077227074969,0.40326493762108057,0.19948439073949367,-0.05977558764372292,-0.6911768546773059,-0.16423386525844771,0.19555727066659254,-0.24300334850636654,0.04489372522059316,0.938854407809222,0.16452138023510884,0.17407247185084504,-0.13745516174931233,0.09449312729344203,0.14055348552743652,-0.4663372774832219,-0.6248614826966596,0.2295166223064353,0.23389510795721377,-0.14183820955382018,0.017809149130276262,-0.5645908864640614,-0.3304446954879626,-0.37675504229114437,0.6020543334324034,-0.13286834464339412,-0.10019760348173753,-0.07833842758523009,0.38096268610845363,-0.24521902068719376,-0.1465461954628362,0.2704415329293479,-0.073272102061633,-0.11689355392334368,0.004896503993970762,0.02098566467234004,-0.004041228400804896,-0.1118756386277616,-0.4016399911063841,-0.46757671924253175,0.12918233015053693,-0.6396665879539893,-0.42588005669654316,0.21825154522100257,-0.25003498482050707,-0.24753893987440154,0.17598015386951182,-0.09167071377254485,0.839863869472496,0.005566695849020178,-0.4778995708901544,-0.35602254072968403,0.6017805812350199,-0.7836403000500867,-0.3696073715236539,-0.30798428508725434,-0.2380137407329785,0.060154252209151604,0.3914083307364718,0.5163894553209071,0.153465696766584,-0.004956328454870471,0.05876539502380527,0.4572341391975191,-0.36256182210549853,0.5680386917528405,0.07202471633023046,-0.3818090906695187,-0.29301652811960516,-0.5335832832050649,-0.39000674180362643,0.18856776992409474,-0.9308542898129326,-0.12640319038021516,-0.3963980405893252,0.007931331105924762,0.31940550281552826,-0.6799099514081302,-0.8080297986514713,0.2626995904251699,-0.06153906209198883,0.03196126964695497,0.22947391535041603,-0.05573098467136334,0.6575645128310105,0.10392508311926205,-0.49558815224351505,0.2295817781125013,-0.5637103350626167,-0.4360158036549435,0.13605173247393884,-0.07101442157530669,0.8210262434714672,-0.21738368544190736,-0.40063344600081985,0.6569309850805901,-0.15825285580064252,0.20839194719982732,0.7957767486196853,0.3935357868473273,0.2859507147232512,-0.04894799133785045,0.2044212747056739,-0.28390934837322507,0.003563162313078118,0.48521976997688954,0.3353910529739324,0.6841971647719994,-0.4361803697410918,0.29348236364630265,0.04223783739891333,0.009505950148894583,-0.11859482548195892,-0.24258805306761566,0.8809012780859341,0.7819695573655306,0.4645045830825726,-0.24473213546363756,-0.24125352190580787,-0.38176332087954273,0.7961377051085794,0.26128814193068695,-0.5861578526081723,-0.426709605794878,-0.5044599786854216,0.48392289479717343,-0.20630403529111652,-0.17232980550610152,0.1902932903435431,-1.0354718830420249,-0.5195209988348567,0.2057948488729605,-0.36558464878525165,0.01645726605850933,0.1607252838915761,0.15210313706727221,0.8741766711911922,0.7574866131174977,-0.00767996779873228,0.07152263302788833,0.22578241946931454,0.13009610773918995,-0.40753836036863833,-0.4853709329517421,0.1220510207167107,-0.2620495888748994,-0.034307869855467334,-0.0008531965171042563,0.09315275096215844,0.36500365789755446,-0.7330846167975894,-0.07764497233588553,0.23022095822061553,0.21079852476484326,0.18440693389926804,-0.17760084574094964,-0.2107901202249877,-0.3499255822178571,0.010655963241893359,-0.014780825279027347,-0.2174404103348375,0.5323885755562591,-0.027388197209064474,-0.4766677613680845,0.2918950280171733,0.0682351587412326,0.23382041508325588,0.11823967746125144,-0.009360819716825706,-0.02528482435845661,0.23264615775604555,-0.26387837195617697,-0.30023988978725363,0.31912073645230643,-0.816005184960795,0.11179017353633595,0.137574572406488,-0.06777761220931502,-0.10925461700739104,-0.33081827649020024,0.37918606529015386,-0.008293795690117171,0.46381247617043625,-0.4978483656264467,-0.07005952392714411,-0.20983257932966423,0.6547729707608146,0.5535372251613905,0.46879708689931765,0.8249134182952697,-0.1754875311663393,0.5124337155794318,-0.08264294017339699,-0.12251234112102229,-0.4941534034404754,0.29890679950847837,0.2323372611698999,1.1270196668187165,0.5909900660422278,-0.2437590853042447,-0.17603774357327556,0.028897088156502417,-0.21739333061044672,-0.17391436750391084,0.8640937258430849,0.08525874272220131,-0.21493152069164534,-0.12108336585893993,-1.2114936312160718,0.10537266490156712,-0.28107206411670793,0.31291784590157573,0.39992533196641494,0.13629248985851844,0.11115789105454119,0.7459885033862208,-0.04171672791289526,0.18194190197464927,0.1569648312145638,0.500312286709703,-0.019844951667826592,-0.06759632184974015,0.014010227844868026,0.10172791753814471,-0.487446818718879,0.15778621743383633,-0.32206849376839813,-0.15875617295040523,-0.40514626069513693,0.27001944133598077,0.2348703438036277,0.4940436926806696,0.44347459871115735,0.05849538599035775,-0.12372452354947708,0.10419252693155544,0.09333938079791544,-0.49105702256515826,-0.3840839139505364,0.6632805028532918,0.5014720906992275,0.7949610703376581,-0.1189192441201062,-0.061568783862982195,-0.3582073304009679,0.34106779735741277,0.16646932002276194,-0.08678934057561222,0.14749042163290485,0.30052026403987125,-0.013030724187690816,-0.08000857194312143,0.2188704740625067,-0.223568195421517,0.18670568741434088,0.12582896458323126,-0.08379629778408176,0.007167577883647499,0.05749194950038038,0.3063480421254598,0.02214380439159237,0.4596807102811998,0.27402219297213637,0.5400395841855694,0.39714839984374983,0.52919220205357,0.16028240911165356,-0.5063717280234014,-0.4028135618366913,-0.02813293881238558,-0.35894619937225714,-0.20762031398684813,0.09405301397399302,-0.1298376152937283,-0.04308790308898656,0.1800351912559741,-0.34776694159149685,-0.2613810470926491,0.595616210837506,-0.7464224106715064,-0.3551174016006447,-0.10652206666055467,-0.04824217382492788,-0.3947783540601707,0.26925896809364813,-0.19750416934437562,0.17160406895474375,-0.2650723461154828,-0.7568870355117467,-0.39886691843105526,0.5685130027697457,0.22251967470878037,0.45218068588003885,0.048262503536074815,0.006194601048552496,0.07703660034125671,-0.7858630436896022,0.6794580771966368,-0.6183468757974941,0.1385893610494705,-0.6121778356332871,0.2034512706748605,-0.1288035757750912,0.22289140496420792,0.12333973762121979,0.2595976438313638,-0.6764579662782253,-0.13166360056246698,-0.7118826205929512,-0.07443883095209765,0.27522506971292293,-0.11669426878110181,0.4037045593651752,-0.2465860861398233,0.375217462249718,-0.2777209853182556,0.046228208661675464,-0.2087085282087315,-0.4815775769700388,0.3686957499014903,-0.07632427897551719,-0.23286749619728872,-0.5198159794231128,0.6338179986588662,0.2173021813739928,-0.6906935436849554,-0.04681048933460683,-0.029534134913499266,0.1276886320449333,0.3066204019599729,0.14772758046142753,-0.33362788333135657,0.7706604732287017,0.777098673761617,-0.01568356854806726,0.23231078189127874,0.06095533390674282,0.06549278826007103,-0.7804036938506554,-0.0330274190711397,0.04433657329101672,0.18902464743495695,-0.10901534945848576,0.03280970289904189,0.1655434088219534,0.7668719027115158,-0.05889391706607796,-0.06328769176733039,-0.0449305824339201,-0.33954950967388886,0.14226729770206492,-0.5165043751362676,0.7078599455998339,0.5323607133450172,0.7629932742994878,-0.5748824547099526,-0.44230801725061125,-0.021965720032421445,-0.15149370713888397,0.053243313305005605,0.22771920283386896,0.33775878145740323,0.3929701323071075,0.26795320983912096,0.11327681662973922,0.2441178733775247,0.246872971796797,-0.4314368265599633,0.8445525377721231,-0.7974363872680785,0.16287179493467022,0.3215438737502589,-0.6677256378394235,-0.6177670997663652,0.43987293309958897,-0.11735372548145656,-0.2407205782030793,0.38141756260168425,0.2915407153601768,0.20497258168300292,-0.04142476917194862,-0.41587774455359955,0.17322507181331118,0.39626488651562103,0.6052834831572226,-0.24696471453040394,-0.5519138790435124,-0.4214101677888424,-0.18556937348718835,-0.40255268258023896,-0.3160167183980727,0.08817504481628971,0.3228536082069942,-0.08761997714854833,0.379736391896695,1.2086951736642606,0.5471485723641671,0.2217803358152005,0.13131928204374851,0.4198574007203243,0.15762781482821386,-0.2566744722124116,0.6957487739191771,-0.1408346454696218,-0.2645895244076108,0.32009286271075305,0.2220268509230785,0.17959567724173053,-0.485349225169724,1.7721479479505873,-0.4193156863439889,-0.004822772158854863,0.898948069300442,-0.06054541581329007,0.9838572260223948,-0.27851927732538767,1.370306513886124,0.0590839959859037,0.18294363100668057,0.12632394002381664,-0.340057360410023,0.024442806275099493,-0.08032898843198842,1.4698121593403726,-0.23632914437628644,-0.3324198114818356,-0.005342345509783861,0.23651208156251952,-0.4964446975633903,-0.7802627005433864,1.1813891191334631,-0.9217613996676515,-0.8201963121094092,-0.3831310727075785,-0.4665540736644553,-0.35342580096473714,-0.2968692271563331,-0.523309852026122,-0.15525587727800047,0.1285934604464839,-0.3464184492932342,-0.09668232130491644,0.5596103213344744,-0.5132219099406558,-0.6846907744004173,0.05653378673568871,0.12238713117461861,0.050471763018117614,0.4626677472766576,0.8394381077107694,-0.22873310073220463,0.1762687435689781,0.008230476110939728,0.0028642306435138726,0.1938233018256865,-0.284928003927118,-0.6643890898951191,-0.2318809441219835,-0.29865026351213814,0.4456239685045454,0.4688092034892969,-0.2997529274845593,-0.1164102713391155,0.13368942476444687,-0.24775606269791375,0.11151468045302765,0.25049845272788146,0.4975517741082893,-0.08570566711364701,0.012662852406814529,-0.12204052747613896,0.4980754125397652,0.26426946239466864,-0.9015000226556881,-1.2702356176812328,-1.4044928671976296,-0.9209919213497755,-0.13361586725800503,0.4773591192252054,-0.42000592763369765,-0.27262183586521016,0.4959590287887855,0.2938006970585948,0.043517587073268776,-0.23188443669669848,0.15178483454923763,-0.5514094980443544,-0.15582237214626105,0.6099348959146429,0.03590390931689702,-0.8296319672249222,-0.2883389626877329,0.4950762003718187,-0.06432921274195198,0.16580027547346407,0.34703003927202586,0.0740108847185302,0.2910764494779499,0.46782998878063115,0.07420980237144327,-0.4858010475753995,-0.4947587591101064,0.3289952832925938,-0.02081627305378075,0.08222315268875062,-0.15290472986018372,-0.7456657466732542,0.08150344233085398,0.6970723590794956,0.19925486142572243,-0.28997496082260454,0.18858020130665296,0.39790146370715135,0.1685731072740497,-0.07969694172106663,0.27198741877988575,-0.23599525364921886,0.13209475081886723,0.08087254207630507,0.5509025842268407,0.7659033554813448,0.19183030974618137,0.07792198409453648,0.3298498234677044,0.5145700082538257,0.23880516247465763,-0.17412606178383436,0.5657421992080218,0.8391677884819266,-0.4529072008854441,0.2531715378926169,0.32329364492341445,0.06278872592016561,-0.14041166583279033,0.3467903027542207,-0.29412931884929266,-0.15006092116201358,0.32791535509286557,-0.35473418092454373,-0.1909785764067802,0.2650275841621135,0.7388850935769409,0.250879361006423,0.14962754584566706,0.25381006691216973,-0.2766056298677388,-0.3966354475171406,0.2498920058688037,0.1476335421088741,0.21081575344321232,-0.08353198954763985,-0.20914221137375608,-0.28225381334238175,-0.5827787974551345,-0.02757943822901229,0.06131008513549832,0.1576492947794668,0.3919498019663512,0.6960333481397072,0.5007362247520843,0.3651744216477399,0.006028900024857646,0.04232070682389657]}},{"function_descriptor":"TwoPlayerScore","weights":{"rows":50,"columns":81,"values":[0.7637307697427845,-0.44334029687796805,-1.023763834690353,0.16557247142691958,0.6736729476019221,-0.4323017182008428,0.2323343893729932,-1.0521650874010668,0.4306866513326804,-0.1495473659305578,-0.502723173101701,0.7324543789795381,-0.2867877352134524,0.02397064752796505,0.00035239043491657157,-0.32122474277687224,-0.6092776370919388,0.13706683744729836,-0.4027625561657875,0.06071234178285947,0.008589596488628115,-0.01573451735922682,0.24831553532878956,-0.6518955443032763,-0.3900515849028977,0.012531790428144578,0.9855039505124561,0.09123585058396982,0.029642789800596224,-0.7168172655458362,-0.319092004599414,0.5006090193935985,-0.15260581278968094,0.5508675993572446,-0.4993853060823413,-0.044772753368345436,0.3720326876308006,-0.6349782361458916,0.12687526998759807,-0.08334406903577939,-0.7760503582811309,-0.23618549475885925,0.6982206577679563,0.36553948263837854,-0.06811047949823944,-0.7732022289239648,0.20970849387643908,0.16162058004710889,-0.23078067793931886,-0.7236214792936522,-0.1948035497842342,-0.17305766388276436,0.007013946202771838,-0.4485561484992558,-0.2850765898575508,-0.11584873945803734,0.1812642818070356,-0.6473054684063462,-0.6580390046852536,0.6010782741329287,-0.15063054952358687,-0.6564416540082084,-0.7659506892267969,0.4593485611430303,-0.4939082925901095,0.5758639262278645,0.04919226886312319,-0.1344411561573103,-0.18937579663562726,-0.3034368525204701,0.4520519690476154,0.2573334946712323,0.7136042731619823,0.1265820463132065,-0.5776632862864275,0.26433998453935376,-0.03421830173537926,0.5345827873542176,0.4504381751892635,-0.3462357679514604,-0.4804062753711064,0.5644369501721088,-0.34136930027082957,-0.30748543045703136,0.03298788364846401,-0.5956637549306433,0.2530726620897214,0.7372582179834642,0.8615169741052703,-0.04183669688015021,-0.23566161251277845,-0.7840143148846386,-0.4468913573682679,-0.13427115863384637,0.3825043765624803,-0.6024403548595937,0.46368093613948735,0.3388650758311466,0.4596939562459352,-0.6296883506718601,-0.2657170652886762,0.1258612787046604,-0.20150215673352048,-1.0872355781351972,0.48233406384141536,-0.22114291654793197,0.04372053834061627,-0.2907975212997367,-0.36058728169887405,0.40346829816127094,-0.2027869056587668,0.5901444719975768,-0.2835972578686896,-0.14309970841057773,-0.0045067609049180765,0.12184535246790998,0.08847828236853773,0.3210711305773698,0.28615000877059465,0.4773848004249776,-0.5007523761406371,-0.5402980561959589,0.09878500539063488,-1.0161301614837153,0.3016671671330405,-0.1812947046351633,-0.33877603541835255,-0.1951305277529039,-0.004964010975298642,-0.057923254190579324,-0.2681707829993559,0.32467234475127177,0.3839630806437353,0.5025206343425451,0.5990480829125361,0.3254711200156404,-0.4190360384819792,-0.08182580127512044,-0.11403357333099272,0.0032788043391499292,0.20430212907184497,0.5328813701009845,-0.27725108025212886,0.07761318479437916,-0.21070196532104513,-0.3797389337873426,0.5910059611234862,0.1425861795200827,-0.23534273279449916,0.35410385800895217,-0.5856177718162034,0.11954608880627048,-0.7644084778216165,-0.40441163557361604,-0.03432567915850188,-0.07267011527000267,-0.3043866141468076,0.4736920903705504,-0.7721351087415248,0.21583252792153312,0.22726438673482358,-0.3429295970589382,-0.2100769844607453,-0.5180001441104191,0.11990152349491874,-0.11667843725175321,-0.3205465395460249,0.4713312931374317,0.15520478967457468,-0.05917952280301307,0.28492183265244925,0.17555365451581637,0.3635459396486458,-0.02535355323912418,0.6175164455649376,-0.22192476907861952,-0.1038092528262892,0.3392906759927504,0.04885575579611653,-0.5786968129412817,-0.06411335986702876,-0.07246913947584915,0.13048494649731013,0.5293221191984672,0.22507293691677846,-0.12326026417631297,-0.22107498006639134,0.16428503678782796,0.19764198746351583,-0.183300652645852,0.00963451634640173,0.03801978178546941,0.07247414365538886,-0.40578636013575475,-0.18355783725610972,0.03971974127648372,0.05334339571771239,-0.14561612774423371,0.005461669174411486,-0.05409573996349254,0.0689615111032818,-0.21219123358176714,0.03134532031180127,-0.43103172641307574,0.17848097397293677,-0.23284423766451254,-0.20036919262702688,-0.30790097744647466,0.6303459775899647,0.6202382744886613,-0.20246460238628786,-0.5572240611956947,-0.550254021563733,0.22699029748423813,0.4676192697574348,0.27742879656679126,-0.16390676190020442,0.19586386677790063,0.4556376616407431,-0.009278089933948401,0.00594155405746961,0.13406999975681902,-0.1236257022794814,-0.7299953987249281,-0.14079591681148249,-0.04298499160930443,-0.2239451639501811,0.23232839398464952,0.04155619141061874,-0.3789238458859544,-0.21648631750320504,-0.4458191863705115,-0.10262748601633613,-0.15352357638127975,0.4368607770956343,-0.015786529684317673,-0.29727958624710593,0.4583753311669272,-0.24212540555549092,-0.47565662271815223,0.024306111869777717,-0.4860182481995769,0.16017878910988204,-0.3002971776262051,-0.05605164180221036,0.10818278113628078,0.5724795439716336,0.27457832743081684,0.23708173303359267,-0.34342398864905815,-0.22293746350809554,0.3712389052689575,0.2414808547406845,-1.0819380071991005,0.005266640926967351,-0.0012670514657427813,0.757907999755451,0.24999210392533033,0.45102998803900257,-0.061569441377985014,-0.6652392460156057,-0.5238711793793788,0.6284870944768429,0.05399690004890744,-0.004237595212978947,-0.19169104302777268,0.11145539375829687,-0.08290286518771581,0.2482284256081432,0.6217182001790192,0.18186234327207249,0.9508292813275231,-0.2597127011132196,0.3792435926323212,0.06280129898868851,-0.214809804239488,-0.5634882216035837,0.09304640034784221,-0.3055670399206145,-0.06766206291419156,-0.05561824939741952,-0.08716105096584197,0.18594606551220685,0.22089927605661386,-0.11666273367006252,0.15883454887368464,-0.06557567681213745,-0.005288114652874367,0.432599867419445,-0.1522073528259454,0.04947256848784751,0.3460258735733207,0.22005310198895492,-0.44713704635879076,0.2816155434452539,0.05001523752340805,0.5843588150947139,-0.0307112706234737,0.43502131551904266,0.6568931943493815,-0.3378437370928994,-0.3717332947156191,0.4510953999312587,-0.6276067202676966,0.19458464580496987,0.021094745452790546,-0.28966664581573315,-0.22147985403070408,-0.5165036780969997,-0.7048087796957336,0.3190379556815177,-0.35986308858741534,-0.41908687246303195,-0.4983276895798183,0.06448255604472389,0.10798186163649465,-0.05197715047403493,0.018028912419720856,0.4375931197689204,0.08105927934218364,0.1618745349436579,-0.2534556144855319,0.5680349197463527,0.45219564894799597,0.5771435759533912,-0.22408016786045973,-0.09471301003294746,-0.08083055602260136,-0.029492608231085484,0.5209513368196397,-0.30447375731680254,0.026678783589807183,-0.034222130255440596,0.19971896954475543,-0.06439996381623057,0.008353708184388558,-0.08445206675017321,0.21427906785454812,-0.27387433331867556,0.5425725714917596,-0.5091761883850002,-0.13597305623266098,0.1307373187898059,0.12012890007968899,-0.09767645369961311,-0.5677158221808738,0.11805834376256004,-0.38894421992262446,0.18094381216438066,0.4168933144957863,0.33407386310832354,0.40614085814937995,0.16466190253587562,-0.5254251568477992,0.6172129636830878,0.17700438790116277,-0.6338170051431448,-0.40545991486031346,-0.19842142691866935,-0.29434295047223447,-0.07129244616506764,-0.139058727833998,-0.416241455407948,-0.0022057804906382024,0.14064523716925928,0.33021885199436574,-0.5379824841133285,-0.02184439628163962,1.0082305008928705,0.3932965449160977,0.6318170078674016,0.5665537203778123,-0.2650497604586931,0.731166499856188,0.41875765668042675,0.19331694019522563,-0.26964877427546063,0.6942850745399574,-0.30084704529988004,-0.2577323411724725,0.48119701786831265,0.4501878450292409,-0.12070615899109721,-0.30015485298164996,0.05963558803831312,0.10635191619072978,0.565543588951704,-0.4178314529096652,0.08714781330870063,-0.41916341317533284,0.3250317604847914,0.5012729083135428,0.33889697027322646,0.22560339679882252,-0.11673898738916337,0.041881200508889264,0.019543450932709063,-0.16358609986920056,0.1390532437171304,0.06879789231841624,-0.15110352029067226,-0.0007288516209590308,-0.14198452947892895,0.34684827364167686,0.235971480804657,0.015382654582085315,0.4056062869454743,-0.3078424627633057,-0.7121637198747129,0.38776878117478436,-0.052183262352067855,-0.44026158566742096,0.3427014271440621,0.20571082215432723,-0.09808385151834716,-0.21333214268396175,0.20753606921575013,-0.2957874817342326,0.35478050188247034,0.34902142461436175,0.0921338210908322,-0.16057541287566074,0.4269147043339058,0.5950196367204638,0.10923003754547293,0.11866621656804865,-1.2230534203539443,-0.2489132618499889,0.10685889126099685,-0.7365618149288821,-0.053633056081707674,-0.06656412654643917,0.2066962408296931,0.4135719451051085,-0.26821242781718796,0.12724730429826064,0.6512088445577561,0.3942823304752749,0.17331525729821273,0.5725544926956956,0.17189961867372222,-0.6275865110022012,-0.10645691317413286,-0.6681600953116537,0.5828827987177496,-0.1751595663604387,-0.5626954447015118,0.25769640181773684,0.41091475043439657,-0.25617143105836876,0.28791557763264414,-0.1046516922500304,0.3559687363473197,0.32965559093579916,-0.0007494082480565982,0.26591220893220735,-0.23308548785458444,-0.17359332990696014,0.5992103800599038,-0.37756313135372016,-0.09020682828266705,-0.2765629812063313,-0.07284594334162205,-0.04328877351545381,0.38609047199535096,-0.4394666887390477,-0.38707021994732804,-0.5498945074837198,-0.28421932563181057,0.3762108910469202,-0.32842011355620604,-0.02201109989489489,-0.0540397531250097,0.061938591422965754,-0.1429002253351436,0.2894498782076265,0.26882670278765514,0.15098159043215534,0.3317057258639533,0.45414520170396094,0.013443336064277757,-0.2905867643296475,-0.3739442738111581,0.39133048151783323,0.02853075231009941,-0.1931529612333007,0.10854519614359781,-0.6043135623205081,0.7486191855769552,0.12251429891237241,-0.23515472457095385,0.4698641752944208,-0.2973757344715026,0.23362216385469634,0.004426515946328132,0.1477169744655273,0.18501796754134112,0.16021144457857373,-0.2659779505104211,-0.11723916427037763,-0.14800934767837703,-0.4561996534029243,0.22754438898447774,-0.6464828341921279,-0.4483669437898472,-0.07990014699947674,0.15662361919427442,0.0292266455121501,0.42314782423574404,-0.24141200816989883,-0.3509793893270477,-0.4661500907583102,0.2814939162293089,0.48549643563729367,-0.15339686298374247,-0.04998875333416698,0.27629642441511115,0.3036920879624869,-0.3062948338713153,0.13131072131044977,0.8299634900663481,-0.43841892650212017,0.21138317409080687,0.06614436233489114,-0.701492900096829,-0.26566347587588146,-0.8595371533200414,0.3755134726474315,0.2409306386216223,0.22269529962540138,0.9472759841814172,-0.02116369392988243,-0.3116691442738865,0.1228297379606085,-0.4719018713385963,-0.21235692303712797,0.32005654482012574,0.18142913261831806,-0.0705839043107674,0.06112888393223048,0.3141166781063934,0.19916959393486566,-0.5623891681882787,-0.3579154475756706,0.5627112773903068,0.7357075084091538,-0.05247786830164346,0.3653864202739907,0.03126234181759471,-0.4758063888955281,-0.21530658791060941,0.4588936766860906,0.4389143397602232,0.4304976367122535,0.014047301179425898,0.3629135503144154,0.3473123690330872,0.19547285789502863,0.0979564407035409,-0.26311306398681095,0.5144442465797532,0.6309956218193726,0.4605403082804768,0.3000864125395964,-0.613738108539802,-0.5839680161808757,-0.06463476733266625,-0.43983936490459563,0.19988409711630417,0.09079801534570564,0.3399243077624098,-0.04455107385494726,0.16678459591752756,0.8234246087982295,0.466662447827342,-0.12584242957330813,0.04098521477333543,-0.3777999494824243,0.29871223679910364,-0.03364791018783129,0.11615072844005041,-0.32894163200760024,-0.09769762758448372,-0.3903001116470546,-0.04699157984237137,0.28317653198980386,-0.4205812447570607,0.8618487266419906,-0.33839095240315975,-0.003556488039582594,0.10896059044495769,0.5320915951457682,-0.10088842333939238,-0.6571909542229478,-0.6915167588654106,-0.001045629899079032,-0.0007252895927378775,0.03732345662684194,-0.6038954943342757,0.2745674040882046,0.1787513845785983,-0.6432632622458719,-0.15941395291382313,-0.6069185540053494,0.49754651662030314,-0.4732206394596598,0.23657174515060103,-0.5736021778764505,0.044138199509369355,0.2286584045547263,-0.27922955894335394,-0.2790586523354232,0.6108744923320932,-0.4342391101751038,-0.49051152888071914,0.1943742704974892,0.04279304477399068,0.5820294492695102,0.47559304590753565,-0.7980804339732953,-0.375973431723833,0.05167416572944314,-0.2432008905146577,-0.3809300618331639,-0.49540720818753364,-0.17916961374054857,0.1832834454836441,-0.1542178853182357,-0.3910338501916378,-0.22053116800834388,-0.10673324188438772,-0.10128427267639095,-0.4551434173202292,0.08254248835753926,-0.25168088913707704,0.13027914757801182,0.38486646780981404,0.2382982363581465,-0.13857199980808493,-0.29807649417309,-0.049436695138181316,-0.06066008838900525,-0.20752150359405805,-0.5476443430688701,0.39850645114834915,-0.42545746554456015,0.37435949063338075,0.1778733827681244,0.43836942641559873,-0.38508062500594364,0.21540468624860268,-0.16696834127598603,-0.08047543160570006,-0.645812858811283,-0.2866063009148862,0.21738846353520996,0.1381511106999647,-0.07898256618516902,0.5964542380614736,-0.13334034246650828,-0.01462180536017982,0.7746300794399886,0.29892788977575885,-0.4977423781757412,-0.3130327973644975,-0.0723552160577898,0.051352096049757726,-0.19183235087346545,0.396680347148489,-0.07783261435342875,0.16847719743979883,0.1598965734541085,-0.12102908380160046,-0.2974337141362471,-0.4612647943647832,0.6280212759026875,-0.040915239838293496,0.7452118338102021,-0.6363630334509129,-0.24532047125620635,0.07812587477878523,-0.13754627852702522,-0.17508183835167887,0.3261893182116885,0.04526877428769141,0.02793810896463932,-0.5210260153902202,0.13163356577663454,-0.2312851931832717,0.12387322100345936,0.004781199849711844,-0.12742659176149299,-0.21391333113757127,0.2876610034893796,0.5807719361725203,0.016304949242372076,0.36370316667997715,-0.15026422408419765,0.3372595412463781,-0.4182299513652281,-0.9002296059362973,0.07275626625255661,0.45732683304474603,0.5026373778118405,-0.35507095897125557,0.3754067077675879,0.5376728505973752,0.6743839341390152,-0.02959877663902509,0.08264345234819931,0.36922050062818396,0.9716278531797193,0.23095632215621706,0.061302018778137214,-0.40597556437552673,0.14059918700452573,0.33502096983586804,0.26506841124409986,0.23677415919100636,0.2851280984113794,-0.2991534922965412,-0.15633284439409836,-0.10702050117870016,0.046362626599630335,-0.08056610007201033,-0.29877255357388666,-0.6480313079331316,-0.09256496782024784,-0.17840829187888937,-0.09315227456044227,-0.09589903578259384,-0.21864132891867813,-0.08451923964801597,-0.5711403980363602,0.07832615955605493,-0.2290815694907298,-0.4062366638078654,-0.8733988764450761,0.17945515441675788,0.3735654685188312,-0.46934252514593466,0.11373320936870915,-0.25090102364577715,0.2005148337600048,0.0664940680175047,0.12522144910278632,0.9259439874426412,-0.29084022517055,-0.054289204142580434,-0.26292590091828383,-0.09926763540031511,0.7962596786703569,0.18993369186418108,-0.08006120882164905,0.5781504673608546,0.07144325337402042,0.4776681711016605,0.05080980834948082,0.6025746169832341,-0.03148766306180794,0.1536003758508443,-0.07467350557519743,-0.24133301706331428,0.47365224407467743,-0.24249713827123096,-0.2465737369875279,0.3340120032114899,-0.21559995649861044,-0.2970289694647212,-0.06932287963740441,-0.22442397483047943,0.026673407285247194,-0.3013622601071286,-0.17088141341273425,-0.4728427813287842,0.805274168130977,-0.036795432216237815,0.6152583376266282,0.054602571910350846,0.2368316410269506,-0.011134331049029507,-0.2563827663955164,0.04077726086539297,0.498501097540852,-0.003236074659809407,-0.19041862808328958,-0.37616767592355616,0.15208475155497703,-0.20398235117188077,0.12225681799599811,0.2674364497537518,-0.33191783065192965,0.43423526220765407,-0.49937433735068687,0.3743432665303385,0.12960235859759428,-0.17981930582361233,-0.2090193748238973,0.13408331479359084,0.3013406633985072,0.6453397685024944,0.4764414316642119,-0.7675580786291708,0.39365902949774473,0.37966450147720743,0.1779944504142043,0.29378164486363606,0.3647254315195725,-0.4872767446273993,-0.3146864789177376,0.08327152227904192,0.5144820890773267,-0.1368927987513082,-0.363430807920924,0.45303932141147557,0.028656180793736975,0.33364592827140777,-0.3716861402371181,-0.2973705688614335,0.2301227632615679,0.4819593634340553,-0.3051075299511391,0.3364350669107211,-0.4087771429871349,0.2738357433857628,0.7595972165500833,-0.5634948523702984,0.014654629958318118,0.1008991176764136,1.1853269430985969,0.44044042709103665,0.4102074875705096,0.10670497698958482,0.5495261909849378,0.10453248893693037,-0.3997744895830794,0.41975754722537995,0.1958661792342723,-0.04479421686271558,-0.6294700636733386,0.3452140705491932,-0.032218013591557,0.4393755721035829,-0.23192292215706267,-0.26064657114394607,0.5430544306810063,0.05511938369973628,-0.16768873253769423,-0.3887026493057434,0.5865589347920765,0.8368807109486149,-0.29872184736538837,-0.6884078853218881,0.6916469689707373,0.2951019724285919,-0.6077999852122792,0.4797558510939223,-0.2548581690573002,0.1621681592872221,0.06670132714127432,-0.24820017668306663,0.5687545988602003,0.00027044263342234954,-0.11849931436535285,0.06915878437435852,-0.25439310154566797,-0.12880246723742406,-0.007001693947106703,0.15001341434981494,0.010543596542477725,0.2693814411606168,0.5532459026584667,0.4141697918349501,0.029035797395664427,0.29485719433260416,0.016686045421115965,0.4169054439652233,0.34488047123231386,0.3052193156140518,-0.0948585929952573,0.17028435656670612,-0.39443004558551403,0.14899080742224102,0.3309165072772548,0.16406389907898444,-0.19605189764419031,0.11921991236325279,0.35253714082211407,0.2466813500566729,-0.34610226075999184,0.21952141891706517,-0.22471914091508746,0.4127321877691869,0.061651550398656246,0.5580498187245201,0.12627616658985719,1.0603193896752707,-0.05997881020605535,-0.04735098406217482,-0.47290602700405293,0.35030828124297647,0.5022978222369997,0.2086340305909106,-0.13848759451297035,-0.16109473661416213,0.5427866239014972,-0.20120524977616888,0.5307801471653472,0.04685565169278986,0.024308365383359048,-0.32099614178078983,-0.35875964591081055,0.47754566749312644,0.04868045226687557,0.395477982561193,0.7277082150948951,0.438602080026854,0.16696834238751776,-0.3197279670527525,0.32808100585486794,0.01526738454472229,-0.23643117500891891,0.08770176093142448,-0.33267121929820404,0.3228625453411301,0.018729348341382037,0.26359977983995003,-0.22810912859243238,0.6921813925001454,0.2331640245084399,-0.1853147502310878,-0.10917345596799481,0.07855587772263276,-0.6461652231759522,-0.3374688288239485,-0.5362454010250867,-0.05753531237976154,0.4379316024510977,-0.2739364785526104,0.0009165151785559339,-0.2181379276501562,0.21249184975598215,-0.018238864102295485,-0.15710382620137117,-0.19804038583266953,-0.003022552070061189,-0.40323941444858374,0.11816187003539054,0.24543727428212422,0.306395637197018,0.06498148110362689,0.6674854955594495,0.5080833342823368,-0.14535485423372957,-0.05668425766176054,0.04387033161376564,0.4160185904988451,0.35589898764617006,-0.41688584450797034,-0.08562602079718204,0.09319595445708607,0.3624119426296759,0.06909697615252607,-0.6232880208262118,-0.120473829455707,0.08659691017192572,0.2719251489276092,0.35198764446917646,0.3273171021603084,-0.0014245430651767441,-0.11564612024224977,0.29306621272868594,-0.03529839005259284,-0.45921192382789167,0.37668802977003657,0.5685297218614265,0.16971765803271788,0.042111589908347825,0.03606316568196134,-0.0051579602624543565,0.3294947323026466,0.24287062091484268,-0.08891350275262797,0.4323987925360266,-0.40521982305812854,-0.13016867806339538,0.4012873190025563,0.11186360676281569,0.1505800197600871,-0.24759526950894858,-0.1489512853206869,0.3833835259313007,-0.22620053813142962,0.14493064995395386,0.36332727639372653,-0.1785860167302455,0.20266631137324984,0.06855497068332628,-0.29975850519280794,-0.2824007050051253,0.337080471686033,-0.178799855768188,-0.7464709852690146,-0.5345948551712584,-0.05353202306013241,0.3072689246878145,-0.3322117216259338,0.05110292280605948,0.3122477573815184,-0.29537787831191825,-0.3154000711151106,0.218399043055595,0.18911084603111214,0.806126818048146,-0.26977123438264333,-0.14382086166568875,-0.34051771644875767,-0.26017272194652336,0.08187324081368627,-0.08204321133400269,0.23099482448389594,-0.3021651285039764,-0.10788619941792024,-0.5918471632947184,-0.0344224847254096,-0.2672575269160232,-0.35385359349276196,-0.018216045821170264,0.1967527639324527,-0.3095365349061086,0.050114850647249264,0.38831245241102375,0.3926276132441617,0.21643169761641504,-0.13444653996389294,0.25875339696704486,-0.2693404068184203,0.13350068538231608,0.4925453799021869,-0.37103122348983353,-0.22290909128737377,0.08974897500396559,-0.22405858282215246,0.65254710042212,0.01014086647367059,-0.6950437730861646,0.05654061001879298,-0.44186599411996974,-0.041325689796168394,0.11168233443950959,-0.10676504115924144,-0.16901836549737762,0.038988780403920446,-0.17147817740395827,0.10279880748734353,-0.07125793261970502,-0.25049675509928343,0.050423830544158,-0.30519572011496127,-0.16029708125335906,-0.09931807110192746,0.07418171906621582,0.17651469012352802,0.16864424639388173,0.17078198363172756,0.0780021944180649,-0.024541648593179876,-0.22492617904953838,-0.4973422027928188,-0.8126528180529965,-0.2574112121502297,0.3569626897463154,-0.4803626809592927,-0.2476331380544109,-0.10415365451345134,-0.31197467732660866,0.19366565531992577,-0.44122437774414724,0.63412862189866,-0.5783190477962924,0.08666686461702285,0.09697775685251288,-0.03399789645323867,-0.09815300110545648,0.00232800140703725,-0.20865246799124065,-0.03931542883744487,0.01413342079442548,0.9149606586227124,0.5422409354989629,0.01705546098556435,-0.05016172954226002,0.10527395551460075,-0.19054628518773947,-0.3385913316545444,0.22979657167644083,0.578982121376978,-0.07526070795231565,-0.3897838663830128,0.16414859625305084,-0.13464506307127375,-0.21491805857497134,-0.2998232484287356,0.5581751710700597,0.08591288312408314,-0.06010274115132815,-0.2773841226989435,0.2663452053789899,0.025640667419611927,-0.14997424232973716,0.873961345400556,-0.2807189856315509,-0.40383223514138733,-0.007110828362197662,0.152812765341746,0.39227271084691884,0.5398732079503423,-0.019116704123673313,-0.7440384094655585,0.5559217568797598,0.24939327716193943,0.08347422603939662,0.24517883324718384,-0.20027365592409788,0.10014245813670881,-0.10026552233056707,0.36698545584430353,-0.34026875587391686,-0.3782635581728508,0.07000905079234382,0.2804675883403908,-0.041051829716285376,-0.20664083904709987,0.7806537838038574,-0.2340638810763872,-0.03441886265183539,0.12824308227381603,-0.1457618799314202,0.7138456991500511,0.6830349458162381,0.19522725293251636,-0.047385299408424224,-0.3211705059463981,-0.5105491876463192,0.8055822803508534,-0.4998873935178866,-0.179814013588957,-0.048145133937139754,0.6149001728887816,0.12816502781447867,-0.5048147958269981,-0.09766055835722748,0.012713121759806064,0.151606464151698,-0.07426592747170496,0.0043721678769602975,-0.02464349801970741,0.003981451625075365,-0.24607246127378318,0.03902978930919602,-0.6626852494713966,0.2954529195052714,-0.6673228415960127,0.6602811085759893,0.029272267312538344,-0.4172218709661477,0.45119382347888876,0.0814225990853226,0.3826098895646019,0.10071820166579186,-0.14859067981217083,-0.2729548020413579,-0.11438554017690152,0.16773367081299081,-0.06934805225790154,-0.05081901235014997,0.2267540095884656,0.7522087539887478,0.6380391249519769,-0.2180188120925951,0.34510977755835437,0.3907451941097411,-0.6113393375829437,0.5687018582761812,0.14440417746145118,0.3332901952132726,0.1118065205135287,0.2602959357973116,0.3117787624112436,0.38931263989226134,-0.03318181469647962,0.4424948336250372,0.016925106986061055,-0.4282351194921557,-0.4226094983952153,0.08636330040421482,0.2713520426815347,0.5850350764929971,0.09758209121706625,0.050803798432545004,0.02061246489656898,0.451108394682021,-0.619891573189588,-0.23946700498300064,-0.4780888007507818,0.6978867569253844,0.0701034776612878,-0.5222618965839017,-0.7828426394449599,0.042735171779856806,0.6803696140465187,0.07239599716064052,-0.34881752339101224,-0.2234715179086747,-0.033548720431142535,0.5264337176448657,0.12533108237768706,-0.7720198053007812,0.009453805804294935,0.20000830790153656,0.544066711626755,0.16074215139160947,-0.48285871415926646,-0.25894342101322787,0.5954998960351343,-0.1101204984561558,-0.12419148687886926,0.4302345901582122,0.014774805584667216,-0.34080390475848027,0.18800393928158343,-0.20314208602548267,0.5870051830096344,0.20019935478536263,0.12176410758587711,-0.25933910864510923,0.6508817609944412,-0.3351018380177668,0.2310847755335227,0.5642903240248737,0.26265248079108516,-0.10399716279409849,-0.09287551865546273,-0.08906636218285363,-0.13569052101943616,0.27258744185429873,0.3656366638763657,0.0010028600623368802,0.7600962902540055,0.5511741039156156,-0.29935872774273115,0.24251667808557917,0.5948016776779875,-0.5730195896686017,0.28342617333997233,-0.35767906472062894,0.4080454941799337,-0.6141041864981577,0.6238391989787606,-0.0012514296587589739,0.6058951708766417,0.1386395053987724,-0.35536613257533745,-0.01243042809303256,0.35741962876981603,-0.2832837663134043,0.1562859549183544,-0.30563005628737816,-0.5609522924644305,0.49434574567641776,0.17294844214382188,-0.30003340744476065,-0.5812914040245286,-0.42657281616393716,-0.3506896844160307,-0.1091660646828215,0.16013471877659732,-0.09007215531675741,-0.4066743328793119,0.1602220460184823,-0.15783056198235848,0.04535107945890129,-0.045964607245364004,-0.07846854457690895,0.03635362560590587,-0.19328673989369322,-0.11785437703539757,0.5817218789615866,0.16032924891897554,-0.2903573505629625,-0.5958640987352164,-0.332829267521371,0.4301872509103729,-0.03037189503293768,0.438693028055615,-0.38240177544644904,0.1613889092511629,0.10953240003082039,-0.10348993215148783,0.005847000719099145,0.02406603496684036,0.21225757440433116,0.6703434927318263,0.33147237485024467,0.23738324691912796,-0.5738600667773401,0.007579873781412798,0.23530283290267429,-0.2208732264583857,-0.44348209830356067,-0.24894670826503432,0.3968081837630075,-0.22419828275797793,0.42797512148084804,-0.021816132373597863,-0.1368848606334177,0.3750735171676848,-0.16061354810392917,0.13494247148198174,0.39340098352954395,0.2428335505894149,-0.010138029825376451,-0.2988629850123524,0.03533359159473082,-0.347083977743177,-0.01076084904834799,-0.06565476671487722,-0.2665839634352172,-0.4213179805794918,-0.08407225409215419,-0.32473231381821976,0.008626019708718147,0.09281548705745678,0.07942873214753388,0.21092805240417212,0.029312140963852613,0.4387515005606296,-0.17479948006572063,-0.09522332739232856,0.009371379076152457,-0.2454739090404796,-0.2354754412045295,1.0834825665085848,-0.15371656546370444,-0.0008441305668588423,0.09929917913310989,0.5054276156469848,-0.2508175879415476,0.05886605101754305,-0.11737693229368856,0.34837242176524547,-0.5797700138470716,0.056416531761971686,-0.09574175180562541,0.3923558617721831,-0.3418410523608662,0.3476267296474874,-0.13947592534501307,0.18359195310207332,0.1350334600626922,0.37135309416022044,0.3837279014235912,-0.27049823592527245,0.07882759666948495,-0.14103327791774062,0.15027295901600143,0.5454577946775917,0.03758588527183282,-0.20498851740349872,-0.24306659274774767,0.35502415137912374,0.3057422473257569,-0.2874274552388898,-0.08872084002915466,0.11544882676587627,-0.21952265854474032,-0.6111451174068222,-0.2788159793447183,-0.49007867604001243,0.2660961002608491,0.26011455505824105,-0.006250522333049328,0.27985833238788854,-0.6906333250107003,0.44542673952563483,0.07028159874270669,0.8668069488053953,-0.4778904153465937,-0.2406409057409785,0.3087658260260054,0.5030077710200458,0.47252543682634607,0.004658923594198406,0.49816756873220375,0.5452957365538451,0.04507868639626188,0.48249555766378294,-0.060905067518026566,0.2937468635464084,-0.3603406332886579,0.6786213789888721,0.08582104606865175,0.6568135664247495,-0.4129334107104069,-0.4252636842085818,0.2748658055492427,-0.19433023463760118,0.12172380617413968,-0.044670511416815495,-0.0765427280842495,0.13630312933318164,0.31290755129534775,0.4922944647871738,0.337455799599764,0.35815159440178596,-0.5757057014938274,0.7424855194446803,0.7653734022068569,0.9392702957596789,-0.18748973790598547,0.14656970603359729,-0.2160273456273762,0.39534196921468184,0.6275479258450464,-0.778840926394244,0.6758462394146747,0.14061506505090304,-0.2075855894889102,-0.11305004986626563,0.09290638422427323,-0.07844529858164499,0.7307505761509275,0.09866107762425733,-0.2162821023714719,0.14296253998375696,-0.020014254570920334,-0.3201176593081779,0.44738497103236113,0.3700828355244289,0.09689132313910515,-0.12451900283772613,-0.481172354929619,0.09494397815010644,-0.09385928946046314,-0.2901358898901453,-0.4048636933906168,-0.2356913523387412,-0.31382089580607103,0.352266957145359,-0.22070202774674305,-0.7683599343875097,0.6022863716653917,-0.3796185283314767,0.19143903192850295,-0.732036954398889,0.5984721250739606,0.18977390687756004,0.15824978200155654,-0.21546542486035236,-0.3674053337879892,0.6646731041022319,1.0663683197873055,-0.3530413350826255,-0.4512514637819837,-0.5946837699101031,0.7165772741944156,0.09805402911580814,0.27652085335625715,0.1407805296612514,0.11523677075784221,0.2176958441911798,-0.6024871428524905,-0.18809260844350423,0.13293707063391802,-0.150840142187156,-0.1635303475219095,-0.23459811421450716,0.20774113695646323,-0.03195072679598831,0.581738596972444,-0.7114821188949819,-0.19339123777315242,0.8022985606271483,-0.2638368960843992,0.6265399776217002,-0.11244911643634105,-0.3823654952408615,0.7183228381745382,-0.22087008949595388,-0.27573923790345367,-0.2699397005051957,0.12371350379334589,0.027062417070726895,0.03890682518476884,-0.0015391183930629708,0.11031131797725141,-0.13896831487261738,-0.07589411479760527,-0.20318720018898517,0.3046884043635632,0.07120199407563677,-0.37945509589729975,0.2596165748618864,0.0795340268017339,0.34923077040759176,0.38937481160874043,-0.15067683042217309,-0.763387395617449,-0.10983666330514229,0.011017141220062369,0.014130448009352143,-0.21666652941403608,-0.4081837655904736,-0.5550329812939356,-0.43273629352818277,0.26022367038785,0.5519218377454443,-0.1528749568223411,0.23827138870155357,-0.16162364282539976,0.5415704313882348,-0.9600293823136168,-0.5619735193155392,-0.12664658665023423,-0.12503310861042494,-0.05920226389010862,0.19708062976773968,0.33717640534004945,0.2895145606653091,0.3643005183248546,-0.2097703094876743,-0.11812873159770006,0.5228637284979746,-0.5480090849365394,-0.2487144577272033,