{"value_net":{"layers":[{"function_descriptor":"TwoPlayerScore","weights":{"rows":160,"columns":43,"values":[0.10437782586636248,0.15138336488523518,0.04185102382536665,-0.8790943654856282,-0.002538173129702976,-0.061206002939534064,0.05702928568073727,-0.3960794085630267,0.1108314696157211,0.5301847096179048,-0.1677575778749635,0.13736737722385509,-0.04298552662404116,0.32533773992071763,0.3634515264619685,0.3920761909257082,0.4086087803822236,0.08508055023296306,-0.44395370713576326,-0.12983845251010176,-0.11355017492088279,-0.15038908690443986,0.38183760296139563,-0.7710849243774202,0.33566134719246116,-0.4725518787150535,-0.5854534430841688,-0.7559734509548811,0.17656354048936737,-0.7811478321326774,-0.29967805007598947,0.4518554775770092,0.14277634748976484,1.2312550815986085,-0.06283460783550157,0.4366361970208832,-0.08253671226977383,-0.566281082216202,-0.18453988386184011,-0.667717326749178,-0.4869443580265089,-0.58563349955508,0.19776080387127762,0.3139461616659949,-0.06853382672643432,0.4542946576686943,0.0563234161740108,0.242191942519782,-0.7229585831913474,0.44295100748374927,-0.34428642890000083,-0.5401390105528626,-0.5560835486217665,-0.42808761198193024,-0.07164354744987243,0.029077584733586705,0.1062789988791304,-0.05778565507638082,-0.24052392014608884,0.15377939372302757,0.2006974025390824,-0.23488743109896554,-0.5115745572111147,0.06986773356369581,-0.18629773377692782,0.6754995321836289,0.28059592163937896,-0.4431505354941823,0.13036447385883176,0.3046887364446431,-0.541394460362734,-0.6086235640343077,-0.019124130280685016,0.3227777960757907,0.19848631751083068,0.5632527713879644,1.1265965844154104,-0.2914323065968259,-0.13258876601807376,-0.06670036487717054,0.8936302473292146,0.505332951732237,0.1788164365830932,0.2615476983069813,0.5567021829162533,0.5251407448559329,0.19395141146751388,0.08620298254011824,0.6465043089021592,0.10197742239908525,-0.5226704899434462,-0.0656813750286959,0.31993845422871164,0.40559342680859517,0.6226936118274403,-0.40482739288624486,0.4071751086405465,0.23530817308357913,0.22452253578605152,-0.021798516840944547,-0.6227314926762662,0.5065028329914438,0.26740322166949587,-0.001772937111049423,-0.31612817012608113,-0.44417357088251147,-0.18988200276750153,-0.4918816586184124,-0.4454658775350857,-0.004743931903554268,0.18008807244727723,0.08816611072915216,-0.6290477866775516,-0.035346807881804714,0.15448586508885045,-0.556386272902208,-0.23110522352660506,-0.18269428793273482,0.38254314673971057,0.21797449595107332,-0.4141194864829596,0.1907061072902365,0.13850395422705905,0.034290536788154774,-0.8188412634743791,-1.227329473023825,0.48377433975834483,-0.6035605384947562,-0.35030950002232175,-0.059251039301548965,-0.06778904391323633,0.0015284968979766263,-0.05846023881305195,0.12357532443692808,0.33454484898876,-0.848326079746022,-0.5964053234560156,-0.22830956800749194,-0.3660147141065778,0.5762785386499982,0.12034235604923874,0.03290175100097882,-0.20790612261785768,-0.0788362301162386,-0.3211570439065177,-0.21216773049742416,0.5067476153185203,0.12192378198295677,0.3392108746227627,0.9406621040249448,-0.29875499023488594,-0.28624074333894733,-0.340857914684433,-0.16237498178660112,0.2082767187821431,-0.5689460941927902,0.25144767928880685,-0.33896287807205083,0.0501308083573333,-0.4380407614920293,0.46722615879332957,0.03242024605436556,-0.26110003091252887,-0.06282009243868142,0.5838478484673437,0.1492568855013512,0.06397911142807908,0.16272748574022497,-0.10021675311713898,0.09810071843652805,0.10739823448745034,-0.11027166757597742,0.8833385633438833,0.09506870327839169,-0.3164644420590444,-0.9180446659691095,-0.8231790174679642,-0.13281327685144456,-0.5596350377145313,0.20655781493477268,0.40328424269278385,0.27594270013910177,-0.06990644064916693,0.03419425247688525,-0.13082669262196003,-0.7936054432587044,0.025441706257521138,-0.000918155001961721,0.16556789457195523,-0.3104915035032166,0.14870417562448213,-0.48133490415819685,-0.19072137046639223,-0.34074776668522316,-0.15842577883661402,-0.09170347686983704,-0.23309624926027323,-0.020831744909133545,0.4177667134782841,0.20072994336465555,0.03168962619578418,-0.41983587893835234,-0.26185936740615284,-0.24668234698301628,0.23164444087245697,0.14070668443021017,-0.0024143585777299872,-0.3676614634232138,-0.6814041743604177,-0.0912264007008431,0.3996932930603374,0.5739978407585737,0.13972190159072,-0.4481869747596848,0.031985400917362884,-0.8073212079406574,-0.30845483050212735,-0.2095642660810873,-0.17728463923987262,-0.794834710234076,-0.22314815308586525,0.32132445170366253,-0.11223306252675201,-0.07553573750561364,0.2177673969844218,0.03632544169070299,0.3739029684467944,0.11031722348373686,-0.16498534130256698,0.49016089696828774,-0.0733748606215057,-0.780319139245454,-0.6026724427570674,-0.24270570565359503,-0.27130538396670484,-0.11127735626778498,-0.20849465697103678,-0.11899666473261654,-0.511138591307546,-0.06381766519549192,-0.7574121484240168,-0.6014589417818181,0.6328035623308236,0.528722212989096,-0.08899825003390287,0.1252468863300321,-0.07728716763931014,0.1863182638902697,-0.2243622580888817,0.06430392530332758,0.5724589195795448,-0.5644824190021355,0.6878988004092077,0.7307010748080948,0.42517671484240754,-0.14497756026146744,-0.006454221937183065,-0.13217370191158243,-0.9639317862751158,0.34389995611269053,-0.20684470250378384,-0.13173898513410962,-0.384280529132208,0.12311470353966628,-0.5155074178157402,0.27732095868884477,0.6772854287199659,-0.2593974369803704,0.3658760463970215,0.09171627752826988,0.15613848781030643,0.3922088654962895,-0.6622762217284338,-0.05415416678495688,0.16441619076243502,-0.0213667509785359,0.21933609048158823,0.9734502594669078,-0.08085134305129982,1.1632182162484075,0.22614273712823504,0.36054911412745577,0.43934120388566966,-1.2299972035169906,-0.27576946965333843,0.14727688892349303,-0.1084107962270215,-0.5661876359700744,-0.66022856759566,-0.320428350950358,-0.2281016364799141,0.19267591374267584,0.2901481032468892,0.34884586116487015,-0.32122952881241457,0.173685723286613,0.20141692285933097,-0.3881542155901384,0.11234622428050964,-0.2317415080283113,0.2429059487472729,0.5890329892061417,-0.6672273290179507,-0.07923080568272214,-0.06045783555031537,-0.4767440704069448,0.0896456744439433,0.5011251590061966,0.2576087487157302,-0.08497082921355095,0.05234993048812363,0.23247095924135683,0.29845268827362087,0.053731804792485356,-0.4125443287110896,-0.23439202639934675,0.16011992138706593,0.29609298679858903,-0.30085861199612957,0.7249215670486302,0.6901473253357532,-0.20745952074458368,-0.13108338402059141,0.580880684694332,-0.18513140368803935,0.40738099892115875,-0.10268708762235104,-0.31912055641508097,0.0011471258416451335,0.5997996903733388,-0.16642705242491956,-0.9357053829764281,-0.008049621559713336,-0.4413869608188372,-0.09427197089960485,0.8322780835303102,0.6052884161016188,0.07069906195420894,0.25835422495784105,-0.5007085554697964,1.098375774360926,-0.04416021911385964,0.2359071463725631,0.12453205460180838,-0.3197856450914496,-0.6134057883086889,0.08798700302741315,-0.0213942570526858,-0.12466560770122312,-0.09403850449463759,-0.2347567952269411,0.09368511797787389,0.001372871349437031,-0.753365368192386,0.2825467717077822,-0.4921662276173098,0.6126223276725097,-0.9304586925857207,-0.20574607420075255,-0.07263984996069908,0.02972340789303934,-0.1287091398161683,-0.17539098684736304,-0.2086841398243909,0.048460366528156565,-0.2710451533016146,-0.9273858368418277,-0.12920723077364749,0.25885860842793823,0.6020009871122987,0.0534370602398877,0.26631853121934995,-0.3360689306451578,-0.4409875544597891,-0.2982016771855032,0.1627370031746398,0.20662209878545462,0.00605039618876031,-0.11804222245741137,-0.46929091287793917,-0.3004690189617426,-0.5609546859094507,-0.4664535910211595,-0.20696244070935835,0.12635642735584496,0.04405880349762264,-0.47359746438995,1.4109202407939492,0.009458861133415134,0.3818775107064895,-0.14950954915509057,-0.13596736465576634,0.07289009987519655,-0.38571754602957714,-0.5230812736026842,-0.37118929504367804,-0.28067451024820855,0.2544237902358514,-0.717709546436916,-0.18467779575939264,-0.2536496578447767,0.16919445586784432,-0.3260085771762564,0.15740928344608238,-0.3128843712835134,-0.14048580036012956,0.1846456864960575,-1.9692745650982686,0.19737139359388287,-0.61384857316938,0.5618570482179986,-0.27974707947014715,0.16643407739462102,0.6848878832892495,0.40375375030718785,-0.47689710670568025,0.7407383131071732,0.3891339298432963,0.09358854972038325,-0.06827342286936247,0.2691443745997486,0.3418920603762346,0.1832352544003117,-0.5556101265412123,-0.6674843194418417,-0.22817142276469415,-0.5795554177328394,0.00920356929554534,0.5573077873794482,0.1759806342118921,0.3805380868730932,-0.018649576105901563,0.2453643965544198,0.08295398983086129,0.13902663512860283,-0.364771504571944,-0.4253400529936446,-0.559957889856381,0.34594790593151736,0.7166680011076328,-0.2745508108732003,-1.15381463863328,-0.23262575096980342,0.4469325263395797,0.08651187230158552,0.09749911299419019,-0.713886929884167,-0.10745494322244854,-0.31059356066734567,0.1757314704466761,-0.20900973623641872,-0.28106352271066554,0.21664818077425257,-0.017512326516689634,0.32569239768022523,-0.7200137289446265,0.03570643431835169,-0.5032234674597429,0.7114471670255842,-0.04029451348936616,-0.03523868589625455,0.014833021301788528,0.20022179742619875,0.035553877678570114,0.42978902291121013,-0.5309902822837785,-0.744608778636239,-0.645441963543957,-0.018115703754345274,0.6383490943388065,0.1014848488116033,-0.5062628994823929,0.08961881607359809,1.3811493408699755,-0.27545379751761334,0.24385234781716458,0.17035583226201892,-0.3529844318065218,-0.6332097829127454,0.21151258395031391,0.6227865821072587,0.2688958409571139,0.31275230693154876,0.298710759972487,-0.3511344557953606,1.0646564718373768,0.01551795953902981,0.4393038471094857,-0.09119453143745734,-0.016102878737918287,0.2952837893127576,-0.39301036636784104,-0.19184359623069383,0.15285255957148067,-0.008242681438164328,-0.19428366877962344,0.44755598120382545,0.6199489054802405,-0.12479031604280107,-0.0625081105711534,-0.34334474775153356,0.3091590661683636,-0.19874234273504682,0.8890467226424441,0.2533957997091866,0.18296467385725027,0.11685961162142965,-0.15796465127964052,-0.2600020692377672,-0.22552895600377446,-0.6329622020093059,-0.6594223041334647,-0.45703405258646296,-0.2316097164013239,-0.04638706314599978,0.0506128027034,0.6350925920583715,-0.42494805063084073,0.5056021911070557,0.3968430762635381,0.2723164483759386,-0.35330076431119334,-0.3644442649708912,0.27174269985359634,-0.3036240098998771,0.09648189454559411,-0.03833464586019801,0.08507773411829238,0.7315966516783029,0.43475736285491234,0.5013741599706308,0.6403579877732464,0.04536590939777937,0.4537543251279038,0.2610520877463033,0.3232009851987278,0.24368256390814502,0.1825469109532281,0.3993745332228202,-0.19434248148247224,-0.38703243415059135,-0.4021091803171256,-0.7808279196353577,0.11333748547547003,-0.35312862570101294,-0.038902139680459205,0.9326754417770334,-0.4991118329246074,0.3939440534626237,0.4815759414614263,-0.09754256473977378,0.166336508026187,-0.4656451041749036,-0.04814089671859862,-0.08208799620286049,0.6709239016351297,0.311014708028542,-0.07660164627228046,-0.20559657253697594,0.11168773699206158,0.23139524632451516,0.10068570407018967,-0.6785679813361515,-0.40948955073960486,0.4268167099493142,-0.06983828189112536,0.12644581963552176,0.21903589023050296,-0.8446002855386389,-0.5759114236642774,0.2523469908769452,-0.8211976562079094,0.1674603183955077,0.037252884722187116,-0.17605912077829292,0.18126997361610805,0.40048605390858943,0.4152942013728844,-0.1206909458421588,0.06688513792791397,-0.49489801228368213,-0.4783567344483832,-0.6735860054293101,0.4451241313266367,-0.9407234768642104,0.1490911421306569,-0.7348291324943214,-0.7587642833227609,-0.13381722007555652,0.7617548168275693,-0.34894086167831573,-0.0975129018469673,0.04530782626920768,0.06378823570681422,0.3415509899726006,-0.3012800542729573,0.4996016279139375,-0.01318671030479638,0.7390299224108943,0.23782967364611027,0.000694372704639275,0.041289100280537394,1.0274260481622879,-0.026770041980435703,-0.43856974376093966,0.21105645453666147,0.6185316691429853,0.03247132129013565,0.24633939101028246,0.07931662052208387,0.024742995972462448,0.4333469093473714,0.24967007591698517,0.3139542204976386,0.12143295353572832,0.09405763171929696,0.5467836672928301,-0.021782353722327646,0.17453705759343016,-0.5648399962475685,-0.4775089993407338,0.1277129101347694,-0.45243839153232085,-0.48215207464668136,0.7500664448572635,-0.1731089928406347,-0.1158685062427038,-0.590822121647466,-0.0008729280624772788,0.05307544740014088,0.38098496933413745,-0.298168127897044,0.05704932676060404,-0.2675106142031666,-0.8616394198418401,-0.12552728982071523,-0.035374183780967336,0.08798122272581861,0.25777601517212456,0.5190650075453387,1.0719502637290093,1.2198961272137456,0.9117399604785232,0.5003011577480279,0.6209773091801819,0.3641447840340104,-0.7515745802573677,0.48436897390631234,0.2341911132398601,0.12872105003124,0.39875641533597145,-0.42873655387604004,-0.10460489494316666,0.060853007566783614,0.12099588923930478,-0.00880995455282786,0.4386145048903287,-0.48823328132136745,0.15362245054699028,0.023122089864746478,-0.0948088625477229,0.7091637563005725,0.45851835444596206,0.6527493846228153,-0.7135921164444298,0.8436169801342804,0.046286446640206695,-0.04000147900862591,-0.6316732603022991,0.2553581111408653,0.3173881148721726,-0.1678040079863543,0.1799335698827581,0.06187949668275312,0.9378586308966502,-0.5957587193184751,-0.25815804615944593,-0.3383170242621984,-0.006408550678526824,-0.1804342799420833,0.3799360704036939,0.7117553963434936,0.2969398824858773,-0.5520380737696665,1.0049250616131025,-0.13474876122462706,-0.35368670736324165,-0.14724471111949036,-0.10948317742895643,0.16422202982149695,-0.40011824475534047,-0.979873405599058,0.18168137686679173,0.24534467662054232,0.1486509217619327,0.2870993036937267,-0.2339686277017619,0.1740328226006238,0.2484990917055527,-0.3391690469196638,-0.35021709985206323,-0.23754003373440807,0.05798817174815319,0.1802267582234299,-0.20716701064435278,0.038432310460191965,0.06320399491860908,0.02711726625389728,0.4088299001164482,-0.23225561040049542,-0.020795868196030177,0.47564444177697446,-0.35249397568812524,-0.08910273652676341,-0.3083505022170919,-0.22461300678838983,0.35513984032195556,0.2575333689355123,0.21468351731162616,-0.049469079489844754,1.0140972118552574,-0.09016875101257299,-0.24126870768606734,0.17181821064210398,-0.031149716093089218,0.546927218621987,0.05404884518686862,-0.11026758845626493,0.9335119934596501,-0.8554696049099791,-0.20058600461103918,0.20294864003555274,-0.22317319706180222,0.08921522398659108,0.6473974921841922,0.07970881976497593,-0.2994868473410929,0.2563906262984315,0.030585136960349202,-0.5031421653981585,0.5006577740820036,0.47948639605663074,0.17904885594879646,0.8134046424370899,0.10309535734390396,0.36799361277620135,0.13305622624905036,-0.37717754953156624,-0.7247522692104206,0.4353798198646813,0.20159421653466467,-0.7736765475700335,0.028649309721449842,-0.10801556733824107,-0.252586932510409,0.17991968679261053,0.07551552200966821,-0.3167362400897395,0.08245700352072528,0.5108421628323068,-0.4183454942785302,0.4330778703181225,0.0021835534184950814,0.20550946933052858,0.7241014094359293,0.17592655773055893,0.44284355763725536,0.10627037380713432,-0.21085900070597735,-0.3751178799994198,1.059400789192769,-0.4011560153009133,0.18737631610284364,0.757632730682017,-0.5558550973817781,0.8017543833709372,-0.8435540667376117,0.6961838262061847,-0.0034365784609306023,0.43073193392194226,-0.27395877057628926,0.4359058546769798,-0.4248278144277945,0.14341107667076092,-0.2074864045967152,0.44400762777013913,0.3447130177445501,0.41569021423342006,-0.2115189133871654,-0.14957775809823162,0.2658810096926324,0.3620139450698618,0.4702295410060226,-0.19344155654353248,-0.09326814829438941,0.7891740738465803,-0.4466543420973384,0.29688926347228944,0.5444396434581124,0.5045597191088064,-0.18462126837991796,0.0033475338642508855,0.41046379508329883,-0.014657987728580624,-0.4939248130035211,-0.5327078584624623,0.0005719404742448478,-0.08387490687851705,0.21002213600128514,0.16798117179044647,0.11929575485031121,-0.0021741700972671262,-0.8094939988169662,-0.004172899741904722,-0.11877642271355637,-0.24257788319656318,-0.00397821449713312,-0.5716609816242586,0.6044659962603421,-0.16068852690521002,0.5289464079922692,-0.1103455323867759,0.4505348637172643,-0.05019653315459364,0.7006531509927467,-0.3681107392644202,0.6877125581073691,0.46802508259143266,-0.15330228488606823,-0.4563557885459347,0.015536735444164371,-0.33164934014014646,-0.36339524238052556,-0.060883098911848815,0.05999022227471776,-0.6339535317372026,0.006134751844084913,0.058719194436017925,-0.6496652793036456,0.8933182559956694,-0.7903693144092202,0.009130399417599954,-0.5486987103974877,-0.05212841191712788,0.2797187515329102,-0.2130095519691041,-0.19932532764294458,-0.4110823146591974,0.391890948456457,0.12577360245155672,0.38044661070185376,0.11287324834886255,-0.35128705251678954,0.09018476852599246,-0.4139803440990311,0.39447992131535997,-0.08292801694369595,-0.0643552819812469,0.08395636773553841,0.42075073887403536,0.22388231405541717,0.20309328132276439,-0.08659716969830868,0.6273831123652128,-0.3367740441207347,0.07151346261954084,0.19778686532451237,0.5205695829698163,-0.11271973471534692,0.43937254309388957,-0.36059760407009517,-0.04930643632016844,-0.027785699752149902,0.3866944553705288,-0.38009842814288564,-0.511612241341098,0.3998112750496226,0.05166447047059937,-0.31381347051549824,-0.1293492324349176,-0.07263755129586744,0.3106617064356391,-0.22682709352439537,0.5915788640236644,-0.648367941845615,-0.7613597237094635,-0.12802239100819954,0.5525267605685049,0.08484484631210254,0.05941602998826854,-0.08988854271224432,-0.054874391159821775,0.5868188154156762,-0.5782309900294129,-0.3224434468933669,0.4901760862805483,0.2888690997922287,1.0180418800032225,-0.23496909064510774,-0.17873539726789386,-0.18261223395555792,-0.1906455765612589,0.06423001445542717,0.06479349191375958,-0.3049414289726386,0.18014517233103783,0.012049283210245645,0.33662502081352125,-0.8769225818112901,-0.3597941227024417,0.5793423918990885,-0.357746468712221,-0.44529680055985604,0.18229485416535668,0.15426448666658937,-0.16672971400867448,0.6476816694728771,0.3310257944508315,0.3565754337560681,-0.26594041042040284,-0.7384802156363123,-0.33772368855465584,0.055774595371852025,-0.6350522032871722,0.03933373354824255,0.1779598212868583,-0.10507234648134503,-0.07959339997720993,0.2878833481284411,-0.22552785763712213,0.06614578019193255,0.09979104203018992,0.015643408943053348,0.04662541151898588,0.0434839919101608,-0.5055289591922061,-0.47497755365387806,0.6926427185387002,0.48807455770661,0.1317666118535857,-0.162589556695122,0.9168927723189597,0.011135204709920455,-0.28145353627201314,0.023093587150686445,0.06704467046187407,-0.3415847583725004,-0.026086246265098312,-0.9878392789920174,0.9397734285129417,-0.6726619438631991,0.7581472096936271,0.5496215654924792,-0.18092000482536627,0.4111550554583311,-0.2007925968507687,-0.6095667797751642,0.10840465745051937,-0.11404763161706426,0.3002305452307847,-0.03899754992074609,0.17533766830490813,0.42702741784800713,0.5295939092582049,0.7295223723474763,-0.08311082366905624,0.43064771984090006,-0.09505760848557306,0.6934750594204554,0.26415712861117224,-0.2687398754779054,0.5569823300299731,0.49467533085661336,0.2074040385146969,0.33982914564300304,-0.03029457690963824,0.6722315870381821,0.23706727163877453,0.46332551248833787,-0.08896426424414565,0.4621588409509825,0.2776138854078974,0.6297085947373315,-0.23182779083616925,-0.6533811929759268,0.08715869659513178,0.304616140623751,-0.011160771257229182,0.31798972522746954,0.3303220332010591,-0.29214160597959166,0.40585368638015346,0.5349414982581898,0.028372849209854355,-0.17978209702904008,-0.6117847347331071,0.0800952399118733,0.773267623269466,-0.18075504091058542,-0.07517642038059509,0.3671962425873703,0.018442772737762972,0.14397664407864905,-0.3308402292429285,0.12837297856350657,0.3777723001146198,0.058544311456973,0.26060328868689575,-0.04962427427384977,-0.36689111968510846,-0.3576431603458766,-0.3140888493361258,0.7314713677159496,-0.011053491348417327,0.1357583887138262,0.40713838529673985,0.05854483563834461,0.03248105052732171,-0.583343131120657,0.12845265362096933,-0.13184163890276154,0.21092614432268805,-0.3614587342764951,-0.020169895909546647,-0.37184304549749203,0.488052893346753,1.3328278027576408,0.44759676754810096,0.6655084277625152,-0.09809790900010076,-0.7469949350546267,0.42628828530950835,-0.14290698181055825,0.08636745854679251,-0.27706232075675985,-0.8346368988653579,-0.15916377763849365,-0.5830008398289559,0.49059582670048907,0.33099653881219304,-0.23791960769084136,0.3114116494529589,0.0482477162490683,0.17332604999730494,0.4450557180921234,-0.24612407689907756,0.23486583459932245,-0.10205096650629128,-0.6345890954484656,-0.4300789238999646,0.08702513107232393,0.718422884224464,-0.1656558695796808,0.4851045616664905,-1.048847423750465,0.052237268556608527,0.7226466557794017,0.17366708715945345,0.23027944036343295,-0.12380639681255828,-0.03788584558527807,0.3402670586310327,0.17630453217584874,0.31352902620386286,0.3321701005246619,0.14751681027196148,-0.11534692742041486,0.02509105546165191,0.1842311873939131,-0.7184876691792611,0.031446987052232055,-0.12683588207989055,-0.24421727715049102,-0.035661649614471914,0.594299533889507,0.1769629264700396,-1.2954795056162274,0.5316238994676132,0.05295931704869613,-0.0623633816654127,-0.38747478949875125,-0.07615772194831834,0.09698512593229838,0.15036731386501262,-0.1934844260222919,-0.3303003609866895,0.4937410822300491,0.13545614366316094,-0.4481866491764156,0.4136222127244495,0.060118492548095225,-0.33876620407713703,0.03069854084429124,0.20851882980694258,-0.119370369933238,0.24023577703122057,-0.3597564404580195,-0.2537594836081156,0.4748113278618345,-0.2731090076213383,0.38005720916325125,-0.5807156403392869,-0.2535794793943666,-0.14720173695822844,-0.015526617313070014,-0.06818781753284966,0.10446104096871048,0.2740790552408217,0.497269628456889,-0.01941063296959764,-0.3831009699502956,-0.40772649370617436,0.37638840461838885,0.06806449442886325,-0.27207211350893773,-0.4320149681489631,0.015328269178135909,-0.5102090228085099,0.35252400825639807,-0.07232306010104167,-0.6917221473580394,0.5497229770455362,-0.002266851980756702,0.5153806813094503,0.7034806472095803,0.3258841209624326,0.12606009741156243,0.09781718575290717,0.1306108057851598,-0.11035374769326935,-0.24891980620234652,-0.39003046605065983,-0.3787091498022118,0.3086445261826281,-0.30841229661740865,-0.8874034738136144,-0.06202519554000672,-0.3272453808178318,1.00549355261938,-0.407271371661792,-0.6977891870005503,0.16167110657520095,-0.14861530588571162,0.05942870696984365,0.4478454922802363,-0.33192246532274083,-0.41821716526457525,0.3511866582771659,0.4640999252730128,-0.550704897010518,-0.5783909478884675,0.44111203219619655,0.5152785485138653,0.4059682145021174,0.4579664139294377,-0.8012479210749666,0.009435836840682532,0.9300983383984436,0.2477658573252438,-0.45641647845696864,0.30035258916012947,-0.9467890769512499,-0.32040114284240556,0.15775315083039068,-0.30568921899191187,-0.3242222034927127,0.33213267889416387,0.8607160867567697,-0.06832761245826403,-1.1661731290013786,-0.08936687927312656,-0.23593704076737093,0.1891617979401463,0.11588880881277135,0.7104386404764843,-0.004834247612959822,-0.08497396124291563,-0.1835487112984337,0.062432772829617,-0.4504500109072521,0.19589328503101705,-0.3466277179792023,0.25424901114019316,0.8228905973055624,0.35559206940391885,-0.25898478340628533,-0.7689399828554692,0.5339890668104993,-0.10903842915420892,-0.13184344297561681,-0.10174398944094866,-0.02089437859829441,-0.3333805728416794,-0.4575703402676027,-0.3886106765919106,0.1741785135267127,-0.08986069950913708,0.2643629269449372,0.23615066024430012,0.27165996114059904,-0.6735970841603747,-0.46322382202974494,-0.47914569462714,0.3047822973440393,0.047346324960377266,-0.32795431509587836,-0.30125597413861566,0.09113846946911214,-0.7635621520555442,-0.018056262709224415,0.5098217610778181,-0.32990026443034487,-0.09849506747088672,-0.5308566988887232,0.3421453692985291,0.10259968043837754,0.4578875048920475,0.06281309579656155,0.8157823327609464,-0.7639028312817551,0.6601011026243707,0.48574007531877755,-0.33418448311075993,0.27413262279432365,0.5765459491219923,0.4585042870282179,-0.2934835611454641,-0.17297352653329812,0.23715501101824019,1.0373409816230614,-0.17097148320291183,-0.4494949949685207,0.2685063612460483,0.2922903103088448,-0.15306701448574403,0.36073328653558817,0.5689654249559809,0.02644175962018237,0.31106164040121154,0.12772893056489912,-0.22524000738822736,-0.5664194149327922,-0.4766940078746284,0.15362325423415882,-0.4571009098299318,0.2758994843116209,0.7455728839081063,0.566472173112582,0.06635625932576675,0.5554079813346617,-0.26661517978526694,0.4147439755428627,0.02901466858863142,-0.08663075298928768,-0.2634530285838887,-0.20313440427109847,-0.20494331911238986,0.3951884138148131,0.4979040421245627,-0.5245205954442352,0.6369246944629362,0.9055562146541131,0.3414802245727631,-0.031096259992726815,0.061333686629728885,0.19388055074048882,0.28124888866833747,0.005911039808032384,0.5987881485203687,-0.26359036258557783,0.1682640111242687,-0.3120176964523332,0.2656246987098224,-0.2714056664485245,0.438201884827131,0.26989583884168694,-0.631491957909151,-0.17327892263248545,0.03830770884268582,0.4847118044226769,0.08394190877928218,0.11444491981791201,0.6010071054345361,-0.06277458243847577,-0.48746847352357653,-0.4882419240607828,0.20365548821721202,-0.09610307266932337,0.19824943534851008,0.5312487387241215,-0.06760376537093656,-0.2539918469655013,-0.22288152164768385,0.07410714332197417,0.5648383514803526,0.08972248925937093,-0.07515998001458064,0.015192921697562646,-0.8625672108204377,0.26529615506658144,-0.005057279397554289,0.11483984466230707,0.43211887713488506,0.20510070456767737,-0.5213296401994143,-0.6756086386384239,0.2986884317140344,-0.5993861607332465,0.592789956950381,-0.4161241737075011,-0.47731899349849943,0.028769344318915913,-0.0641641955597293,0.0434924341593677,0.706179011556835,-0.5588616217175063,0.6058980193689452,0.05155286238152859,0.057675577441090385,0.1300531915145203,-0.22133349410022218,-0.4379428777027318,0.5752860896416968,-0.14578074414040018,-0.2669342315585666,-0.28807440184841016,0.43568049333806336,-0.39218241462139697,0.2695002361773539,0.6952012088528624,-0.016398136422020242,-0.012274263552944094,-0.20651679660791028,0.3731812578338582,0.7836898264865959,-0.5411622603633713,-0.045701160784259995,-0.1310797794383023,-0.06781367638134737,-0.0998502578215717,-0.3367561542104028,-0.06870686087481544,-0.19996127503365957,-0.45733133713412116,-0.22381387777388492,-0.27299006183859303,0.02231389355015551,0.1820690057641445,0.40084616251462735,-0.2837443534653752,0.23272002250320825,-0.18304181015513815,0.12102942858863038,-0.4823019871532886,-0.14209071885085126,0.6227282883484592,-0.11978871082914821,0.10805513297387265,0.7002558997387945,-0.3422295411280593,-0.6085467327564171,-0.4522344003714562,0.40873808996375693,0.29027620027402806,0.25920181718569174,-0.2851493193304345,0.21870174320097602,0.32073488846794646,0.5834254423993089,0.4553568732886178,0.2977679561821432,0.7526490341959156,-0.20784327103870845,-0.10148574860875138,-0.40607167892982615,-0.1835864993574841,0.592792768732534,0.5746308365101256,-0.32406014808765754,-0.18575894502375487,-0.38541272548451483,0.715631870985967,0.16356885557419062,0.21720693423419365,0.26344039897162963,0.36472912390590184,0.6271716951615146,0.3790862415664832,0.07685434566274404,0.17355846224510926,-0.31159205461038675,-0.7232296279158318,-0.582363258427675,0.862271682733944,-0.5357605518124529,-0.11876124781603217,0.5029562996796716,-0.2124777978960938,0.3399838314126416,0.40579305431429125,-0.619700521329668,-0.49193063395354647,-0.14540187556372783,-0.11452090383221988,0.048296817559398526,-0.0194129085706647,0.01754155048085359,-0.09989125074532361,-0.5641083990639344,-0.13919615447505646,-0.058830872051176514,0.11641527921110681,0.7348767649171786,0.417350531255292,-0.3759435900077246,0.18069911401484479,0.474690325235806,0.41189863659704656,-0.09435666772620986,0.32671461274875885,-0.13913085848794993,0.1645471703126741,0.2711687231484172,-0.6402730156950481,0.7452212171142363,0.38931566033295256,0.31529956961869854,0.08117129846295101,0.0816391933622814,0.1461987295266162,0.30366459367158766,0.3165756502616126,-0.20130284957300507,0.7107939337080142,-0.47625271616188986,0.5965920021867016,-0.38942940019766153,0.03446464665391055,-0.33312485190480573,-0.6208339332417011,-0.16411754259837408,-0.7513524615778733,-0.15384923525220812,-0.1971217727566302,-0.13475668291332188,-0.3862379132573363,0.33692389707861287,-0.70829058937216,0.16964696372771787,-0.19214229481203357,-0.12137036780396042,0.26046400415149346,0.17802959628125473,0.2083938857949071,-0.03124627829175466,-0.14115875725969484,0.8771348224159182,0.19019595666064298,0.24692473524847933,-0.16296468932106944,-0.6806022428225832,-0.16017406464788184,-0.25991343528764643,0.10465348282152363,-0.19849335551634642,-0.038513760440361804,0.4033794991625118,0.43676050960612917,0.11899074764471879,-0.31945987540682036,0.210335782142611,0.20246572365856294,-0.3022631240278212,0.39451120459552425,0.500028645877507,-0.39945368478758,0.3838898196435628,0.2654608099551343,0.7594226751984118,-0.0604426675575726,0.24198166863742604,0.3244527423926977,0.09545149244105362,-0.41024545979909866,-0.8817651805141187,0.12241924943455121,0.1762232150633683,-0.338270999543783,0.1941834445194799,-0.7296548569613395,0.7438086327963596,0.051957458969050054,-0.16818805245516855,0.10988725995303947,-0.31578170421963847,0.06842464533037772,-0.025712793252806898,0.40730120053388036,0.44377064303103597,-0.22664707373887272,-0.20327099070932322,0.5254434635752144,0.4470561868895666,0.24468660452876806,0.8154697862920431,-0.45857931962254456,-0.5503297736700454,0.4421684579258442,-0.11926198017458724,0.12940575669242055,-0.27377633056333167,0.44286618220630747,0.07150429300432774,-0.21655682445504193,0.42150630164417613,0.010752367349243036,-0.28693579808074393,0.4177907604785035,0.1350740623183198,0.45639473737283964,0.39344696437199006,0.07527581767207578,-0.5671441956303123,0.5783899642925054,0.3015433731559603,0.17560427497059358,-0.15843665535016768,-0.03472302864792264,-0.6053840511567551,0.5081281203052915,-0.9409539761528147,-0.5289393852929735,-0.0313677706969535,-0.3778817585911788,0.011651621202382214,-0.08178121613466395,-0.11650050761495966,0.2278062731987867,0.23784873094054088,-0.19396588941821108,0.3964245660093372,0.14911046153302965,0.2179293959044774,-0.6484075314558169,-0.1847526119348851,-0.014703650989017608,0.5111889351833652,0.5627496042343245,0.49312603250098147,-0.49440965299896916,0.9000873835336444,0.2675893530447815,0.3289012975658057,0.31167075584352694,0.42453945776271773,0.30058109001264954,-0.30886046511743526,-0.06992878097373972,-0.044966371087989246,-0.4619955122977075,-0.4540136113676917,-0.6207403501073059,0.3626543519381797,-0.006689788226164645,-0.5628232820654788,-0.26525425846505424,-0.47921560267647517,0.22472913979519474,-0.02001217757705594,0.05746875374997729,0.26955707970342696,-0.9665411076445235,0.4470510806550058,-0.28465544883624233,-0.03884395341474215,-0.16232028228791645,0.12779811962375523,0.23270561547591895,0.1258673759796873,0.544114949468319,0.5861949116937799,0.42079257178030566,-0.14857057296220866,0.47233688851660827,0.24731324461366266,-0.2920879710236263,0.08170984949063735,0.2760899072911254,0.3604088196860514,0.0686643164105563,0.9245487793033693,0.7064373631350594,-0.46494460223532247,-0.25662973822300345,-0.2604752479970789,-0.20135405899835437,0.6090627738157328,0.02542768489808108,-0.5039596347762456,0.00018961033666273043,-0.8554242692482137,-0.569093097100811,-0.39489130651199955,-0.6559603019409161,0.4816098994860054,0.29237181912241267,0.20582143639750963,0.08182454223821715,0.7965902078685339,0.8382387325505486,-0.3940860609199819,-0.14229548800265654,-0.12769405680013637,-0.10595015520069205,0.6378931098431185,-0.4073464775933694,-0.20408966814299886,-0.6305438468748766,0.20837915717471525,0.1934604067516935,-0.24366470832092646,-0.25808476737450836,0.24665695094304227,-0.13223337873173194,0.2625702282854757,0.12951484888220052,-0.1429259810647708,0.017400230846317304,-0.07042008143477636,0.16087889911670336,-0.3331802003733135,-0.1532795725645606,0.0845161121039396,-0.15839081790167317,0.6338774550652626,-0.23501567423772113,-0.1984242983548048,-0.024290838045599637,-0.6122225236944193,-0.298874083363234,-0.2541992371562895,-0.1254689974886913,0.6586888139059951,-0.23500035773533642,0.017123437292229166,-0.8074384524592835,0.34719543178886847,0.24413659149316777,0.2771947572158021,0.5110630821132175,-0.44302556139233185,0.11126609782843155,-0.5424008575274175,-0.3268777421667641,-0.5348853002116674,-0.202525191335993,0.003522814035534499,-0.4608656687824539,-0.5624426346176062,-0.03935233736044752,-0.1941563650390804,-0.14130473132684562,-0.0029170826151388644,0.06990803758602564,0.2966097260680042,0.19439242654790484,0.21530436233430053,-0.2310056969969399,-0.1525535625951474,1.012802361325446,0.1384196686662446,0.03993137205061575,0.38463887286002296,-0.10176452594026678,0.10585531098197218,0.7018519884944074,0.25766537351365415,-0.6425975810341582,-0.6487008524179049,-0.11935274395174131,-0.45256399408882614,0.03745158305818996,0.04754978624320296,-0.2985203745753987,0.47329874024871565,0.12308909992523019,0.280346279931661,-0.43909649944486745,-0.46046237836823156,0.14595550318239184,-0.19317861630874109,0.006222414465316063,0.38977597300219385,0.49837354879922047,-0.12508829858630363,-0.21361883354322855,0.5114623448270923,-0.12101562096306871,-0.1348807938804576,-0.026598778242241265,-0.11306520097708724,-0.04708330711137147,-0.18365588654552303,-0.16909255570575665,0.03690380846130288,-0.1379728522198513,-0.264421131923925,-0.09240342133499567,0.06396914688177441,-0.100749269199737,0.4229701966395147,0.17144843109687924,-0.32910300759162575,-0.20211615805894642,-0.35616325899877616,0.309031776431018,0.25412552207547134,0.07420358292347318,-0.09967522358785647,-0.09310397196882947,0.06042223375777475,0.39499117669865536,-0.4306327945076987,-0.514873433341071,-0.3864589937807229,-0.0767356612853691,0.5463805845908193,0.03707906554034406,-0.3365428069213902,-0.6462255308082469,0.0390926877560502,-0.5768412836536106,-0.1475048730006692,0.017418806903036047,-0.6365326466556742,-0.3737039934626083,0.3941183594738464,-0.0707864041876055,-0.4052859367346931,-0.32206132979238494,0.2692260414890552,0.17743952312150593,0.06562403050815255,0.426687305379542,0.14701601781649318,0.3111428048642374,-0.10084933724134287,0.22490436275131886,-0.0005717174698906155,0.03950233047886723,0.5053019665603559,0.26982940588582627,-0.0158131319217778,0.1893272853796496,-0.2710117858968524,-0.8004534695644758,0.0024150207119046844,0.5119481299081192,0.2504005660009121,0.043031885481991106,0.6183866335604687,0.23884353706318237,-0.2684568683318449,0.2946983195228694,-0.5379132131492586,-0.8834502036000105,-0.24472636928425415,0.3295660062759916,0.5268457930981625,-0.3425501109239592,0.46845867286764614,-0.4953388159121379,0.16990814167891982,-0.49150706566178504,0.32576838730263835,-0.013168064744956723,-0.46295308437288113,0.21655844263901375,-0.10390484894587759,0.4910596292019263,-0.17968183320108636,-0.2045680777655136,-0.08081902410790513,0.1301604319996159,0.369584720921146,-0.40298471009010484,0.061270762410109154,-0.0694860996569013,0.02409917653072328,-0.6387179756810574,-0.3475422160357927,-0.8875411655369775,-0.23095344349941732,-0.10185224579298491,0.07635584126019761,-0.2788279019481425,0.46083264923577,-0.24485938757210182,0.05464269165126219,-0.008022788214050126,0.08092729501804452,-0.03716547904328921,-0.02730261354921261,0.2761883139304123,-0.23044242432151846,-0.7495588259833237,0.098702397460212,-0.2253708290728234,-0.13684879047535428,0.8689521600418415,-0.633800463617851,0.26467631105245404,0.012108974909555694,-0.48380415914036984,0.12812550226711175,-0.6584679117967942,0.1795266068068426,-0.44016110107235135,-0.6248467600579068,-0.13992615117859178,0.38528623731950834,-0.10887695952730506,0.3354105484221267,-0.48455302942867595,-0.19159402135704534,1.1957311904070551,0.10940843982829587,-0.09603273775107136,-0.40961574675449003,0.0926907432170613,0.2213614203966228,0.1678972008029189,0.4579653607281666,-0.23317026791237144,0.34154334261650793,0.1963198092799387,0.4375960478291543,0.1466709131652967,0.37211513120196194,-0.50781253635465,-0.03207620841157158,-0.14770382926033615,-0.6272604108850118,0.7419016085599449,0.301953683566949,0.4605372336739409,0.3502647811044708,0.5994716001329425,-0.3272342977257557,1.1172825800883843,0.11205787407938692,0.13310665375503916,-0.21242469799612873,0.44244750153681117,-0.02506547133221688,0.3017683879699742,-0.04306437422088454,0.34086913842509275,0.5178634741006428,-0.3052364815073549,-0.10716081544860827,0.06961166166831236,0.8266727611523512,-0.09328036268020512,-0.7927096813865021,-0.36912272430462917,-0.5534477885625263,0.3942218392723456,-0.3223958100195207,0.15452854744690173,0.21484058467157235,-0.22782451915595464,0.615748127545626,-0.5890998054546424,0.6820329366896211,-0.26082640098638116,0.12039236374385154,-0.3894270252163911,0.4344065340181918,-0.10887494887014328,-0.4891078347062676,0.17328107711880356,-0.08711720844587718,-0.5583317170825474,-0.12164050524864767,0.6774958747071281,0.7303618186889675,0.7401366490453671,0.5975947733224294,-0.22806870069001292,-0.7129433115510381,-0.3041395439735815,-1.0256903429523143,-0.4546927292791627,-0.1711500137441429,0.6678241981887392,-0.2385127424104805,-0.23368043726710322,-0.05001816784786044,0.6111094777279731,-0.38324329324149264,0.15386826234272571,-0.21742867102558502,0.22781968871490005,0.6289740999984573,0.09022066856897651,-0.08022429163401038,0.009125139886657108,0.2310999893017005,-0.6750778164063361,0.11695182455067821,-0.2905899138462829,-0.37616718905567303,0.0752983605898465,0.0977123694704983,-0.12260841468092014,-0.2730366602574759,-0.5058185387001293,-0.22235957705756365,-0.05091347135792144,-0.11337920781801379,-0.09846755683942797,0.29523934814972475,0.344062796203913,-0.5828157304851737,0.001709765239579491,0.19126902559201572,-0.008238670336594867,-0.06356294016358999,-0.37741362845524673,0.7669199481051862,-0.048389644273608666,0.0037197165945641168,0.014456698254348727,-0.22181670303304202,-0.03460536634845712,-0.18375174500168262,-0.426433522464549,0.632977686244799,-0.3474260118477784,0.2808410223089122,-0.6342452745094787,0.47637644849362326,-0.20721904723663495,0.09001450935115025,0.19072105609620638,0.14776573230625004,0.43768728227945164,-0.4351421734764707,0.0804461620331708,1.015590310360116,0.27823050258658755,0.04415507227695986,0.06923446271584603,0.08452410949570346,-0.12488541638075916,0.17907622562222392,0.18168183662097487,0.11658761203182633,0.14083287262672087,-0.21392272520630565,0.15416263807135874,-0.1371603975091181,0.0012761638648695328,0.22511295750644167,-0.42626150190416445,-0.4313522635920825,-0.05430577831904964,-0.26524615693903336,0.2534422795919437,-0.46291564404969154,-0.867060502299105,-0.2235016861537121,-0.7566011185865824,-0.2673532469446567,-0.4158135879874477,0.16137975585320966,-0.03241702740439198,-1.2172995378010134,-0.14232672699822096,0.8303696464089532,-0.8025484050360516,-0.2507376013447963,-0.34848695094325066,-0.14257702400174793,0.07146319891022569,0.9196511872381927,-0.3491045234050791,0.3193123683413958,0.3161152731858368,0.3434275098592159,0.47958793525387156,-0.6999515778346024,0.5458776783034174,-0.4669966054344868,-0.15911890818896302,0.5347363664553282,-0.6662811197891553,0.2736932553272019,0.009875930027069988,-0.21679322293311964,-0.035868487260463294,0.12113121647017627,0.4890620179405133,-0.6267026508086098,0.061197597886841516,-0.48815683167382967,-0.09578385583605813,-0.2475544341768209,-0.23378830470826864,0.061329825533147406,0.10106892687232323,-0.09313499975725018,0.42791614221231944,-0.4897254723562615,-0.9395314562113798,-0.3338141865184488,-0.006570497140988499,0.13869822630713824,0.9349647150554764,0.21075823343478878,0.6116470368272968,-0.008417180605793894,0.5642435518591605,0.5912358994388085,-0.5487378515961402,-0.40471255139187057,0.5937742849427243,-0.28493091047914454,-0.37370111229645187,0.18548417566646003,-0.062229028480251275,-0.25252570059572793,0.9032092954272929,-0.22392168235369855,0.22091870589917642,0.39108819344217405,0.042050756178375955,-0.23554108801911683,-0.20342407665333728,-0.383849194846586,0.4377035437191406,-0.9810295944387842,-0.20229150333590976,0.6512179986032054,0.053857994205948556,0.16033674003521026,0.2888388768750988,-0.02753928021495924,0.48892495835090716,-0.3271642731117909,0.044422866383655675,0.019924071968799497,-0.11218804111926858,-0.22277331678551554,-0.565712365692734,-0.3639117788889031,0.23050524354654564,0.5882836554142996,0.21657775299418347,-0.05505988497533452,0.09886276740808315,0.38321684040569104,0.09569571827313372,-0.9862888264267103,-0.6596344454297896,-0.019131415020375006,0.013187785016976424,0.3733349618006858,-0.13964868460452362,-0.0782479732299118,-0.37686417323794574,-0.34670082851203565,0.12010948738515177,0.12504211299020473,0.5368506112521144,-0.11790290630670167,0.07249748648276959,-0.7093558049397217,0.16502810673471924,-0.15895687000915873,0.07151829193861563,0.3594764416366966,0.5046565383194345,-0.34717295465252485,0.5552325141450147,0.20931990075153978,0.8060144386976529,0.014830181901067175,0.3602614548164333,-0.1357287886502909,0.32936259890861525,-0.45807003407049085,-0.20463625796618776,0.15587504342916428,0.48134413659659164,0.018568375293992315,0.5935417187664784,0.32290860285539963,0.1706279771459238,-0.07814475765065516,-0.03194599302846718,-0.6273098648290399,-0.838370691080913,-0.736250282571538,-0.3407225682947126,-0.01638276632813258,-0.07879458858001004,-0.0873845792182948,-0.11948146905985707,0.3628929438593244,0.5880995209688676,0.6101648385967958,0.4600820791116437,0.08864156862242041,-0.11223978307122097,-0.047575908988163614,-0.016882082563365507,0.21826086053438262,0.15877149350498448,0.02026404499564949,0.12996928087470255,-0.32155023820050327,-0.43530697624858405,0.02983038524208997,-0.1719767056012865,-0.005745028237677765,-0.29038451022807765,-0.2423611198642405,0.2923442947863957,0.4893313891423747,0.0947108597106972,0.19135084906561178,0.4926460515365656,0.3301102984217753,-0.49044107387271035,-0.33248661097037,0.8288259399628843,0.035358868886016685,0.19231822330075715,0.3503281757074621,-0.33730169524110615,0.26707635885570363,0.5399019569504958,-0.7171207486321387,0.7273602956050303,0.5764358586740768,0.6559458638660729,0.20553740575524107,0.4413808208388851,-0.05391984706082285,-0.2791934317906957,-0.8281219968333985,-0.17926157394488954,0.04722166082815167,-0.547605375338564,-0.2804288266014491,-0.6873153972651945,-0.3920663743270145,-0.7772976860841557,-0.4788735380476396,-0.17205266789044596,-0.304221591656733,-1.016650204459675,-0.4584381855780032,-0.40521497378198185,0.18838836918948382,0.4801129047832435,0.005220182710985787,-0.644716588420053,-0.21656758989024955,-0.40225952649341473,-1.0498669734979502,0.32521802603013533,-0.7919574286854806,-0.1471410285855266,0.453915691006211,0.33067454333964685,-0.4356978090616649,-0.0771389377557798,-0.8497894544438753,-0.07022311626074833,0.21163070991026425,0.31749892832166077,-0.09599067477822344,-0.7098294175466264,-0.6700563033253689,0.23675493123143576,0.598685021007864,1.350033977658066,-0.5365809321888436,0.8406804735779628,0.33528084299881733,0.12043856985678963,0.2578147561013746,0.06068036862942338,-0.6024305284290556,-0.17918656121603713,-0.9926095368951917,-0.4125606473324692,0.07062287869925854,-0.48738573724525225,-0.32041570467020475,-0.03271067162218174,-0.26685011580512685,0.1409986727012482,0.39749009513306044,0.2046245973287549,-0.05787634497155777,0.655187854372818,0.02719401093002823,0.03405866168916008,0.341505063319499,-0.2290304502926928,0.28868180616454936,0.07445369664477364,0.23566393464586607,0.43672754605349606,-0.14124008507667657,-0.1560378380574137,-0.06916662918271033,-0.3145710103816309,-0.6418687554563652,0.1323663181490464,-0.15511418612406122,-0.4234254827920686,-0.35131624142605294,0.18542561373214095,-0.4337436781997363,1.1873200967474509,-0.4909427779706469,0.8556367690836667,0.7587804847965018,0.9666207725578867,-0.7421916376776055,0.12909459854937394,0.3009209135025385,-0.4024252245589021,-0.31868429421748795,0.9992254256083728,-0.06996641815403849,-0.3261867276503514,0.3217211568824328,0.23259715774181666,0.0903878211293929,0.24173156806126853,0.17323959469353764,-0.07734740649983367,0.3732781078115007,-0.7307703334693325,0.4868739742639478,-0.07464237287023609,0.5959706204796749,0.7287449413555867,0.34933949736917924,-0.011317131577092842,0.30646234021519364,0.11005951959102538,-0.0480294299542714,0.14324682628621546,0.4115092469276101,-0.4579524385022255,0.16326118114202448,-0.9983239937242139,-0.5147529772950635,0.10347116637679912,0.2861630673709396,-0.1709409546351862,-0.39428915360041616,-0.182626152623934,-0.12845180388090177,-0.529374226779615,0.2787832396319468,0.3857202575523096,0.05504746417050377,-0.43878749922437993,-0.7054862122922406,-0.3096878688513012,0.08846378041718864,-0.5602040914110296,-0.14080692849916038,0.44220322724167044,-1.0978530952789118,-0.3575291893033048,-0.1103487719515178,0.4470671366532027,1.1707191587131784,-0.88075962864799,-0.39577532481515504,0.2387894703972879,-0.12675933711724421,0.11119161156060121,0.16408667251295792,0.3896191596040228,-0.007016718647344661,-0.5405719416214465,0.24399228108885906,0.7366375038170064,-0.06513609958015498,0.13352143291369623,-0.5750855760245557,-0.36461119117556345,0.40020294533025386,0.37885199071001713,0.04418908607093846,0.016083166154458043,-0.29230092663582974,-0.11069891606438392,0.302066199389585,0.026014089348979818,-0.0901609556244396,0.45820464069374156,0.39981945417578746,0.37508747131571024,0.1525539121949896,-0.31600717257296346,0.22058774410778342,0.14631339931095932,-0.07386140380828905,-0.41676881066272214,-0.1054274856423941,0.245803817233016,0.4509679196523098,0.03797932085590057,-0.23830222821845337,0.4460988390953331,-0.002234195869604661,-0.15336647789124064,0.38325620908068025,0.27206529547134933,-0.562720923106973,0.06130869399635949,-0.050836189335468976,-0.02949442903291031,-0.25297774925044964,-0.48017053103970314,0.07195335988781094,-0.9280646952768514,-0.2141144408221762,-0.28593386830520584,0.0015441734023622818,0.13601647317698437,-0.3911845602626363,0.6231396666172822,-0.6303381581781393,0.15178552565725373,-0.146285021105927,0.0876560181598553,-0.36426256007753544,0.301497686281376,0.2167198806502797,-0.09234292740140837,-0.08497969393946825,0.2226427424010681,0.009881438261293177,-0.3179720577901452,-0.036181327299917576,0.15517789323308873,-0.565286390327543,-0.5672623812338019,0.617294128521567,-0.7561630765635938,-0.32629624698008486,0.09295020044386097,-0.3441488906586167,0.7274626687114027,-0.38384126448290795,-0.20873195209624282,0.6269899943842704,-0.3037869685755332,0.42852511022469103,0.07513484781455221,-0.5542108806599421,0.04048309435088372,-0.1379272565434549,0.12482232894130645,-0.40997682528575585,0.47636199890215514,0.4605823104701401,-0.20121459082286225,0.0722026123336558,0.40109998568753064,-0.11970370732790188,0.6658292638906513,-0.2577799368302559,-0.1901544406456888,-0.14112985145111123,1.044532401642938,-0.0052845044011242915,0.06258870222887254,0.31686955514239074,0.5538074130280688,0.5961553507039747,-0.06622350883854645,0.38201261153677,-0.22510546949155202,0.14311566543246657,0.4727175787221515,0.5149715890555584,-0.12603746782832662,0.851324880868239,-0.24307327494185726,-0.4096759758844848,-0.33605785812990463,-0.8598694400295424,-0.5390495099707115,0.6257602793231771,0.5238469280956963,-0.5755714636211097,-0.039336226137737317,-0.4754194726865979,0.18899512121520898,0.5081460423760059,-0.045012799272034845,-0.724328608173848,0.2293926070283312,-0.5638446435715789,0.18801458288944292,-0.4264226158957167,0.3000809112723557,-0.07623606403383035,-0.11651491433659564,-0.04635160341406398,-0.00872749526183205,0.06426281959911496,-0.10085535758557,-0.35815094610013054,-0.17559649259829227,-0.09142579960731008,-0.3917327226243528,-0.7199959994399315,-0.044428780237544443,-0.32988860172309975,-0.22070697053676153,0.4177493214371131,0.6479508928190076,-0.12279628310430504,0.6761194763227892,0.15062368577216217,-0.015433853529555388,-0.1259084395030993,-0.5261312739935089,0.17427256546088551,-0.07303985679504123,-0.07530001780618444,-0.6600426692770482,-0.24810204380453413,-0.20077609809395924,0.4145039011351558,-0.6746078316935488,0.9196505825060536,-0.8399648995424589,-0.31879928145156033,0.5161753171292799,-0.09595010172751649,0.5713756570190279,0.392980559923989,-0.05296307663770122,-0.3191036797671412,0.28876803361781533,-0.6445865690974724,0.11121364427151699,0.5060959364582607,-0.35669662761523524,0.6640550955424886,0.37011337631070407,-0.1389802044889225,-0.36365267155383124,0.7289614199511386,-0.18026002930362592,0.030551121605771576,0.47253145938757624,-0.1368557611618761,1.0457411355744575,0.4014804158272326,-0.19962298005273058,0.21042315342847506,0.7775072403649064,-0.14831692904262864,-0.4509069005975857,0.2744232638069235,-0.6409203641113869,0.249986593812207,0.44358242254863156,-0.48260041201930104,-0.03582399200629997,0.20539281332246762,-0.11545632880556517,-0.1384469988146432,-0.02639881855578001,-0.3200515658196124,0.11257091772521133,-0.2464789138343782,-0.401918193766073,0.9672443938537857,-0.09649050763518645,-0.14962532365072415,-0.10461525415216978,0.1561594161371836,-0.35647592775638587,-0.22186309499477247,-0.05569918952474307,0.4508315896972476,0.0006261902778263642,-0.463947554533589,0.442490528093426,-0.821291220315438,1.088030896090224,0.23236747855102455,-0.689381114663775,-0.6501798267413984,0.1763299366492624,-1.4190482692376627,0.3820422035876883,0.22056988239148465,-0.00635065588523554,0.20196571615359324,0.018072106813950373,-0.18117255089355308,-0.2768825327516753,0.4739551072835342,-0.4773975426838958,0.08311794765880184,-0.3456472755573964,-0.15220599249168973,-0.18582486371623433,-0.5528846149542217,-0.28231594990076037,0.36013845561897384,0.2555093519298296,-0.5855178132304476,0.003452814494417538,-0.17315591851402767,0.1039206810458222,-0.11270940292895368,-0.16393864738175334,-0.07979035755816433,-0.03942983705263914,-0.4906011722217203,0.10092238655565723,-0.0008867427653385823,0.015384467645181574,-0.7468219262567537,0.534616107181529,0.7712725531083459,-0.1547212113267724,-0.546909660479938,-0.24233438869021595,-0.22943222604210683,-0.28504030411029924,0.6027162110918838,0.5619878241914644,-0.3033196491106118,-0.22047043152757742,-0.0012171444721043618,-0.4801626192812043,0.0477240771630826,0.3148031438561081,-0.2086644293200418,-0.005335372742557718,-0.0907232259780906,0.48957140316305486,-0.09905698624515835,0.4410656871076596,0.07588816475971165,0.21999524108745175,0.282872697221441,0.11228707435582796,0.44546648877333833,0.24829261268488595,0.19685786815169398,-0.09303217123454877,-0.23052724446035622,-0.6091604109486403,0.5314104597037358,-0.13861321703197207,-0.08853238081912657,-0.4650716554915179,-0.24875717142849652,0.5022846605718911,-0.17409408515877484,0.24616592988763938,0.705831417266526,0.6222143196875554,-0.46845515816134026,0.25079369506165256,-0.01656837284629712,-0.016758619554347348,0.555413396560181,-0.16717680548844702,0.20697078105188513,0.2232870800081539,-0.18022096367810703,0.14595415816354163,-0.4104791360322012,0.27890153755753266,0.2876096086752401,0.35380139647248227,0.23120917972372237,-0.4591832156453019,0.22014402492012355,-0.6382459710129413,-0.5216589160825699,0.7489211053225077,-0.16257226922634424,0.41204657030143826,0.6560478740051716,-0.6422873428211514,-0.9863900948420614,-0.18384250971104382,0.5057820061350639,-0.06900745034605435,-0.005852129044426451,-0.6399673875253874,0.6129125768170154,-0.10947046716599441,-0.3519552925626639,0.0004578186929752075,0.04825154754215101,0.1272261932104795,0.4160357311902343,-0.22093208405278697,0.24057213968749258,-1.027376332485215,-0.18577736385841337,-0.368090269681348,0.28588592910174104,-0.35633906172867835,-0.1713697142965368,0.29893398651886516,0.3466585462876236,-0.11903618311149493,-0.23864497372080382,0.01974888074685902,-0.1884538031169899,0.3098798547571009,-0.030003947431022273,0.28514510730847037,-0.6037990044347258,0.03441772654391133,-0.5933847800225932,-0.5986430383597312,-0.24876198158624532,-0.21863550865107415,0.5702118578325865,0.19147117710164768,0.15543117684584226,-1.0448648230774766,-0.4468606595579577,0.42821541786077794,0.42564734461372056,0.04354729338974574,-0.32785338145220555,0.3332898112608296,0.16284715981952708,0.14379762373613547,0.029723533924325824,0.580973012083636,-0.6355646751341715,-0.282666945725441,-0.4855034613841307,0.7362306454830987,-0.7292435686878135,0.0817290171028786,-0.3933788298568396,0.19006975284778813,0.11943730915832099,0.5182011453635872,0.22291873787775118,0.3161615928569073,-0.40457810235589625,-0.5375532246477994,-0.012403370736135316,0.43531341014198655,-0.20053339519824195,-0.23835272492049192,-0.204185878343161,0.29697536397961577,0.16920235181150703,-0.37670315934316284,-0.061069961893627026,-0.30106277536872594,-0.8650291057453265,-0.7040464960158862,0.41333738314118745,0.5161583798228823,-0.006644049359565401,-0.06712152928675755,-0.0075777624984780115,-0.2032977750187336,-0.30890822874512325,0.1729078373388275,-0.8900421457252513,0.1114114883391251,-0.21666698936914777,0.5902644831728463,-0.5430374977615161,-0.09172340371406962,-0.1933473128684951,-0.26855236458438864,0.1134466647199193,-0.5362239573243804,-0.6539239470261998,-0.9705986655425631,-0.31086371988626893,0.050332689886508984,0.07219877929232071,0.4461395690381819,-0.03614847720962295,0.8553627164574927,0.21836942173375015,-0.06953963505088608,-0.5244326039490023,0.08202654088048446,0.23440431697194528,-0.302802365687706,0.7551506313904801,0.4069283947554555,-0.32981670777404964,-0.2782242087573841,0.4132286186456286,0.12381389713219249,0.44138739946089744,0.007291926065541542,0.02613306034297661,-0.017753709717109965,-0.16734279127377433,-0.7885576814786135,0.0989593621101196,-0.279155503399739,0.6124020046837823,-0.9871045914509309,0.19211742435974244,0.19695803065815917,0.026134213146567532,-0.13024171000724255,-0.32079224987853105,0.6372244477907517,0.056980864740654814,-0.48062715027747754,0.17441358821820363,0.17677420610925093,0.09017601724438117,-0.1948640702929065,-0.6806394877714466,-0.24281719455920842,0.09184874101534003,-0.32857710551891645,0.4286988116661071,0.3094323420781313,-0.22763100336926084,-0.3979385865267756,-0.17391230447255512,-0.27349980766645693,-0.2027832679114975,0.24702888598261372,-0.2535817912057782,0.5072279619769154,0.19877993752251186,-0.1715579634904782,-0.1880032840090306,-0.14549373669714344,-0.36096847081045064,0.34522125196177916,-0.005583351788147769,0.3636787565396064,0.593686424625942,-0.4413490100557993,0.0976210458462635,0.2564359666704685,-0.10593696401795302,0.02509820443189262,0.24322004336030442,-0.357644379906443,-0.48507083367408704,-0.2487346087568802,0.08327447275093411,0.23725340174930437,-0.31788186928142764,-0.26911599710335365,-0.42329510945876736,-0.24347399812872175,-0.5862171441441448,0.12839057134421586,-0.10239813573026163,-1.062624555193919,-0.13123547516624778,-0.7141924315611373,-0.2384156767111925,-0.14153634835260986,-0.47451115597200044,-1.33174444782569,0.061794463077718055,0.2078225470733195,-0.21486551172299242,0.4568218296037185,0.7708554895415436,-0.32700239288486727,-0.1526704393515586,0.05492866638055098,0.4024444308545399,0.13428881787029812,-0.21917493466348184,-0.16575738415624244,-0.13761006959530248,-0.10327945300340022,-0.6293782286150925,-0.26151182947773294,-0.591513205378583,-0.12804138078433938,-0.16616537768646425,-0.1082695210668199,0.3543652853415147,-0.13363669529056835,0.08139746344686688,0.045945638708757806,0.317422479545197,0.19477542288734112,-0.15804992111950075,-0.19258444208299305,-0.17359971700173882,0.17866364660282882,0.5100725229999483,0.12859802282766034,-0.19593872853964175,-0.3844272357682156,0.08675246908053875,-0.04539881766684912,-0.042682642908438595,-0.3296063370720413,-0.2616743168680955,-0.07965818275981361,0.5786943935390653,-0.7284171554838859,1.166558723876271,0.1884353804027772,-0.2864442232040868,-0.28536411331240547,0.5781599812577182,-0.7458942444989357,0.41738934236767034,0.7563967529000275,0.43264759959557647,0.013253187910151306,0.08634149374357732,-0.3407419988677602,0.42861216958925275,0.19781704582664186,0.3481022641563279,0.056579121208395936,0.5828130951905345,-0.5769133728890459,-0.35649473251881,0.15620501029012132,0.9281297724011909,-0.028986362416550532,-0.5437439717534572,0.7484886660724546,0.19856199062096505,-0.27635489500691973,0.6709736480333224,0.2694192373599447,-0.6877111494774306,0.005882778808246303,-0.037853670274994485,-0.14536749539218996,-0.6572250808670909,-0.03165830727897834,-0.08709817753972285,-0.24342493018136976,-0.30067097174427765,-0.11682259833119901,-0.5714092176476245,0.25687209596946625,-0.022395068359460944,1.1691956406624282,0.07165342188954239,-0.5025139860981926,-0.3299197051146173,-0.1006003977955364,0.607091581250963,0.12925376933458071,0.0660279045115462,0.26002103399058524,-0.6067952388692607,0.6959989622212244,0.07207985233778905,1.086598554120478,-0.153168478861212,0.11283719640739695,0.288447418164546,0.00427097718874228,0.28210548870736557,0.18979962906759923,0.10808747511480732,0.0024450375346152632,-0.4879568023707089,0.38130381566777244,-0.8653467423116901,0.4090100979502584,-0.3361555436582655,-0.05267092342254972,0.44046249565481715,-0.07331336754292567,0.08473653482309457,-0.013790295204525939,-0.2946897010883553,0.16084505573587127,-0.08501188737579794,-0.3044695393878907,0.30641899870900363,0.05636104624832267,-0.11820673086572021,-0.16332483651250101,-0.29876123244692004,0.07870405441989356,0.4591724151758933,-0.7196167467932126,0.18422509917370766,-0.7666738138679369,-0.2803671967323177,-0.0057274791964218134,0.31275939650132395,0.04500983065903946,0.38607591964134214,-0.29005115337558773,0.19688651039522106,0.38353102246245574,0.2990735520518547,-0.047577615681979504,-0.44487923746790964,-0.6548814278951407,0.3530873511002855,0.17657552113989497,0.24380320675821388,-0.011161162270328692,0.9324837831363656,0.258152069801571,0.11928612156413713,-0.3140354497941594,0.6758646411200133,0.259623861274509,-0.1710115495484486,-0.3503475872128978,-0.03621044739651777,-0.28776848225841967,-0.866713625772278,0.16366754018177868,-0.5775631855407609,-0.17798696095846572,0.11596086544159179,-0.06135501064232309,0.49119709324217403,-0.5146046203482038,0.45141416992537403,-0.041264371558115624,-0.5970787563319264,0.3898092928819486,0.3231956656025661,-0.5499766737987986,-0.32144065215046075,-0.5440328227239647,0.19037653854042572,-0.3393074468678724,-0.41972517628629386,0.39088038896420857,0.3419484541871147,-0.2624513814924758,0.44150299046853747,-0.3823826201113633,0.21362446380284264,0.4113064695152309,-1.107862064499169,-0.16921673755635724,-0.4962292242643672,-0.15244902598917723,-0.39409007610468544,0.5620693264453906,-0.00022752966268523652,0.5379567152887783,0.2746319939655088,-0.6956733444678012,0.15476676706948353,-0.284422728989334,-0.25987965232614446,-0.30526274001649867,0.31464664569427275,0.38806692826489336,0.14072525731433252,0.9798140323480229,0.1637749671280226,-0.4798821576835984,0.03779215739827164,-0.39162639266861254,0.1034367057340207,-0.12543304172124242,0.4339113139771297,-0.03934195198468138,0.19984527529702215,0.20960847347453304,-0.1381443784457219,0.3942875035740923,0.08654992237250808,-0.002260376890243209,0.4916442056454244,-1.4486162908708329,-0.27927105988786494,0.11378775079509855,0.2545375805319712,-0.45656058113708425,-0.15768744133990237,0.4792940711006145,0.022475685198831554,0.3781717014764539,-0.4743493306933772,-0.598229436714424,-0.5222398534673748,-0.4304598062390149,0.18886836493298376,0.23974326908736734,0.2733755551920448,0.5617209349708825,0.032946066568311484,-0.06360110375830019,-0.547565396131544,-0.33150725394418445,0.2149346100766024,-0.3132975700418507,0.07867928661453993,0.1963550835259084,-0.2970210948406436,-0.25044959348719603,-0.6327794132047535,0.7805234758908519,-0.2847433126681634,0.19167432944981233,-0.15877911542352668,-0.1745799941977336,-0.052824176843459275,0.4625326551042331,0.14825827783283282,-0.02821292011268939,0.1966057222647802,-0.03188492087629346,-0.0030617322938187672,0.8789914596511939,-0.18786464609027004,0.1912093878403849,-0.029172372810560995,-1.0082160484419807,0.3539987828982314,-0.3936629570761786,0.1302246724762364,-0.28961054157132105,0.39845381127594826,-0.3484791783544214,0.1260205809716002,-0.16940230423730407,-0.22310107328438722,0.11773910095391965,-0.16505621756502417,-0.4033509980663189,-0.05572532948353604,-0.09191755495896453,0.708117141845085,-0.01993587556840175,0.28115420479338704,-0.542900859262736,0.07459172794292397,0.07530239397866181,-0.0318875908432158,0.1812166315752758,0.05362816311211132,-0.3759813989709757,-0.00004981379386018839,-0.42462658978795664,-0.34571256690794294,-0.05496052477587541,0.6037673106896085,0.6139151299879286,0.9033556782723504,0.3729055620875416,-0.2005039764389949,0.4768951699985543,0.050680813549436134,0.34654317623838726,-0.7625328885200248,-0.3326380387440507,0.10256196806210592,0.09003898865127027,-0.8516261403437819,0.1927318002031243,-0.563507929779265,-0.3684767705218276,-0.11855535869957934,-0.2571362420103986,0.539670760220301,0.8291901023506938,-0.8757032921026254,-0.906537674067256,0.016234254194845754,0.25020968732463444,0.2862500296983931,-0.1697666979913602,0.7867153380248809,-0.13400532216530647,-0.1242223427089496,0.3415970392526796,0.022878374633542763,-0.10690561404393824,0.8985704962155637,0.150973240039659,-0.24270450803407342,-0.4963618604425166,0.04865883241080396,-0.18697637470781026,0.008776394898820521,-0.12247979330169131,-0.3359771625742396,-0.3716974046213931,0.5236734088992702,-0.391541430056808,0.3858611254903049,-0.38086493777334246,0.19465271068431048,0.147559830099714,0.5398584689002816,0.29858204913570396,0.21453558174084686,-0.22002619570927448,0.13970972198578566,-0.44135137709694616,0.030753280635021946,0.3936004412688127,-0.1829140900943861,-0.459280159928589,0.14850871291504728,0.9825200812913013,-0.46124629099353065,-0.3529574727532334,0.09059242568948382,-0.2667913612144703,-0.397856981120565,-0.43508612406641606,-0.3317795259998212,0.9310707764391006,-0.08420127032027117,0.387069690624862,-0.4687187528299722,-0.17962021322781843,0.8364475584683503,-0.16886834932839148,0.08108152976081218,-0.06092453309129512,0.30162942730841524,0.4554699705923344,0.6802283599289394,-0.5221446616094859,-0.3243324401500252,-0.42546595221340866,-0.14543243521992327,-0.4086454599592625,-0.674968214238441,-0.4812835422405166,0.1401852443475857,0.30024203035439334,0.2558629553653639,0.37285867494179126,0.38316020194644484,-0.20882033672012068,-0.047087611821224944,-0.3961456462093746,-0.4890986715912363,-0.10748314054501094,-0.543803376180821,-0.09736569267844866,-0.2641694616851517,-0.4947233827946502,-0.04826622019278709,0.3940646192879356,0.26975549733219706,0.2470543048485935,0.3259158435143346,-0.11983988617400232,-0.7295754462632341,-0.39387446403525445,-0.3017404574386338,-0.8394565469183723,-0.4198400124880206,-0.1927748815887625,-0.21534336961186692,0.33966743563743484,-0.21711202168935592,-0.14263444698859531,-0.1855908234370602,-0.17249307367536018,-0.01112060447356211,-0.20658852474744707,-0.04004282394606887,-0.18952153163685206,0.29895575204499913,0.2889238161627362,-0.22266829574422034,-0.2320581585314151,-0.50838458944206,-0.052419905838566615,0.25411492470024744,0.2465502093798519,0.28412309998342533,0.10709910680693378,-0.1765134697463824,-0.27919989756426133,0.1494837490804861,0.11899101752988654,1.0768680896345666,0.019221388749835224,0.27265469670189874,-0.3990608636891317,-0.18483358266103753,-0.40919045742530386,-0.6105401869735851,-1.4343660609550644,-0.8829419446243261,-0.8585566901191024,-0.6605202350520847,-0.7207077485761131,-0.011570172678853775,-0.08865171948109203,-0.2290230469290075,-0.1822510547990056,0.368683346271118,0.2604531955541642,0.9047973308933575,0.4143946673266705,-0.3743163237406411,0.35786180494911246,0.7450548000781854,-0.31305047127055463,-0.4766330309575241,-0.3124812174918193,-0.4762161299831673,-0.19198937241767622,0.5471406670830442,-0.16610222300828392,-0.07242325098998427,0.21858160604772217,-0.31694988504341265,0.3055984445083183,-0.14877443947026645,0.11062611746234283,-0.6301151513880282,0.3430660092586413,0.5370371764153856,0.518597578963794,-0.3359294720715435,0.44068538937713736,0.21099042549429778,0.46038382294887353,-0.34304642926361023,0.17089519977979858,-0.2955450105296827,0.3554060507564072,0.37694804383832803,-0.340875400353778,0.03739542312014528,-0.16115845948650526,0.5415537785453777,0.20853061215468602,0.6760251559293079,0.4706920949210482,0.010748642288065272,0.05242197264850967,0.054650172307834234,0.19075120139964571,0.030558719893874358,0.16048023815230372,-0.11561594648623301,0.29145478717300544,-0.32929531932926875,0.4004869416961723,-0.2165069420993413,-0.8375040916638173,-0.3186585509454117,0.9115561238855606,-0.4254776114264152,-0.3016596660722527,-0.14321934599141078,-0.3281960021731951,-0.6440245995397157,-0.19389116976101461,-0.10169292078778965,0.36023258999046914,0.12356355178837117,-0.6143383131186889,0.13720334046261412,0.08321372685536504,0.17441812424756323,-0.4307767644386986,-0.3664859088782807,0.3042294398476446,-0.5033266602532078,0.21179633140647558,-0.11769296413141178,0.38623020828867033,-0.798088282800882,1.0211249944739067,0.15195504459291403,-0.2250151732421235,0.0275627812850831,0.8763488281178283,0.32020646546374937,-0.7425430320165504,0.34627610786578794,-0.08909154495663583,-0.4727123886652752,0.7755159713466037,-0.6542392713756223,-0.18574630224031793,0.2617827197324406,-0.3416175485053519,0.046378291028664524,-0.206669994781073,0.9003779223450441,-0.9052520842406541,-0.21077654653155306,-0.014677558503085133,-0.035415270591436815,0.24441455737571902,0.08942373311394466,1.0662991391476757,0.19259303099906994,-0.5481642665125079,-0.22953032452736866,0.2859099743063563,0.017939801272680463,-0.13652856384136008,0.25783465901053404,0.11259468049118983,0.40667801961356337,0.3299356045683169,0.5336370071600425,-0.5176044842659442,0.2976550464925645,0.40226192415022854,0.10685825527659205,0.09083836753914526,0.20883206722232217,0.08541354826544,0.12053307086121853,-0.18818339222923933,0.4177093128395499,0.18177016745967237,-0.7073918734977033,0.0060777602232968304,0.34784020366661333,0.449757537561329,0.06039383779480459,-0.11325259532501503,-0.27525044498056617,0.09941138937840226,-0.21844808797545176,0.37623301251260655,-0.3112965121537263,-0.027610517549356346,-0.23034940319682504,-0.31316128619868877,-0.15810180596568635,-0.5776737254625033,0.08565691181445982,-0.17661840350945088,0.9057729238569967,-0.20878414298715522,-0.0651430458744948,-0.4716643022617432,0.8284277024734568,0.2106770052605839,0.10829758335175446,0.4205506196765517,0.3552412469378564,0.2760442834698339,0.19906680453352946,0.3321671391637037,-0.8684314034897282,-0.5739479412362217,-0.10812866343366011,0.0990492576799662,0.16395802902522263,0.21800398586229935,0.16885698276564465,-0.434784597668651,0.5044935021135031,-0.03123437489734282,-0.4463250215019911,-0.24019720861799712,-0.41116183771335973,-0.7125848629478149,-0.39526119472310434,-0.29753716307396233,-0.4551320434541117,0.30351403620935724,0.549481160971724,-0.3325884120915111,-0.38227730589019576,-0.7858160344793446,0.2129085444598008,-0.16905843483877345,0.593453003999616,-0.358428931503515,-0.12129490295908567,0.2569875895565935,0.17401608047780545,0.4339816041636978,0.28397164259881685,-0.27238739408274315,0.5435675634761675,-0.021525537746554992,-0.5881799646765573,-0.23392640711627208,-0.04256473911746544,-0.44350198324726803,-0.5876820306455417,0.22854060388661143,-0.46824773215324883,0.30250924139841867,-0.2862369028165517,0.29560206144925427,-0.4466998142959052,0.2058007513122871,-0.6541994852161653,-0.002808658761790361,-0.3164180059963872,-0.6979212488490523,-0.3490248669757837,0.16226374019151557,-0.20415969596119002,-0.1468187700426973,-0.022809242378075953,0.06064664899571912,-0.6606520202270229,0.47837199593012,0.41450679202994023,0.3492849615841748,-0.23268168935787223,0.023481779989600368,0.5208078308264162,0.13570728436925034,0.13260560588771408,0.08274530121210455,0.22973405928995555,-0.5461101096675108,-0.4178591085375586,-0.23458225714010836,-0.06993542433305149,0.7271294069279026,-0.11884591036248277,-0.646257749227394,-0.2547548210198896,0.28111278450053795,-0.7655245117514746,0.34711509184596656,0.07510847845700859,0.02910249834473171,-0.40377410623534465,0.16908297237805714,-0.5697193251659778,0.25003000983084706,-0.20597918435315735,0.33045261622115113,-0.617008794569286,-0.1268973990175655,0.024388766826277955,0.43345262611657087,0.55067210793262,-0.10343045448238257,-0.24459659810812848,0.7114154418520748,0.8546297872222002,0.12914947875136856,0.11149285722859434,-0.33661425610498696,0.4656271788693255,-0.04309370327699596,-0.7567243949558699,-0.49767147542515516,-0.9479311156884911,0.5376947334655674,0.1393248598318516,-0.3041724087383381,-0.5701792093634158,-0.5456067674633662,0.12928815345446637,0.12667659153237848,0.9108568705963258,-0.47598451817203424,-0.3017019435368605,-0.06159774823283055,-0.5145802605100931,-0.607097538203547,0.2936637348016094,0.3926231159092597,0.07568234480756171,-0.1026247635860986,0.3370384816908262,0.274923362240299,0.06575720492172497,0.6149063452329603,0.0001475097818211748,0.3476323361770973,-0.5370775135899368,0.10872557263162302,-0.7039151599564593,0.27651534963400726,-0.27748935576124256,0.3889607400611014,0.19502219914772675,0.3160701696530995,-0.19999882175226374,-0.1235300605850548,-0.330277789593075,-0.11722412084280005,0.5848418239771745,0.28164179375115755,-0.18052801553288514,-0.9198801900231293,-0.6890957958529867,-1.2020223663269867,1.0691108614510496,0.048773684732831876,0.13290669969970392,0.33128440956527855,0.5571261578027061,0.0336902096203487,0.728079951644309,-0.3365726916787277,0.03363011791688683,0.06861954566924576,-0.22861793579282638,-0.25192264865208125,0.3587040905471147,0.13892895586473358,-0.5596365904214625,-0.2435776815189841,-0.09563545345221391,-0.03775534004123298,-0.3145749487633769,-0.8066542131231915,-0.41204249423650335,0.08826234932859117,0.4853421831949454,-0.16679985465191513,0.18644338315139453,-0.2263153018179374,0.040855037362157995,-0.2997987768205839,-0.03614046914210138,0.07604557159549001,-0.1816352822823466,-0.21344710585881413,0.7857151703640488,0.4330459047707746,0.7018578256280779,0.86067297587256,0.7890944619225315,0.31530906493492755,0.32682223692955575,-0.11852532848454055,-0.3288726119641283,-0.5681264526453155,-0.2639974911956216,0.8308095617019446,0.3220216947145698,0.3105531308530388,-0.20371426688596267,0.2666286485901165,0.16172446165791626,0.13193931121998462,-0.5319055750997251,0.3257604359330731,0.47856782107279194,-0.21542680598395253,-0.0256713989535955,-0.0942564522708295,0.364439501015592,-0.26063692017182116,0.6303377169826131,0.22156095321417757,-0.3314378472228868,0.16824707708386172,0.18322977223854367,-0.4403262060909077,0.07511341725026884,0.25657819559629,0.6581562040160405,-0.03113670950795369,-0.12262686002930148,0.2880177368914489,0.24274788331839242,0.49234415454907443,-0.007616248883931694,0.29627512535433526,0.8105704245024817,-0.08855595714733473,-0.33993490809249055,0.24378544925659137,0.6067698729575842,-0.13812216677074837,-0.6669141041346087,-0.019968084387744268,-0.2539162245663688,0.36540657007792454,0.3352234263246821,0.0737939528120819,0.34286575682231696,-0.2968656112225219,0.9241367838499593,0.12296787108069761,0.36044292234782105,0.026930926030370183,0.6746896628887595,-0.04071233089856831,0.020152230788624735,-0.16533871592946545,0.7668329225421698,-0.20616099045073527,-0.09658882197041196,-0.5210052025181116,0.02802516911844822,0.09478262769992098,0.5715640914619615,-0.0403833395427092,-0.854737701928521,-0.4321517825559219,0.4818728192523976,-0.9058105066093729,0.7063600077182339,-0.13510660507145758,-0.13016935840202284,-0.4700234831650273,-0.33449038614016985,0.10280381438965547,-0.40409659375099094,0.020545238165455254,-0.0541109967223903,0.1812125536065159,0.214533421688285,-0.5641550846558184,0.002693461555974259,0.1678983948062794,-0.7419441242408104,-0.028679417559479895,-0.36689046656074276,-0.05547106417849521,-0.597954824198782,0.0007069863131436192,0.02145983569067244,-0.04735851703892993,-0.8506455438705341,0.18838942068646825,-0.5311802235539584,0.22453491620024488,0.5143359516442999,0.3902990480069321,0.0715735277363728,0.07540520285339375,0.16109531727582446,-0.04967135575185835,-0.05620958787468083,0.27467808494101487,0.09585963627217303,-0.1651517618870876,-0.14997013795780637,-0.14252643737940057,-0.04119644736332119,0.6437216840778821,0.020981675492947303,0.5712864471602315,-0.10115286850599775,-0.1053195058214909,0.3468110109863839,0.020644365083223377,0.39009489273361336,0.015757039332261403,0.03433631140108258,-0.2636751363468698,-0.24023185256405297,0.35478329285418725,0.3308057871826688,0.024736590653312154,-0.7443137061603599,-0.1089747949834721,-0.4178846554398949,0.5140013204662004,-0.3882427811873867,-0.6369323698896869,-0.257696684900335,-0.25661732563277256,-0.10618002577097624,0.3446259795578071,-0.19414065236909445,-0.10812829705642141,-0.036861641970217476,0.5377695788227923,0.1374548803808016,0.3824064272005253,-0.4262526011460008,0.24092592061392534,1.0073418329672847,0.04494790901745399,0.04481718872473203,0.4587632994298648,0.21732340662070668,0.05431029931523935,0.1508130984004249,0.401784351870078,0.11277562628255662,0.09546061142517388,-0.3429345624148076,0.6102493014993213,-0.3938555970547059,0.7258021795244649,-0.4743769445470961,0.2808782937420219,-0.12568541293784846,-0.6942418005991029,0.7090312335801091,0.5325559677927195,0.04041135409805791,-0.5788539359862984,0.4787281306078944,0.15344015971613353,0.2729795208731226,-0.5212962274570468,-0.27789674835211425,0.26151493275009496,-0.008609362020851618,0.1814366390305119,-0.23199550129423588,-0.6173313906502327,-1.0267126933254571,0.056473999228728346,-0.44653579527260273,0.37717175074785203,0.2039185758127334,0.8100969242813596,0.7185898185064221,0.4395320079040983,0.5819156012541516,0.303724338035015,0.917260811640626,-0.40802400795043003,-0.10755699505120148,-0.5630870331677553,0.34947160463895827,-0.1414953490805945,0.7332405513365268,-0.05445158838519503,0.30403394703628134,0.08893886730462199,-0.2489714970761371,-0.5398332776076802,-0.3506900967108988,-0.18921774703306773,-0.02240215928584583,-0.08489268949477624,-0.45121517816890344,-0.2414353753334618,-0.10754702368250026,0.0898669007648302,0.33886049757699105,-0.6599125492035507,-0.2661708405530783,-0.3066732350018164,0.48920970223023563,-0.3846213068105816,0.3371606290994855,0.5089254022947736,0.04440603166261778,0.15538134814591173,0.4231578385636221,0.26669012536228176,0.35644368741136795,0.16380669526647262,-0.0014016219495190919,-0.12866817474148826,0.4684795213201153,-0.3917359035051417,-0.3549681632943978,0.22816388989479006,0.31723943446736785,-0.059222031510103655,0.5333178960683508,0.2388827026357659,-0.32056419115534573,-0.4765672906501784,0.6135274743199409,0.27176640189777407,-0.07275481347357045,-0.12004799822074806,0.1214638178229859,0.3209618052225791,-0.6779948538737262,0.08184187237628988,-0.2196462801790888,-0.6225309046217065,-0.006620191333805547,0.13038984730340053,0.01038596185593013,-0.21056534440650682,-0.21844301699982316,0.05024244446199346,0.8474768579276767,0.22827243116675416,-0.20717723270344574,-0.07227094622306887,0.42313698314896664,0.044551508136188994,-0.13001668502320643,0.010622283605666045,-0.07122511542623351,-0.22306431937473703,-0.3341647130941036,-0.07452023196257751,-0.46400034804601836,-0.6494799024050241,0.20040208942944576,0.4446339579852015,0.5792298905160296,0.4616536406774315,0.1687158408838121,-0.3933090306100126,-0.4616756490300878,-0.593997518506139,-1.1647326079179752,-0.5441505401958103,0.40532353240217245,-0.18666825726116515,-0.7810566877940005,0.2397619878821092,-0.4998789882854747,0.22060366289144656,-0.09115871324069541,-0.6133453199088158,-0.14728182484962168,-0.42509212366586746,-0.638089646513268,0.6124650101429155,0.2252392348766647,-0.1488915924406432,0.32059735274072404,0.005402548130162878,0.3023690085795929,-0.04763449030784286,0.04811880906495126,0.19202502161123647,0.18822736952509445,0.2869455510203195,0.3182840875960982,-0.46141783357588606,-0.19544772116408587,0.7076291452558636,-0.0042275957330972025,-0.4943322040339873,0.1308613125915479,-0.08595497534385119,-0.08199920504307909,-0.39435326795485315,-0.5438677636472774,-0.8107075691950351,-0.5967632848745595,0.06845583101646019,-1.3427623923320262,0.312970974172347,-0.1226053238751377,-0.022867630345743566,0.5995005770626918,0.38854153213111314,0.44317438994183117,-0.0030531962803402534,0.37774252819933113,0.6884037381056949,0.13363881427324975,0.7065300349757919,-0.5587202797363541,0.13284088326604476,0.1865249325518491,0.6939533057912154,-0.8086409606122509,-0.053482042490575546,-0.22699476114702058,0.24895966396099906,-0.048690142919761384,-0.8469914650628614,-0.34437849380050906,0.6896294828501172,-0.09665696584606308,0.41713807848822565,-0.059244107992551163,-0.44612541071620676,0.18246085555312885,-0.49155260492990177,0.17396925170262528,0.3173726427173781,0.2857764692166093,-0.15515809235490233,0.04432952956079481,0.07929722839789152,-0.6204009854877688,-0.3110153843665738,0.6021024029923981,0.20812953069662757,-0.3082942522075486,-0.2783876324234102,0.4441000465051297,0.42004240146124977,0.28052752650274093,0.12066649571430028,0.08998901157190423,0.4064059920345731,0.587583861482706,-0.051760063679689335,-0.3778552464298592,0.29113404652717273,-0.35181348992579736,-0.047379184470750534,-0.08400599813416285,-0.07677889903278676,0.008712093883298343,0.03087939545439539,0.3077134827791942,-0.028756495007637908,0.43957226584352216,-0.28204881409785304,-0.5353409449717483,-0.06633814823983189,-0.3279284143973615,-0.5833961200580832,-0.3221631704247201,0.07231845984321691,0.27981291595598756,-0.030509613609856868,-0.7943876014835589,-0.3511988302054922,0.11674656891433452,0.5908523240474821,0.4523090276767537,0.972019627219255,0.3638912693927898,0.32393970149247553,0.2052781917768541,-0.059399332241345755,-0.17226821950831286,-0.15349814141983975,-0.16957325339909646,-0.8232084358252676,0.7553018068405479,0.1301948919702459,0.025207028031959778,1.0174964405481777,0.11376795951790224,0.9411931973509089,0.043088530454812986,-0.19180425085294905,0.05405279482874938,0.5813795967490595,-0.1851371914008516,0.05969538704173763,-0.17487519273995528,0.8980284863587044,0.4636063842425941,-0.672342803009018,0.21040361223660486,-0.01472653952445813,-0.36326291211750505,-0.040544658866098184,-0.6556979303485053,0.1628865823372996,0.2194050431970836,-0.003648366313771331,-0.25400669233501555,-0.19031748236942003,0.20426059515647887,0.34215500097194856,-0.1841148297820608,-0.22501161947874618,0.5280440146539678,0.37146472427284605,0.9385994128477111,0.08763679046625925,-1.1373934396489163,-0.048884806280695726,0.28184027528808375,-0.34541407917122363,0.8298220912749532,0.4848897433362188,-0.010910756668368554,-0.24535499444768255,-0.4636037345731507,-0.1458742214247924,-0.4760363066635205,0.4822294857741529,-0.3661911100082183,-0.7171814110360947,-0.4879777895393543,-0.3051445751763942,0.21495602142693288,0.17072686557389852,-0.09846120050556072,0.5200740637664779,-0.1441110065806926,-0.34495669707097476,0.23834173256598515,0.2783926213193585,0.5103171987462551,0.19688468109473078,-0.13402784440956675,-0.26394417181816965,-0.4006856919251293,-0.42620341996187133,-0.21487651766980873,-0.2306423778354235,-0.4382507000594641,0.3529954555112679,0.3806065798896937,0.9483184750783296,0.03626469801816664,0.04217000567872017,-0.13479305669940372,-0.506446093943097,0.7058127663960008,0.02764006555291961,0.6648076964983387,-0.2918016677845202,0.396720627718792,0.26501890511177545,-0.31862468026781077,0.6450529258112094,0.7755504304498876,0.42273294108337606,0.9500076091707284,-0.8161498765375055,-1.0702549600017615,0.03392824223351814,0.5619349835035325,0.25341041673016446,-0.08236491205314916,0.20439592014495728,-0.37655658949284654,0.4604460242839531,-0.22976655416166492,-0.5059296089850316,-0.853660162052983,-0.22820108721949262,0.3595571603567299,-0.14923616882572655,0.4298064310714867,0.09995626649442599,0.16378239686027538,-0.14108312037525866,0.006330640774885697,0.48746503097934835,-0.649374042428432,-0.19531407518937313,0.5044679551706375,-0.2231297244121529,1.0005580681908388,0.25494493425879194,-0.32356313546304344,-0.5539235445089387,-0.26684687702427873,-0.31273906035193144,0.36254716327448705,-0.5443379619880836,0.39872354916379876,0.06856407768713259,-0.19168242184291182,-0.4548973281888065,-0.4290492313348699,-0.37680537029577266,0.2971556522756873,0.201136616424985,1.043045583158991,-0.09646204225521139,-0.6982466270052116,0.6475704792076223,-0.3347005398795873,0.7953554165268615,-0.3529448437556142,-0.4186953510133188,0.8865283376256239,-0.11975526824357312,-0.5544508059769495,0.06086253547933761,0.13637010190710686,0.18821000192223014,0.4174305081405069,-0.9796172784537553,-0.3330321690615289,-0.9406317605896393,0.573768611751729,0.1582115940632893,0.27639222069251157,0.19726468895622568,0.16606547241182418,0.3874956312463371,-0.041027420258464224,-0.2204816840767889,0.08910262556222812,0.2621303918603851,-0.21635820577699483,0.15667952330958562,0.6211448195210314,0.32167315627410825,-0.22485823217609843,0.15202486518229547,0.112113918241427,0.421463275822184,0.520804150267788,0.5579422621098986,0.17528321579021616,0.17185046732280726,-0.3966056668075795,0.7852853645355464,-0.47690434278711497,0.7571168571504967,0.589642704847411,0.6987160511570275,-0.28141620224290476,-0.011656203878538576,0.18511000919291823,0.31036577264745757,-0.25972847642970465,0.12273670756041369,0.06699517767391049,-0.3419951424888183,0.023255142123544254,0.26012653596133056,0.3698087024772819,0.8581689420810755,-0.13613437513627485,-0.6284331705888866,-0.6106204265846542,-0.159505150624165,0.1875689032401273,-0.6389362194524372,-0.05802563620909558,0.6040647186892818,0.2963111432383214,0.021716440122425965,0.033821048435262464,0.8616166597150315,-0.03980698702609473,0.24186724521552258,0.18042115150409277,0.02608224492677623,0.00697535620250212,-0.014502108912875624,-0.2956869667980931,0.5305691053509616,0.07544088045951144,-0.15552573455148055,0.035317629289277015,-0.5927251919043056,0.18187336097567328,0.4223706710570873,-0.228011584788789,-0.09254022625475129,-0.4135333502181828,-0.6991935724047034,-0.2963803067706038,-0.15793759241245808,-0.3839538700101581,0.13518050371742732,0.30662295124278793,-0.03244254515131373,0.11570518407160671,-0.06006314672892293,0.3799070250621527,0.9758569904862059,-0.07440600971339269,0.03687716224053017,0.09868810988459059,0.06002581683961644,-0.10537240155842455,0.5561771163089442,0.529256007343218,0.4578870865124127,-0.17548015793904087,-0.016889692891298193,-0.39344441883827347,0.0956287330978805,0.7067956840922299,-0.14164404873605035,0.3170792906963171,-0.2593183721542173,0.20397208095821778,-0.470313649611835,-0.161947885310979,-0.10828081734201238,0.021109984248335746,0.4888533607679185,-0.2453115775785155,0.28804556614503246,-0.017932802745438233,0.6731168366098764,0.08590718186097784,-0.13003066844311154,0.6913694056833123,0.5830783905146782,-0.3897712519660554,-0.4078340570335728,-0.12779356141555648,-0.030705022287859013,-0.9429061539411411,-0.2523646859128507,-1.2106667725158646,-0.24425413578239477,-0.3630818941204434,-0.3979790193948263,-0.552089988763556,-0.43828655648649734,-0.09727994336922376,-0.10007778758266736,-0.284498882721168,-0.0876326011122049,-0.4216172689018314,-0.09252276809282725,0.1804445007862809,0.2696386825548391,-0.3797824121414742,-0.5820825858356126,0.44669367338433097,0.19951133150315703,1.2337186885258304,0.13381498648500634,0.35940378709030335,-0.17162242367077382,-0.3398493056562175,-0.11472480405245705,0.3518301920104638,0.8393473495967588,0.058237180129788436,0.18115438941449694,0.04894668342894088,0.17593757636510235,-0.5082914500630243,-0.3408407373388342,-0.42863644630046627,-0.26751269683948253,-0.4587344321898519,0.2663220189053006,-0.10430988535883676,-0.34302559076266437,-0.4838383594765414,0.19092337469401974,0.30192310654943233,0.39419947174502973,0.09981245603786938,0.37282246004860836,-0.8055131350152144,-0.332232736629827,-0.052179586521497685,-0.43255447658883694,-0.30302627827532136,0.4880615472250542,-0.29320825217872887,0.01888452105467645,0.32511436917749786,0.7117932208771751,0.3975648177284644,0.438231932182214,0.29810764993047123,0.6354115175551104,0.2949767188616372,-0.149741397865654,0.2849732668680913,-0.15209525299522295,0.7330723565806764,-0.4369871402951816,-0.09581016567048521,-0.4430229425793696,-0.4708582136773331,-0.6325681668595342,0.12372457539580088,-0.4490757647010232,-0.025089649374612673,0.0009225126551621774,0.045549009337688795,-0.7207799451536399,-0.2685824858517142,-1.2544650837682518,-0.49165819925831455,0.2252319563003699,-0.6491699093794528,-0.054237686553938624,0.3485718643716201,0.7981250258594299,0.7510846209788246,0.6517348463940802,0.2750977724979793,0.5104192159513962,0.27331683249986166,-0.1858319135740133,-0.5236830708082002,-0.0034876118671675225,0.1622520166495292,0.6130381807471981,-0.03195716749558025,0.22878382835328728,0.03209106292157649,-0.3728374574064068,-0.09782728481030072,-0.42366880653022504,-0.14493497328479352,-0.38309805184672746,-0.3133070225055691,-0.1470771667982219,0.6342552159831564,-0.17225302003085952,0.3975866200657913,-0.20376912481473228,0.5904061655221674,0.07768688270080293,0.184291621736348,0.5570798037152965,0.8406464211349947,0.022957734691614103,0.2944285688087158,0.03874925595561373,0.05541071427506344,-0.1584836620325054,-0.06241920757600216,0.02768337670777365,0.18755639339710703,0.050405830669384574,-0.37240588944475655,-0.06245611156462145,-0.5217360021598978,-0.23535651609430527,-0.1413747639919417,0.504416674170484,-0.22217184539996018,0.39497419044038434,0.023781576616328026,-0.7646467016763056,-0.35343495644640616,0.15842508952225293,0.3212914177528442,-0.06452555146215802,-0.17876472361989068,-0.04672246725707766,0.4032307809383228,0.6554944220624044,-0.43468658188023296,-0.25519368549786076,-0.30742774415380236,-0.18636904535789198,-0.13315725878376147,0.40168408868915295,0.45309900592265706,0.05720320272090319,-0.12017982649595386,0.030993006309407028,0.34523577632435104,-0.08648668407580064,0.371949662782761,-0.14219971441405813,0.13175848972809745,0.345303155812826,0.5276977542323489,0.18684311782140733,0.22948612100884766,-0.05258893706491317,-0.7488899182643788,0.2999938568946302,-0.18375767903738885,-0.19618782151432898,-0.2804192335250843,0.43337766044213355,-0.15246212666198106,-0.3623106817704937,-0.30099027774554415,-0.08309792887065755,0.43957611484569886,0.168079573203415,-0.7268156095094366,-0.2139698535011307,-0.13850310683465952,-0.3153432099603775,-0.8346074692102466,0.08077173087974611,0.20873357980492335,0.021428486125708322,0.08891819372108074,-0.5326213443733046,0.7062235797366181,0.4193005014142004,-0.18975069695340419,-0.00022084534643042583,-0.04785753550343818,-0.2251823095295759,0.5691482447233077,-0.08072671520909276,-0.39488163262745424,-0.31755691963841076,0.005281022464757842,-0.08146717150953817,0.5436256815476381,-0.8029770975559132,-0.7510664891062546,0.32655791611708473,-0.062074002686683186,0.33888123061709957,-0.6995765785983673,-0.3168793388652427,-0.5974544513487217,-0.23847723732908382,0.14905087674269699,0.040084695084742626,0.20216217671744252,-0.10411826453636815,-0.21069158959242035,-0.3729518858713581,-0.4878302660147641,0.03385003909299965,0.9966412135280532,0.21779844771145687,-0.18068056295993346,-0.00910130739280488,0.01687840256356011,0.19702855575786432,-0.2479590676731077,-0.5225649054290554,0.42004414703845055,0.06095740244951833,-0.20981484894118055,0.08032915603314879,0.3977164081072598,-0.6814272466007213,-0.126975795609931,0.6170855728731649,-0.5895824049395721,-0.14032019945082738,-0.5813095530282014,0.003773862566298372,0.5139820308926688,0.1649374253307252,0.011260675481193493,0.8431742241871883,-0.47724802928045595,-0.2628638163177066,-0.6046573705112963,0.11147869691366416,0.024006590216609183,0.19782648564072644,-1.1323563829151422,0.37001151653702335,-0.2653475261793367,0.3787466678635381,0.3770409041775352,0.13791821738780696,0.32311418374030304,0.13760655546639328,0.3691090191459396,0.7703875129426797,0.17102105638385878,0.253219231337507,0.09221492615336592,0.12090751818044146,0.07256579015938586,-0.5512051554310526,-0.5435996002770461,0.06958607513294388,-1.192949291724683,0.10535567329800766,0.016128551503588474,-0.06912997929319432,-0.3991127192128711,-0.6221083680146976,-0.36826295430645306,0.8227059175058821,0.22091875999966618,-0.03210643232698766,-0.34656451213428346,0.11315542222770643,0.2709731456371519,-0.007852411088720623,-0.23284447551721812,-0.42826988113868286,-0.061221014059044856,0.4765033849734982,0.16455674014418445,-0.239913529904038,0.2257259554214988,0.12976400300424318,-0.3458535673401601,-0.5684521149516221,0.3277622173412001,0.001485868688127327,-0.4151119937359822,-0.3894747038106653,-0.7384855040452994,0.0078048825647188185,-0.46963690548859516,0.6988252016464472,-0.08073137014571766,-0.4084726651080503,0.16764611911616992,0.12875110589870323,-0.21071253867384024,0.07136231869301125,-0.038889158998694495,-0.05060738536921556,-0.13203661810785336,-0.021056535183351942,0.40790503450801235,0.28459270324544605,-0.25272585977701334,0.8006751108454374,0.063098233744659,0.5530082895028311,0.03548776002215217,0.4322276566269635,0.04473000289036954,0.23054498253330685,-0.044856898644175504,0.950195591959395,0.03245743783388237,-0.18043351065389604,-0.9879709214486044,0.8485122721183044,-0.15824208290347144,0.049858719781802556,-0.11431849755558715,-0.15075309683655647,-0.20747525990993843,0.15486531524046052,0.38876534215109515,-0.11305361054335963,-0.6779109321532584,-0.2876667635705244,0.009446932834085106,-0.23264050101297798,-0.3539964444835368,-0.7832076157315413,0.7420711980700456,-0.48181032330066437,-0.43956271759560295,-0.37344424162212697,0.18243021916193677,0.011998278196934635,-0.8588649168967586,0.1424676125483867,0.12823426190763518,0.013256791684476497,0.05263234619204551,0.9122914289444193,-0.3198391065768526,0.606821529846968,0.19396224713564625,0.7244792271021387,0.2052116368003977,-0.35872229854560594,-0.10139258376586949,0.11625681204926999,0.40935717450494,0.5197358774187794,-0.30757762891495305,-0.07899098140030075,0.454519781901104,-0.3619555563650413,0.6039275091557764,1.2140419440065184,-0.32219917371116125,0.73278684157941,0.2610518767144431,-0.3541025149200017,-0.12839176674630665,0.36102669225335415,-0.09421099888913717,-0.7606803613814238,0.16083259813530323,-0.2748764923940329,-0.5844202236086361,0.28182773866238664,-0.1087614866758594,0.2344365451638515,-0.07140227034367219,0.6152502375621433,0.27775302264041163,0.002941260295963501,0.07878584641161224,0.34634613174510825,-0.23799231257113831,0.5209955745592207,-0.5555057330770042,0.030491028003613547,0.07827303937910823,-0.5062728851754762,-0.08762937104873912,-0.28571174577280395,0.09008742944210027,-0.3935313299495433,0.42660024049278317,-0.8344024635769901,0.3678856371564194,0.2860486730177018,0.37107356653975454,-0.1097058595236625,0.3984560581818729,0.34993409998712605,0.7833694826626187,-0.4653734111782202,0.49150434860545844,0.3080324494205946,0.13513006268965,-0.1983843306382595,-0.04362594830252989,-0.22542275436736633,-0.46770922398266174,-0.1747330772442625,-0.40146310215502706,-0.04271113768244914,-0.08686475686348988,0.5216817718158718,-0.6245373465568896,-0.0846211266046854,-0.33229967127997956,-0.40326879738905175,0.055869209342527044,-0.17977995025656668,-0.08853537628500559,0.525922892129992,-0.15246758891627005,0.09072788841607213,0.09560472632614571,0.38400972639019443,-0.383883533342799,-0.13983303143250475,0.4200296916569543,0.5338050580945758,0.8105496184118884,0.37544087929949876,0.04058563193534009,-0.2805697715330216,0.40719295429632907,-0.15929309884756088,0.1808391551758792,-0.401121585727519,-0.5310804145274938,-0.42219339385617977,-0.39891697680220256,0.4471709079711773,-0.335214002914639,1.0527024054394367,-0.40212155139202704,0.08013488219530705,-0.29354132231294655,-0.1818285892417763,-0.19455526404679746,0.23512230301885226,0.628632309670874,0.5058805489493039,0.2678389759710879,-0.08120198444913873,1.371898114966439,0.7028610073250015,0.6967679840657921,-0.11261186409780186,-0.24575110229543798,-0.6140572022410298,-0.3007649456657467,0.6566581743094718,0.28425755827072735,0.45112673508238943,0.35299286458298035,0.15824981344582284,0.4651424990335222,0.5193048692217853,-0.07787798022486599,-0.38112043104802334,0.60888800080208,-0.2225547772962344,-1.0150231980290325,-0.7479296868816181,-0.27860506218276243,0.0016679323843887869,-0.41783269277015256,1.0194103824474106,-0.05703722453738953,-0.07779616232028166,0.05343989213756879,0.02972433423633937,0.09702213272818898,0.05599270701417481,-0.28689793729053753,0.8733972998601701,-0.17782663696487078,0.04899808357198333,0.2510950987661075,-0.8199754149599726,0.09328703429055625,-0.098055133156796,-0.013094174806942697,-0.6386096166641754,0.3458947129498852,0.2612016819760084,0.722575462627975,-0.06624853011528363,0.19883943442839105,-0.033476833065088585,-0.5917464654683084,0.5017574071618375,0.06990191789043936,-0.10172536911932803,0.022389071508742572,0.053328458049275225,0.4304121565947989,0.4100754342033094,-0.21798487318661358,-0.08652948816167944,-0.3958283137471297,0.23973662994606318,0.055354004917276795,-0.737505625656879,-0.6851588809442044,0.10687688483024234,-1.1926584724245652,-0.3072716515373942,-0.14341001942625112,-0.16163227761458707,0.33230199958041406,0.45082871530757224,0.5291328009085247,-0.5369049678832047,0.038272103519180596,0.5842217345845764,0.8384759811276935,0.10414304204670913,-0.15439864603321923,0.03818863705487992,0.19801912772588606,0.3007347486604967,-0.10915472764636273,-0.0035709656595471623,0.18682781261456374,0.2918216835112636,-0.11663372698154449,1.160432218596866,-0.07257823678310682,1.1973486260806068,0.06811595497065859,0.076138337256904,-0.23053240825719795,-0.5268918580254675,0.5892700777337615,-0.23395541875134523,0.6141182988215819,0.35105842988727143,0.5198184852752944,0.3179414736607341,-0.06105164630389878,-0.3525471068657171,-0.0107678402476836,0.37446223130597134,-0.002505694359038272,-0.2416159745364294,-0.1589384336348583,-0.3251316133255807,0.6137734854768901,0.28292175682193865,0.824904852056075,0.5574803640072091,-0.24748357505132357,0.5111583997199962,0.40392415489791245,-0.017282627496757418,-0.07521833338493271,0.41826615766271613,0.12419029357268743,-0.19002969441305997,0.18748939144579882,-0.2724243548098011,-0.29873531337958775,-0.2823833714536547,0.5626493791809432,0.8320499211282021,0.5220450482071698,0.5100058511725521,0.19857309792973732,-0.47539279343272306,-0.06601249425013235,-0.03371672456952307,0.07481717917565364,0.5835654693724283,-0.1395254392688691,-0.038699145249441354,0.24431633139251782,0.46874144351168784,-0.07362745412785396,0.29675073632289484,0.9431054928117648,-0.029602000757484485,0.08716663365968545,0.22466951984457634,0.046719146564077906,0.050221953059475515,0.4856368340191631,0.5418548118944121,0.2769759657343642,-0.0017062073141457467,-0.19006720296039806,-0.09850238258506225,-0.29731416228586033,0.13438295142180973,0.12536832300454379,0.3623696709768051,0.5153747943261837,-0.6990117273002463,0.27928603515197936,0.06587490367276211,0.1942724444853647,-0.2653159856249558,0.07900953312562799,0.05733958756601879,0.4977577031571977,0.4678181639969514,0.7202894338634928,0.3464314526904239,-0.2820446538629418,-0.43298967032083086,0.3685357742098417,0.3825092087410155,-0.31978563244265834,0.019728798594420664,-0.19688056970788273,-0.21379649490739505,0.6612797198870398,0.14778151143415663,-0.8769538750940368,-0.1814442241464708,0.593501478580734,0.4418253248298506,0.1929797081985356,0.3204489913262832,0.15222217868675378,0.10129168608767111,0.2015983624753047,-0.13464522153550215,-0.18275678985045263,-0.43883662860425465,0.2626027241541576,0.2499886240203203,0.2684287062753199,0.7780651776243606,-0.009438470976626256,0.18617788125733625,-0.8740947122829565,-0.24391876579811023,0.12699886204858493,0.1224996787226814,0.6000244351216832,-0.18321627024184065,-0.29458405323165554,0.04016522082755698,0.251613947418908,-0.19238692700509716,0.5694429193483778,-0.32398374212130177,-0.03510022862247874,-0.18204001464831254,0.301899029600384,-0.009319407663641558,-0.16506065906983258,0.5983503936757621,0.2714533817948813,0.005900758196635395,-0.28820953137299715,0.08872622227014577,0.31050025001841,-0.5094582643122435,0.04103723832197205,-0.18448218400552113,0.36865265745383846,0.2975902405241702,0.03303465525624375,0.056482090319437024,-0.15292372116537584,-0.3252773221023942,0.09072401482905303,0.04778330758419666,-0.36677534969037967,-0.18317177692288614,0.1863517674418077,-0.0681020327287501,0.34736137757575364,-0.4199194195764173,-0.06611047101932092,-0.05663371144771841,-0.10923284094548669,0.3545883338949724,0.46056128955515974,0.3254888016947235,0.2709691810931348,-0.47696008496680686,0.7698471560443018,-0.4283815775348818,0.2700949155687867,-0.15406770707592313,-0.03683343080979455,-1.0079003029001041,0.1369611395098722,-0.6579481719834782,-0.39838881895724026,-0.43233682115751704,0.372054669051911,-0.26879486537160874,-0.31979818524300907,-0.09115928083576633,0.23531273609607642,-0.09065914761287219,-0.13397014791302908,-0.7031262325735781,-0.017513154814119934,-0.20969302868485595,-0.6362818245557598,-0.37993673931706373,-0.07424161715779454,0.327559076336392,-0.3521321191222627,0.6583823678024195,-0.2061568989229582,0.08473466250057518,-0.009171849197811515,0.26469915063597554,0.034095051594033976,0.017238402631658167,0.3798429755839276,0.5049593806783137,0.5204429607099947,-0.06669579199757682,-0.23170113558501845,0.5514999526707087,0.1929969845848837,-0.3682218046778695,0.5211386154127979,1.6828813925185568,0.06980223290849978,0.7068804286979058,-0.07805500237332333,-0.5272059266825077,-0.025530743196197116,0.6304862373961646,-0.36626129458449624,-0.4090142943433392,0.15070171730465884,0.02877767620263138,-0.5625326913449831,-0.13819303237071462,0.16214968406978855,-0.171180131149772,0.3634722793413158,-0.123673250466614,-0.23730848817109196,0.48771500222338454,0.08954245430742044,0.12908798706354913,-0.32118527891128085,-0.15086989411161744,0.019081018979885456,-0.04402519802743966,0.4725637515037757,-0.32907073635874157,0.2019959054318999,-0.11615307890446137,-0.44606400832751875,-0.09338793647818464,-0.03915002340501378,-0.2389339564816682,-0.293560094133335,-0.594961998352742,0.5920397042685882,-0.10193450860311294,-0.9451938203246957,