{"value_net":{"layers":[{"function_descriptor":"TwoPlayerScore","weights":{"rows":50,"columns":43,"values":[-0.08871837896211107,-0.030023862100818144,-0.824487719860598,-0.8155653058883604,-0.0648277777663492,0.4007772808014136,-1.0983413163752418,0.22505850950416284,0.2224540028766584,-0.3303797988208294,-0.04048238356864962,0.09163548249943093,-0.19408388298681428,0.19217291311470597,0.33153020230327573,0.32700290734773463,0.10307796097361098,-0.010370854115459748,0.03473721042298922,-0.29181109874246697,0.765884830837565,0.4033728847505849,0.2973490337297552,-0.21163960084139288,0.020409357969994824,0.14169934261613998,-0.12794195736263336,1.0928935848803845,-0.30099636802661767,-0.07517957775457584,0.07397690439951804,0.4265305312063681,0.0478615266467399,0.1151792373898944,-0.8000372297353695,-0.7200496611621129,-0.09376561533147357,0.5270604514250135,0.3678684608853793,0.39264212116641467,0.02631191183985589,0.6254251767805374,-0.1491735873071941,0.053163701246446565,0.01390436174276185,0.2810747099464087,-0.14850997509918223,0.2123998196181571,0.6193768685970741,0.23086457199746863,0.18581260268101704,-0.4466268237683266,-0.0984027223994882,-0.30189130041871526,-0.31639919314587006,0.09614462574987695,0.25563486909040833,0.6640902285399755,-0.6052621237560064,-0.07249195504529685,-0.07263766428090339,-0.15281242163398637,-0.038368805388375136,0.3875552859884433,-1.0450883895357712,0.559797791690865,0.2003748728019008,0.009132321728119792,-0.113851398263206,-0.1381078445049949,0.09085130386745748,-0.178191474638395,-0.4636254494769106,-0.1976699676983543,-0.18648424721646512,-0.09288917963990927,-0.181344430095226,-0.1162748905810531,0.5185841766341238,-0.018141122485951153,-0.10801991793712076,-0.1353470520278253,-0.11136368003952522,-0.048139917072604343,-0.16947128827303376,-0.22195537468040494,0.055671836306410226,0.45999416514899016,-0.37602720566899184,0.1734071129356191,0.2978777242759852,0.1511653444062689,0.1918844864144281,0.35882237291850494,0.09860571260740564,0.32099340001879967,-0.30552894773505074,0.18898110264431028,-0.07315197326746797,0.5177910623680085,0.304549259812564,0.16409668015862877,-0.023585069378316812,-0.031562600565491886,-0.26388175788185164,0.2333693143316256,0.06970887298407637,-0.15089532737904288,-0.36367872561585407,0.21856898522916895,-0.036576233561502414,-0.2366327895519256,-0.00020854492067479775,0.07988451850358182,0.47073191932063874,0.13823757551268334,-0.3357173362875498,-0.08094908710822724,0.14406772319121808,0.0296726248181943,0.063919475175876,0.6551175721848038,0.15608690964829647,-0.047040626097436644,-0.06761323892612124,-0.1697058998296991,0.1397146436484186,-0.046857440496743466,0.4363871599162219,0.5074757967100928,-0.1320649874793174,0.5204007561481307,0.4219598701655672,-0.06922114725856295,0.9860361466922379,0.3666793218509394,-0.5206572296439963,0.1730229916263465,0.1217126073411762,0.26282274298445235,0.14322551420081417,0.6300284252657374,0.14709584748554236,0.35068241511346987,0.1726392565975069,0.21787214727945348,0.209377321959265,-0.16309897433973433,-0.05910858042621837,-0.09838838213197525,-0.2075993425085133,0.10177277599185174,0.2771590228992132,0.005227523390588191,-0.674579824188859,-0.10864434221828861,-0.18824349324880157,0.18978014410086405,0.2921374702145761,-0.010278985462502522,-0.4058166330762215,-1.0148149662629777,-0.1651979172545596,-0.2584957227370486,0.023918858308571874,0.054764493738622196,0.6817873167510912,1.3170314979900115,2.298314262754423,1.847196596576003,1.2074393871394107,0.1243258022170749,0.02182101623596872,-0.7330554292927147,-0.6062298000997346,0.2448284188558665,-0.7875812422046049,-0.3865430264568464,0.13714786640672652,0.4069331461897576,0.49196583409898015,-0.04414005721895989,0.13884384536897748,-0.19635692529092924,-0.12306128975620083,0.32061555142796555,-0.43349104869559923,-0.029027495098334175,-0.3519704047882541,-0.24259248986598372,0.15898475090248237,0.023350490316264474,0.12104941955565326,-0.4652527303797076,-0.18801013073115194,-0.09941551031575983,-0.08098850293427294,0.22098483806838604,0.10730248651543929,0.03476008387312003,-0.10604294664297524,-0.11711727870442841,0.023597858341489954,0.061077120508005164,0.0023859728869081026,0.17265850807159974,0.07291498640719644,0.0975709400605553,-0.0019081726806470121,0.05574230152247122,0.06923806782600624,0.06088128213436539,-0.022121338388182983,0.04382302178211364,-0.10600354386642243,-0.0705158943749292,-0.2518063424452566,-0.1659702585403453,-0.3465410363380386,-0.23349630067134303,-0.15546911455117068,0.2217981235951959,-0.002456425239626768,-0.03306967377818951,-0.017107731507878372,0.03682845132869987,-0.13788819449658116,0.03040449600045344,-0.7898225879913263,0.3974566215921564,-0.050660399763109674,-0.2896013622775044,-0.2240760515974567,-0.030143775030042133,-0.22591765453069054,0.12709284285221392,-0.31892220849781605,-0.20759020459604607,-0.4417726181628361,-0.07021870683133867,-0.04867653161497681,0.0018859568479225402,0.33436359879123484,0.2646899995701401,0.4445044049801623,0.1913858298172219,0.03161421635616015,-0.12174407192673387,0.19571926695297615,-0.07116878889159148,-0.21297572583166896,-0.15240224962661386,-0.022536237952512105,0.1589318290536703,0.14391381987061974,-0.053136306177198195,0.08370232203734287,-0.13818054354584094,0.20599813348776205,-0.22838376635398633,-0.1552986857817264,-0.031188490389866614,0.3161996414024766,-0.4438457862905343,0.28056792176291123,-0.2858552367257943,-0.06925300054840794,-0.6592827492999568,0.16928896789990852,-0.012171125843763626,0.0885835567221989,-0.025023677915576893,0.09195438834070342,0.4759744962547845,0.1665987304457473,0.005295598951993546,-0.17429112465174132,0.13399246580160948,0.8637949841080339,0.10895083740992678,-0.25492951755657406,0.1716013381599595,-0.04193897441964404,0.3724578843176551,0.20092708084788066,-0.17889138370151106,0.25455310674831716,0.6580362296005459,0.2624054428101387,-0.07990016913973223,-0.1163173603002196,-0.34000056578710697,-0.2775250723059222,0.19241248991447785,0.417190550546668,0.3530632260083632,0.1159540011373806,0.2866935606004668,-0.42393791685344295,-0.6483780910440107,0.626999845821546,-0.07216912111795336,0.2946205135781942,0.8081177629305235,0.6657780501027345,0.2799508492896224,0.6980029446752095,0.9389512986319567,0.9940533529936234,0.834023158755202,0.5409520131810923,0.7089497990902759,0.5696591866149849,0.4690734081641977,0.7410742119481648,0.5886113237633047,0.543830032382738,0.47509297924321303,0.2553251820188444,0.33706924992811715,0.24991399315822907,0.2063862271121155,0.4525843138750186,1.0694706938595853,0.4710442863967298,0.3106765701752046,0.05056935996037008,0.18545965581696483,0.179119095012133,0.6401373579231908,0.8453050896376525,0.254006642900456,0.3068556792251911,0.17582291826086516,-0.015419847935976703,0.2567750309754046,0.4453878035471501,0.5895569939664258,0.233422891611185,0.21860275113229394,0.033667701155823467,0.30520685996951524,0.2863261666233829,0.6045575031816613,-0.058940711528761326,0.3485453008570117,0.35835769151874725,0.522264774721139,0.1299816139025184,0.2622916870013704,-0.3859955369553395,-0.022284410409364106,-0.16059787598883282,0.5035354763609422,0.35407376166789517,0.3536008518448919,0.3736463756008628,0.1573913241918056,0.09623103084121414,0.07626552555424791,0.10882885133398963,0.12926743423385553,0.06301658063133043,0.05395457464693386,0.3528879870615077,0.04546434548289728,0.5015483795902631,0.33419067784171547,0.054297115660673044,0.043378495837254845,0.012618342976609267,0.23659142986072512,0.7980590977798729,0.5491897865466397,0.07596944163891624,0.14913384646051336,0.03081670685298795,-0.009962510361065414,0.21975756684969389,-0.07204446736826303,0.17561122544006116,-0.0005110070391695267,0.04409594141372768,-0.006412633200303176,0.16121394453872434,0.08518775086879954,0.29124868109310553,0.07253087112629776,-0.3801626679338758,0.11643108831770908,-0.3314382758403357,-0.8088565539547007,-0.28021028343078813,-0.33002927934352416,-0.7674907190003939,-0.5996382234763015,-0.30822845237251123,-0.40260187078168,0.23042504922828427,0.04718495562381035,-0.5246138712716875,-0.1471031684641662,-0.5485748687456687,-0.42402109048297565,-0.2859264302406232,-0.09998918402743265,-0.19804070832711035,-0.0000698271994092259,0.3922046066058345,-0.29307536834950004,-0.8749293319404742,-0.38624223871557023,0.054123152408963766,0.027961556908609207,-0.1359369483890331,-0.6631476061047095,-0.26460141927806835,-0.36885394417108097,-0.18588492909509383,-0.12206291602290471,0.13662961504494808,-0.1378376831587948,-0.35857127274406647,-0.31622234393107057,-0.1778282794225299,0.05572260297848969,-0.03393400970546384,-0.2008246029639924,-0.18709708321477214,-0.45467692339359544,-0.05464471651050921,-0.4407638325962881,0.03616303780467057,-0.027086101151841645,-0.23144412672247638,0.16169825627961645,-0.13287519669227912,0.016394959075135947,-0.030320552863500654,0.6836964899743458,0.18610730990020236,-0.8285659517816479,-0.8109064272924956,-0.18647601753223095,-0.29444647730428103,0.16758425887889808,0.7373022843958041,0.033971371019716694,0.09317316983770003,-0.09787680131444251,0.06495151888961546,-0.11983953285213343,-0.07613806976137327,-0.06851561152457467,-0.07451597767378766,0.2672019474776146,-0.031509079180835446,0.023608394394741126,0.12975768988839273,-0.26556131630883995,-0.013062261722456388,-0.07047640006562175,-0.06589307089611607,0.23633660655580913,0.40247927222998686,-0.5567558656639814,0.21119416488951387,0.10439826936783608,0.27484995786839966,0.21604168017068454,0.05301043016062685,0.02536271144893361,-0.06669753096899955,-0.0006063674107175194,-0.19379040677196152,0.016705790136989414,-0.2920800517933401,0.3904843218006801,-0.2602975117086391,-0.29889452072166767,-0.39719828020544423,-0.19057687900605555,0.17152197539123268,-0.04814815403813754,-0.2175390895986269,-0.3784952013224148,0.12625819726816662,-0.5949599561218363,-0.14851364778052129,0.5701897084230171,-0.281539579127651,-0.32642822516571274,0.0013178199884249942,0.17096502363999908,-0.08050659203369653,-0.059303291242619974,-0.3129127094093276,-0.179073857888493,-0.030769446696861505,-0.25266307109062236,0.01188493285565875,0.04142387142945183,-0.47014632056527017,-0.20564378331172392,-0.1883906115446305,-0.14866217907841625,0.0009204278216284772,-0.3475361597500478,-0.33789303250203073,-0.2482883267699649,-0.07348200607639062,-0.12859113789242205,0.012613685332753147,-0.10249367503489885,-0.08050138826211582,-0.3512496722190468,0.06075570988982895,-0.2863777067815026,-0.28477154465854326,-0.031417618470979305,-0.2013279951887321,0.2282407725811862,0.24462830327732082,-0.21888629671751256,-0.10132165069650918,-0.5527968975913538,0.30367691888561466,-0.28340272406404626,-0.5494279445012991,-0.08258713527447296,-0.19078617119602095,0.0894962457434525,-0.15747561719817885,0.11701695780775888,0.29983374817989417,-0.15853218903424718,-0.40880892273953606,-0.47417778251870046,0.10787510649124794,-0.4610789797561092,-0.09533731359115219,0.20451010679096251,0.0036536076143826733,-0.23052241354063932,-0.10110355470767711,-0.4079528311664671,-0.2169463158414728,0.03777048923875998,-0.12767954111642674,-0.013377615908309645,-0.06559093641795148,-0.3814278602917936,-0.07288694566916168,0.008879736376148693,-0.1575764372746237,0.025001851187427943,-0.1282364684544326,-0.2017193953986751,-0.05037687539886956,0.0009215464111312672,-0.28015682534611225,-0.27080567670601086,0.01990069997378714,-0.5618418991817958,0.05992580762656387,0.19417947458891238,0.059743651538726184,0.4004612837618591,-0.08668670805711759,0.053156601244432514,0.16493130398074812,-0.717490804206613,0.17440542187912397,0.5789736011672116,0.46566085954989916,0.27695334124410653,0.299489023227797,0.05657011238941497,0.30472424736069553,0.516316975647538,0.5149833229992571,-0.7566018474364044,-0.6318527229852737,-0.021090638900970064,-0.05354185534628874,0.09245363871483958,0.7123517952286527,0.3967485646788347,0.28314130171689034,-0.10460072359139974,-0.027391191132452804,-0.14113717885819624,0.06769196144782923,-0.01284914170926205,0.09282116881642108,0.053577715048066674,-0.04117500299727442,0.1420998973758981,0.08896154581030317,-0.03178936153328133,-0.15210639981880103,-0.07997795428064564,-0.31201408935245084,-0.7037084573229033,-0.4402350632822819,-0.5023707844003287,-0.2658870297699175,-0.3841457346021734,-0.44618062899004013,-0.8551235679594954,-1.0961263404994306,-0.2830478961211997,-0.21619038415313332,-0.259906276894745,0.06664746576826427,-0.5307000226367496,0.028848746600298906,0.34967671667138356,-0.14967244485543044,-0.19693656177885072,0.3246583543439442,0.0015487442418320025,-0.056755429319882957,-0.13785475004486406,-0.10688745374721641,0.08774294096468471,0.026605780949331564,0.49771048917239363,0.20552261469078442,0.020294705190128243,-0.30458934688724454,-0.15286940056009155,0.05393437753216339,0.28806278162530313,0.8021911289717583,0.039898363135226746,0.26828583371635845,-0.06871074303396374,-0.5474433740093119,-1.5497041665253586,-2.138957747127728,-2.280853524350459,-1.295481408790008,-0.36037352721524923,0.14734439816942607,0.12467124483479082,0.45519245130452274,-0.4550830557552274,-0.8922090814266096,0.19496534848203806,0.04452615175000887,0.39339708658110834,-0.0722329013500842,-0.15736366764706644,-0.7295058525219584,-0.627763488612036,-0.3217491248068223,-0.38102300606155637,-0.015284700764874848,0.18428620786320565,-0.6144627337571411,-0.33718127015884763,0.19367666415809254,-0.33895989219037986,0.2056632593370208,-0.017271688243642037,0.3680122355672467,-0.251901584029273,-0.4689259712598278,-0.38240720113034715,0.6108199545667116,-0.5465792693089474,-0.4963456567257471,-0.06863869713602923,0.045940640801371106,-0.012073477719445183,0.11313586471804715,-0.43990585844181523,0.3398098184530925,-0.34029653629456047,-0.024120894064227176,0.03847464709697809,-1.1323382363634975,0.45153887497672685,1.1353218864948964,0.6673661887250497,-1.1979545568469412,-0.08619762066915905,0.023222373321372496,-0.2757837526275695,-0.005140642514928613,-0.035045882856860444,0.20827283391311652,0.6731865761477354,-0.3421845267773905,0.5135389883264685,0.4136598135135649,0.14249525894570683,0.6248736894333776,-0.020640768452109375,-0.19912096778464736,0.02828118229491203,0.10197440846780553,-0.8020742092756916,-0.552736786125772,-0.5799613416389222,-0.07031050830923169,-0.16747820083952006,-0.495928906012993,-0.10000084540817858,0.11596131167095777,-0.44014273792571507,-0.4647029542556761,0.03981606997948125,0.009451553504543945,0.11368936442114143,0.2791540552574739,-0.1716093456868728,-0.2528972515459612,-0.1207743680593472,-0.21280589201431016,-0.15716945944700259,-0.23035748355723099,-0.10306605301285644,-0.1531513754563957,-0.04388665625001549,-0.22022169158653881,-0.11882526364855024,-0.10077832477181083,-0.22205279093996103,-0.045311241158677275,0.0065678060108956896,-0.20457382453254092,-0.2565364563713966,-0.5015933246228834,-0.26113405457506605,0.16456484636829766,-0.0838678676933351,-0.10704060348240924,0.036296808345981556,-0.41852157854131333,-0.5422827383342825,-0.2967421293511854,-0.1215083876649739,0.06793733498338884,-0.26153399909569314,0.30140326707442616,-0.5353095032731398,0.06941560826084432,-0.06315428132579501,0.4780130680334731,0.03843031654342011,-0.14804097709011424,-0.2209953464669441,-0.002066577451197929,-0.10481099842387595,-0.12667550651045134,0.4457272115239907,0.03976722667076552,-0.18934935762996755,-0.31018577434553574,-0.007501738641667766,-0.10729656905351109,-0.07441916467412595,0.13674959193249422,-0.0015415517628585235,-0.29568584586773505,-0.28785225426477307,0.10499989292777906,0.04100532403761815,0.22241733395982963,-0.34290617232827536,0.02019723698439428,-0.16211606909103773,-0.1143189587010457,-0.14444837112999567,-0.345331815375241,-0.40059317464689725,-0.06760638709724782,-0.11360098645597344,-0.007006808582729461,-0.2558158443808455,-0.49559997203376105,0.3084398520930624,0.4219589551964009,0.5537127887648153,0.673257482257679,-0.5816735398643057,0.30363027156642586,0.338145689074244,0.173888480078651,0.18117273467943903,0.2894796363541238,0.1414675747226993,0.07988889539896979,-0.00023886076050024982,0.19191507226436932,0.03705800534374503,0.2638386417274795,0.059881324369934555,0.142878280612946,0.17250499726079538,-0.511017378362391,0.18791020054170585,0.1519172720429949,0.11254203123269861,0.33418605799030626,0.12723275633752132,-0.035928592229778115,0.6052437682938995,0.4471249678016704,0.19788777493406526,0.31897360378750983,0.1442225394927527,0.06390338314468572,0.07898618758339843,0.33833898697904274,-0.04271599368985071,0.7764263806710461,-0.4425529504413345,-0.1370276548648368,0.6934013709332607,0.18602369584230377,0.19584279755271233,0.03475478804657123,0.2878462311002447,-0.37670620348584555,0.22937352282365414,0.31092922350375957,0.8598765728743241,0.7105499594430302,0.08082188103479676,0.241781846228448,0.23107484100735223,0.12186984036942249,0.04959006288382606,-0.014025226908940017,0.11056953696045528,0.6401905213605305,0.07719106676574251,0.10076641138798585,0.04688790346630206,0.06079193346203379,0.004286515539795192,0.11000685914189788,-0.5906198251249919,-0.1368619917610557,0.35367518958496635,-0.002823295121879552,0.0012598062885856172,-0.0342012036259169,0.26173504466655995,-0.5027654763164695,0.08141008835162611,0.04497579064772791,0.14432701131531359,-0.011131795245912146,0.10237425444010695,0.10889004252954411,-0.0030761618742835713,-0.055424773858193034,0.7602442380640361,0.09741899085669377,0.18437596018704644,0.37962176035244655,0.40273871383404997,-0.7238786009643676,-0.1644085469595159,0.30339541932594005,-0.3060903388314212,-0.4217347944736049,0.13100945595902677,0.032413740734286545,0.25158924689381773,-0.23944148507338514,0.4050194595174106,-0.050925474079731275,0.003543259066184816,0.04025347489074042,0.18339929319672507,-0.21275045887426397,-0.3397904415407667,0.8223215454811085,0.31980339128467344,0.13617271182072047,0.04121492695655013,0.17164295395564366,-0.0590369789642225,-0.14333179231369664,0.36275636800956595,0.1627743271665955,0.11138432681670597,0.09456506505164569,0.008761280569538394,0.24843836672793015,-0.18790935269131379,0.12093507503005452,0.12073680577935182,0.07585876460891551,-0.01803386170659905,0.12335354635144297,0.08235511812607131,0.11193767789541945,0.06394517242397188,-0.60333741700085,0.25917703364346845,-0.20767295401408706,-0.8652490475702461,0.6651572748210635,-0.10264754841476191,-0.3013025425437711,0.21758056173091095,-0.17943459466106812,-0.21792369893599428,0.020234222595623654,0.2695182481640123,0.4584497492435738,0.6193362782378793,0.170010625998433,-0.08092784184978051,-0.1480890285001362,-0.12551626876610364,0.1367950213470857,-0.27040385660301347,0.005840007716896663,-0.24237954484087484,-0.018113584064834015,-0.0657877344747013,0.01116176931679847,-0.15236115664929356,-0.09896884206178819,0.047901941217299314,0.005156259366501394,-0.22995414662815955,0.082873252606924,-0.06995672946359138,-0.05476260719218471,-0.0787777258525671,-0.11557099319973958,0.12457036313416897,-0.10793813188787604,-0.008662864818204738,-0.10354567601428649,-0.10970738744356326,-0.20762026546771997,-0.05769476550873415,-0.038433273173584005,0.6934289238157256,0.4284690737920983,-0.8500740457579165,-0.42569429724356456,0.7623784801076877,0.41664388867876473,-0.36092523933245846,-0.4324070390578765,-0.32425788647783327,0.6736190581981522,-0.10431430950050737,0.32509011847094915,0.9018107239861554,0.3078465195547227,0.25768475975745075,-0.15342369746937173,-0.3126262334170215,0.08697438002286347,-0.09574451986769854,0.43631472115366826,0.6851334206071205,0.16616266399848026,0.09229236552291087,-0.12462017578541142,-0.025858901622868972,0.02531171507880993,0.0923705612648999,0.2681926919258387,0.4658196880846046,-0.08085343977639221,0.18375007967567228,-0.011215167579874022,-0.017368359738939663,-0.005752061139633731,0.01708364479710694,0.15995929705517847,-0.0633885878939057,0.01675484326259102,-0.006721402777441176,0.10005698834526977,0.1546288225601037,0.2985746384090977,0.12370684122849455,-0.5898248434237829,-0.49109691109087145,-0.6681912273280161,0.1517060530148794,-0.3100769711886761,-0.08572436238569761,0.18232310351477388,-0.03496710672900892,-0.16236522732325606,-0.06395414892566648,-0.1477793823026744,-0.04174559995020041,-0.26124766781441433,-0.6358997363582998,0.11898433171864924,0.2295271168362621,-0.226834862417452,-0.1391964701838677,-0.24669015873195982,-0.29750345585078236,-0.899170289202417,-0.03040880300600822,0.021832783300917348,-0.2570451504058998,-0.06361023174117439,-0.2751365151193918,-0.12701489934676036,-0.13839031067350396,-0.24072101358588868,-0.12958678969619034,-0.25891829595732085,-0.08783207353537247,-0.17411608878048146,-0.24970168476524238,-0.16266768969799125,-0.3801449293928005,-0.2604973346885378,-0.19514201102051126,-0.1872686240187248,-0.24285503047204945,-0.2502876472244807,-0.44649844576765785,-0.32864004816603837,0.3248714404547932,0.20517746157505992,0.047981859463989446,0.06578414309008854,-0.8276865306873469,-0.4130475582380793,-0.8271960139025135,-0.6711236859218744,-0.5173945328096653,0.16867648842995364,-0.17301178501907538,0.12735428636057847,0.0017621072454298637,-0.08091905330452033,0.8195065980530829,-0.44886035593932716,-0.6038628337821142,0.4364417186909128,0.4027458568864254,0.044161805599983145,0.37995009378450817,-0.03305255641599389,-0.023481246326927045,-0.14665666071838535,0.392714544856871,-0.07492787476181285,-0.030629647983880254,0.26243238202223346,-0.4117682917531767,-0.22073968935048704,-0.3127537904696987,-0.17335496895059085,0.024781558527812133,0.1064119966311364,0.08293233713504033,0.2889394913241751,0.2904504786091115,-0.006451541529045773,0.5558867709772334,0.18485618521399813,0.20553079716972977,-0.1739149018780358,0.016936026346345907,-0.08544307727236962,-0.9852839665837089,-0.30755126251279136,-0.08777504752570095,0.003389504071052482,-0.4238304061405705,0.4477630563867552,0.22814026643377042,-0.35089226084890146,0.05894376316434355,-0.3108903169616085,-0.034390809684523856,-0.2979215972620721,0.7744586669708319,-0.5290780965587643,0.1152842683682169,0.10283839884276406,0.08388418810406391,0.02586278594578418,-0.2091631180950566,0.18944683907103055,-0.3594002932340121,0.10712081631772791,0.02187086974974621,-0.055939982111940484,0.2249903109620165,-0.2657789672486325,-0.36123990889825386,-0.37596322153691863,-0.08624088553193053,-0.23109296389382195,0.06843343834844455,0.2902629838787211,-0.12183465922075239,0.00976741109880248,-0.4515524257811112,0.10982662570167566,0.013515616397398471,0.20386143559203407,-0.21808812021453208,-0.008105287141000131,-0.41269504473369284,-0.1514926689945521,0.17572078895732726,0.37713367650136126,0.3903789351030087,0.2826637019263585,-0.008520665047322096,0.280654802204077,0.9054404338185982,0.2221613874881165,0.6271561328291386,-0.04602565155291825,0.019389604708141946,0.33141923385524646,0.2039787382345192,0.39495224570446863,-0.0002853247865983469,0.09358221208929292,2.0755241611351876,-1.0444627908561077,-0.3749362916834798,0.1761067856660025,0.13380148382516163,0.06101340259647054,0.00048013722392231944,-0.21934895223724946,1.8869947755840497,-0.6094882388640731,0.14197722797519502,0.36852901794967985,0.28538389316849344,-0.024312364025172787,-0.02754689861794538,-0.4880457768357646,1.7845597254168033,0.17731702332763816,0.16526465923505484,0.13987643350888637,0.49790719909465714,0.055197517090363,-1.1289607054045137,-0.7651895690047279,1.33177422772606,0.3570903343264301,-0.01988084933092498,0.3360498412721482,-0.12903636233574547,-0.0869902733425175,-0.42552539723246946,0.0633469219910675,0.13051133720594876,0.02809541188343849,0.5776030521764195,0.03996479646784262,-0.32421280060536123,-0.4099216558191945,-0.17261790325006268,-0.36208791333606033,-0.40120018980776284,-0.05445475549398964,0.6530790997596878,-0.07612118621849973,-0.13330685106718085,0.1980818258381907,0.08075740085031145,0.313540007500095,-0.12030686371420062,-0.050486259897630344,-0.07085935559487926,-0.052970936705022835,-0.04147078467991099,-0.16587930703224943,-0.028672541985218576,-0.0525404431137571,-0.2597964369826188,-0.05185712674274679,-0.028320795211227223,0.0440178754551842,0.01652154270587151,0.2586796699621899,-0.09242943613440117,0.03621113791271565,-0.005668397349971657,0.015544561116876484,-0.015361717789042587,0.001165773605371003,-0.018043397115489725,-0.06088918134821349,-0.09886559995235701,0.616481460073098,0.7281627255435729,0.23937112648537096,-0.18775423281083506,0.07200591653361903,0.11915940325994652,-0.21063689961663867,0.0803704102394191,-0.3133480932989359,0.1274309757379856,0.4024993677003572,0.18290653329776085,0.3529180835074015,0.5528454450404612,0.15014478957992092,0.10915321734171687,0.18831664566569442,0.4261933783617195,0.45456023541066837,0.123478598541505,0.19338387013336175,0.1197960904342599,0.12806237689867456,0.006536082181319899,0.22359902248491542,0.09371613915016996,0.1735415378233552,0.33711067458889965,0.18596006035254636,0.10902470306747745,0.05543466666432469,0.18022244591371905,0.06515524958109516,0.7141093093901426,0.18212010819464158,0.127035107490007,0.07232054744379034,0.06421752295339718,0.1664822805032172,0.0776816442579493,0.28278162577870275,0.03010583837154448,-0.5788054401361551,0.0535098715838336,0.18658684012405638,0.41209093391790186,0.671749440841074,-0.03544031805218158,-0.9709386459798011,-0.08722090352439626,-0.5710984539713053,-0.4034752137521663,-0.4240647832836152,0.07802619019455732,0.020386754404982173,0.15092473320270497,-0.11281468557283714,-0.0646196700909011,-0.5422839150623036,-0.24756778763235476,-0.19811299571540913,-0.11794285615522081,-0.5415606077925786,0.2090718125854031,-0.229623779629323,-0.09367070731544656,-0.06649093667730246,0.023393703217280466,-0.09043269171231873,-0.3992092195721837,0.17403494160186936,0.024950589082028213,-0.08527173701337552,-0.0851318350261496,-0.015648269510606442,0.12523922967912082,-0.25030119737979484,0.01331828932782615,-0.020795214560914325,-0.1633810993748506,-0.04112376305670831,-0.27072340197886846,-0.16087060709519344,-0.07626785027988237,-0.04577706348766151,-0.386044499232697,-0.8959390864489457,0.0542518159534321,0.47505023905226157,0.43197969613096676,0.13317487010540907,0.5259092439387827,0.2458012423274337,0.13387072762468902,-0.5661479333649664,-0.22541254661334792,-0.13300022989711352,0.27131174272869313,0.5637721108154371,0.19985617524932592,-0.1423092531316158,-0.2673173916517861,0.17768103351813017,0.25061252958378977,0.3137384155026878,-0.22523999394518243,0.35277891777734643,0.07299737902691994,-0.20240245927546555,0.13848511951555834,-0.10402894777635804,0.322400533621886,-0.36324784510962704,0.1577073670722031,0.3338570575404206,-0.02143318278747134,0.05284662515596629,-0.09795530426564285,0.018363030798982157,0.5233079345222739,0.06961633363415312,-0.03891841891609455,0.046507722076995904,0.04562769950934523,0.04039951723112334,0.08140232425374638,0.04572838220694494,0.08895219878256873,0.10284991360507935,-0.05865993657744626,0.21793958679050845,0.526925667776162,-0.3010364865347285,0.3111035854450463,0.11629943495292863,0.5725015861738421,0.16915635006894839,-0.17486453168165134,0.31261337794375,-0.11558255642845282,-0.5666480379055486,0.30941657624248736,-0.3889249541963682,-0.1122477029264709,0.013812653627285659,0.439171651488073,-0.11471287627843452,-0.05490546153892224,-0.14584017587663806,0.1024176009528089,0.4273784435527568,0.06815556688534255,-0.0619408055892931,0.428977190284213,0.49414544222799217,-0.21204885237308682,-0.4416104108472782,-0.1201787796445499,0.12849800516234697,-0.016949329729094454,0.03830305326889921,0.4429671670552522,-0.08637969234303891,-0.2571551915417329,-0.11538820379079855,-0.02911804539706379,-0.034347603893402676,-0.0012769560061845452,0.008525189670338041,0.26808112047644145,0.1269384880100139,0.08093259931200751,0.194557855687217,0.6644046540661558,0.3986567145474604,-0.11889832397335741,0.3942819214733278,-0.12815503966696376,0.06954390067868353,0.6697324402487216,0.47734693321732546,0.1749144634956498,0.44558118484586723,-0.08910117587843765,-0.14873428921835383,0.784068960733676,-0.039519320875420615,0.10739658616376986,-0.03724295385468948,0.05966189829744841,0.041369561016497594,1.0013984423449327,0.2537159288110686,0.11083707079149628,-0.1445804240907929,-0.5014156127234126,-0.051784875437383575,0.005457627896139689,0.01062330232153319,0.04977599487997476,-0.162359320534598,-0.3629625406575981,-0.6469260434845637,0.01697424446127448,-0.2464900585131571,0.07699180698419424,0.17896260837316103,1.2466748912552987,1.2693756463785146,1.1656682018707245,0.6271295413741332,-0.1978719969239835,0.06405406031814459,0.07788897835466266,-0.26105820070248476,0.04784833933888706,0.29217934401621776,-0.16009906336384785,0.006276522055732772,-0.09116207996498064,0.14604641709062732,-0.1913572055638122,0.27711729561664317,-0.11074688490287006,-0.22507898241439198,-0.09673615560125434,0.14801473023475994,-0.4131020226314352,-0.21310498926339635,-0.24021375518199128,-0.3383994918491317,-0.3115697923551616,-0.30973153753307886,-0.3831047818697042,0.3468682338089266,0.06500242868753905,-0.07508004140609717,-0.456382623978462,-0.24856925657042958,-0.24585353716042743,-0.2343573736366166,0.2715651208153752,0.09501066902901777,-0.09598498466916487,-0.19183056804783913,-0.2080624700853781,-0.157718098031378,-0.15229741939729705,-0.12230796827286579,-0.10745783143362998,-0.24114880519386256,-0.18673793614586384,-0.2202888713250617,-0.19270879067223165,-0.10294350228061536,0.08055854182213829,-0.04324097218406363,-0.4815267036279471,-0.569872905448112,-0.005271890524594466,0.14481690089165236,0.5586647229848622,0.3490751720075859,-0.47116892708802594,0.3904652365735758,0.22925062832989143,0.6306295282943103,-0.3367569796035957,-0.7197178439175581,0.055135378645557696,-0.2630349877595812,-0.053647296484459824,-0.4854754825156456,-0.009987571387427929,0.1304185521833788,0.11256221912566189,0.3314183127207635,0.14876502838572656,-1.1238780246201725,-0.48292137023157833,-0.06746980774910305,0.1261470792670614,0.002227712187052049,-0.13418685746871736,-0.09611187685235681,-0.3594912211219972,0.018506517216940854,-0.00424863931367528,0.02231982363920054,0.2494301071354359,0.011195142559526161,-0.24765800030225674,-0.09907117116700627,0.1621456967525527,0.11707340214284286,0.19231237967828066,0.06278020311992015,0.20692091200120252,-0.08335637574153168,-0.06761508443652942,0.20626662616372687,-0.3402106989582667,-0.2779031624432759,0.13879205298605765,-0.3771779801585421,0.061010756082805526,-0.37531753008848345,0.187648183065573,-0.12125925546289223,-0.4169555267246725,0.09662674679803256,-0.1944749102389602,-0.04419702112259152,-0.7113028670673734,-0.6416519322401025,0.016372191470055034,0.073492393582552,0.41954312877482586,0.1368955691938895,-0.33092410967640795,-0.0900690633974483,-0.43411173128339026,-0.04388217683538849,-0.11378195312103039,0.36956840224232324,0.20426390464518077,-0.09257010823229997,0.27355099972309094,-0.04559505313062139,0.010992551225515935,0.013418665714703067,-0.05891575597304638,-0.07057395764664959,-0.3917332407922505,-0.6620666052423212,0.19801411498490257,0.08257527449292582,0.13788923876190973,0.023582095253853692,0.11854547858343215,-0.03822712503289655,-0.13649310785119348,-0.08219943918167837,-0.020911057459786365,-0.2479593639765205,0.47466276173545613,0.014759212205056035,-0.05473473447473259,0.7295252042517671,0.4315109929407741,-0.011878455259894177,-0.21982967766038747,-0.5487320194496234,0.024647954567374952,-0.24451768985412,0.03577517715124939,-0.5785455428584756,0.06757202609531478,0.10108738654364752,-0.05281127730758729,0.1236619134874005,-0.17353074179035544,0.36905679584274986,-0.3923587211813568,-0.4793871280604811,-0.5536743152745492,-0.14536802749471284,0.1272625132088352,-0.3880321538419288,-0.17243602554733414,-0.32287298814046,-0.11932801805435618,-0.8859391263682489,-0.05476854537968663,-0.15567001955810048,-0.1455293197234587,0.20700660533479318,-0.5856127491472716,-0.12034869169263006,-0.3096406648202681,0.20477982510443565,0.17222048381281196,0.13203631291992737,-0.07123406495152247,0.20190632668453593,-0.029676789068084266,0.4408742634082958,-0.299414155240383,-0.36847946941893855,-0.07144307946577655,-0.7396537355007771,-0.6247431492607861,0.10831734964514221,-0.21952482452601715,1.2236605745091298,-0.1518891478106649,-0.46875181814303785,-0.09687901215621661,-0.43482455092582045,-0.861526561812095,0.25555296785747317,0.48357700336293563,0.08660469469180394,-0.05085607949998452,-0.30684020077606006,-0.021389047661079824,-0.5027351498188654,-0.2722761071994665,-0.05957711129474715,-0.07325104610039287,0.18250014452210245,0.3484043648370049,-0.11200623446760556,0.08360469083446288,-0.22293362372323727,-0.08240840053921943,-0.009505497610740772,0.11497883727530352,0.2795944665795483,0.08067418133362403,-0.2817542259420397,-0.12179811468009084,0.23409275674755164,0.06803486141395632,0.2804472605695996,0.0791856126707076,0.1688617302850098,-0.09780530702380667,0.11309006310322135,0.7438768751629197,0.01488004412559263,0.4419630906759986,0.18194079063320148,0.17597136679304196,-0.2276507049863794,0.08383515177103973,-0.3566891759630544,-0.5592203512747401,0.047476328949381544,-0.06912974896320155,0.7235674875338515,-0.18628542520348365,-0.1079947703119654,0.24594183438953213,0.043439822440202766,-0.20044786769553313,-0.4835228748988345,0.3034034894038,0.20155031413020136,-0.2276743698587505,0.11180615376664887,-0.2279264252325253,0.057088173294640845,-0.5830252898154528,-0.22284705894383197,0.05306953116649956,0.6445430412639825,0.04926547018690549,0.11557942998017447,0.5887298947066836,0.7443127683575711,0.5088587781347849,0.6494877704205374,0.3154081942878216,0.2622571421913561,0.04133458125271161,0.049092999867821174,-0.2171760454336764,0.011321132860740988,0.032956018763667876,0.08679731908618751,-0.12437308595062473,-0.4540433661248586,-0.21679469817106872,0.3736106295062239,-0.4578750524179856,-0.7327219210528633,-0.34848584252601417,-0.21606493359148135,-0.17920888341569982,-0.48403269373338786,-0.3337468656214115,-0.4707925641058585,-0.12984289178291245,-0.4947341534594357,0.2874323203667492,0.07391126381149897,-0.026663800099986583,0.2988700551456991,0.002743591761630623,-0.6689143422373548,0.5446101872127639,0.3227242736794277,0.3712875989454883,-0.3284704731029539,-0.055310226002726746,-0.11495968696620791,-0.14878086160112133,-0.31234849940433973,0.04327329823473134,0.0047719770837770185,-0.10239312410150814,-0.05092765211776226,-0.07415194007664135,0.1938051775848927,0.09984693212157875,0.41618418478308583,0.20695120873344305,0.10926834296926317,0.21272337615751152,0.09978238773568905,0.1126123506717461,0.12318615187977987,0.04306329122125736,0.03694090605727482,0.17041132882841029,-0.5627312295260865,-0.5460679671554836,-0.07839608359400613,-0.7880830600040234,-0.49006174062999097,-0.09848865604477602,-0.07883823871694041,0.38996365700432933,-0.20862648138175022,0.5138134870076868,-0.39464520757406474,0.017464191878408798,0.5410280224796258,0.3059497858006544,-0.334014602621559,-0.05558661473450924,0.000984009872898494,-0.3396117445902842,0.57296652992828,0.3110030760778551,-0.06772057562400001,0.17815954025453395,0.004750538500612574,0.18090231835997186,-0.17925028117064123,0.23149256847620686,-0.24216884314001408,-0.27238564425509415,-0.006871232031345566,0.004895748341478737,0.03979508429094197,0.01649708581679278,0.04318530191056989,-0.10897706770398274,-0.275034950465499,-0.024040005944855083,0.0242966723262057,0.12473034764945587,-0.01015897775338814,-0.14282032084393836,-0.15119135032790743,-0.05069027242048222,0.7580645733610376,-0.20277957508987202,0.32508289535327356,0.2982990140014894,0.9901764770282027,0.4977742572831661,0.658293756722246,0.3533248489508109,0.22780777259404583,0.685825511827698,0.6390722786045075,0.27311197380661034,0.44070205096994625,0.0958546756214273,0.3292150201862507,0.44743169900119933,0.03260148584313079,0.10292047368935245,0.26261425850512027,0.07839274001074387,0.5406053329766822,0.06015037953467137,0.37479707238395055,0.26546299695450504,0.013246775350468446,0.07045186024699672,0.006381430598178175,0.4719954112474101,0.01747409398512051,-0.02187838805279572,0.17913800959040008,0.08370552844093071,-0.14696338829224861,0.03980534398691926,0.3348782607881462,0.27194875838001437,0.16206206795693584,0.026034491868049736,-0.11847857716552308,0.17384219709990473,0.19932776638078364,0.3564765838025439,-0.02785097870443539,0.07200873187347158,0.15592696552409446,0.16275068918549052,-0.44361994771869373,-0.20845491775884348,-0.8790941418484153,-0.10284263349082423,-0.2429858318660213,-0.5886936983906669,0.012889933617851027,-0.2522642353878262,0.38693584539430764,-0.4860484120696474,-0.7234703518315565,0.24326030504053797,-0.2968060161993845,-0.013405484741009971,-0.19699351897914777,0.4431946744038902,-0.9650684476120562,0.5695865627083573,-0.020322300732206054,0.3020821336331328,0.136129939124368,0.19091379519796464,-0.44940641941052234,-0.8226895551623349,-0.08471133609432722,-0.2633883696189751,0.2075934956626481,0.077311118589122,0.06514045296346423,0.5100164181621993,-0.6079567692150657,-0.24662061250657524,-0.12724834255373932,0.13945431517423143,-0.001620722446556358,0.4403610554495751,0.16687285065389795,-0.07526552703962261,-0.40863013036187423,-0.18079105324145056,-0.24037590628531783,0.166660738038959,0.23928005345846737,-0.7845462760511862,-0.4112873195104496,-0.1553555433908998,0.04825489172802938,0.2358218385221393,0.105271245357021,-0.04424452849577031,-0.8121172728575701,0.33879871054954136,-0.48199941818307673,-0.20984060035747465,-1.0681481892039233,0.19354674756204632,0.5492923600068086,-0.2827578271177488,-1.2354995762247092,-0.0913483872794243,0.17111352142469843,0.4554148728095842,0.5111695500676348,0.5785137736089416,-0.05428123027260728,-0.41664033422093133,0.2658846373124409,-0.3067434877452432,-0.26507473757321387,-0.5114533041324244,-0.9744553948233182,-0.47172246784185495,-0.7700004497037121,-0.5045651149430378,-0.06704722834757144,-0.014452570232756957,0.35805833346077676,0.40965503292293814,0.20957679568639692,0.031153239811061214,0.5892094000893823,-0.04778455685433448,-0.0065731711382568435,-0.21944880389139823,-0.013624929275108213,0.13862249669985127,-0.7863233904308353,-0.015755110888788473,-0.2517540606362993,-0.14307598664674512,-0.17230714375881487,-0.30503575797995314,-0.17560235515181105,0.10408378096322914,-0.11197794007711921,-0.1685751594114667,-0.7158516494680737,-0.09416017032316058,-0.52573665253655,0.6172893111791536,0.05315214020313933,-0.24014259830622348,-0.07308004690884165,0.27909564404488124,-0.05689039789871239,-0.19660133905138835,0.00005457304053367452,0.06786697442072395,-0.7264202489412065,-0.012450719294089516,0.27527863342435266,-0.37269125087789,-0.09050924060445219,0.02515535302525796,0.004930166680819925,-0.5721312251255473,0.5869678077362331,0.24547881395167215,-0.45523998209089234,0.3373868859914626,0.47912758483363593,0.6721189340571873,-0.4263537512403707,0.6225584089430419,-0.10717695800817054,0.004195229212104822,0.16877360190772941,1.0336331710278635,0.07200533624181882,0.5340242351120534,0.4368562547311671,0.3077155391744928,0.25250853820894187,0.5509183214587294,0.5047776553453671,0.28854956467829784,0.38146242914849016,0.5737733666350628,0.48184264992271747,0.32410297241708774,-0.22688491319948226,0.5191740695941166,-0.15571099909842145,-0.10041674071276427,0.20972914606179352,0.6449168931176613,0.7544077232476585,0.5313530639481518,0.30932582334643755,0.12369410408557639,0.021872319108164315,0.15254453680210472,0.6651412551458628,-0.059627297817121096,0.11110421659212708,-0.04097476129726295,0.08723305887775219,0.1384766873796635,0.0695121450908682,0.522143728462371,0.3285043711934183,0.5535908295311612,0.00491967935632039,0.22955430460901532,-0.12494963735863918,0.06987860958094833,0.15440668150024894,0.16873913907366223,0.006078339707282641,-0.41894072865472415,0.013668661841160983,0.06682777323232557,0.14497136869514468,0.2609977055897414,-0.20945742218055582,0.12267612691399613,-0.6787663476845898,-0.17378582141022747,-0.7550222649062026,-0.3593119195967529,-0.6789577805229281,-0.23338427571478282,0.13361846971366417,1.7536579621826882,-0.5526934940337426,-0.28632736807441916,-0.32494417613644505,-0.5834130017681335,-0.3124257366090874,-0.5816308848326519,-0.599961090976212,0.5564344959822616,-0.2412274318438275,-0.00579475137354937,-0.13059453623336523,0.04304270633642689,0.33096815779071365,0.0020644196576920693,-0.5761296712705802,-0.07016095997509159,-0.08248530411051659,0.04124627559311313,0.3528199106836272,-0.3043318333842298,-0.4143725399346192,0.09897197764305743,0.3149162623207095,0.19444911047338,-0.11685231357794125,0.23075841088428392,-0.10499221543088187,-0.19890660531701515,0.20904975389708622,0.2843846558494618,0.8252390523461787,0.2659458996959542,-0.5363368859198884,-0.6913094952395477,0.22727523194775234,0.2754081411906679,0.06345216318435572,0.36775876097054655,0.30696693589464846,0.3961547340226182,-0.41390478040300716,-0.032200143691285,0.19138323089440235,-0.49934745895448296,0.4333600344136082,0.05901313998835731,-0.13516907574395415,-0.011355646201029608,0.38388949058883776,0.19992090956128164,-0.557588862603308,0.17465725146243147,0.07641589620607159,0.22107543822550216,-0.06754570841137496,0.2962227851234618,0.07582540707361812,0.03913869865311214,0.03369574154415655,0.06145479011398676,-0.04680596044382796,-0.10307380926096975,0.23645008558274164,0.07472489058678419,0.13394223676655703,0.047871349120489154,0.3035779735737682,0.04876685862987395,0.31077341422247645,-0.014346843637663111,-0.0699490703402967,0.3623065926170042,-0.08591788586465467,-0.296403916759476,-0.5806243069884758,0.004075161558499477,-0.0517755606982375,-0.26659811043195175,-0.3787371346864697,0.4732889131355582,-0.6024360067304395,0.25172787342731096,-0.053209881546100506,0.29477325944330973,-0.4940136632253172,-0.41362986820845415,0.47740379195597893,-0.04889744751724759,-0.16025451059120457,-0.07660830120543756,-0.5506907039769826,0.5020149983419465,0.30335894287857296,-0.21639569961657038,0.015692664306653097,0.04615089084286439,-0.012904959692226527,0.28307274000297056,-0.1314465408337801,0.13296550683091723,-0.08704741100697896,0.17236343909225674,0.04330177905644612,0.2831048691795012,0.08873046825598131,0.1961485553549657,0.09164506623179523,0.1889543402986881,0.10863941247893286,0.12727109385061303,0.11771952695357564,-0.013065090416812643,-0.11469585667808908,0.02926636201977582,0.27985750719622593,-0.4554991649343637,0.31788139337745036,0.5019882087072498,0.21850878380257144,0.773731970137159,0.18351076605019126,0.8787845532762774,1.1363047223585567,0.5411002250531708,-0.13179057095527572,-0.27921675661285533,-0.0628895523089543,0.2606081451489636,0.9712316749910008,0.39206200818853465,0.1421262823469236,1.4087050207776408,-0.020077412451846265,-0.4863846146040077,1.2391399097757336,0.15306161426228185,-0.2349249666086265,-0.059518842149821775,1.16235880326603,-0.08425256389182342,0.39919053921725617,0.048855323197687,0.06815827024613925,0.36104528109480677,0.0930721219329768,1.1507375593574185,-0.21487343116045057,-0.17076477532760986,-0.023706155099121547,-0.27190858032966025,-0.8577447836574025,-1.1686361987954916,0.8887841493723563,-0.6075524546215325,-0.8908766714218758,-0.044060554834082694]}},{"function_descriptor":"TwoPlayerScore","weights":{"rows":1,"columns":51,"values":[0.1990058537384968,0.19230864431889236,-0.14951564533211223,-0.20709009503359063,-0.17068438149512316,0.12644207431947005,0.05059179368570011,-0.05319533691280828,-0.09099256704395645,-0.1439550691846265,0.13415684907847383,0.11874828865976561,0.04513628873807589,0.008140524029434736,0.12697839193432886,0.14531603041660068,0.4082796936974468,-0.17634523783968922,0.12680826040628612,0.11614754608177977,-0.01112516288111867,-0.03179979384923494,-0.02488469260236801,-0.04622100379486108,0.02155829333792512,0.15768961620393168,0.09509223733004216,-0.5399478400980535,0.0492266586223841,0.004469966039897643,-0.0675887422169999,-0.06335627462642524,0.051364511721252865,-0.25975019797665133,-0.21387690564600673,0.04103249739793394,0.08304268879844952,0.10928089070972703,0.06729915423962013,-0.12614931825775255,0.08349563943112695,0.11009477686818135,-0.11371549746718224,0.3100731266215022,0.1275360372960591,0.18468050990633716,-0.15827538534152102,0.1350278354093651,-0.02563131398066979,-0.0034484307390574447,-0.2948493145304936]}}],"dropout":{"Weight":0.1},"regulizer":{"WeightPeanalizer":0.00003}},"momentums":[{"rows":1,"columns":51,"values":[0.35786300601304016,0.17464140588083504,0.07965998535676688,-0.0827961164979215,0.48393071569628043,-0.1487503096933333,0.20034699894295083,-0.1432333885373266,0.17548831483893887,-0.05653223788798837,-0.240309915273409,-0.1634927434798276,0.024327515532674003,-0.11808078623763951,-0.019627618266168635,-0.3793011753808595,-0.534766271611014,-0.08295954740842902,0.015682336292786876,0.10609044387354702,-0.13526227104467847,0.0826663925705409,-0.007070421623357553,-0.039230791572049784,0.07752182334500868,-0.08841689710927313,0.12715774982284503,0.3421467211260186,0.10889723118437357,0.17337684224279296,0.15742323830969757,0.011784492456893773,-0.15479420745586997,0.21916738929417212,0.050171262837789,-0.1947794599540142,-0.17302304634438165,-0.5126338244512533,-0.11840225031165665,0.0975632613876417,0.028685889710737975,-0.4027455351485558,-0.10812829123526,0.1978939837787994,0.31706918669414774,-0.23428206999005668,-0.04799398284407465,-0.2577052238241132,-0.03939939482679873,0.020095399676482894,-0.4396905670266047]},{"rows":50,"columns":43,"values":[0.03304801306474401,-7.662524746274586e-6,0.017654441105512977,-0.00017675243547538589,-0.000016638505987601555,0.00009212242409293637,-0.00032129047508876044,0.00004809653052428463,0.00005897357000307876,-0.018598720213979396,0.017411122756389626,-0.029424070886619396,0.018458620216926142,-0.014401093963270502,0.00009214742422035742,-0.01842436561630422,0.016766756065519244,0.015886768206507012,-0.00963816289449989,-0.004299679763925991,-0.01571090022604419,-0.009575657968985454,0.018581090096069074,0.015002839995653341,-0.00542941953662194,-0.02540383999408129,0.005388203126663827,0.016162871862307335,0.00959081359864087,0.009178771747431843,0.001617850013043271,-0.009933864767658389,-0.00456186356622721,0.02544363242560028,-0.0262642473924869,0.014493367280607404,0.010570714184618081,0.025552484668024452,-0.010753859097224669,0.005075512301111566,-0.011950412725060228,-0.006790944389067866,-0.020393787968627446,-0.013194345540327213,3.811815997137412e-6,-0.002405564492055288,-0.000041612204715954584,0.00006175337927771335,0.00017885436261283274,0.00006837899986858719,0.00004863506328253651,-0.00011005811829011656,0.002956634679089767,-0.0019792586122294353,0.024717515071145547,-0.002992269574644875,0.0017825447210762083,0.00017595659901896142,-0.010808611419736743,-0.0010829026879150053,-0.00006481472724686022,-0.006504802799842575,-0.024502350932402616,0.013967120108151378,0.0007215028223407359,-0.003433014330891302,0.0004396834472171131,-0.022266683046995975,0.03762164922810379,0.023483952924032034,-0.013844007915510277,-0.0010691221990959561,-0.04682188597600875,-0.030837171119433453,0.04775804799499067,0.05107262318283447,-0.023439478944983435,0.022403230895636412,-0.0019870667247862055,0.007176965876635779,-0.025593717386706905,-0.005389631045594171,0.04402023834418301,-0.02028653491115617,-0.037960614709028846,0.022082190235753384,-0.014444867728793179,0.00011601132715960682,-0.012766681628142217,0.000047590558164718875,0.00007961594336474293,0.00003654089288142486,0.00005182686334502524,0.00010429366861497031,0.00002721950075473505,0.013691934938697711,-0.013702760946286141,0.04883815841790789,-0.01365980650229529,0.010653667768885888,0.0000859425246898182,-0.0076882823464140175,-0.01239458246727379,-0.010736164640175853,0.0006895828953263176,-0.02435952798975508,0.03261770869629747,0.010484475148593039,-0.01192198577691275,-0.010213144436866804,-0.023300584255617523,0.0633742762432285,0.023094110953760977,-0.03257316349907596,-0.010421462470956124,-0.04059880904122165,-0.016109934271284317,0.042650915909804125,0.0425392955020771,-0.04377766120282238,0.045050785624523366,-0.010822600635796428,-0.020077838754835407,-0.02933131224905715,0.01974892764461153,0.03186139304038755,-0.016365371256562438,-0.04054309658652609,0.03863291214333577,-0.0016645653543881816,-0.00003624390471221918,-0.014942969882496493,0.00010639872210791161,-0.000019929016377768813,0.0002362429602921038,0.00010858455294903235,-0.00015372360093272243,0.000049682838614566424,0.01569176219201663,-0.01464325003979861,0.03929645989830591,-0.01552461628114256,0.011956340885098985,0.00009611519520959355,0.0004504426646918874,-0.01373584342186872,-0.011957219400824167,-0.008529876849958264,-0.011721972860929127,0.02818209970699682,0.008222357382073282,-0.0015162993451398351,-0.012399889229360575,-0.012976950112745654,0.03636823250774394,0.010737060123345202,-0.028255181986384995,-0.008230425044434593,-0.01151823313140839,0.0072114432042911444,0.013994302612602217,0.01220154252278018,-0.0355280842339969,0.037431715862998476,-0.011953756024347388,-0.032796667718723145,-0.013282867194340303,0.03185826706858686,0.006202446172331144,-0.00756686730947904,-0.00934993893192124,0.035286438477138825,0.019773949346936534,-0.0002098609698955179,0.010073117110424573,0.0000653476636769127,-0.00019785580605146926,-0.00010503635896092506,0.000040707566348258074,0.00010846185569780866,0.00013942256186845394,-0.010853187578740913,0.009910566893055856,-0.03148553480688832,0.010842761664444147,-0.00811939343879022,-0.00012826800344724408,0.0023528263395509673,0.009064195224523593,0.0079817874945321,-0.001322200768142141,0.013492583161259208,-0.021604051019967065,-0.005864773092675318,0.008637195953206198,0.0076516920399902506,0.012424561896117967,-0.03939693044117439,-0.012593819069017782,0.021642682651886316,0.00571658620104299,0.03244088279726718,0.017901672320019574,-0.03366291732057048,-0.033647444773283026,0.028480207720672505,-0.028957512108637628,0.008626611193082601,0.004568312866378521,0.0287908058178794,-0.004523194995812968,-0.027727976924608738,0.007972187232583645,0.022634798023888562,-0.025509299529857317,0.007257218569303033,-0.00005742575465293389,0.003185188321076423,-0.0001006389731767587,-0.000058819551158686,-0.00004194933392988011,0.00006607238844309609,-7.172289432897893e-7,-9.454899829602536e-6,-0.0034949326407310265,0.0030985223151301132,-0.01163185336910939,0.0035083380097760946,-0.0027769185834797335,0.00011600245174135635,0.0016050679466406796,0.0030036192479230115,0.0028592465459628836,-0.000449042237490988,0.005830049998613747,-0.007870991354446846,-0.0026351924550700595,0.0031244386086274802,0.002440245537450218,0.004876875545690618,-0.016118648351041705,-0.005545075737925832,0.007995465612704748,0.002609615872193393,0.013193925492902114,0.007206236135314575,-0.012966081043735048,-0.01366139046396239,0.011305108513789375,-0.0105780209379453,0.0026396020139675845,0.001070107228192502,0.010742085310282996,-0.0018639441781478465,-0.011085692653175033,0.003709387345910646,0.010228003130830327,-0.009574174885496849,-0.01021014420087192,-0.0000631695930519926,-0.005076572675398253,-8.442227608385549e-6,0.00008678299607368711,-0.00011926059236005447,0.00008337076828375099,-0.00008483636618950987,-0.000019297881646914907,0.005129920137891799,-0.0048305799166685195,0.009945534448227156,-0.00530121437775214,0.0040429751901021795,0.000023933872374132116,0.0032484010868559484,-0.004563265731567006,-0.004205151499439239,0.005285650964327591,-0.001247040100030798,0.006731586319869046,0.002845754724448233,-0.008297349547467114,-0.003952167170987317,-0.0003950561102911323,0.014589642929347248,0.001246943044909464,-0.0065250150199371824,-0.0027497560496144227,-0.008111396622018518,-0.0047034518169400755,0.008696783986803014,0.008100234157778113,-0.009453186648557581,0.008823282866373872,-0.004180530969269898,-0.0005126691619082658,-0.010659712044263329,0.0011041597089015706,0.005662102233365947,0.0004821957114635393,-0.006355714737937775,0.0084214786299315,-0.014372516379398473,0.0000764445815705188,-0.007316363850864581,0.0001629136093015777,0.00008107370897541677,0.00020638338451925444,0.00027275757154945424,0.0002921754047191203,0.0002472736053761225,0.008186904099283963,-0.007832109421291311,0.022036713975575828,-0.007917054247909925,0.006256899522586313,0.00016142718759271123,-0.0013024967157479904,-0.007392883014423536,-0.007035755505872226,0.001446916638571597,-0.00669588140455949,0.016516974808793855,0.0046106265696588145,-0.0038349658895050764,-0.0064180177256214065,-0.005981905858097658,0.02548553162746631,0.006375116578473745,-0.01641336624565347,-0.004320433969169783,-0.01791992160511791,-0.00878642108238676,0.018754988953181586,0.018401470343707756,-0.019856694301734264,0.02015641072572673,-0.006184932366305203,-0.00505422247706907,-0.019193494581691888,0.005631432889370128,0.01401534323340079,-0.0025721264195298636,-0.010959269443313286,0.01703715138378784,-0.019986080288149057,0.0000749764054964383,-0.006488715316976267,0.0001389427197165538,0.00003464270537135525,0.00007333456177430276,-0.0001005827737065411,-6.498658744101801e-6,-0.00004085113176561445,0.007500382471153924,-0.006270836429572423,0.015938000825290014,-0.007296530134837735,0.0036444117193525144,0.000022822462984327193,0.007384320023876478,-0.005520705436368869,-0.003962765882056434,-0.0014494031358078452,-0.005585847823864116,0.004777569767065652,6.803008229039666e-6,-0.007245178050775951,-0.003919488468549459,-0.004730596175620607,0.012487275295201897,0.004585957445781723,-0.004626870779753093,0.00018801606723488741,-0.014353412673120644,-0.012474624082173914,0.016161094836017905,0.016007192799360748,-0.01242083365147227,0.01341866353312577,-0.004091428757855094,0.0018214169515233878,-0.015227290234184182,-0.002001349504759313,0.00892187865512921,0.0006135288894685912,-0.002707729996419632,0.009531644616226567,0.02347281495573786,-0.00010026141732531984,0.010863489691544447,-0.00009766780860772518,-0.00022772616610811802,-0.000070563279947061,-0.00009158328599375848,-0.00018406033556921385,-0.0001544857611905217,-0.01144061921951054,0.010616375337119191,-0.028084249423065425,0.011407860568171179,-0.008314752822925039,-0.000036353442495139525,-0.002872595383147865,0.010005956518943263,0.009063246969366645,-0.007594070751000524,0.008128490749983293,-0.01789963319287561,-0.005057480592740725,0.014759252306390669,0.008505040169104054,0.007159180377543232,-0.0372651640435979,-0.007311232272174159,0.017859989454374916,0.004990914880653892,0.02890900008690693,0.01471144191778015,-0.03005611662006242,-0.026302793716391593,0.025015523893489676,-0.025593308103931324,0.008433213346326587,0.0030239414599750204,0.02756756312819838,-0.003093582353419536,-0.01989184674059189,0.002607431989887312,0.018229217018001825,-0.02198998393892768,0.013670506741137399,-0.000125207257374008,0.0058412306411667145,-6.9252575369126125e-6,-0.00006902309162244995,0.00004420408078785405,-0.000038797922465966496,3.4426949708355237e-6,-8.823542062496467e-6,-0.006253845857485957,0.006494562282916249,-0.02571729472190345,0.006219456066461858,-0.003917468915429364,-0.00008126174026989324,0.005975079911994536,0.006174948431390343,0.004497053124228043,0.0032164327953822028,0.015071300093950694,-0.01764454485166479,-0.0038961744033606488,0.004231823718666101,0.004761859247631116,0.014673831028926679,-0.03426083464678733,-0.014355482388672465,0.01766762833323355,0.003906166044043013,0.03231749427831166,0.018821140146386424,-0.03428324208798554,-0.03573267477269686,0.024266756554530422,-0.02388041597491092,0.00400755811094744,0.0013997899724073233,0.024288609386311062,-0.0017138587240512863,-0.030096031525482916,0.01219402338826384,0.023414103019218542,-0.02235415371695551,0.004471166450436872,-0.000054827188646706656,0.004145688092833818,-0.000084588561671721,0.00011261663011856984,-0.00007034491783660186,-0.00008445010486962632,-0.00009278417725865033,-0.00005552264302441794,-0.004347024275988834,0.004380324671184498,-0.012417019014344447,0.004293936785940599,-0.0032657773655520787,-0.00014819776262353567,0.0004402921065610699,0.004262546947606356,0.003701341177049673,-0.0014156829179097353,0.004279680841468482,-0.00863286001342381,-0.002398409755465798,0.0038186365955326,0.003506738654661265,0.003760131265759953,-0.015870143638664146,-0.004234846742671969,0.008684855372304862,0.002390668664865969,0.007579573993025794,0.0022344161259197585,-0.008126497640561389,-0.00831303717157008,0.011512685702803194,-0.011464608204109782,0.0033420518326554324,0.005851242899554642,0.007819729432533083,-0.006071850497108596,-0.006002400437766708,0.002320776349769313,0.008099781090222281,-0.010038229564135774,0.001286263504073137,-0.000072977321557113,0.0008041259683200997,-9.291465370280668e-6,-0.000042867442960334186,0.00006145126511518094,0.00006277912186333648,-0.00006325322465223308,-0.00002913656879663109,-0.0010913694295192058,0.0009397571737762396,-0.0022592897784133085,0.0007819069897146596,-0.0007093909918245484,-0.00005718006547201214,-0.00010522427081118062,0.0007657079031252288,0.0007313864285501124,-0.00009785793325975856,0.0006057745465631979,-0.0016290681720410934,-0.000531282468373422,0.0007632680699570049,0.0005384047415480369,0.0005610972903860826,-0.00248958502824154,-0.000602310051221054,0.0014526419417769591,0.0003752963955341545,0.0015368394559594448,0.0007469898968473377,-0.0017686396187292135,-0.001884176963515806,0.0019223251589589386,-0.0019817608461237266,0.0006185826367850916,0.0005695184015677555,0.001832105216461889,-0.000633002780003287,-0.0014098306247340392,0.00033904935933591883,0.0011608586952036506,-0.0019070679797556804,0.017500448819318712,-0.00008239046995761178,0.003140952796213903,5.695062521646649e-6,-0.00015962331681678912,0.000015091840279066549,0.00005396774719234968,0.00001629653795799053,0.00010296597214892504,-0.0035596465115796186,0.002616969259354152,-0.016807518662779467,0.0033531022905780613,-0.0031718708493385043,0.00015228480935430185,0.002716628882755444,0.0019842609299314698,0.0010748953439531064,0.001026409043824561,0.014812540497356764,-0.0071022460791593115,-0.0014039028784857046,0.008292865342164956,0.0004217039743928075,0.012781849362726734,-0.027440410127482863,-0.014446342084379473,0.007417370337785966,0.001650453603385839,0.032847120987777687,0.024451521660015865,-0.033853322911150834,-0.03586657420351548,0.016271961054557332,-0.014805423303577913,0.0032669613949391735,-0.00986561494630116,0.02549986624332609,0.008494781963090097,-0.03579351829840529,0.010876736162628735,0.024366308379885345,-0.01449246937548774,-0.003964218026670348,-0.0001867299972619957,0.007732908722177462,-0.00014971374286302348,-0.00007810503413355544,-0.00010489364005455853,-0.0001261083268017889,-0.00023631080250932664,-0.0003220888454157913,-0.008596461391808509,0.007413753531639364,-0.02932665508199529,0.008557505049137376,-0.005589647282336869,7.4339804876682196e-6,0.0051797593506777186,0.006653146962073796,0.005761658387314442,0.008323636208756134,0.017214876208800998,-0.01940098292458001,-0.003763269054812133,0.00043285682722959615,0.005240686812864376,0.015210647645766821,-0.03262955459828346,-0.01634451348909181,0.019389588177094512,0.003643563060390424,0.019398514356933537,0.003025966596425202,-0.02067777272599694,-0.0214504785875324,0.027111174388144876,-0.02648124399215457,0.005458305033758711,0.018711922001299758,0.008484169812828802,-0.020298770755749096,-0.017609572652580785,0.013387736620305868,0.022326923644064665,-0.026389153775093783,0.015940236233409715,0.00012567352926469829,0.024459003854065315,-0.00022721446382963206,0.000053011209266009474,0.000013042258158290333,0.00011032995232643876,-0.000020200010801143583,-0.00004716610556506276,-0.026281519807576877,0.024389775014169425,-0.060685511638075174,0.026006897398636077,-0.024597195932016255,0.0000502554266338523,-0.002894313630207289,0.02236806717538013,0.016857901607683395,0.008619051357571982,0.018419006393908102,-0.04343580057082914,-0.01623357926764823,0.006996084262879452,0.017576876209786298,0.019671214983695392,-0.05660757145867612,-0.016615236329348557,0.04328263116468096,0.016319708030718083,0.01671329283344788,-0.003972742919852645,-0.02387255002384546,-0.02289885879006264,0.05255803099504327,-0.055495901463822016,0.02546467436691497,0.04434793756804681,0.023779537882859657,-0.04226393893916062,-0.011852344270895277,0.009792977416602787,0.01719820236950775,-0.0509901442209142,-0.01271423541244171,-0.00007632815004929827,-0.008142961532884635,-0.000010060570313026173,0.000059586446431121354,0.00019203003959067014,-0.00010162078034760306,0.000146419533282075,0.0001022914398618032,0.009044088961684547,-0.007922473023477363,0.03163720167262208,-0.009092211112908906,0.0050204027404695106,0.000030076687939399102,-0.0034162404337153506,-0.007215185480299648,-0.006022686169673236,-0.012613178453524013,-0.017647010671577975,0.018318171962873966,0.003897987539383105,0.0032247018654321205,-0.005540866377356986,-0.016565901329220846,0.02811933643381726,0.016432653169362623,-0.018419489626723826,-0.003859784366075023,-0.0293047121965714,-0.014908970163756648,0.03045854919537498,0.030399793690472687,-0.027986749406391766,0.028490586524412467,-0.005599207650192525,-0.009988976951560964,-0.019450657452001127,0.009993411191400669,0.021971241070475697,-0.01007773222112953,-0.015081423999649906,0.02321539454117859,0.01538490549609704,-0.00006013245821910618,0.010559044390347123,-0.0001253240824780234,-0.00007089074064371123,0.00004742837274417566,-0.000023185562737186946,-0.000031089742204826156,0.00001075138319486807,-0.011362357983707348,0.010117689432329153,-0.03189625615682952,0.011237652620614545,-0.00858857837390929,-0.00007148697398465706,0.0022173721456757423,0.009370809608366086,0.008360510450098675,-0.00168016328290908,0.013197832413412205,-0.02213755651738714,-0.005598901472753808,0.009223045744598937,0.008182176544985298,0.012553391840745448,-0.04015641338555302,-0.012139828679332238,0.02215746470431152,0.0055249951962533855,0.032639470117749966,0.01416619600811739,-0.03409555868839688,-0.03218875175088575,0.029096728118283174,-0.029625293387078422,0.00855962284512132,0.007930689859976203,0.026528043119013137,-0.007990995975993785,-0.025743519661335083,0.01002413141689392,0.023838854224849312,-0.028167241620322407,0.01868608823674566,-0.00004121580819482579,0.009487243261233612,-0.00011577144183050038,-0.000017988077822259878,-0.000027725228069807102,-1.8818871759804723e-6,-0.00007111904602027755,-0.0001391500988741864,-0.010115058084940294,0.009456414315976052,-0.027085088885352503,0.010414231710874574,-0.007408838696225566,0.00008581224873545648,0.0008573912284248135,0.008729477025066367,0.006672788520093292,-0.0018924855668036745,0.0106619508061678,-0.018883842788773076,-0.004436220236846902,0.010393932865200373,0.007384655754731272,0.01182154588833727,-0.03554929361032973,-0.009800919437046734,0.018951077516109364,0.004305364265248809,0.029623064215920494,0.01698308843702377,-0.03197939134567171,-0.03209454775235793,0.024434720257551914,-0.025919251798419196,0.007767110949054238,0.002794986587151849,0.027504985041764334,-0.0013440914395065826,-0.026282326237590848,0.007860806477076175,0.019458889707063283,-0.024305866539949022,-0.0011054631398192555,0.00021667805696214124,-0.00121851326458754,-0.000039210046671791675,0.00020408257832328435,0.000043196920706642875,0.00005267557814205301,0.000010417659382384847,0.00007259240691738387,0.0010888218758752443,-0.0009956406766894758,0.0034607923328798776,-0.0009591394623831164,0.0009013639250951169,0.000020921953605908456,-0.00016623026319877634,-0.000989668944951114,-0.0009172196199813503,-0.0009568751652693584,-0.0011949599738613082,0.0023616669830298026,0.0005157787130235045,0.0002470436977451721,-0.0009318487957885117,-0.0011843736617630786,0.003279318781924161,0.0011379660400710767,-0.0023055184331455918,-0.0005034302119423627,-0.0021588098052175947,-0.0002743810547092669,0.002102474004760324,0.00204945170635348,-0.0031746618431738984,0.003239340323510247,-0.0008922311528588172,-0.0020034424503733374,-0.001745704055806672,0.0019987880218153647,0.0013325554584129227,-0.0006414918836596575,-0.0011117198062641513,0.0027205209773520423,-0.005379491609152179,0.00019291754537672669,-0.003031050635587885,0.00004905202539398676,0.00008742300383444152,0.00010265530663807643,-0.00020284618772082824,-0.00003718737624889141,0.00007444049950648817,0.003163333918674827,-0.0030825125633316495,0.005074656371100891,-0.0032496298893302526,0.0024649436043406624,-0.00007026614402629479,0.0033448435390879745,-0.0027640948736021697,-0.0024737968009559473,0.003250382036750922,0.000025599478118204184,0.0024662191130318265,0.001571317360059867,-0.005236285074607218,-0.002277928390109391,0.0007031029696626385,0.006786406046013033,-0.00009732704344037852,-0.00254214230079064,-0.0016991529404590485,-0.0010882287349329258,-0.00003978430666173741,0.0015611148724474682,0.0008766789285776153,-0.004573705689111597,0.004363982372929177,-0.0025745437203190703,-0.0021484370228883483,-0.0043717836106912,0.0027074172616232185,0.00011135364871099574,0.0016181426216526945,-0.0016432785226375081,0.0037469342861320082,-0.003907232721424732,-0.00017453930269070372,-0.0022116272409608046,-0.00004922075766005852,-0.00024244316227871847,0.00018668240117071294,-0.000026765248177588518,-0.00008588607490344515,0.000060561513150002435,0.0022434867315648394,-0.002162386823963115,0.005943601544724778,-0.0022145964011133735,0.0019173986590447127,0.0001849301858840741,-0.000039813686203531,-0.0019819243529521705,-0.0016851175666316184,0.0004922435888610973,-0.002005278445879581,0.004117078776122746,0.0012031078115290709,-0.0022463814631385813,-0.0017071864575852068,-0.0021751947517789777,0.007791383496202576,0.0019525579197256122,-0.004206117719894293,-0.0011878423172219479,-0.006035753096549648,-0.0034086191970264996,0.006398106227984235,0.006679371795581485,-0.005512370671745888,0.005574444544840576,-0.0018986482155793007,-0.0007429061970123801,-0.0065444757386921805,0.0006605686312005712,0.006686321037772881,-0.0016590735269750676,-0.004377236303146436,0.005565891257772642,-0.0016907289765046337,0.00016215138583704938,-0.002956249260298695,-0.00025290781528808967,-0.0001199619150797927,0.0001929241969414786,0.00011742787908295137,-0.00010661305635255009,-0.00011989083295923851,0.0032530183377324144,-0.0031376567674144015,0.011441038695498878,-0.0032460246267174103,0.0023054225013668986,0.00006556278959213059,-0.001593300444420686,-0.0031091125730165446,-0.002737028060802703,-0.004121383737739543,-0.00553545464091483,0.007886584806119994,0.002241622864937534,0.0017157501969856236,-0.0025004425490291696,-0.005228843640741494,0.010323030090018651,0.005204090688607916,-0.007731476438544766,-0.001993264832301047,-0.008297797350999501,-0.002838756788715108,0.008969636450887842,0.008848309261752639,-0.010303988182756013,0.010519955370394709,-0.0022106880481876784,-0.005579012801713564,-0.006179322722635804,0.0055653758965878925,0.00655419866815602,-0.003401595902769844,-0.004664845787664518,0.0089789996136864,0.0024703870926591786,-0.00016338705571320803,0.0003812354997764297,-0.00019524923104012837,0.00004176542467252678,-0.00007900129266974419,-0.00002480650892478675,0.00005076689942726947,-9.149790418872667e-6,-0.0006955324402151224,0.000449598756409045,-0.004182026731837227,0.0006424744097244434,-0.0005913015155241557,-0.00015411016568338102,0.0016289810307712892,0.00038115970657840164,0.00015723248501978924,0.0007552993320740103,0.0034058011024596683,-0.0026802339684230156,-0.00026246226422283164,0.0004622942429807178,0.0002378893060175954,0.003320313220652478,-0.005842196354584256,-0.003403511138470531,0.002566633339116122,-0.00004093541989410418,0.006933251500243761,0.0042877163832467785,-0.007240193738052413,-0.007090126100251891,0.0036977823906096568,-0.003976136312710535,0.0005517843194409875,-0.0005196815216339259,0.0038792946112318257,0.00041387202012966294,-0.005969899750474534,0.0024309604265412388,0.005008142825156317,-0.0032721156112683726,0.021683424264540653,0.00009503211550062108,0.005899019534558818,0.000013939009935666161,0.000016808829548681865,-0.00024227854191347155,-0.0001137665454267829,-0.0002356333626630515,-0.0001721428903402731,-0.006438654553204281,0.006337403573951409,-0.02442741113055309,0.006346878119755836,-0.00328103011268511,-0.00002155036258358803,0.0022376319324831405,0.005723591533261335,0.005012158503833843,-0.0017293264702861553,0.012762790932669849,-0.013372029069979622,0.0001127171158079917,0.008383232765473982,0.004739916063983391,0.011612591718409499,-0.03209887231881844,-0.011726235263596634,0.013370470407098803,0.00007364933660065364,0.031301990798548236,0.020524036132712864,-0.03189225116346528,-0.03229285379765949,0.021625287103143296,-0.022032233203126906,0.0037251216715372833,-0.0020320490974165602,0.02517815697912813,0.0020739581177350863,-0.024848802445021013,0.006745511409223558,0.021010280580721352,-0.01700346073495418,0.009546167889750126,-0.000023763442976755435,0.003600947242792488,-0.0000837248771106019,-0.000021160039566564537,8.039747915245169e-7,-0.00012106437210782286,0.00013283299147636316,0.00006655509920818201,-0.004137783080396738,0.0035611724110449767,-0.01961066976765093,0.004081313397577153,-0.0024077595159098394,0.0001800223950617652,0.005859136476686392,0.0031985165024786843,0.001379469676479251,0.003609742787514853,0.013903365492274371,-0.012735251231140353,-0.0022741808932037187,0.0027027933223355855,0.0019860742975709826,0.01456897089787943,-0.025932570148794763,-0.013146107175476133,0.012613109714137078,0.002234523570687689,0.029249770441759228,0.017842996326120984,-0.031055281972500452,-0.03186444028627555,0.017166735319218605,-0.018509813171980964,0.0026223102722317316,-0.0005925289290698837,0.01836404600246417,0.00141749277048734,-0.027194825411630708,0.012174361680987242,0.021810310850443868,-0.017639763787354976,-0.005301088969715513,0.00004532540017973335,-0.021624973807646653,0.00010449658101170234,0.0000724193600433167,-2.2669857075146945e-6,0.00007646190751713056,0.00026159178329471884,0.00006207706222906948,0.024647885379104104,-0.022611412871071483,0.1023740772408017,-0.02440836480408742,0.01142659336638808,0.00009641483096933779,-0.02059996022030495,-0.021415451048732926,-0.017577117233402783,-0.04245255870264709,-0.0620282856001833,0.06349637485973797,0.000026330985994778842,0.008636695256095703,-0.01688946685287046,-0.05971916187192506,0.1083846788495378,0.059963698978873735,-0.06341304711602949,0.00010098026051304863,-0.08440108254763218,-0.021971894321078336,0.08759678423956466,0.08752545876512373,-0.09473691505252428,0.09517040875694043,-0.0113286198693078,-0.05754601462772656,-0.04542867572990275,0.05844192611011549,0.06928099295020154,-0.048732654692130006,-0.06915225303856441,0.08885377545054181,0.009047543179644676,0.0000786928588633215,0.0047536580316117835,-0.000022619238384308903,-0.00012380977395743482,0.000018342661048323158,0.000030119771946443817,8.100972621705335e-6,0.00012882482855911591,-0.005056549856731178,0.004540609942984294,-0.013318369290915635,0.005037806066727857,-0.003759121451488937,-0.00012012288847092972,0.0001870375133555905,0.004506258425949907,0.0038396252059241546,-0.0017098194816436451,0.004834403316768507,-0.009218198055106657,-0.002428978211419157,0.004487933447685868,0.003705111752562635,0.004260223875070884,-0.01673093243494586,-0.004398944109548798,0.009193967814403894,0.002506075606497467,0.012439835927376854,0.006671975007581427,-0.012933961537141336,-0.012896392358406256,0.012021301601487157,-0.012088101152518401,0.003924389286704049,0.002125823048145026,0.012277295859563796,-0.002256333715561335,-0.010407478854487916,0.0023491455551321685,0.00866783679224093,-0.010604761333550875,0.0008541754891281342,-0.00002095897251030335,0.0007096046662532429,0.000189586919449327,0.0000697918034006898,-0.0000492006911573645,0.00001981723415572565,0.00003065933746254183,-0.00004794430592676392,-0.0005448054535429085,0.0004448182174850015,-0.0015082529888885067,0.0006819311937628174,-0.00040104732606873573,0.00010073793240554978,0.0001665658762312203,0.000516378032387082,0.00047672786283453595,-0.00015478319459741227,0.0007335708504063594,-0.0009475671703115248,-0.00027158299682327874,0.0004743778317155212,0.0004487118698292022,0.00046534333164949466,-0.0018772669696315858,-0.00047838124489725975,0.0010746014634762057,0.0003525799674859639,0.0013804558264279357,0.000563812406655192,-0.0012393710678666368,-0.0011373143878815497,0.0015016180814832738,-0.0013571834018252095,0.0006880323778925198,0.0005799296540743299,0.0011388607804131662,-0.0005949179394518542,-0.0008277282818182348,0.0002629878220100906,0.0009914536377574144,-0.001006004647669623,-0.010771943443252344,-0.00014878467796483616,-0.005365703651709961,0.00005501054567902416,0.00011093471569959606,0.00018806100283089497,-8.920735644547727e-6,-0.00024881408074341763,-0.000022775384979901295,0.005523394772787,-0.005302806568908852,0.01602118282340048,-0.005666957317487166,0.0042873840828281376,0.000044926026323264176,-0.0011484104754891998,-0.0048706161734194744,-0.004314556717056475,0.0010003593336237798,-0.0068723736462740605,0.011207484610388754,0.0028047284134821086,-0.005127867580690021,-0.0042183835962276706,-0.006563208701898112,0.020937527144631228,0.006418103644303999,-0.011263898974293689,-0.0030630581742804473,-0.017414235967356934,-0.009802864705738228,0.01821504692760109,0.01831013317340562,-0.014592069571935313,0.01510459759627355,-0.004534975286397837,-0.0016617487971208808,-0.01579076902681601,0.00145006763638756,0.015183204573160816,-0.004394784319837969,-0.011957530492007967,0.013632065166057328,-0.011873787956736666,-0.00010983334562933886,-0.0025906139661053267,0.000014138668042267572,0.00011708317188201097,0.00011656040405517614,0.00003358274830379394,0.00012168065730139723,0.00007257973909878236,0.0026449811401344937,-0.002468714508013082,0.0026038438441483027,-0.0026526272571285904,0.00202826492456503,0.00014488691525170856,0.0026629061150708925,-0.002036339885520553,-0.0017242262189922637,0.009006301437162044,0.0013241179709664675,0.0017159753296148135,0.0012599203383084744,-0.008237988355930467,-0.001306016799506233,0.0016258045801553981,0.006807379796339924,-0.001710428076613596,-0.0015514375597682549,-0.0014134932010179244,-0.0033636579212401024,-0.006435510948786771,0.004025483221605222,0.003848259718816263,-0.001121126871443452,0.0013800960381642727,-0.002010588465829577,0.0059488722189977705,-0.006977899330915265,-0.005933117805048838,0.0007004422911900442,0.004162561009397475,-0.0032782490283880367,-0.0006291029902076971,0.009310023587347652,0.000026370387119661004,0.003947285436686356,0.00006493587952668902,0.00015580425424357324,-0.00008362231049553805,0.00008630124866016147,0.000028563322987656126,0.00015001454039680805,-0.004184216234486615,0.003772078972762001,-0.010585598694909859,0.0042190550125391765,-0.003016184156511732,0.00008799892623710735,0.0007822918901677586,0.0035177934522943374,0.0031440314997838695,-0.0018871926868823372,0.003648319173437908,-0.008374071040146822,-0.0017132064437799803,0.0034683592829024383,0.003132126326460784,0.0033917964589276687,-0.013749041295225445,-0.0032429340432289905,0.008490544425195576,0.0016242392722126471,0.011021123042807394,0.006904688708486576,-0.011535770037929952,-0.011648574660199359,0.00946247506181098,-0.009578865048585593,0.003009317511033556,0.0001380690102632219,0.01106801845947262,-0.0001930893369211954,-0.009178720891708028,0.0016402282343878913,0.00723204165559474,-0.008301606187243783,-0.0019181920461835008,0.000022457638859790955,-0.02297791250672292,0.00017425601658285677,0.00011877733548705841,-0.00003474726296928353,0.00010818750614162078,-0.00003524275254939376,0.000015658517400254065,0.02463136915722973,-0.022538653179137173,0.06372348986352123,-0.024378573413108194,0.018137075362555294,-0.00003446023660559142,-0.002773032587955539,-0.02140393145130621,-0.020361637445851958,-0.014744131449374863,-0.020972209341573022,0.047425397635371916,0.012751862889229429,0.0030523948693949015,-0.01923838079915591,-0.018967275622961605,0.05871433582909773,0.019688111985589646,-0.047407256140796154,-0.012468471806566976,-0.024948928755919066,0.007105286823840784,0.026342748171131837,0.02223332267513327,-0.05820234580943296,0.0589255344037057,-0.01839265160542127,-0.04804579713152745,-0.022430923018707357,0.048740275366126774,0.015549772232285477,-0.010495656257815967,-0.017403381883064936,0.05314107146518216,-0.028646618543273918,-0.00007760379766733652,-0.015084173965871547,0.00008086764035993134,-0.000042054074204653944,1.7285469987239828e-6,-0.000025139420622683122,0.00003306116027044008,-0.00005190215491720278,0.01631710768403657,-0.014662530513368044,0.049975597482073454,-0.016284500774200114,0.010690419161330593,-0.00010220292485284513,-0.006140772873012058,-0.013652574641632846,-0.010604590784027283,-0.002915038559650477,-0.023654687425173397,0.034459641016270755,0.010730903223456493,-0.011354827963708718,-0.011241024405063747,-0.025177171801967633,0.06189954128207338,0.022097894091795953,-0.03462106015275785,-0.010600518810463677,-0.055378120780804396,-0.030394134343542052,0.05905860684885891,0.059033522024211235,-0.044458905224760877,0.0470303374316209,-0.010715840798138912,-0.006889099124024259,-0.045775812923567596,0.004944504161797855,0.04813226201237808,-0.017922662880026332,-0.036954048332366034,0.04342256746912613,0.00242936615877792,-0.00012460231762334242,0.00043220699315473193,-1.29386780101916e-6,0.00003784274486065202,0.00016229954953654436,0.00010214345522393846,-0.00012480000309380017,0.0000963747636325025,-0.0005688867303616093,0.0005488539488923463,-0.006671062140015845,0.0004724651754401825,-0.000347153541033536,-0.00007647609774972515,0.0029468770226056,0.00012118350370733547,0.00008186436091894804,0.0033130292421982145,0.006481278533126002,-0.00358743880108518,-0.0001514569471266294,-0.0009612102231345032,-0.00015459496344778572,0.005884833913248504,-0.008454150936539494,-0.006212028883952871,0.003635324781938864,0.0001681876024662458,0.011100657097708508,0.0068936115982012516,-0.011424569306070715,-0.011934609415205903,0.006208387960540274,-0.005971798054182982,0.0003937013129994477,-0.0006197134168852664,0.005502191346582402,0.0003159879211340013,-0.010081097501385588,0.0050870237407194445,0.008210051797155806,-0.005563240524341574,0.007577777975835455,0.000059631600689840925,0.005299473027816617,-0.00007818310909938008,0.000036717014931074946,-0.00010741824938421472,0.000017420051928211523,-0.00011074378572402213,0.00005228159042338119,-0.005435879072296882,0.004755080729592299,-0.018424426009069853,0.005367746978420631,-0.004333859828966354,-0.00016616329693523176,0.0030027930732810354,0.0044411895242682745,0.0037161451123555386,0.004417530727961673,0.010650415584229645,-0.012634640150747512,-0.0032985983956812376,0.0014250954897379858,0.0036113789451454694,0.00964227023109922,-0.022100252737274326,-0.010063375688444705,0.012509021468955913,0.003353687576372202,0.020141392884618126,0.010466624524253731,-0.021064484239211513,-0.022014500487212787,0.017342999401526376,-0.017283204398623363,0.00435382510666639,0.003723480926871774,0.014993362847532325,-0.00421974432368396,-0.018265849237025997,0.007969108611562836,0.014035614246299094,-0.016754855488718735,0.0035596434578679366,-5.618980074023083e-6,0.0020770576655979346,0.00011881481162397584,3.7664699389257827e-6,-0.000016258356393177742,0.00021414397156298054,0.00010753802592554406,-3.348013125573686e-6,-0.0024439767505935366,0.0019584409339295575,-0.018354786623691013,0.0023495794737308936,-0.0017835890763868536,-0.0001632010486991944,0.007164589011444608,0.001964499580538568,0.0015993206585682795,0.009143471986584321,0.015191758667840064,-0.010993242723564781,-0.0017088780844779538,-0.0034647748640321634,0.0011790724419643835,0.013778476033244148,-0.021185885499221853,-0.014697491284962401,0.011051221975442237,0.0015142349275098577,0.02371910033499353,0.011595690457041341,-0.023892419867584773,-0.024465935340359075,0.017166094720930884,-0.016875220379674826,0.0019038040418286092,0.004470129268263686,0.010859731988704182,-0.005333398228540334,-0.01975946995023428,0.011359151081567384,0.017316572260251826,-0.014582889605136474,0.007122480271402155,0.0001146280211189114,0.0043545977111579225,-0.00009783231891670998,-0.000021182439105161084,-0.00018541928721434194,-0.0001609693068355601,0.00003064622973404046,-0.00006375149359252356,-0.004459478148590065,0.004492565449513736,-0.01608118426599125,0.004728486803394219,-0.0032239804218004067,-0.00023399388337796317,0.0022878407605248655,0.004455465383461497,0.003998206582063075,-0.00037579394716781046,0.00730816922648804,-0.010960036944444336,-0.0032505655211500254,0.004011371893785358,0.0037034076109024334,0.0068532584648449526,-0.021144041319181378,-0.007164683032241354,0.010922322781134497,0.0031366669485700135,0.018092418169871043,0.01002657088761933,-0.018432873690117337,-0.018676659643845295,0.014844770739255391,-0.014759634753764095,0.003197244177851451,0.0014908305580460784,0.01529574396075333,-0.0015411640435219545,-0.016881359863243312,0.004875711601586397,0.013026809551070793,-0.013023809893612315,-0.010477292027977335,0.0001930437394806446,-0.0030682257204120433,0.00012683144454653117,0.00005029664879523437,0.00004399093152749936,-0.00005422132860529371,0.000022647605709642438,-0.00009818885412626734,0.0031018851489270855,-0.002478161476178083,0.023113698297485184,-0.0031016965483373063,0.0019044610110885696,-0.000032126827695371826,-0.009727097037446673,-0.002087366493667857,-0.001232576305916144,-0.005056064376227597,-0.018557091739874295,0.014597646390579101,0.0009400942131385921,-0.0021873012757737797,-0.0013157447484062887,-0.01938520871927683,0.032667955467623494,0.01787356097460199,-0.014526171127631464,-0.0008492238514733399,-0.038215955018690906,-0.02256507995563206,0.03952763308863344,0.03998617126034316,-0.020743165072281064,0.02219456970536983,-0.0021564101031058248,0.001180614836965306,-0.021348757502917017,-0.0019070450700984353,0.034032671392740244,-0.01565584570548354,-0.02900758063871666,0.019866938322583252,0.02451303778444397,-0.00013098869058473725,0.005906953688387906,0.00010720771451726134,-0.00012349739247453415,-0.000211292615292744,-0.00009223009748479319,-0.00005105763636260482,-0.000044137185310854506,-0.006482311220595145,0.005562676802599508,-0.005951316566058676,0.006335001939272653,-0.004371884424447787,0.0000735820425977814,-0.006331264961066611,0.005095460387264317,0.004489284358378701,-0.014268772857132028,-0.004346160726811102,-0.004307985801338998,-0.0019666745380541883,0.014247420310544713,0.004056450313297452,-0.00479648919415552,-0.011819078007888647,0.004680076852509758,0.0043755190014316174,0.0020609207052093917,0.008931238873750153,0.010850033284297289,-0.009763817107070144,-0.007365185312427124,0.0038497714883043667,-0.0040457024054694575,0.004368680765079869,-0.01035910189360897,0.016444072492265493,0.010456863845128153,-0.0029428449204469053,-0.007540655966340416,0.00251314420263226,-0.0023439494242112257,0.02142372705008005,0.000049169594640026485,0.0017984867450769842,-0.00015893293025740838,-0.000023079974137536082,-0.00022300318131273416,-0.00013708844540296877,-0.000028306123508316746,-0.00002106411485509434,-0.0021598044320491725,0.0016061864053896753,-0.008326921747465856,0.002173350883158761,-0.0012012466825146908,0.00015677417860309972,0.004465102239523857,0.0010634030840056714,0.000285144040711911,-0.005852706076559902,0.006267660491440584,-0.007085618585393545,-0.0004668282183560217,0.005626296864889347,0.00023047558155239265,0.006247231689225645,-0.015989105869846892,-0.00577532600313901,0.007315566380929206,0.0004752135488065658,0.023739513973419203,0.022207978316634812,-0.025017232143983995,-0.025170307086449198,0.005916195850943249,-0.00680158527950236,0.0014318197265330015,-0.014837593287002602,0.018895280830783966,0.015216937689768065,-0.020165758945169438,0.0027312315788877526,0.014488610496577702,-0.00469396954723142,-0.02660318170841484,0.00019591960948457137,-0.010321880460058322,0.00008448078651858852,0.00008798247858768939,0.0002750888362325095,0.00013900362886523317,0.00018658208620355273,0.00008773352842127719,0.010949902137179439,-0.009802438114558054,0.022673444181386088,-0.010850086230420244,0.007977619226686586,0.000028196196214360913,-0.0012005035154514464,-0.009140763477300853,-0.009617030627451097,0.01125641477619555,-0.0030724415092591864,0.021622286879008655,0.005193163541757609,-0.009529608445991974,-0.008828280212807573,-0.0019884048099609356,0.03199159591863977,0.0023638262767240966,-0.021598445508147726,-0.004917625663849138,-0.021898762663412223,-0.014330800109436378,0.021758354061293804,0.02293826441526004,-0.021177889786253592,0.021075315885089457,-0.00810552884038772,0.0015721677769942113,-0.028708595390018056,-0.0009566826307890915,0.017233999678202366,0.0008276495591419809,-0.013645020611367027,0.01847134250160314,0.0185439891169817,0.000021594429056015126,0.015595691803732624,0.0000443968977011677,-0.0001200847066219883,-0.00006229480126126701,-0.00026234576487322854,-0.000029527603954498108,-0.00006140022516049298,-0.01628165897543363,0.0138162873470097,-0.06032522223851441,0.016292687305162583,-0.01271030165843648,-0.00019476530951478984,0.00995538891006973,0.01185055769264495,0.009059142566256607,0.0013553535976642377,0.03815916464740422,-0.035882940317485616,-0.010290843654858321,0.019102116214000514,0.008194668800299874,0.03572169065398803,-0.0830793213603495,-0.036045843025705085,0.035388737545762335,0.010465125943330872,0.061041897091603264,0.03121440133737257,-0.06427797719225745,-0.06825688103893524,0.05308073218143421,-0.05435244459533552,0.012582869882739893,0.016375768276586336,0.03713755865307298,-0.016015962267142466,-0.0526621356089836,0.03056121815143276,0.06642933102640076,-0.05346614626277338,-0.004554008876178247,-0.0000611415732134404,0.0028617315117619078,0.00006293570274184587,-0.00019025971463405603,-0.00010450869937837352,-0.000041668142603866387,0.00001240513658766933,0.00006262953069167486,-0.0028688500280874283,0.0020761319629686013,-0.019900017209257534,0.0029757609399989034,-0.0024920896195387778,-0.00006069278153971069,0.00905910105230736,0.0019106930010165425,0.0002496139169954789,0.0093084855480055,0.016593349975338872,-0.01323905316903654,-0.0012725133822784527,-0.004159726739363719,0.0004074016740983524,0.017212757651266123,-0.02171100947103838,-0.016280045745536216,0.013278235131452905,0.0012306253062305897,0.02023314700716213,0.005321763955220038,-0.02229262526728395,-0.018624869090987383,0.016498350712921838,-0.01780918242786887,0.0027060427912391476,0.012963171606546763,0.0017597307450475152,-0.012415003670774163,-0.012421569598603096,0.012620090461184405,0.019710808344543442,-0.015480711928489032,0.04864569322760126,-0.00006072540699122232,0.010320230913930051,0.000039506698024093724,-0.00019897594876300208,-4.396560941362837e-6,-0.00006336246442284992,-0.00004120910959420537,-0.000038876284011418216,-0.011039027628766749,0.010183298277399803,-0.015475830643410635,0.010965455723516608,-0.008080245506651892,-0.00021376193423295356,-0.007568878192593744,0.009171013893276998,0.008226697599250984,-0.022244628466794984,-0.002945321583651172,-0.011518017449604673,-0.007956861822629361,0.023463793724606483,0.007687820832272922,-0.0033410733901073743,-0.027897764156824385,0.0036942455898656672,0.01149255833264914,0.008115788941144501,0.02557193271173598,0.028552971863950782,-0.02735182648281703,-0.027202794585255,0.011483730048190454,-0.012433307243706167,0.008658839894401223,-0.022438008197293715,0.03772387623005971,0.02271283314298869,-0.019068413360807807,-0.00928384207091481,0.010760632754194251,-0.008687659104500528,-0.029705925292779763,0.000037448554586395265,-0.01094108244761272,0.00002073182444606152,0.00015526718477344001,0.0001171178065281706,0.00008928544414688023,0.00007245392604866765,0.00013028714099430603,0.01199427502305846,-0.010788688453003722,0.02904024938702516,-0.01174730503978187,0.009422582478226754,0.00008326828683207758,0.004163163677744584,-0.009809506172533008,-0.008468914765788966,0.006676003765459619,-0.011519596431146945,0.016754723456678205,0.0073847183030906725,-0.01835835226495755,-0.007870322585019875,-0.0084608023907294,0.041745188790445496,0.011266211242927843,-0.016435865148528093,-0.007204396227425326,-0.033657819682868996,-0.02422903679279621,0.03544810263518154,0.037646086737830875,-0.027339676843221652,0.025897186630676406,-0.009700687060263122,0.00514189697916965,-0.03446226919251557,-0.00333306962128398,0.03001699768319882,-0.0052744379381289555,-0.02392425396981212,0.02398169666067342,0.015452601070368305,-0.0001096584282860081,0.0035188984454807308,0.000019221209120425984,0.000033890004998292784,0.0000591905502712281,-0.000058686953839717355,0.00003481606343000308,-0.00019815663029274012,-0.0035638103942422536,0.0024479372052874076,-0.02163605604955965,0.003375387871091844,-0.0031078484081268343,0.00003224183934257757,0.008606747423826937,0.0019741441692230303,0.001953069341837508,0.0032561558808886174,0.01797920980247745,-0.013500410517245359,-0.00240324716018379,0.0031188304466277395,0.001350490999814823,0.01576679282360876,-0.032161751328913656,-0.017323582320163386,0.013428185349415742,0.002337194850866623,0.037820623543719394,0.02446944383007483,-0.03790650190453952,-0.03904691020172848,0.02051331905070057,-0.01946212425316007,0.00323605327679795,-0.0057992264335469754,0.023371053301216443,0.004077854457904485,-0.03293530855117069,0.012997540200424287,0.027963536112762952,-0.017816551219371785,-0.0037448752237668687,0.00005086233797659971,-0.0012635043800542434,0.00022183784484579842,0.00006699153819745959,-0.00015064935773554438,-0.00017756767483272662,0.00005906162574497066,0.00007622452157589064,0.001481921415063152,-0.0012453128208451244,0.00572944983875969,-0.0013645003968176543,0.0012264069590722977,-8.259560255366908e-6,-0.0010102614623468732,-0.0013613553906242572,-0.0009556541770847446,0.00007733767195257498,-0.003268885184607416,0.0036075964882421054,0.0009035841544819608,-0.0013456991786773885,-0.0011416094140687832,-0.0029321286273863378,0.007472439628304537,0.0031002169419477475,-0.0036294026023125092,-0.0007272704704436899,-0.007312244182877941,-0.004350592049988107,0.007445396510141824,0.0075030459542538355,-0.005072119118780966,0.005113102315239471,-0.0012938148086583904,0.00007445537889485794,-0.005471731104718669,0.000050322894868097805,0.006345467374954403,-0.002197691266149871,-0.005162442540261453,0.004378480166270414,-0.00037984361073940907,0.00009263069733735682,-0.00021423063074058486,-0.00007972727764294025,-0.00013824695435303813,1.1763185865144668e-6,-0.000015120054965346144,-0.0000685462333871247,-0.00009627882424855473,0.0003398516578176292,-0.00034151750051541037,0.0008304581540546685,-0.00021329905341529434,0.0002340268258511737,-0.0001435784007788156,-0.00026963872354116995,-0.000056529276357054374,-0.00017333775391813942,-0.00008371378880366585,-0.0004132690061616348,0.0003699382943873729,0.0002587888741661637,-0.00007241046287899505,-0.00021763756445078946,-0.00039889792045151747,0.001025078558759357,0.00037168864597729494,-0.000438466439407004,-0.00014387284722015695,-0.0009453059597733534,-0.0005662915723655383,0.0010463753601124652,0.0010094259700561639,-0.0005987460221483548,0.0007411985717985743,-0.00011684132082363625,-0.000013223091134256044,-0.0006845164814036951,0.000039814319451615275,0.0008891340061356018,-0.00026283643740689815,-0.0006669247193259087,0.0006207156810777767,-0.01044944652662535,0.0000801675780586579,-0.023319782555430695,0.00008371203867046132,0.00013831298864543288,0.00005418252832408073,0.00021566150852894673,0.00004692221836890115,0.00021234937906924767,0.024042284430834598,-0.022558162727564047,0.06103501562345016,-0.023922131319505074,0.01995363219832778,0.00007200117255725411,-0.007117895452171099,-0.020869362773260645,-0.01917334271414737,-0.013696750436981214,-0.02075251252663602,0.05019556745333127,0.012913736747277669,0.007291702230675688,-0.017994393057393778,-0.01732738665766202,0.057318490028085804,0.020399933852484977,-0.05020401974422731,-0.012616059103427208,-0.021386018447160458,0.008176491396707685,0.023812261264088776,0.022267909024592566,-0.05664805237724494,0.05495770500152888,-0.02063453076394759,-0.046841158098145694,-0.02530915585183105,0.048073348227585744,0.01507638766810377,-0.012596913658816275,-0.02026385373144124,0.05343336783261194]}],"game_description":"FourInARow","exploration_rate":0.2,"verbose":false}